{"learner":{"attributes":{"best_iteration":"220","best_score":"35.12568160113664","scikit_learn":"{\"_estimator_type\": \"regressor\"}"},"feature_names":["Residual_Load","TTF_Gas_Price","Coal_Price","EU_ETS_Price","Brent_Oil_Price","EU_Gas_Storage_Anomaly","Physical_Cluster"],"feature_types":["float","float","float","float","float","float","int"],"gradient_booster":{"model":{"cats":{"enc":[],"feature_segments":[],"sorted_idx":[]},"gbtree_model_param":{"num_parallel_tree":"1","num_trees":"271"},"iteration_indptr":[0,1,2,3,4,5,6,7,8,9,10,11,12,13,14,15,16,17,18,19,20,21,22,23,24,25,26,27,28,29,30,31,32,33,34,35,36,37,38,39,40,41,42,43,44,45,46,47,48,49,50,51,52,53,54,55,56,57,58,59,60,61,62,63,64,65,66,67,68,69,70,71,72,73,74,75,76,77,78,79,80,81,82,83,84,85,86,87,88,89,90,91,92,93,94,95,96,97,98,99,100,101,102,103,104,105,106,107,108,109,110,111,112,113,114,115,116,117,118,119,120,121,122,123,124,125,126,127,128,129,130,131,132,133,134,135,136,137,138,139,140,141,142,143,144,145,146,147,148,149,150,151,152,153,154,155,156,157,158,159,160,161,162,163,164,165,166,167,168,169,170,171,172,173,174,175,176,177,178,179,180,181,182,183,184,185,186,187,188,189,190,191,192,193,194,195,196,197,198,199,200,201,202,203,204,205,206,207,208,209,210,211,212,213,214,215,216,217,218,219,220,221,222,223,224,225,226,227,228,229,230,231,232,233,234,235,236,237,238,239,240,241,242,243,244,245,246,247,248,249,250,251,252,253,254,255,256,257,258,259,260,261,262,263,264,265,266,267,268,269,270,271],"tree_info":[0,0,0,0,0,0,0,0,0,0,0,0,0,0,0,0,0,0,0,0,0,0,0,0,0,0,0,0,0,0,0,0,0,0,0,0,0,0,0,0,0,0,0,0,0,0,0,0,0,0,0,0,0,0,0,0,0,0,0,0,0,0,0,0,0,0,0,0,0,0,0,0,0,0,0,0,0,0,0,0,0,0,0,0,0,0,0,0,0,0,0,0,0,0,0,0,0,0,0,0,0,0,0,0,0,0,0,0,0,0,0,0,0,0,0,0,0,0,0,0,0,0,0,0,0,0,0,0,0,0,0,0,0,0,0,0,0,0,0,0,0,0,0,0,0,0,0,0,0,0,0,0,0,0,0,0,0,0,0,0,0,0,0,0,0,0,0,0,0,0,0,0,0,0,0,0,0,0,0,0,0,0,0,0,0,0,0,0,0,0,0,0,0,0,0,0,0,0,0,0,0,0,0,0,0,0,0,0,0,0,0,0,0,0,0,0,0,0,0,0,0,0,0,0,0,0,0,0,0,0,0,0,0,0,0,0,0,0,0,0,0,0,0,0,0,0,0,0,0,0,0,0,0,0,0,0,0,0,0,0,0,0,0,0,0,0,0,0,0,0,0],"trees":[{"base_weights":[-1.10177316E-1,-1.6513704E1,9.3756294E1,-2.6684809E1,1.7038197E1,7.1061356E1,1.7765332E2,-3.5170025E1,-1.9753922E1,1.422663E1,5.6405552E1,5.9330498E1,1.0257622E2,8.571338E1,1.9481679E2,-3.0647839E1,-4.3409435E1,-2.428582E1,-1.4629701E1,9.819588E0,3.467928E1,6.112041E1,-4.489918E0,8.3903145E1,4.1633724E1,8.86369E1,1.2219591E2,7.7042E1,7.19087E0,2.3069162E2,1.638937E2,-1.4557718E0,-1.8826729E0,-2.405071E0,-1.9905459E0,-1.1255418E0,-1.5040325E0,-1.2946048E0,-6.877506E-1,-4.97818E-1,6.4217573E-1,8.6739486E-1,2.7020354E0,2.305312E0,4.28055E0,7.964259E-1,-1.0810546E0,4.7659736E0,1.5068109E0,1.8709682E0,4.8604217E0,5.717173E-1,4.516779E0,4.1382394E0,6.697558E0,4.6535287E0,2.3071873E0,1.3482877E1,1.0650042E1,1.0794426E1,5.252934E0],"categories":[],"categories_nodes":[],"categories_segments":[],"categories_sizes":[],"default_left":[0,0,0,0,0,0,0,0,0,0,0,0,0,0,0,0,0,0,0,0,0,0,0,0,0,0,0,0,0,0,0,0,0,0,0,0,0,0,0,0,0,0,0,0,0,0,0,0,0,0,0,0,0,0,0,0,0,0,0,0,0],"id":0,"left_children":[1,3,5,7,9,11,13,15,17,19,21,23,25,27,29,31,33,35,37,39,41,43,45,47,49,51,53,55,-1,57,59,-1,-1,-1,-1,-1,-1,-1,-1,-1,-1,-1,-1,-1,-1,-1,-1,-1,-1,-1,-1,-1,-1,-1,-1,-1,-1,-1,-1,-1,-1],"loss_changes":[5.695966E7,1.0746728E7,1.0465292E7,1.42045E6,8.10068E5,1.595808E6,1.831148E6,4.03427E5,3.08573E5,6.160974E5,1.4038588E5,1.370653E6,3.10241E5,8.2634625E4,1.056024E6,7.4234E4,6.30385E4,7.19195E4,6.117375E4,3.3668806E5,4.0576175E5,1.6262362E5,1.29368955E4,8.08598E5,4.27078E5,8.9455E4,2.13722E5,7.692719E4,0E0,2.5552E5,1.607827E6,0E0,0E0,0E0,0E0,0E0,0E0,0E0,0E0,0E0,0E0,0E0,0E0,0E0,0E0,0E0,0E0,0E0,0E0,0E0,0E0,0E0,0E0,0E0,0E0,0E0,0E0,0E0,0E0,0E0,0E0],"parents":[2147483647,0,0,1,1,2,2,3,3,4,4,5,5,6,6,7,7,8,8,9,9,10,10,11,11,12,12,13,13,14,14,15,15,16,16,17,17,18,18,19,19,20,20,21,21,22,22,23,23,24,24,25,25,26,26,27,27,29,29,30,30],"right_children":[2,4,6,8,10,12,14,16,18,20,22,24,26,28,30,32,34,36,38,40,42,44,46,48,50,52,54,56,-1,58,60,-1,-1,-1,-1,-1,-1,-1,-1,-1,-1,-1,-1,-1,-1,-1,-1,-1,-1,-1,-1,-1,-1,-1,-1,-1,-1,-1,-1,-1,-1],"split_conditions":[7.7351E1,1.0415E2,1.2962E2,1.545E1,2.54E1,2.9265E2,2.22E2,1.39275E1,2.089E1,1.49075E1,8.48E1,8.369E1,9.945E1,6.90625E0,9.062E1,2.64E1,3.897E1,8.16E1,-1.798E1,2.875E0,8.343E1,6.6809E1,2.64E1,2.54E1,1.0246E2,7.035E0,-1.35775E1,-1.869375E1,7.19087E0,2.62E2,-9.3875E-1,-1.4557718E0,-1.8826729E0,-2.405071E0,-1.9905459E0,-1.1255418E0,-1.5040325E0,-1.2946048E0,-6.877506E-1,-4.97818E-1,6.4217573E-1,8.6739486E-1,2.7020354E0,2.305312E0,4.28055E0,7.964259E-1,-1.0810546E0,4.7659736E0,1.5068109E0,1.8709682E0,4.8604217E0,5.717173E-1,4.516779E0,4.1382394E0,6.697558E0,4.6535287E0,2.3071873E0,1.3482877E1,1.0650042E1,1.0794426E1,5.252934E0],"split_indices":[1,2,1,1,3,2,2,5,1,5,4,4,1,5,4,3,4,2,5,3,4,1,3,3,4,3,5,5,0,2,5,0,0,0,0,0,0,0,0,0,0,0,0,0,0,0,0,0,0,0,0,0,0,0,0,0,0,0,0,0,0],"split_type":[0,0,0,0,0,0,0,0,0,0,0,0,0,0,0,0,0,0,0,0,0,0,0,0,0,0,0,0,0,0,0,0,0,0,0,0,0,0,0,0,0,0,0,0,0,0,0,0,0,0,0,0,0,0,0,0,0,0,0,0,0],"sum_hessian":[3.6991E4,3.1489E4,5.502E3,2.4164E4,7.325E3,4.332E3,1.17E3,1.0862E4,1.3302E4,6.838E3,4.87E2,3.159E3,1.173E3,1.85E2,9.85E2,7.016E3,3.846E3,7.057E3,6.245E3,5.627E3,1.211E3,4.52E2,3.5E1,1.321E3,1.838E3,6.89E2,4.84E2,1.63E2,2.2E1,4.53E2,5.32E2,5.761E3,1.255E3,1.664E3,2.182E3,5.406E3,1.651E3,4.48E2,5.797E3,7.46E2,4.881E3,6.4E2,5.71E2,2.82E2,1.7E2,1.6E1,1.9E1,1.089E3,2.32E2,1.71E3,1.28E2,1.5E1,6.74E2,1.13E2,3.71E2,1.06E2,5.7E1,1.37E2,3.16E2,2.81E2,2.51E2],"tree_param":{"num_deleted":"0","num_feature":"7","num_nodes":"61","size_leaf_vector":"1"}},{"base_weights":[-4.8708055E-2,-1.9312935E1,7.4754036E1,-2.5477806E1,9.46727E0,2.845122E1,1.1004315E2,-3.311239E1,-1.7246948E1,-1.0556241E1,2.508347E1,9.83857E0,7.520078E1,8.699039E1,2.0112215E2,-4.4650852E1,-2.8389463E1,-2.1417786E1,-5.939521E0,-2.233002E1,-4.3756227E0,1.7439873E1,3.7677895E1,-1.044747E1,2.6479942E1,1.3869273E2,6.543641E1,6.998623E1,1.1497189E2,1.1242854E2,2.1766687E2,-2.4737542E0,-2.01562E0,-1.9224262E0,-1.2638891E0,-1.2377031E0,-5.5746067E-1,-4.5157194E-1,1.8265685E-1,-1.737172E0,-6.865614E-1,-6.1831486E-1,1.110274E-1,2.3901749E-1,1.0111309E0,1.2520655E0,2.4598978E0,-1.2155979E0,-1.8568182E-1,8.4457344E-1,2.604601E0,5.0451045E0,8.022468E0,2.985669E0,8.460466E0,2.940363E0,4.8158536E0,4.0858574E0,6.6716485E0,4.477079E0,9.307932E0,9.295463E0,1.2783745E1],"categories":[],"categories_nodes":[],"categories_segments":[],"categories_sizes":[],"default_left":[0,0,0,0,0,0,0,0,0,0,0,0,0,0,0,0,0,0,0,0,0,0,0,0,0,0,0,0,0,0,0,0,0,0,0,0,0,0,0,0,0,0,0,0,0,0,0,0,0,0,0,0,0,0,0,0,0,0,0,0,0,0,0],"id":1,"left_children":[1,3,5,7,9,11,13,15,17,19,21,23,25,27,29,31,33,35,37,39,41,43,45,47,49,51,53,55,57,59,61,-1,-1,-1,-1,-1,-1,-1,-1,-1,-1,-1,-1,-1,-1,-1,-1,-1,-1,-1,-1,-1,-1,-1,-1,-1,-1,-1,-1,-1,-1,-1,-1],"loss_changes":[5.3519376E7,5.240349E6,1.242496E7,1.527927E6,1.6296984E6,2.8628688E6,9.044472E6,6.86354E5,5.5199175E5,1.6610725E5,2.8121188E5,7.952953E5,5.71826E5,1.63157E6,1.253644E6,7.4671E4,2.79357E5,2.9270475E5,9.363903E4,8.3420875E4,7.903653E4,6.4159625E4,1.5962738E5,9.905924E4,3.1690156E5,8.57625E4,4.733265E5,6.26014E5,7.87804E5,2.1788762E5,8.37236E5,0E0,0E0,0E0,0E0,0E0,0E0,0E0,0E0,0E0,0E0,0E0,0E0,0E0,0E0,0E0,0E0,0E0,0E0,0E0,0E0,0E0,0E0,0E0,0E0,0E0,0E0,0E0,0E0,0E0,0E0,0E0,0E0],"parents":[2147483647,0,0,1,1,2,2,3,3,4,4,5,5,6,6,7,7,8,8,9,9,10,10,11,11,12,12,13,13,14,14,15,15,16,16,17,17,18,18,19,19,20,20,21,21,22,22,23,23,24,24,25,25,26,26,27,27,28,28,29,29,30,30],"right_children":[2,4,6,8,10,12,14,16,18,20,22,24,26,28,30,32,34,36,38,40,42,44,46,48,50,52,54,56,58,60,62,-1,-1,-1,-1,-1,-1,-1,-1,-1,-1,-1,-1,-1,-1,-1,-1,-1,-1,-1,-1,-1,-1,-1,-1,-1,-1,-1,-1,-1,-1,-1,-1],"split_conditions":[5.1505E1,1.0415E2,1.417E3,2.1848E3,1.417E3,2.495E2,1.25445E2,5.335E1,2.055E1,-1.505E2,2.771E3,2.645E2,8.996E1,2.8109E3,2.285E2,8.975E2,3.624E2,3.5343E3,3.4676E3,1.22E2,1.21E2,1.11E2,-1.675375E1,-6.262E2,9.562E1,5.004E2,3.4435E2,9.792E1,7.7351E1,3.203E3,2.598E3,-2.4737542E0,-2.01562E0,-1.9224262E0,-1.2638891E0,-1.2377031E0,-5.5746067E-1,-4.5157194E-1,1.8265685E-1,-1.737172E0,-6.865614E-1,-6.1831486E-1,1.110274E-1,2.3901749E-1,1.0111309E0,1.2520655E0,2.4598978E0,-1.2155979E0,-1.8568182E-1,8.4457344E-1,2.604601E0,5.0451045E0,8.022468E0,2.985669E0,8.460466E0,2.940363E0,4.8158536E0,4.0858574E0,6.6716485E0,4.477079E0,9.307932E0,9.295463E0,1.2783745E1],"split_indices":[1,2,0,0,0,2,1,2,1,0,0,0,4,0,2,0,0,0,0,2,2,2,5,0,1,0,2,4,1,0,0,0,0,0,0,0,0,0,0,0,0,0,0,0,0,0,0,0,0,0,0,0,0,0,0,0,0,0,0,0,0,0,0],"split_type":[0,0,0,0,0,0,0,0,0,0,0,0,0,0,0,0,0,0,0,0,0,0,0,0,0,0,0,0,0,0,0,0,0,0,0,0,0,0,0,0,0,0,0,0,0,0,0,0,0,0,0,0,0,0,0,0,0,0,0,0,0,0,0],"sum_hessian":[3.7138E4,2.9533E4,7.605E3,2.4323E4,5.21E3,3.29E3,4.315E3,1.2617E4,1.1706E4,2.283E3,2.927E3,2.354E3,9.36E2,3.445E3,8.7E2,3.662E3,8.955E3,8.551E3,3.155E3,7.85E2,1.498E3,1.823E3,1.104E3,1.061E3,1.293E3,1.23E2,8.13E2,2.145E3,1.3E3,1.38E2,7.32E2,1.729E3,1.933E3,2.113E3,6.842E3,6.453E3,2.098E3,2.386E3,7.69E2,3.2E2,4.65E2,6.77E2,8.21E2,3.29E2,1.494E3,5.28E2,5.76E2,3.46E2,7.15E2,9.42E2,3.51E2,4.7E1,7.6E1,7.72E2,4.1E1,1.508E3,6.37E2,4.66E2,8.34E2,1.07E2,3.1E1,4.02E2,3.3E2],"tree_param":{"num_deleted":"0","num_feature":"7","num_nodes":"63","size_leaf_vector":"1"}},{"base_weights":[4.0913E-2,-1.809984E1,7.078673E1,-2.5401442E1,4.309804E0,3.9509125E1,1.183885E2,-3.293166E1,-1.7679134E1,-1.106873E1,1.6931164E1,3.0028044E1,1.1439365E2,9.422755E1,2.0949606E2,-4.23209E1,-2.7942377E1,-1.530441E1,-3.256801E1,-1.9198225E1,-2.8875902E0,1.286006E0,2.8198364E1,-5.936418E-1,4.666745E1,7.3062805E1,1.5190482E2,6.649393E1,1.0807861E2,1.2461861E2,2.2043558E2,-2.5127578E0,-1.9376223E0,-1.7849985E0,-1.2420553E0,-9.6654934E-1,-4.2338523E-1,-1.9708245E0,-1.3583558E0,-1.5225931E0,-5.034963E-1,-6.610423E-1,8.65978E-2,-7.771714E-2,9.102196E-1,1.1260098E0,2.1580946E0,-8.700329E-1,5.691663E-1,1.8173618E0,4.0707045E0,4.576644E0,4.3809897E-1,8.210756E0,2.2394202E0,2.6899393E0,4.279376E0,4.624151E0,6.9284797E0,7.865468E0,4.644937E0,1.0315972E1,1.3468094E1],"categories":[],"categories_nodes":[],"categories_segments":[],"categories_sizes":[],"default_left":[0,0,0,0,0,0,0,0,0,0,0,0,0,0,0,0,0,0,0,0,0,0,0,0,0,0,0,0,0,0,0,0,0,0,0,0,0,0,0,0,0,0,0,0,0,0,0,0,0,0,0,0,0,0,0,0,0,0,0,0,0,0,0],"id":2,"left_children":[1,3,5,7,9,11,13,15,17,19,21,23,25,27,29,31,33,35,37,39,41,43,45,47,49,51,53,55,57,59,61,-1,-1,-1,-1,-1,-1,-1,-1,-1,-1,-1,-1,-1,-1,-1,-1,-1,-1,-1,-1,-1,-1,-1,-1,-1,-1,-1,-1,-1,-1,-1,-1],"loss_changes":[4.758397E7,4.828721E6,1.1261592E7,1.293735E6,1.4079802E6,3.2397825E6,6.583996E6,5.26674E5,3.8811E5,2.1742747E5,7.02252E5,2.0666682E6,7.8424E5,9.0438E5,5.5564E5,1.086995E5,1.76207E5,2.6083425E5,5.4817875E4,1.6816494E5,7.78786E4,8.023062E4,1.9580788E5,2.878516E5,9.394225E5,2.9135762E5,3.46039E5,1.8761525E5,7.38988E5,6.2120125E4,3.27738E5,0E0,0E0,0E0,0E0,0E0,0E0,0E0,0E0,0E0,0E0,0E0,0E0,0E0,0E0,0E0,0E0,0E0,0E0,0E0,0E0,0E0,0E0,0E0,0E0,0E0,0E0,0E0,0E0,0E0,0E0,0E0,0E0],"parents":[2147483647,0,0,1,1,2,2,3,3,4,4,5,5,6,6,7,7,8,8,9,9,10,10,11,11,12,12,13,13,14,14,15,15,16,16,17,17,18,18,19,19,20,20,21,21,22,22,23,23,24,24,25,25,26,26,27,27,28,28,29,29,30,30],"right_children":[2,4,6,8,10,12,14,16,18,20,22,24,26,28,30,32,34,36,38,40,42,44,46,48,50,52,54,56,58,60,62,-1,-1,-1,-1,-1,-1,-1,-1,-1,-1,-1,-1,-1,-1,-1,-1,-1,-1,-1,-1,-1,-1,-1,-1,-1,-1,-1,-1,-1,-1,-1,-1],"split_conditions":[5.1505E1,2.486E1,2.0846E3,2.1408E3,1.6046E3,1.34316E2,1.25445E2,5.857E1,1.39275E1,3.075E0,3.0487E1,4.346E2,1.0329E3,7.7351E1,-7.06625E0,5.663E2,4.766E2,3.2542E3,3.897E1,4.766E2,-1.505E2,1.12175E1,3.0674E3,-2.548E2,1.0246E2,6E0,6.8E0,3.1673E3,3.1176E3,7.508E1,3.1846E3,-2.5127578E0,-1.9376223E0,-1.7849985E0,-1.2420553E0,-9.6654934E-1,-4.2338523E-1,-1.9708245E0,-1.3583558E0,-1.5225931E0,-5.034963E-1,-6.610423E-1,8.65978E-2,-7.771714E-2,9.102196E-1,1.1260098E0,2.1580946E0,-8.700329E-1,5.691663E-1,1.8173618E0,4.0707045E0,4.576644E0,4.3809897E-1,8.210756E0,2.2394202E0,2.6899393E0,4.279376E0,4.624151E0,6.9284797E0,7.865468E0,4.644937E0,1.0315972E1,1.3468094E1],"split_indices":[1,1,0,0,0,1,1,4,5,3,1,0,0,1,5,0,0,0,4,0,0,5,0,0,4,3,3,0,0,4,0,0,0,0,0,0,0,0,0,0,0,0,0,0,0,0,0,0,0,0,0,0,0,0,0,0,0,0,0,0,0,0,0],"split_type":[0,0,0,0,0,0,0,0,0,0,0,0,0,0,0,0,0,0,0,0,0,0,0,0,0,0,0,0,0,0,0,0,0,0,0,0,0,0,0,0,0,0,0,0,0,0,0,0,0,0,0,0,0,0,0,0,0,0,0,0,0,0,0],"sum_hessian":[3.7075E4,2.9509E4,7.566E3,2.2257E4,7.252E3,4.567E3,2.999E3,1.1267E4,1.099E4,3.269E3,3.983E3,4.055E3,5.12E2,2.372E3,6.27E2,3.907E3,7.36E3,9.48E3,1.51E3,1.639E3,1.63E3,1.668E3,2.315E3,1.428E3,2.627E3,2.45E2,2.67E2,7.92E2,1.58E3,7.3E1,5.54E2,1.208E3,2.699E3,2.099E3,5.261E3,5.965E3,3.515E3,6.63E2,8.47E2,7.33E2,9.06E2,5.03E2,1.127E3,1.429E3,2.39E2,1.68E3,6.35E2,5.94E2,8.34E2,2.027E3,6E2,1.9E2,5.5E1,2.39E2,2.8E1,4.78E2,3.14E2,1.048E3,5.32E2,3.4E1,3.9E1,4.34E2,1.2E2],"tree_param":{"num_deleted":"0","num_feature":"7","num_nodes":"63","size_leaf_vector":"1"}},{"base_weights":[-6.1500564E-2,-1.7265144E1,6.708557E1,-2.301296E1,9.231693E0,5.1154995E1,1.5350098E2,-3.0419582E1,-1.6981882E1,-8.038349E0,1.2059549E1,4.2390495E1,8.65467E1,7.4859085E1,1.6728087E2,-2.6449404E1,-3.764022E1,-2.1145563E1,-1.226503E1,7.5111985E0,-1.493359E1,1.2185149E0,1.4122282E1,5.8186836E1,2.9190897E1,8.347854E1,1.5513417E2,7.8899956E1,1.108806E0,1.9883008E2,1.3987747E2,-1.5564756E0,-1.2359661E0,-2.0986135E0,-1.7169974E0,-9.569518E-1,-1.2725703E0,-1.3030869E0,-5.7527584E-1,2.2878435E-1,1.9780502E0,-1.4239682E0,-3.0218986E-1,3.4372005E-1,-1.2689099E0,5.7042396E-1,1.1049751E0,1.8417088E0,4.19706E0,1.3821765E0,5.5845447E0,4.516013E0,3.4264905E0,9.057261E0,1.9675713E0,1.700454E0,4.244931E0,1.1464476E1,9.257447E0,9.583443E0,3.9498227E0],"categories":[],"categories_nodes":[],"categories_segments":[],"categories_sizes":[],"default_left":[0,0,0,0,0,0,0,0,0,0,0,0,0,0,0,0,0,0,0,0,0,0,0,0,0,0,0,0,0,0,0,0,0,0,0,0,0,0,0,0,0,0,0,0,0,0,0,0,0,0,0,0,0,0,0,0,0,0,0,0,0],"id":3,"left_children":[1,3,5,7,9,11,13,15,17,19,21,23,25,27,29,31,33,35,37,39,41,43,45,47,49,51,53,55,-1,57,59,-1,-1,-1,-1,-1,-1,-1,-1,-1,-1,-1,-1,-1,-1,-1,-1,-1,-1,-1,-1,-1,-1,-1,-1,-1,-1,-1,-1,-1,-1],"loss_changes":[4.2773796E7,4.489377E6,1.0388584E7,1.081479E6,2.5673638E5,1.974727E6,1.260798E6,3.10617E5,2.619865E5,7.945341E4,1.0097031E5,1.064598E6,2.53253E5,3.5931E4,8.3588E5,5.60465E4,5.36595E4,6.07775E4,6.5328812E4,2.1269812E4,6.160289E4,1.089339E5,8.1882625E4,1.2765815E6,3.528225E5,1.1787E5,1.5248825E5,4.12755E4,0E0,1.50072E5,1.681232E6,0E0,0E0,0E0,0E0,0E0,0E0,0E0,0E0,0E0,0E0,0E0,0E0,0E0,0E0,0E0,0E0,0E0,0E0,0E0,0E0,0E0,0E0,0E0,0E0,0E0,0E0,0E0,0E0,0E0,0E0],"parents":[2147483647,0,0,1,1,2,2,3,3,4,4,5,5,6,6,7,7,8,8,9,9,10,10,11,11,12,12,13,13,14,14,15,15,16,16,17,17,18,18,19,19,20,20,21,21,22,22,23,23,24,24,25,25,26,26,27,27,29,29,30,30],"right_children":[2,4,6,8,10,12,14,16,18,20,22,24,26,28,30,32,34,36,38,40,42,44,46,48,50,52,54,56,-1,58,60,-1,-1,-1,-1,-1,-1,-1,-1,-1,-1,-1,-1,-1,-1,-1,-1,-1,-1,-1,-1,-1,-1,-1,-1,-1,-1,-1,-1,-1,-1],"split_conditions":[5.1505E1,1.0415E2,1.2962E2,1.545E1,2.875E0,1.0246E2,2.22E2,1.39275E1,2.089E1,1.1525E1,3.2289E1,8.369E1,1.19639E2,8.556E1,9.062E1,4.44E1,3.897E1,7.985E1,-1.830375E1,3.1821E1,1.361875E1,8.343E1,8.318E1,8.7338E1,2.9265E2,8.75E0,-6.9275E0,1.425E2,1.108806E0,2.62E2,-9.3875E-1,-1.5564756E0,-1.2359661E0,-2.0986135E0,-1.7169974E0,-9.569518E-1,-1.2725703E0,-1.3030869E0,-5.7527584E-1,2.2878435E-1,1.9780502E0,-1.4239682E0,-3.0218986E-1,3.4372005E-1,-1.2689099E0,5.7042396E-1,1.1049751E0,1.8417088E0,4.19706E0,1.3821765E0,5.5845447E0,4.516013E0,3.4264905E0,9.057261E0,1.9675713E0,1.700454E0,4.244931E0,1.1464476E1,9.257447E0,9.583443E0,3.9498227E0],"split_indices":[1,2,1,1,3,4,2,5,1,5,1,4,1,4,4,4,4,2,5,1,5,4,4,1,2,3,5,2,0,2,5,0,0,0,0,0,0,0,0,0,0,0,0,0,0,0,0,0,0,0,0,0,0,0,0,0,0,0,0,0,0],"split_type":[0,0,0,0,0,0,0,0,0,0,0,0,0,0,0,0,0,0,0,0,0,0,0,0,0,0,0,0,0,0,0,0,0,0,0,0,0,0,0,0,0,0,0,0,0,0,0,0,0,0,0,0,0,0,0,0,0,0,0,0,0],"sum_hessian":[3.7026E4,2.9475E4,7.551E3,2.4221E4,5.254E3,6.377E3,1.174E3,1.0869E4,1.3352E4,7.39E2,4.515E3,5.113E3,1.264E3,1.76E2,9.98E2,7.016E3,3.853E3,7.09E3,6.262E3,2.27E2,5.12E2,7.22E2,3.793E3,2.326E3,2.787E3,1.212E3,5.2E1,1.63E2,1.3E1,4.61E2,5.37E2,1.889E3,5.127E3,1.661E3,2.192E3,4.84E3,2.25E3,3.25E2,5.937E3,2.09E2,1.8E1,2.02E2,3.1E2,5.96E2,1.26E2,2.832E3,9.61E2,1.273E3,1.053E3,2.737E3,5E1,8.28E2,3.84E2,4.2E1,1E1,2E1,1.43E2,1.38E2,3.23E2,2.89E2,2.48E2],"tree_param":{"num_deleted":"0","num_feature":"7","num_nodes":"61","size_leaf_vector":"1"}},{"base_weights":[5.0469596E-2,-1.9381863E1,4.9441517E1,-2.741422E1,-1.1780459E1,2.8664698E1,1.0271436E2,-3.244985E1,-1.6916399E1,-2.5908514E1,-6.6770988E0,1.5378677E0,5.221864E1,7.1005165E1,1.408168E2,-3.8147686E1,-2.6998358E1,-1.3372767E1,-2.4627092E1,-3.3463306E1,-2.1609201E1,-1.1268965E1,1.6951923E1,-1.256796E1,1.2914854E1,4.615022E1,1.1162401E2,6.472607E1,1.5493538E2,1.2587617E2,2.2011421E2,-2.2433882E0,-1.6603987E0,-1.7914099E0,-1.2439723E0,-7.870792E-1,-1.6382861E-1,-1.6334183E0,-1.0541391E0,-1.9487165E0,-1.4541203E0,-1.2460445E0,-7.465976E-1,-7.47282E-1,-2.812708E-1,2.8680655E-1,1.2577857E0,-1.0511266E0,-3.444045E-1,1.8192223E-1,9.8834914E-1,3.84677E0,2.0392883E0,6.9366145E0,3.8305175E0,1.4800553E0,3.7325108E0,8.456988E0,5.446943E0,5.39386E0,8.50887E0,8.98928E0,1.3646148E1],"categories":[],"categories_nodes":[],"categories_segments":[],"categories_sizes":[],"default_left":[0,0,0,0,0,0,0,0,0,0,0,0,0,0,0,0,0,0,0,0,0,0,0,0,0,0,0,0,0,0,0,0,0,0,0,0,0,0,0,0,0,0,0,0,0,0,0,0,0,0,0,0,0,0,0,0,0,0,0,0,0,0,0],"id":4,"left_children":[1,3,5,7,9,11,13,15,17,19,21,23,25,27,29,31,33,35,37,39,41,43,45,47,49,51,53,55,57,59,61,-1,-1,-1,-1,-1,-1,-1,-1,-1,-1,-1,-1,-1,-1,-1,-1,-1,-1,-1,-1,-1,-1,-1,-1,-1,-1,-1,-1,-1,-1,-1,-1],"loss_changes":[3.5586844E7,1.624348E6,1.1584568E7,6.83341E5,9.856579E5,4.8130835E6,3.538478E6,2.70512E5,1.14321625E5,1.1711575E5,1.090195E6,5.6216956E5,1.448371E6,8.35816E5,1.55157E6,1.4032E5,8.27595E4,6.8754875E4,3.6932312E4,3.059075E4,5.08195E4,1.7446075E5,1.5029531E5,7.49598E4,1.23177E5,6.01295E5,3.43408E5,5.18926E5,5.409625E4,8.77894E5,3.9817E5,0E0,0E0,0E0,0E0,0E0,0E0,0E0,0E0,0E0,0E0,0E0,0E0,0E0,0E0,0E0,0E0,0E0,0E0,0E0,0E0,0E0,0E0,0E0,0E0,0E0,0E0,0E0,0E0,0E0,0E0,0E0,0E0],"parents":[2147483647,0,0,1,1,2,2,3,3,4,4,5,5,6,6,7,7,8,8,9,9,10,10,11,11,12,12,13,13,14,14,15,15,16,16,17,17,18,18,19,19,20,20,21,21,22,22,23,23,24,24,25,25,26,26,27,27,28,28,29,29,30,30],"right_children":[2,4,6,8,10,12,14,16,18,20,22,24,26,28,30,32,34,36,38,40,42,44,46,48,50,52,54,56,58,60,62,-1,-1,-1,-1,-1,-1,-1,-1,-1,-1,-1,-1,-1,-1,-1,-1,-1,-1,-1,-1,-1,-1,-1,-1,-1,-1,-1,-1,-1,-1,-1,-1],"split_conditions":[1.21E2,6.635E1,2.3455E2,2.6233E3,1.1618E3,1.3639E3,2.0981E3,5.824E1,9.845E0,1.302E2,1.0415E2,1.568E2,3.6959E3,3.4435E2,6.86875E0,1.1618E3,2.41E2,3.83E3,3.897E1,7.061E1,9.955E1,2.9061E3,2.1693E3,-6.897E2,6.895E2,-1.809125E1,7.0725E0,3.883E2,6.8E0,3.27E2,3.0242E3,-2.2433882E0,-1.6603987E0,-1.7914099E0,-1.2439723E0,-7.870792E-1,-1.6382861E-1,-1.6334183E0,-1.0541391E0,-1.9487165E0,-1.4541203E0,-1.2460445E0,-7.465976E-1,-7.47282E-1,-2.812708E-1,2.8680655E-1,1.2577857E0,-1.0511266E0,-3.444045E-1,1.8192223E-1,9.8834914E-1,3.84677E0,2.0392883E0,6.9366145E0,3.8305175E0,1.4800553E0,3.7325108E0,8.456988E0,5.446943E0,5.39386E0,8.50887E0,8.98928E0,1.3646148E1],"split_indices":[2,2,2,0,0,0,0,4,5,0,2,0,0,2,5,0,0,0,4,4,2,0,0,0,0,5,5,0,3,2,0,0,0,0,0,0,0,0,0,0,0,0,0,0,0,0,0,0,0,0,0,0,0,0,0,0,0,0,0,0,0,0,0],"split_type":[0,0,0,0,0,0,0,0,0,0,0,0,0,0,0,0,0,0,0,0,0,0,0,0,0,0,0,0,0,0,0,0,0,0,0,0,0,0,0,0,0,0,0,0,0,0,0,0,0,0,0,0,0,0,0,0,0,0,0,0,0,0,0],"sum_hessian":[3.7076E4,2.6608E4,1.0468E4,1.2936E4,1.3672E4,7.532E3,2.936E3,8.741E3,4.195E3,3.627E3,1.0045E4,3.501E3,4.031E3,1.604E3,1.332E3,4.271E3,4.47E3,2.876E3,1.319E3,1.313E3,2.314E3,8.411E3,1.634E3,1.563E3,1.938E3,3.659E3,3.72E2,1.494E3,1.1E2,1.123E3,2.09E2,1.806E3,2.465E3,8.62E2,3.608E3,2.329E3,5.47E2,4.01E2,9.18E2,5.78E2,7.35E2,1.545E3,7.69E2,5.092E3,3.319E3,6.91E2,9.43E2,6.27E2,9.36E2,8.24E2,1.114E3,5.41E2,3.118E3,2.08E2,1.64E2,3.3E2,1.164E3,8.2E1,2.8E1,8.01E2,3.22E2,1.21E2,8.8E1],"tree_param":{"num_deleted":"0","num_feature":"7","num_nodes":"63","size_leaf_vector":"1"}},{"base_weights":[-2.0656215E-1,-1.4493015E1,6.5476654E1,-2.077541E1,1.0378137E1,3.622806E1,1.1137766E2,-2.8909258E1,-1.4944859E1,-6.3141775E0,2.6861881E1,1.658621E1,7.2059784E1,1.5226515E2,9.201389E1,-3.8020958E1,-2.4554716E1,-2.0981071E1,-1.00185E1,-1.8337332E1,-7.402899E-1,2.0060194E1,4.3739964E1,9.0991795E-1,4.018987E1,6.606761E1,1.442393E2,8.906568E1,1.6740936E2,7.850562E1,1.1903481E2,-2.2041187E0,-1.7208117E0,-1.7274338E0,-1.1108416E0,-1.6935908E0,-9.413597E-1,-6.237282E-1,-1.3829325E-1,-1.5635012E0,-6.510424E-1,-4.3114358E-1,1.7443298E-1,1.2460128E0,4.57367E-1,1.346094E0,3.0420759E0,-6.5756077E-1,6.3064146E-1,2.9196486E0,1.4373444E0,5.8206496E0,2.8480499E0,8.029761E0,4.559421E0,5.333178E0,2.489409E0,1.0213248E1,6.417222E0,4.4639316E0,2.979764E0,6.2740116E0,2.235768E0],"categories":[],"categories_nodes":[],"categories_segments":[],"categories_sizes":[],"default_left":[0,0,0,0,0,0,0,0,0,0,0,0,0,0,0,0,0,0,0,0,0,0,0,0,0,0,0,0,0,0,0,0,0,0,0,0,0,0,0,0,0,0,0,0,0,0,0,0,0,0,0,0,0,0,0,0,0,0,0,0,0,0,0],"id":5,"left_children":[1,3,5,7,9,11,13,15,17,19,21,23,25,27,29,31,33,35,37,39,41,43,45,47,49,51,53,55,57,59,61,-1,-1,-1,-1,-1,-1,-1,-1,-1,-1,-1,-1,-1,-1,-1,-1,-1,-1,-1,-1,-1,-1,-1,-1,-1,-1,-1,-1,-1,-1,-1,-1],"loss_changes":[3.4798896E7,4.7594465E6,8.890296E6,1.152797E6,1.6904272E6,2.847792E6,2.027086E6,4.0187E5,4.2103775E5,2.0458538E5,3.539675E5,9.679302E5,6.1026E5,7.76616E5,6.30146E5,7.0172E4,1.5979475E5,1.76087E5,1.3894206E5,6.6080375E4,6.9600305E4,1.1671894E5,2.5347688E5,2.5901278E5,2.1578425E5,6.0085E5,7.993425E4,1.06664E5,9.32666E5,2.332365E5,2.731785E5,0E0,0E0,0E0,0E0,0E0,0E0,0E0,0E0,0E0,0E0,0E0,0E0,0E0,0E0,0E0,0E0,0E0,0E0,0E0,0E0,0E0,0E0,0E0,0E0,0E0,0E0,0E0,0E0,0E0,0E0,0E0,0E0],"parents":[2147483647,0,0,1,1,2,2,3,3,4,4,5,5,6,6,7,7,8,8,9,9,10,10,11,11,12,12,13,13,14,14,15,15,16,16,17,17,18,18,19,19,20,20,21,21,22,22,23,23,24,24,25,25,26,26,27,27,28,28,29,29,30,30],"right_children":[2,4,6,8,10,12,14,16,18,20,22,24,26,28,30,32,34,36,38,40,42,44,46,48,50,52,54,56,58,60,62,-1,-1,-1,-1,-1,-1,-1,-1,-1,-1,-1,-1,-1,-1,-1,-1,-1,-1,-1,-1,-1,-1,-1,-1,-1,-1,-1,-1,-1,-1,-1,-1],"split_conditions":[6E0,1.0415E2,2.0981E3,1.8113E3,1.6712E3,2.495E2,7.035E0,5.857E1,6.095E1,-1.821E2,3.0674E3,1.0147E3,3.4435E2,2.3035E2,3.1176E3,5.663E2,-1.66E1,3.897E1,3.4676E3,3.075E0,3.075E0,1.57E1,7.837E1,1.879E2,2.25E1,9.062E1,6.8E0,2.22E2,9.162E1,2.38E1,3.05E1,-2.2041187E0,-1.7208117E0,-1.7274338E0,-1.1108416E0,-1.6935908E0,-9.413597E-1,-6.237282E-1,-1.3829325E-1,-1.5635012E0,-6.510424E-1,-4.3114358E-1,1.7443298E-1,1.2460128E0,4.57367E-1,1.346094E0,3.0420759E0,-6.5756077E-1,6.3064146E-1,2.9196486E0,1.4373444E0,5.8206496E0,2.8480499E0,8.029761E0,4.559421E0,5.333178E0,2.489409E0,1.0213248E1,6.417222E0,4.4639316E0,2.979764E0,6.2740116E0,2.235768E0],"split_indices":[6,2,0,0,0,2,3,4,2,0,0,0,2,2,0,0,0,4,0,3,3,3,4,0,3,4,3,2,4,3,3,0,0,0,0,0,0,0,0,0,0,0,0,0,0,0,0,0,0,0,0,0,0,0,0,0,0,0,0,0,0,0,0],"split_type":[0,0,0,0,0,0,0,0,0,0,0,0,0,0,0,0,0,0,0,0,0,0,0,0,0,0,0,0,0,0,0,0,0,0,0,0,0,0,0,0,0,0,0,0,0,0,0,0,0,0,0,0,0,0,0,0,0,0,0,0,0,0,0],"sum_hessian":[3.7082E4,3.0458E4,6.624E3,2.4316E4,6.142E3,4.047E3,2.577E3,1.0151E4,1.4165E4,3.052E3,3.09E3,2.615E3,1.432E3,8.26E2,1.751E3,3.28E3,6.871E3,6.364E3,7.801E3,9.66E2,2.086E3,2.204E3,8.86E2,1.572E3,1.043E3,1.324E3,1.08E2,1.61E2,6.65E2,1.17E3,5.81E2,1.219E3,2.061E3,1.3E3,5.571E3,9.09E2,5.455E3,5.827E3,1.974E3,2.8E2,6.86E2,7.28E2,1.358E3,1.524E3,6.8E2,4.48E2,4.38E2,7.14E2,8.58E2,4.01E2,6.42E2,2.01E2,1.123E3,8.1E1,2.7E1,1.1E2,5.1E1,3.4E2,3.25E2,7.43E2,4.27E2,5.34E2,4.7E1],"tree_param":{"num_deleted":"0","num_feature":"7","num_nodes":"63","size_leaf_vector":"1"}},{"base_weights":[5.294835E-3,-1.3581734E1,6.1867245E1,-1.9606316E1,9.856096E0,3.461365E1,1.04162415E2,-2.7376932E1,-1.4053532E1,-5.2501335E0,2.6411316E1,1.9046108E1,7.4854324E1,1.4084883E2,8.643782E1,-3.451617E1,-2.2653866E1,-8.795648E0,-1.9317654E1,-1.7081514E1,5.1741354E-2,1.9969414E1,4.5519695E1,2.9510558E0,3.946926E1,5.497201E1,1.0360739E2,7.7727264E1,1.5705304E2,7.1170555E1,1.0776065E2,-1.4320033E0,-1.8993183E0,-1.471085E0,-9.6878463E-1,-9.075553E-1,-3.1985638E-1,-1.183877E0,-6.842731E-1,-1.4969999E0,-5.926484E-1,-4.1989183E-1,2.2199897E-1,7.570941E-1,1.3654578E0,1.6310877E0,3.013089E0,-8.56122E-1,5.5390126E-1,1.639122E0,3.7807388E0,1.5726047E0,3.2467382E0,2.9052894E0,5.992957E0,4.6421733E0,8.3914727E-1,6.8401093E0,9.851721E0,4.7009254E0,3.1203816E0,5.639238E0,1.9231272E0],"categories":[],"categories_nodes":[],"categories_segments":[],"categories_sizes":[],"default_left":[0,0,0,0,0,0,0,0,0,0,0,0,0,0,0,0,0,0,0,0,0,0,0,0,0,0,0,0,0,0,0,0,0,0,0,0,0,0,0,0,0,0,0,0,0,0,0,0,0,0,0,0,0,0,0,0,0,0,0,0,0,0,0],"id":6,"left_children":[1,3,5,7,9,11,13,15,17,19,21,23,25,27,29,31,33,35,37,39,41,43,45,47,49,51,53,55,57,59,61,-1,-1,-1,-1,-1,-1,-1,-1,-1,-1,-1,-1,-1,-1,-1,-1,-1,-1,-1,-1,-1,-1,-1,-1,-1,-1,-1,-1,-1,-1,-1,-1],"loss_changes":[3.1033678E7,4.274836E6,7.660668E6,1.038762E6,1.548427E6,2.5325585E6,1.681732E6,3.376225E5,3.8865275E5,2.0311581E5,3.6271162E5,9.590644E5,6.391565E5,8.54134E5,5.64957E5,8.03545E4,1.3350075E5,1.5763188E5,1.720325E5,6.701078E4,8.298247E4,7.79285E4,1.3950012E5,2.665919E5,3.0834562E5,1.5471988E5,3.331965E5,1.5966E5,5.17946E5,1.999535E5,2.50516E5,0E0,0E0,0E0,0E0,0E0,0E0,0E0,0E0,0E0,0E0,0E0,0E0,0E0,0E0,0E0,0E0,0E0,0E0,0E0,0E0,0E0,0E0,0E0,0E0,0E0,0E0,0E0,0E0,0E0,0E0,0E0,0E0],"parents":[2147483647,0,0,1,1,2,2,3,3,4,4,5,5,6,6,7,7,8,8,9,9,10,10,11,11,12,12,13,13,14,14,15,15,16,16,17,17,18,18,19,19,20,20,21,21,22,22,23,23,24,24,25,25,26,26,27,27,28,28,29,29,30,30],"right_children":[2,4,6,8,10,12,14,16,18,20,22,24,26,28,30,32,34,36,38,40,42,44,46,48,50,52,54,56,58,60,62,-1,-1,-1,-1,-1,-1,-1,-1,-1,-1,-1,-1,-1,-1,-1,-1,-1,-1,-1,-1,-1,-1,-1,-1,-1,-1,-1,-1,-1,-1,-1,-1],"split_conditions":[6E0,1.0415E2,2.0981E3,1.8113E3,1.7649E3,2.7065E2,7.035E0,5.695E1,-6.1625E-1,-1.505E2,1.48925E1,9.169E2,-7.06625E0,2.3035E2,2.9494E3,6E0,4.766E2,3.8E-1,2.8649E3,3.075E0,3.075E0,2.771E3,3.1673E3,-1.505E2,5.18125E0,7.095E2,7.095E2,7.47875E0,3.81875E0,9.3E0,3.05E1,-1.4320033E0,-1.8993183E0,-1.471085E0,-9.6878463E-1,-9.075553E-1,-3.1985638E-1,-1.183877E0,-6.842731E-1,-1.4969999E0,-5.926484E-1,-4.1989183E-1,2.2199897E-1,7.570941E-1,1.3654578E0,1.6310877E0,3.013089E0,-8.56122E-1,5.5390126E-1,1.639122E0,3.7807388E0,1.5726047E0,3.2467382E0,2.9052894E0,5.992957E0,4.6421733E0,8.3914727E-1,6.8401093E0,9.851721E0,4.7009254E0,3.1203816E0,5.639238E0,1.9231272E0],"split_indices":[6,2,0,0,0,2,3,2,5,0,5,0,5,2,0,3,0,3,0,3,3,0,0,0,5,0,0,5,5,3,3,0,0,0,0,0,0,0,0,0,0,0,0,0,0,0,0,0,0,0,0,0,0,0,0,0,0,0,0,0,0,0,0],"split_type":[0,0,0,0,0,0,0,0,0,0,0,0,0,0,0,0,0,0,0,0,0,0,0,0,0,0,0,0,0,0,0,0,0,0,0,0,0,0,0,0,0,0,0,0,0,0,0,0,0,0,0,0,0,0,0,0,0,0,0,0,0,0,0],"sum_hessian":[3.692E4,3.0272E4,6.648E3,2.4082E4,6.19E3,4.044E3,2.604E3,1.0035E4,1.4047E4,3.237E3,2.953E3,2.917E3,1.127E3,8.46E2,1.758E3,3.993E3,6.042E3,7.029E3,7.018E3,1.001E3,2.236E3,2.21E3,7.43E2,1.632E3,1.285E3,6.68E2,4.59E2,1.74E2,6.72E2,1.027E3,7.31E2,1.486E3,2.507E3,1.969E3,4.073E3,1.433E3,5.596E3,3.954E3,3.064E3,2.88E2,7.13E2,7.64E2,1.472E3,1.335E3,8.75E2,3.98E2,3.45E2,4.7E2,1.162E3,1.086E3,1.99E2,2E2,4.68E2,1.22E2,3.37E2,1.39E2,3.5E1,4.49E2,2.23E2,2.82E2,7.45E2,6.81E2,5E1],"tree_param":{"num_deleted":"0","num_feature":"7","num_nodes":"63","size_leaf_vector":"1"}},{"base_weights":[2.5373463E-2,-1.2865812E1,5.9291718E1,-1.9826185E1,-3.7889332E-1,3.3200222E1,1.0227722E2,-2.4250738E1,-9.623838E0,-1.2106599E1,1.1528942E1,4.1592607E0,4.799576E1,1.4115222E2,8.410143E1,-3.1486118E1,-2.0479792E1,-7.253067E0,-2.0409048E1,-1.987993E1,-8.803725E0,-1.2420614E0,2.8517113E1,-9.393239E0,1.56724615E1,7.055383E1,2.7135462E1,1.8296776E2,1.1978001E2,7.2033356E1,1.0674759E2,-1.8855613E0,-1.3800625E0,-1.5081319E0,-9.0118617E-1,-7.318751E-1,-2.3157115E-1,-1.357419E0,-8.70626E-1,-1.568649E0,-9.2143244E-1,-9.6714306E-1,-2.5794283E-1,-5.541811E-1,4.28742E-1,9.089261E-1,2.036271E0,-2.4582076E-1,-1.9483511E0,1.816645E0,-1.276996E-1,4.315174E0,2.4572804E0,1.7944943E0,5.86435E-1,7.261603E0,9.744153E0,8.03676E0,2.6342766E0,4.134304E0,2.735808E0,5.604764E0,1.9685649E0],"categories":[],"categories_nodes":[],"categories_segments":[],"categories_sizes":[],"default_left":[0,0,0,0,0,0,0,0,0,0,0,0,0,0,0,0,0,0,0,0,0,0,0,0,0,0,0,0,0,0,0,0,0,0,0,0,0,0,0,0,0,0,0,0,0,0,0,0,0,0,0,0,0,0,0,0,0,0,0,0,0,0,0],"id":7,"left_children":[1,3,5,7,9,11,13,15,17,19,21,23,25,27,29,31,33,35,37,39,41,43,45,47,49,51,53,55,57,59,61,-1,-1,-1,-1,-1,-1,-1,-1,-1,-1,-1,-1,-1,-1,-1,-1,-1,-1,-1,-1,-1,-1,-1,-1,-1,-1,-1,-1,-1,-1,-1,-1],"loss_changes":[2.8310516E7,2.645209E6,7.421308E6,8.81908E5,1.5215039E6,1.7704985E6,1.754586E6,3.71239E5,1.5104312E5,1.4075144E5,1.1728995E6,2.1734469E5,1.2827365E6,6.88569E5,4.58553E5,1.11849E5,2.12612E5,9.380575E4,2.1034531E4,2.670975E4,1.4794684E5,2.9834125E5,2.9208225E5,8.4542266E4,2.836474E5,4.377905E5,1.9110488E5,9.1747E4,1.445154E6,2.0135E5,2.08528E5,0E0,0E0,0E0,0E0,0E0,0E0,0E0,0E0,0E0,0E0,0E0,0E0,0E0,0E0,0E0,0E0,0E0,0E0,0E0,0E0,0E0,0E0,0E0,0E0,0E0,0E0,0E0,0E0,0E0,0E0,0E0,0E0],"parents":[2147483647,0,0,1,1,2,2,3,3,4,4,5,5,6,6,7,7,8,8,9,9,10,10,11,11,12,12,13,13,14,14,15,15,16,16,17,17,18,18,19,19,20,20,21,21,22,22,23,23,24,24,25,25,26,26,27,27,28,28,29,29,30,30],"right_children":[2,4,6,8,10,12,14,16,18,20,22,24,26,28,30,32,34,36,38,40,42,44,46,48,50,52,54,56,58,60,62,-1,-1,-1,-1,-1,-1,-1,-1,-1,-1,-1,-1,-1,-1,-1,-1,-1,-1,-1,-1,-1,-1,-1,-1,-1,-1,-1,-1,-1,-1,-1,-1],"split_conditions":[6E0,7.099E1,2.1408E3,2.8109E3,2.875E0,5.221E2,7.035E0,5.588E1,9.845E0,1.22E3,2.1408E3,-4.98E1,9.3E0,1.45E0,3.1366E3,1.1618E3,3.883E2,4.75E-1,3.897E1,-6.897E2,-1.763E1,7.865E2,7.851E1,8.13875E0,1.425E1,1.135E0,-1.504125E1,2.3888E3,8.819E1,2.38E1,3.05E1,-1.8855613E0,-1.3800625E0,-1.5081319E0,-9.0118617E-1,-7.318751E-1,-2.3157115E-1,-1.357419E0,-8.70626E-1,-1.568649E0,-9.2143244E-1,-9.6714306E-1,-2.5794283E-1,-5.541811E-1,4.28742E-1,9.089261E-1,2.036271E0,-2.4582076E-1,-1.9483511E0,1.816645E0,-1.276996E-1,4.315174E0,2.4572804E0,1.7944943E0,5.86435E-1,7.261603E0,9.744153E0,8.03676E0,2.6342766E0,4.134304E0,2.735808E0,5.604764E0,1.9685649E0],"split_indices":[6,4,0,0,3,0,3,4,5,0,0,0,3,5,0,0,0,3,4,0,5,0,4,5,3,5,5,0,4,3,3,0,0,0,0,0,0,0,0,0,0,0,0,0,0,0,0,0,0,0,0,0,0,0,0,0,0,0,0,0,0,0,0],"split_type":[0,0,0,0,0,0,0,0,0,0,0,0,0,0,0,0,0,0,0,0,0,0,0,0,0,0,0,0,0,0,0,0,0,0,0,0,0,0,0,0,0,0,0,0,0,0,0,0,0,0,0,0,0,0,0,0,0,0,0,0,0,0,0],"sum_hessian":[3.7053E4,3.0434E4,6.619E3,1.9541E4,1.0893E4,4.12E3,2.499E3,1.3629E4,5.912E3,5.488E3,5.405E3,1.391E3,2.729E3,7.94E2,1.705E3,4.667E3,8.962E3,4.848E3,1.064E3,1.635E3,3.853E3,3.086E3,2.319E3,6.39E2,7.52E2,1.31E3,1.419E3,2.66E2,5.28E2,1.115E3,5.9E2,1.79E3,2.877E3,1.811E3,7.151E3,1.269E3,3.579E3,3.25E2,7.39E2,1.81E2,1.454E3,9.89E2,2.864E3,1.541E3,1.545E3,1.257E3,1.062E3,5.56E2,8.3E1,3.52E2,4E2,7.53E2,5.57E2,9.04E2,5.15E2,6.7E1,1.99E2,3.27E2,2.01E2,6.88E2,4.27E2,5.46E2,4.4E1],"tree_param":{"num_deleted":"0","num_feature":"7","num_nodes":"63","size_leaf_vector":"1"}},{"base_weights":[1.2620279E-1,-1.582711E1,4.0756973E1,-1.8936466E1,-2.2362456E0,2.4153791E1,8.406029E1,-2.3502335E1,-1.0201966E1,-1.623372E1,5.164713E0,1.7966992E0,4.386479E1,6.0452587E1,1.1926726E2,-3.0819708E1,-2.013094E1,-1.3494312E1,-3.255146E0,-2.6142897E1,-1.2642522E1,-1.3850489E0,2.004352E1,-9.879215E0,1.1322126E1,3.7472775E1,8.141804E1,3.5222153E1,7.4136375E1,1.4869978E2,8.993289E1,-1.7490513E0,-1.3697866E0,-1.3818389E0,-8.8609713E-1,-5.848782E-1,-1.1850837E0,-3.2209325E-1,1.4027482E-1,-3.352531E-2,-1.3905824E0,-5.775458E-1,-1.7952902E0,-3.004594E-1,2.5084063E-1,7.378878E-1,1.8540066E0,-1.0910064E0,-3.4862497E-1,2.9859897E-1,1.0176897E0,3.1205835E0,1.6448306E0,6.481117E0,3.7077641E0,1.4685591E0,4.7569146E0,5.0795684E0,2.82622E0,8.941711E0,5.8437285E0,4.1540637E0,5.7213693E0],"categories":[],"categories_nodes":[],"categories_segments":[],"categories_sizes":[],"default_left":[0,0,0,0,0,0,0,0,0,0,0,0,0,0,0,0,0,0,0,0,0,0,0,0,0,0,0,0,0,0,0,0,0,0,0,0,0,0,0,0,0,0,0,0,0,0,0,0,0,0,0,0,0,0,0,0,0,0,0,0,0,0,0],"id":8,"left_children":[1,3,5,7,9,11,13,15,17,19,21,23,25,27,29,31,33,35,37,39,41,43,45,47,49,51,53,55,57,59,61,-1,-1,-1,-1,-1,-1,-1,-1,-1,-1,-1,-1,-1,-1,-1,-1,-1,-1,-1,-1,-1,-1,-1,-1,-1,-1,-1,-1,-1,-1,-1,-1],"loss_changes":[2.401823E7,1.124339E6,7.509078E6,8.63294E5,5.133957E5,3.328382E6,2.398986E6,3.50159E5,1.700045E5,6.0663562E4,3.1596928E5,3.9382388E5,9.604745E5,5.963935E5,9.89014E5,6.2917E4,1.7557E5,9.222994E4,4.621611E4,1.9322094E4,3.158214E4,6.669632E4,8.869381E4,5.5069625E4,9.410392E4,3.89622E5,1.9449325E5,2.11753E5,5.37753E5,5.33421E5,8.85045E4,0E0,0E0,0E0,0E0,0E0,0E0,0E0,0E0,0E0,0E0,0E0,0E0,0E0,0E0,0E0,0E0,0E0,0E0,0E0,0E0,0E0,0E0,0E0,0E0,0E0,0E0,0E0,0E0,0E0,0E0,0E0,0E0],"parents":[2147483647,0,0,1,1,2,2,3,3,4,4,5,5,6,6,7,7,8,8,9,9,10,10,11,11,12,12,13,13,14,14,15,15,16,16,17,17,18,18,19,19,20,20,21,21,22,22,23,23,24,24,25,25,26,26,27,27,28,28,29,29,30,30],"right_children":[2,4,6,8,10,12,14,16,18,20,22,24,26,28,30,32,34,36,38,40,42,44,46,48,50,52,54,56,58,60,62,-1,-1,-1,-1,-1,-1,-1,-1,-1,-1,-1,-1,-1,-1,-1,-1,-1,-1,-1,-1,-1,-1,-1,-1,-1,-1,-1,-1,-1,-1,-1,-1],"split_conditions":[1.21E2,9.675E1,2.3455E2,2.6792E3,1.2377E3,1.3978E3,2.2418E3,5.335E1,3.6103E3,-1.505E2,1.11E2,1.879E2,3.4889E3,7.865E2,7.035E0,1.1618E3,6.692E2,1.405125E1,7.4E0,7.258E1,1.1903E2,2.5458E3,2.7841E3,-1.1514E3,1.6935E2,-1.809125E1,-1.830375E1,3.5025E0,6.8E0,9.162E1,3.2361E3,-1.7490513E0,-1.3697866E0,-1.3818389E0,-8.8609713E-1,-5.848782E-1,-1.1850837E0,-3.2209325E-1,1.4027482E-1,-3.352531E-2,-1.3905824E0,-5.775458E-1,-1.7952902E0,-3.004594E-1,2.5084063E-1,7.378878E-1,1.8540066E0,-1.0910064E0,-3.4862497E-1,2.9859897E-1,1.0176897E0,3.1205835E0,1.6448306E0,6.481117E0,3.7077641E0,1.4685591E0,4.7569146E0,5.0795684E0,2.82622E0,8.941711E0,5.8437285E0,4.1540637E0,5.7213693E0],"split_indices":[2,2,2,0,0,0,0,2,0,0,2,0,0,0,3,0,0,5,3,4,2,0,0,0,2,5,5,5,3,4,0,0,0,0,0,0,0,0,0,0,0,0,0,0,0,0,0,0,0,0,0,0,0,0,0,0,0,0,0,0,0,0,0],"split_type":[0,0,0,0,0,0,0,0,0,0,0,0,0,0,0,0,0,0,0,0,0,0,0,0,0,0,0,0,0,0,0,0,0,0,0,0,0,0,0,0,0,0,0,0,0,0,0,0,0,0,0,0,0,0,0,0,0,0,0,0,0,0,0],"sum_hessian":[3.7052E4,2.6606E4,1.0446E4,2.1652E4,4.954E3,7.552E3,2.894E3,1.4218E4,7.434E3,1.713E3,3.241E3,3.539E3,4.013E3,1.734E3,1.16E3,4.482E3,9.736E3,5.043E3,2.391E3,4.54E2,1.259E3,2.251E3,9.9E2,1.59E3,1.949E3,3.431E3,5.82E2,6.11E2,1.123E3,5.77E2,5.83E2,2.019E3,2.463E3,2.363E3,7.373E3,4.29E3,7.53E2,1.567E3,8.24E2,2.8E1,4.26E2,1.204E3,5.5E1,1.307E3,9.44E2,7.57E2,2.33E2,3.1E2,1.28E3,1.225E3,7.24E2,5.3E2,2.901E3,7.4E1,5.08E2,5.58E2,5.3E1,4.37E2,6.86E2,2.94E2,2.83E2,4.59E2,1.24E2],"tree_param":{"num_deleted":"0","num_feature":"7","num_nodes":"63","size_leaf_vector":"1"}},{"base_weights":[1.2159343E-1,-1.1690385E1,5.4018826E1,-1.6869167E1,8.375224E0,3.3335014E1,8.102448E1,-2.5499115E1,-1.3845692E1,4.8672E0,2.2815187E1,4.800345E1,1.6892584E1,7.257437E1,1.5446964E2,-2.0172846E1,-2.8331295E1,-1.14442005E1,-1.7735664E1,-6.5878115E0,6.917459E0,-1.3287262E0,3.077675E1,6.737649E1,2.6876131E1,2.511456E1,-7.6091704E0,4.5483494E1,8.9852234E1,1.1266944E1,1.3850826E2,-1.2754053E0,-8.1763405E-1,-1.5910178E0,-1.2971934E0,-9.355095E-1,-4.8601374E-1,-9.104616E-1,-1.7175435E-1,3.9344525E-1,-6.3682455E-1,4.218022E-1,-9.414798E-2,1.102476E0,-3.476583E-1,1.1177353E0,2.0744815E0,3.5175474E0,-1.5805423E0,-6.378478E-1,1.5281909E0,9.830887E-1,4.1905684E0,-1.1870871E-1,-1.5649459E0,2.670317E0,2.1196285E-1,7.7443023E0,3.3773239E0,7.51459E0,5.769039E0],"categories":[],"categories_nodes":[],"categories_segments":[],"categories_sizes":[],"default_left":[0,0,0,0,0,0,0,0,0,0,0,0,0,0,0,0,0,0,0,0,0,0,0,0,0,0,0,0,0,0,0,0,0,0,0,0,0,0,0,0,0,0,0,0,0,0,0,0,0,0,0,0,0,0,0,0,0,0,0,0,0],"id":9,"left_children":[1,3,5,7,9,11,13,15,17,19,21,23,25,27,29,31,33,35,37,39,41,43,45,47,49,51,53,55,57,-1,59,-1,-1,-1,-1,-1,-1,-1,-1,-1,-1,-1,-1,-1,-1,-1,-1,-1,-1,-1,-1,-1,-1,-1,-1,-1,-1,-1,-1,-1,-1],"loss_changes":[2.3579606E7,3.1570918E6,3.716324E6,6.297275E5,3.1562616E5,9.089375E5,1.780518E6,9.39205E4,1.66874E5,1.1785003E5,2.3416888E5,8.139245E5,3.5877712E5,1.208688E6,3.047465E5,4.3974E4,3.321875E4,1.3836838E5,4.615825E4,6.783419E4,5.688047E4,3.9994645E4,8.1718E4,3.08141E5,1.3996731E5,4.2499356E5,5.548474E4,3.3013975E5,2.282981E6,0E0,4.94275E4,0E0,0E0,0E0,0E0,0E0,0E0,0E0,0E0,0E0,0E0,0E0,0E0,0E0,0E0,0E0,0E0,0E0,0E0,0E0,0E0,0E0,0E0,0E0,0E0,0E0,0E0,0E0,0E0,0E0,0E0],"parents":[2147483647,0,0,1,1,2,2,3,3,4,4,5,5,6,6,7,7,8,8,9,9,10,10,11,11,12,12,13,13,14,14,15,15,16,16,17,17,18,18,19,19,20,20,21,21,22,22,23,23,24,24,25,25,26,26,27,27,28,28,30,30],"right_children":[2,4,6,8,10,12,14,16,18,20,22,24,26,28,30,32,34,36,38,40,42,44,46,48,50,52,54,56,58,-1,60,-1,-1,-1,-1,-1,-1,-1,-1,-1,-1,-1,-1,-1,-1,-1,-1,-1,-1,-1,-1,-1,-1,-1,-1,-1,-1,-1,-1,-1,-1],"split_conditions":[6E0,1.0415E2,2.3455E2,5.335E1,1.49075E1,8.369E1,6.86875E0,1.12175E1,-1.68875E0,2.875E0,7.98E1,2.406E1,2.22E2,3.135E2,7.665E0,6.90625E0,3.897E1,3.8E-1,7.75E1,1.1525E1,8.514E1,1.355E2,1.3835E2,7.785E0,1.374E2,6.235E0,8.46E0,2.8375E0,6E0,1.1266944E1,7.9025E0,-1.2754053E0,-8.1763405E-1,-1.5910178E0,-1.2971934E0,-9.355095E-1,-4.8601374E-1,-9.104616E-1,-1.7175435E-1,3.9344525E-1,-6.3682455E-1,4.218022E-1,-9.414798E-2,1.102476E0,-3.476583E-1,1.1177353E0,2.0744815E0,3.5175474E0,-1.5805423E0,-6.378478E-1,1.5281909E0,9.830887E-1,4.1905684E0,-1.1870871E-1,-1.5649459E0,2.670317E0,2.1196285E-1,7.7443023E0,3.3773239E0,7.51459E0,5.769039E0],"split_indices":[6,2,2,2,5,4,5,5,5,3,4,3,2,2,5,5,4,3,2,5,4,2,2,5,2,5,5,5,3,0,5,0,0,0,0,0,0,0,0,0,0,0,0,0,0,0,0,0,0,0,0,0,0,0,0,0,0,0,0,0,0],"split_type":[0,0,0,0,0,0,0,0,0,0,0,0,0,0,0,0,0,0,0,0,0,0,0,0,0,0,0,0,0,0,0,0,0,0,0,0,0,0,0,0,0,0,0,0,0,0,0,0,0,0,0,0,0,0,0,0,0,0,0,0,0],"sum_hessian":[3.7036E4,3.0379E4,6.657E3,2.4147E4,6.232E3,3.771E3,2.886E3,6.263E3,1.7884E4,5.015E3,1.217E3,1.992E3,1.779E3,2.59E3,2.96E2,2.177E3,4.086E3,1.106E4,6.824E3,7.61E2,4.254E3,3.02E2,9.15E2,1.038E3,9.54E2,1.332E3,4.47E2,1.01E3,1.58E3,5.2E1,2.44E2,9.06E2,1.271E3,1.655E3,2.431E3,2.119E3,8.941E3,6.605E3,2.19E2,2.27E2,5.34E2,3.628E3,6.26E2,5.8E1,2.44E2,5.14E2,4.01E2,1.008E3,3E1,8.1E1,8.73E2,1.22E3,1.12E2,3.67E2,8E1,8.47E2,1.63E2,4.02E2,1.178E3,1.58E2,8.6E1],"tree_param":{"num_deleted":"0","num_feature":"7","num_nodes":"61","size_leaf_vector":"1"}},{"base_weights":[2.4461593E-1,-1.1089743E1,5.108617E1,-1.6010246E1,8.054763E0,3.1398838E1,7.627374E1,-2.4249697E1,-1.3140864E1,4.5916E0,2.2162178E1,4.4718433E1,1.614683E1,6.846749E1,1.4758235E2,-1.9104017E1,-2.7042738E1,-1.0829618E1,-1.6898405E1,-6.533033E0,6.537128E0,-1.0800453E0,2.9987225E1,8.183493E1,3.4366993E1,2.4098894E1,-8.634588E0,4.091222E1,8.2191185E1,1.0328162E1,1.3358005E2,-1.2246883E0,-8.052541E-1,-1.5085855E0,-1.2416213E0,-7.121924E-1,-3.7333775E-1,-1.6901308E0,-8.2650197E-1,3.7742442E-1,-6.349906E-1,4.0439984E-1,-9.9182256E-2,9.9919885E-1,-3.075688E-1,1.0769732E0,2.0349307E0,4.849296E0,-5.1849717E-1,2.4381232E0,1.1977756E0,9.398677E-1,3.989292E0,-1.656097E-1,-1.6891546E0,4.8107934E0,1.8033966E0,6.945666E0,3.2093647E0,6.419824E0,9.183052E0],"categories":[],"categories_nodes":[],"categories_segments":[],"categories_sizes":[],"default_left":[0,0,0,0,0,0,0,0,0,0,0,0,0,0,0,0,0,0,0,0,0,0,0,0,0,0,0,0,0,0,0,0,0,0,0,0,0,0,0,0,0,0,0,0,0,0,0,0,0,0,0,0,0,0,0,0,0,0,0,0,0],"id":10,"left_children":[1,3,5,7,9,11,13,15,17,19,21,23,25,27,29,31,33,35,37,39,41,43,45,47,49,51,53,55,57,-1,59,-1,-1,-1,-1,-1,-1,-1,-1,-1,-1,-1,-1,-1,-1,-1,-1,-1,-1,-1,-1,-1,-1,-1,-1,-1,-1,-1,-1,-1,-1],"loss_changes":[2.1318596E7,2.8497915E6,3.341794E6,5.68653E5,3.0212322E5,7.6860925E5,1.636474E6,8.8806E4,1.548545E5,1.0756654E5,2.2173375E5,7.736745E5,3.4841916E5,1.005569E6,2.12735E5,3.5003562E4,2.709475E4,1.26834E5,4.1765625E4,6.4355703E4,5.5900547E4,3.302429E4,8.164775E4,6.156835E5,2.3593925E5,3.9351344E5,5.744371E4,2.3469875E5,1.808853E6,0E0,3.8203E4,0E0,0E0,0E0,0E0,0E0,0E0,0E0,0E0,0E0,0E0,0E0,0E0,0E0,0E0,0E0,0E0,0E0,0E0,0E0,0E0,0E0,0E0,0E0,0E0,0E0,0E0,0E0,0E0,0E0,0E0],"parents":[2147483647,0,0,1,1,2,2,3,3,4,4,5,5,6,6,7,7,8,8,9,9,10,10,11,11,12,12,13,13,14,14,15,15,16,16,17,17,18,18,19,19,20,20,21,21,22,22,23,23,24,24,25,25,26,26,27,27,28,28,30,30],"right_children":[2,4,6,8,10,12,14,16,18,20,22,24,26,28,30,32,34,36,38,40,42,44,46,48,50,52,54,56,58,-1,60,-1,-1,-1,-1,-1,-1,-1,-1,-1,-1,-1,-1,-1,-1,-1,-1,-1,-1,-1,-1,-1,-1,-1,-1,-1,-1,-1,-1,-1,-1],"split_conditions":[6E0,1.0415E2,2.3455E2,5.335E1,1.49075E1,8.369E1,6.86875E0,1.136625E1,-1.68875E0,2.875E0,7.98E1,2.205E1,2.22E2,2.9265E2,7.665E0,6.75875E0,3.897E1,4.8E-1,3.957E1,1.1525E1,8.514E1,1.355E2,1.3835E2,7.47875E0,2.45E1,6.235E0,8.46E0,8.217E1,6E0,1.0328162E1,2.7508E2,-1.2246883E0,-8.052541E-1,-1.5085855E0,-1.2416213E0,-7.121924E-1,-3.7333775E-1,-1.6901308E0,-8.2650197E-1,3.7742442E-1,-6.349906E-1,4.0439984E-1,-9.9182256E-2,9.9919885E-1,-3.075688E-1,1.0769732E0,2.0349307E0,4.849296E0,-5.1849717E-1,2.4381232E0,1.1977756E0,9.398677E-1,3.989292E0,-1.656097E-1,-1.6891546E0,4.8107934E0,1.8033966E0,6.945666E0,3.2093647E0,6.419824E0,9.183052E0],"split_indices":[6,2,2,2,5,4,5,5,5,3,4,3,2,2,5,5,4,3,4,5,4,2,2,5,3,5,5,4,3,0,2,0,0,0,0,0,0,0,0,0,0,0,0,0,0,0,0,0,0,0,0,0,0,0,0,0,0,0,0,0,0],"split_type":[0,0,0,0,0,0,0,0,0,0,0,0,0,0,0,0,0,0,0,0,0,0,0,0,0,0,0,0,0,0,0,0,0,0,0,0,0,0,0,0,0,0,0,0,0,0,0,0,0,0,0,0,0,0,0,0,0,0,0,0,0],"sum_hessian":[3.6993E4,3.025E4,6.743E3,2.4065E4,6.185E3,3.786E3,2.957E3,6.214E3,1.7851E4,4.967E3,1.218E3,2.02E3,1.766E3,2.667E3,2.9E2,2.189E3,4.025E3,1.1055E4,6.796E3,7.39E2,4.228E3,3.07E2,9.11E2,4.39E2,1.581E3,1.337E3,4.29E2,8.88E2,1.779E3,5.3E1,2.37E2,7.8E2,1.409E3,1.661E3,2.364E3,5.484E3,5.571E3,1.43E2,6.653E3,2.25E2,5.14E2,3.577E3,6.51E2,5.9E1,2.48E2,5.11E2,4E2,3.77E2,6.2E1,6.62E2,9.19E2,1.222E3,1.15E2,3.55E2,7.4E1,7E1,8.18E2,4.27E2,1.352E3,2.18E2,1.9E1],"tree_param":{"num_deleted":"0","num_feature":"7","num_nodes":"61","size_leaf_vector":"1"}},{"base_weights":[1.2878504E-1,-9.552128E0,5.5351562E1,-1.4736171E1,1.1558218E1,3.2544563E1,9.620674E1,-2.4040855E1,-1.118349E1,-4.90713E0,2.4565882E1,6.3879614E0,4.8594727E1,7.523201E1,1.4722864E2,-2.0593567E1,-3.019815E1,-1.4794028E1,-2.526621E0,-1.6670961E1,-1.8525683E0,1.830957E1,4.0687393E1,-9.4274735E-1,3.632526E1,3.8559002E1,9.130478E1,6.8676865E1,1.2338956E2,1.3746317E2,1.9800078E2,-1.3700813E0,-8.7741625E-1,-1.1605147E0,-1.6503887E0,-8.745534E-1,-3.4774995E-1,-2.8172383E-1,1.962059E-1,-6.707596E-1,-1.5524719E0,-2.4966829E-1,2.789001E-1,7.2667694E-1,1.529779E0,1.5514561E0,3.214457E0,-8.556625E-1,3.055799E-1,1.1781033E0,3.3229244E0,2.3185363E0,1.0724925E0,5.0052266E0,1.1766543E0,1.965154E0,3.739212E0,4.1443043E0,6.5330415E0,7.1293335E0,3.2804444E0,8.086168E0,1.1189413E1],"categories":[],"categories_nodes":[],"categories_segments":[],"categories_sizes":[],"default_left":[0,0,0,0,0,0,0,0,0,0,0,0,0,0,0,0,0,0,0,0,0,0,0,0,0,0,0,0,0,0,0,0,0,0,0,0,0,0,0,0,0,0,0,0,0,0,0,0,0,0,0,0,0,0,0,0,0,0,0,0,0,0,0],"id":11,"left_children":[1,3,5,7,9,11,13,15,17,19,21,23,25,27,29,31,33,35,37,39,41,43,45,47,49,51,53,55,57,59,61,-1,-1,-1,-1,-1,-1,-1,-1,-1,-1,-1,-1,-1,-1,-1,-1,-1,-1,-1,-1,-1,-1,-1,-1,-1,-1,-1,-1,-1,-1,-1,-1],"loss_changes":[1.9684222E7,3.4286108E6,5.114226E6,8.311705E5,1.3230839E6,1.479967E6,2.09395E6,1.468775E5,5.68946E5,9.7959375E4,3.4732725E5,2.9455175E5,9.33028E5,4.322155E5,2.56387E5,9.194325E4,4.816E4,2.7147075E5,1.0745914E5,2.589236E4,5.0577773E4,1.149795E5,2.17751E5,1.2318861E5,9.996753E4,2.357025E5,2.451395E5,2.17898E5,3.8059E4,1.6846E5,4.80035E4,0E0,0E0,0E0,0E0,0E0,0E0,0E0,0E0,0E0,0E0,0E0,0E0,0E0,0E0,0E0,0E0,0E0,0E0,0E0,0E0,0E0,0E0,0E0,0E0,0E0,0E0,0E0,0E0,0E0,0E0,0E0,0E0],"parents":[2147483647,0,0,1,1,2,2,3,3,4,4,5,5,6,6,7,7,8,8,9,9,10,10,11,11,12,12,13,13,14,14,15,15,16,16,17,17,18,18,19,19,20,20,21,21,22,22,23,23,24,24,25,25,26,26,27,27,28,28,29,29,30,30],"right_children":[2,4,6,8,10,12,14,16,18,20,22,24,26,28,30,32,34,36,38,40,42,44,46,48,50,52,54,56,58,60,62,-1,-1,-1,-1,-1,-1,-1,-1,-1,-1,-1,-1,-1,-1,-1,-1,-1,-1,-1,-1,-1,-1,-1,-1,-1,-1,-1,-1,-1,-1,-1,-1],"split_conditions":[7.7351E1,3.1821E1,2.2269E3,1.1618E3,1.417E3,6.895E2,1.25445E2,6E0,2.089E1,-6.897E2,3.0674E3,1.19639E2,1.34316E2,3.6959E3,3.3825E3,-1.66E1,-9.3875E-1,3.2182E3,2.9201E3,6.4812E1,9.169E2,5.5156E1,5.5156E1,-2.174E2,5.85125E0,2.205E1,6.8E0,5.06E0,8.3288E1,2.275E1,7.0725E0,-1.3700813E0,-8.7741625E-1,-1.1605147E0,-1.6503887E0,-8.745534E-1,-3.4774995E-1,-2.8172383E-1,1.962059E-1,-6.707596E-1,-1.5524719E0,-2.4966829E-1,2.789001E-1,7.2667694E-1,1.529779E0,1.5514561E0,3.214457E0,-8.556625E-1,3.055799E-1,1.1781033E0,3.3229244E0,2.3185363E0,1.0724925E0,5.0052266E0,1.1766543E0,1.965154E0,3.739212E0,4.1443043E0,6.5330415E0,7.1293335E0,3.2804444E0,8.086168E0,1.1189413E1],"split_indices":[1,1,0,0,0,0,1,3,1,0,0,1,1,0,0,0,5,0,0,1,0,1,1,0,5,3,3,3,1,3,5,0,0,0,0,0,0,0,0,0,0,0,0,0,0,0,0,0,0,0,0,0,0,0,0,0,0,0,0,0,0,0,0],"split_type":[0,0,0,0,0,0,0,0,0,0,0,0,0,0,0,0,0,0,0,0,0,0,0,0,0,0,0,0,0,0,0,0,0,0,0,0,0,0,0,0,0,0,0,0,0,0,0,0,0,0,0,0,0,0,0,0,0,0,0,0,0,0,0],"sum_hessian":[3.6818E4,3.1327E4,5.491E3,2.5151E4,6.176E3,3.525E3,1.966E3,6.948E3,1.8203E4,2.726E3,3.45E3,1.341E3,2.184E3,1.395E3,5.71E2,4.457E3,2.491E3,1.2845E4,5.358E3,5.61E2,2.165E3,2.487E3,9.63E2,1.078E3,2.63E2,1.77E3,4.14E2,1.23E3,1.65E2,4.82E2,8.9E1,1.375E3,3.082E3,7.17E2,1.774E3,9.556E3,3.289E3,3.616E3,1.742E3,4.59E2,1.02E2,1.522E3,6.43E2,1.904E3,5.83E2,6.85E2,2.78E2,3.27E2,7.51E2,1.86E2,7.7E1,1.214E3,5.56E2,3.66E2,4.8E1,2.13E2,1.017E3,2.7E1,1.38E2,4.49E2,3.3E1,4E1,4.9E1],"tree_param":{"num_deleted":"0","num_feature":"7","num_nodes":"63","size_leaf_vector":"1"}},{"base_weights":[-3.716899E-2,-9.082763E0,5.1602608E1,-1.4031411E1,1.1166945E1,3.853738E1,9.9638054E1,-1.7479557E1,-6.751349E0,9.352153E0,3.3307602E1,7.514398E1,3.5451355E1,4.839958E1,1.08984985E2,-2.7715807E1,-1.621209E1,-1.03102455E1,-4.544085E0,1.0146867E1,-1.947826E1,3.6351215E1,-5.4718165E0,5.1298534E1,1.0089243E2,2.6707743E1,5.464649E1,5.2282055E1,2.1829839E-1,1.2956923E2,9.114425E1,-1.4046055E0,-8.0717844E-1,-9.9664575E-1,-7.3248035E-1,-8.508301E-1,-3.911432E-1,-2.0745663E-1,-8.431142E-1,3.3859876E-1,8.5816365E-1,-4.5458412E-1,-1.2829391E0,1.2382338E0,2.6961935E0,5.4737115E-1,-1.0793533E0,2.823346E0,2.673719E-1,6.018674E0,4.168207E0,2.158915E0,8.7276596E-1,2.2248585E0,3.33738E0,5.6971693E-1,2.8846934E0,6.7280083E0,3.6057222E0,-5.3645235E-1,5.138347E0],"categories":[],"categories_nodes":[],"categories_segments":[],"categories_sizes":[],"default_left":[0,0,0,0,0,0,0,0,0,0,0,0,0,0,0,0,0,0,0,0,0,0,0,0,0,0,0,0,0,0,0,0,0,0,0,0,0,0,0,0,0,0,0,0,0,0,0,0,0,0,0,0,0,0,0,0,0,0,0,0,0],"id":12,"left_children":[1,3,5,7,9,11,13,15,17,19,21,23,25,27,29,31,33,35,37,39,41,43,45,47,49,51,53,55,-1,57,59,-1,-1,-1,-1,-1,-1,-1,-1,-1,-1,-1,-1,-1,-1,-1,-1,-1,-1,-1,-1,-1,-1,-1,-1,-1,-1,-1,-1,-1,-1],"loss_changes":[1.731726E7,3.1614398E6,3.464243E6,6.36287E5,2.4864825E5,4.88299E5,5.60333E5,2.22744E5,6.3974875E4,1.3143719E5,5.555478E4,2.0173675E5,6.71558E5,3.1228281E4,3.54694E5,7.79425E3,8.871625E4,5.189578E4,2.4411234E4,1.3189762E5,9.652664E3,8.723331E4,9.497328E3,4.173428E4,4.494175E4,4.1939275E5,1.5104375E5,3.6738344E4,0E0,1.224895E5,6.381175E5,0E0,0E0,0E0,0E0,0E0,0E0,0E0,0E0,0E0,0E0,0E0,0E0,0E0,0E0,0E0,0E0,0E0,0E0,0E0,0E0,0E0,0E0,0E0,0E0,0E0,0E0,0E0,0E0,0E0,0E0],"parents":[2147483647,0,0,1,1,2,2,3,3,4,4,5,5,6,6,7,7,8,8,9,9,10,10,11,11,12,12,13,13,14,14,15,15,16,16,17,17,18,18,19,19,20,20,21,21,22,22,23,23,24,24,25,25,26,26,27,27,29,29,30,30],"right_children":[2,4,6,8,10,12,14,16,18,20,22,24,26,28,30,32,34,36,38,40,42,44,46,48,50,52,54,56,-1,58,60,-1,-1,-1,-1,-1,-1,-1,-1,-1,-1,-1,-1,-1,-1,-1,-1,-1,-1,-1,-1,-1,-1,-1,-1,-1,-1,-1,-1,-1,-1],"split_conditions":[7.7351E1,3.1821E1,1.2962E2,2.0045E1,2.54E1,7.555E1,2.22E2,3.957E1,4.8E-1,1.9275E2,8.48E1,7.281E1,1.0246E2,8.556E1,9.062E1,2.95E1,5.335E1,9.175E1,8.5E1,8.318E1,6.5022E1,6.6809E1,2.64E1,9.4875E1,1.01708E2,8.369E1,9.7853E1,1.425E2,2.1829839E-1,1.87793E2,2.655E2,-1.4046055E0,-8.0717844E-1,-9.9664575E-1,-7.3248035E-1,-8.508301E-1,-3.911432E-1,-2.0745663E-1,-8.431142E-1,3.3859876E-1,8.5816365E-1,-4.5458412E-1,-1.2829391E0,1.2382338E0,2.6961935E0,5.4737115E-1,-1.0793533E0,2.823346E0,2.673719E-1,6.018674E0,4.168207E0,2.158915E0,8.7276596E-1,2.2248585E0,3.33738E0,5.6971693E-1,2.8846934E0,6.7280083E0,3.6057222E0,-5.3645235E-1,5.138347E0],"split_indices":[1,1,1,1,3,4,2,4,3,2,4,4,4,4,4,3,2,2,4,4,1,1,3,1,1,4,1,2,0,1,2,0,0,0,0,0,0,0,0,0,0,0,0,0,0,0,0,0,0,0,0,0,0,0,0,0,0,0,0,0,0],"split_type":[0,0,0,0,0,0,0,0,0,0,0,0,0,0,0,0,0,0,0,0,0,0,0,0,0,0,0,0,0,0,0,0,0,0,0,0,0,0,0,0,0,0,0,0,0,0,0,0,0,0,0,0,0,0,0,0,0,0,0,0,0],"sum_hessian":[3.7071E4,3.1546E4,5.525E3,2.5351E4,6.195E3,4.345E3,1.18E3,1.7202E4,8.149E3,5.727E3,4.68E2,3.36E2,4.009E3,1.83E2,9.97E2,1.893E3,1.5309E4,3.118E3,5.031E3,5.574E3,1.53E2,4.34E2,3.4E1,1.76E2,1.6E2,2.756E3,1.253E3,1.68E2,1.5E1,4.6E2,5.37E2,1.832E3,6.1E1,4.524E3,1.0785E4,8.42E2,2.276E3,4.876E3,1.55E2,3.765E3,1.809E3,5.8E1,9.5E1,2.63E2,1.71E2,1.7E1,1.7E1,1.58E2,1.8E1,7.3E1,8.7E1,9.9E2,1.766E3,6.84E2,5.69E2,2E1,1.48E2,4.22E2,3.8E1,5.5E1,4.82E2],"tree_param":{"num_deleted":"0","num_feature":"7","num_nodes":"61","size_leaf_vector":"1"}},{"base_weights":[-3.4511602E-3,-8.643834E0,4.987592E1,-1.3241653E1,1.0206837E1,2.817121E1,8.778471E1,-2.0190151E1,-8.979175E0,-6.7971215E0,2.183418E1,6.982865E0,4.3788002E1,6.720607E1,1.2571133E2,-2.2978256E1,-1.3379866E1,-1.1496901E1,1.3279192E0,-1.899376E1,-4.144695E0,1.5857516E1,3.731454E1,-4.091561E0,2.7124094E1,3.6623234E1,9.228701E1,2.3261812E1,7.3918625E1,1.109761E2,1.5772606E2,-9.952604E-1,-1.3350285E0,-1.2133027E0,-5.276472E-1,-7.2877467E-1,-2.7784443E-1,-7.750554E-2,3.0546898E-1,-7.617066E-1,-1.7771453E0,-3.5746574E-1,1.0178184E-1,6.39785E-1,1.2977318E0,1.394703E0,3.000672E0,-1.0693858E0,1.421558E-1,1.2090486E0,4.8093557E0,2.2187233E0,9.6419936E-1,3.7436817E0,6.8302665E0,2.0160213E0,2.023617E-1,3.0366676E0,4.717176E0,4.485254E0,6.576243E0,5.304179E0,9.240468E0],"categories":[],"categories_nodes":[],"categories_segments":[],"categories_sizes":[],"default_left":[0,0,0,0,0,0,0,0,0,0,0,0,0,0,0,0,0,0,0,0,0,0,0,0,0,0,0,0,0,0,0,0,0,0,0,0,0,0,0,0,0,0,0,0,0,0,0,0,0,0,0,0,0,0,0,0,0,0,0,0,0,0,0],"id":13,"left_children":[1,3,5,7,9,11,13,15,17,19,21,23,25,27,29,31,33,35,37,39,41,43,45,47,49,51,53,55,57,59,61,-1,-1,-1,-1,-1,-1,-1,-1,-1,-1,-1,-1,-1,-1,-1,-1,-1,-1,-1,-1,-1,-1,-1,-1,-1,-1,-1,-1,-1,-1,-1,-1],"loss_changes":[1.5893565E7,2.7244955E6,4.477669E6,7.482605E5,1.2188382E6,1.145911E6,1.538459E6,1.821085E5,4.0650275E5,8.092741E4,3.3812725E5,3.2822125E5,6.895035E5,3.77917E5,3.10831E5,7.74245E4,8.5696875E4,2.3013262E5,4.2338875E4,2.727025E4,3.8230676E4,8.137769E4,2.162235E5,1.1400689E5,1.0377631E5,2.3286675E5,1.8733525E5,5.6213945E4,2.94818E5,1.980065E5,2.839015E5,0E0,0E0,0E0,0E0,0E0,0E0,0E0,0E0,0E0,0E0,0E0,0E0,0E0,0E0,0E0,0E0,0E0,0E0,0E0,0E0,0E0,0E0,0E0,0E0,0E0,0E0,0E0,0E0,0E0,0E0,0E0,0E0],"parents":[2147483647,0,0,1,1,2,2,3,3,4,4,5,5,6,6,7,7,8,8,9,9,10,10,11,11,12,12,13,13,14,14,15,15,16,16,17,17,18,18,19,19,20,20,21,21,22,22,23,23,24,24,25,25,26,26,27,27,28,28,29,29,30,30],"right_children":[2,4,6,8,10,12,14,16,18,20,22,24,26,28,30,32,34,36,38,40,42,44,46,48,50,52,54,56,58,60,62,-1,-1,-1,-1,-1,-1,-1,-1,-1,-1,-1,-1,-1,-1,-1,-1,-1,-1,-1,-1,-1,-1,-1,-1,-1,-1,-1,-1,-1,-1,-1,-1],"split_conditions":[7.7351E1,3.1821E1,2.2138E3,1.6387E3,1.2377E3,7.865E2,1.14786E2,2.089E1,2.258E1,-9.273E2,3.0377E3,2.495E2,1.56207E2,5.06E0,3.1176E3,6E0,-1.66E1,3.1036E3,2.9061E3,6.4812E1,1.486E2,5.5156E1,5.5156E1,-2.174E2,1.94259E2,2.25E1,3.35E2,2.69E2,3.0674E3,3.135E2,2.22E2,-9.952604E-1,-1.3350285E0,-1.2133027E0,-5.276472E-1,-7.2877467E-1,-2.7784443E-1,-7.750554E-2,3.0546898E-1,-7.617066E-1,-1.7771453E0,-3.5746574E-1,1.0178184E-1,6.39785E-1,1.2977318E0,1.394703E0,3.000672E0,-1.0693858E0,1.421558E-1,1.2090486E0,4.8093557E0,2.2187233E0,9.6419936E-1,3.7436817E0,6.8302665E0,2.0160213E0,2.023617E-1,3.0366676E0,4.717176E0,4.485254E0,6.576243E0,5.304179E0,9.240468E0],"split_indices":[1,1,0,0,0,0,1,1,1,0,0,2,1,3,0,3,0,0,0,1,2,1,1,0,1,3,2,2,0,2,2,0,0,0,0,0,0,0,0,0,0,0,0,0,0,0,0,0,0,0,0,0,0,0,0,0,0,0,0,0,0,0,0],"split_type":[0,0,0,0,0,0,0,0,0,0,0,0,0,0,0,0,0,0,0,0,0,0,0,0,0,0,0,0,0,0,0,0,0,0,0,0,0,0,0,0,0,0,0,0,0,0,0,0,0,0,0,0,0,0,0,0,0,0,0,0,0,0,0],"sum_hessian":[3.6876E4,3.1432E4,5.444E3,2.5269E4,6.163E3,3.463E3,1.981E3,9.606E3,1.5663E4,2.503E3,3.66E3,1.47E3,1.993E3,1.286E3,6.95E2,6.814E3,2.792E3,1.2588E4,3.075E3,4.46E2,2.057E3,2.642E3,1.018E3,9.49E2,5.21E2,1.738E3,2.55E2,1.71E2,1.115E3,4.79E2,2.16E2,3.736E3,3.078E3,5.74E2,2.218E3,8.29E3,4.298E3,1.92E3,1.155E3,3.65E2,8.1E1,1.384E3,6.73E2,2.029E3,6.13E2,7.21E2,2.97E2,2.71E2,6.78E2,5.01E2,2E1,1.2E3,5.38E2,1.85E2,7E1,9E1,8.1E1,6.8E2,4.35E2,2.38E2,2.41E2,7.6E1,1.4E2],"tree_param":{"num_deleted":"0","num_feature":"7","num_nodes":"63","size_leaf_vector":"1"}},{"base_weights":[-2.1370912E-2,-7.3797593E0,5.2922302E1,-1.2596565E1,1.1468409E1,1.9372046E1,7.416865E1,-1.9329647E1,-8.564195E0,-2.7613065E0,2.5614538E1,9.131081E0,4.008503E1,5.7643116E1,1.1468942E2,-2.6108582E1,-1.6433647E1,-1.1237923E1,7.830887E-1,-1.0137482E1,4.397768E0,1.716953E1,4.1593586E1,2.7030422E1,-1.7872775E0,8.654222E1,3.150529E1,4.8731438E1,8.9561714E1,4.849596E1,1.237281E2,-1.5786729E0,-1.1735059E0,-1.1449342E0,-6.9885457E-1,-6.7616576E-1,-2.0225911E-1,-3.9648212E-2,5.2346617E-1,-8.469569E-1,-3.295395E-1,4.507407E-2,1.1190361E0,5.5366063E-1,1.2125361E0,1.5518299E0,3.0301232E0,4.9068666E-1,2.4078941E0,-1.5458081E0,2.3066938E-1,3.2200074E0,9.246215E0,-8.756095E-1,1.8669033E0,2.0564544E0,3.05725E0,3.9680545E0,6.5879974E0,1.5763019E0,3.2078285E0,5.639909E0,8.45206E0],"categories":[],"categories_nodes":[],"categories_segments":[],"categories_sizes":[],"default_left":[0,0,0,0,0,0,0,0,0,0,0,0,0,0,0,0,0,0,0,0,0,0,0,0,0,0,0,0,0,0,0,0,0,0,0,0,0,0,0,0,0,0,0,0,0,0,0,0,0,0,0,0,0,0,0,0,0,0,0,0,0,0,0],"id":14,"left_children":[1,3,5,7,9,11,13,15,17,19,21,23,25,27,29,31,33,35,37,39,41,43,45,47,49,51,53,55,57,59,61,-1,-1,-1,-1,-1,-1,-1,-1,-1,-1,-1,-1,-1,-1,-1,-1,-1,-1,-1,-1,-1,-1,-1,-1,-1,-1,-1,-1,-1,-1,-1,-1],"loss_changes":[1.445615E7,3.203547E6,3.226215E6,6.9262825E5,1.42182E6,3.7233056E5,1.849594E6,1.87192E5,3.989075E5,1.8602938E5,4.772545E5,2.3007111E5,2.2885456E5,5.56284E5,4.73838E5,4.04825E4,1.0607175E5,2.0396038E5,5.421793E4,4.1742438E4,1.1239776E5,9.984081E4,2.4374725E5,1.6175766E5,1.3661981E5,1.8414531E5,1.413206E5,1.4310125E5,1.742055E5,2.4021812E4,3.30097E5,0E0,0E0,0E0,0E0,0E0,0E0,0E0,0E0,0E0,0E0,0E0,0E0,0E0,0E0,0E0,0E0,0E0,0E0,0E0,0E0,0E0,0E0,0E0,0E0,0E0,0E0,0E0,0E0,0E0,0E0,0E0,0E0],"parents":[2147483647,0,0,1,1,2,2,3,3,4,4,5,5,6,6,7,7,8,8,9,9,10,10,11,11,12,12,13,13,14,14,15,15,16,16,17,17,18,18,19,19,20,20,21,21,22,22,23,23,24,24,25,25,26,26,27,27,28,28,29,29,30,30],"right_children":[2,4,6,8,10,12,14,16,18,20,22,24,26,28,30,32,34,36,38,40,42,44,46,48,50,52,54,56,58,60,62,-1,-1,-1,-1,-1,-1,-1,-1,-1,-1,-1,-1,-1,-1,-1,-1,-1,-1,-1,-1,-1,-1,-1,-1,-1,-1,-1,-1,-1,-1,-1,-1],"split_conditions":[8.7338E1,3.2289E1,1.3465E3,1.6046E3,1.6549E3,2.7065E2,1.2962E2,5.857E1,2.214E1,4.129E2,5.5156E1,8.369E1,8.855E1,3.1176E3,1.9275E2,3.624E2,1.568E2,3.365E3,1.06E2,-6.897E2,8.733E1,2.7319E3,2.9201E3,9.7853E1,-2.548E2,8.819E1,9.162E1,1.0464E2,3.9573E3,2.3888E3,3.1176E3,-1.5786729E0,-1.1735059E0,-1.1449342E0,-6.9885457E-1,-6.7616576E-1,-2.0225911E-1,-3.9648212E-2,5.2346617E-1,-8.469569E-1,-3.295395E-1,4.507407E-2,1.1190361E0,5.5366063E-1,1.2125361E0,1.5518299E0,3.0301232E0,4.9068666E-1,2.4078941E0,-1.5458081E0,2.3066938E-1,3.2200074E0,9.246215E0,-8.756095E-1,1.8669033E0,2.0564544E0,3.05725E0,3.9680545E0,6.5879974E0,1.5763019E0,3.2078285E0,5.639909E0,8.45206E0],"split_indices":[1,1,0,0,0,2,1,4,1,0,1,4,4,0,2,0,0,0,2,0,4,0,0,1,0,4,4,4,0,0,0,0,0,0,0,0,0,0,0,0,0,0,0,0,0,0,0,0,0,0,0,0,0,0,0,0,0,0,0,0,0,0,0],"split_type":[0,0,0,0,0,0,0,0,0,0,0,0,0,0,0,0,0,0,0,0,0,0,0,0,0,0,0,0,0,0,0,0,0,0,0,0,0,0,0,0,0,0,0,0,0,0,0,0,0,0,0,0,0,0,0,0,0,0,0,0,0,0,0],"sum_hessian":[3.7105E4,3.2578E4,4.527E3,2.5516E4,7.062E3,1.756E3,2.771E3,9.556E3,1.596E4,3.521E3,3.541E3,1.176E3,5.8E2,1.97E3,8.01E2,2.858E3,6.698E3,1.241E4,3.55E3,1.734E3,1.787E3,2.318E3,1.223E3,4.45E2,7.31E2,8.9E1,4.91E2,1.542E3,4.28E2,9.7E1,7.04E2,9.27E2,1.931E3,1.842E3,4.856E3,9.417E3,2.993E3,3.054E3,4.96E2,5.93E2,1.141E3,1.497E3,2.9E2,1.247E3,1.071E3,7.88E2,4.35E2,2.46E2,1.99E2,1.31E2,6E2,7.4E1,1.5E1,5.2E1,4.39E2,9.59E2,5.83E2,3.47E2,8.1E1,4.8E1,4.9E1,5.7E2,1.34E2],"tree_param":{"num_deleted":"0","num_feature":"7","num_nodes":"63","size_leaf_vector":"1"}},{"base_weights":[1.1409013E-2,-6.8837695E0,4.9852123E1,-1.2009015E1,1.0931125E1,3.7615044E1,8.479046E1,-1.5352767E1,-5.932499E0,5.5591707E0,1.5820315E1,3.35051E1,8.002643E1,9.580332E1,4.8890957E1,-1.3238722E1,-2.1214598E1,-1.6732763E1,-4.757389E0,2.4478428E0,9.462425E0,1.2448808E1,2.5217245E1,4.091129E1,-3.9752967E0,8.703809E1,3.929438E1,1.0180698E2,7.719592E0,2.7240545E1,1.2979698E2,-6.1701876E-1,-8.2443684E-1,-1.2124904E0,-9.6709937E-1,-6.530664E-1,-1.0013133E0,-4.332448E-1,-1.6858517E-1,1.7702827E-1,-1.1432811E0,9.5764905E-1,3.523919E-1,8.0369276E-1,-5.828305E-1,1.054116E0,2.2689342E0,2.5909896E0,1.240293E0,-5.68355E-1,8.4431326E-1,5.6489024E0,3.957116E0,1.219692E0,2.6243236E0,6.3285804E0,4.5654416E0,-1.3834275E0,4.0907326E0,2.1205041E0,-1.1146295E0,1.9530987E0,6.7897363E0],"categories":[],"categories_nodes":[],"categories_segments":[],"categories_sizes":[],"default_left":[0,0,0,0,0,0,0,0,0,0,0,0,0,0,0,0,0,0,0,0,0,0,0,0,0,0,0,0,0,0,0,0,0,0,0,0,0,0,0,0,0,0,0,0,0,0,0,0,0,0,0,0,0,0,0,0,0,0,0,0,0,0,0],"id":15,"left_children":[1,3,5,7,9,11,13,15,17,19,21,23,25,27,29,31,33,35,37,39,41,43,45,47,49,51,53,55,57,59,61,-1,-1,-1,-1,-1,-1,-1,-1,-1,-1,-1,-1,-1,-1,-1,-1,-1,-1,-1,-1,-1,-1,-1,-1,-1,-1,-1,-1,-1,-1,-1,-1],"loss_changes":[1.2730563E7,2.9714015E6,1.92161E6,5.133945E5,1.9088138E5,5.78812E5,4.56697E5,2.0172425E5,1.1378853E5,4.2069008E4,1.2026706E5,8.4486E5,8.0546125E4,4.709245E5,4.799193E5,3.47825E4,2.407925E4,1.0379281E4,4.3790953E4,5.34659E4,3.5828797E4,2.4512269E5,8.274281E4,4.451325E5,7.775684E4,4.2262625E4,7.5652734E3,2.05529E5,1.543447E5,1.6550089E5,2.62595E4,0E0,0E0,0E0,0E0,0E0,0E0,0E0,0E0,0E0,0E0,0E0,0E0,0E0,0E0,0E0,0E0,0E0,0E0,0E0,0E0,0E0,0E0,0E0,0E0,0E0,0E0,0E0,0E0,0E0,0E0,0E0,0E0],"parents":[2147483647,0,0,1,1,2,2,3,3,4,4,5,5,6,6,7,7,8,8,9,9,10,10,11,11,12,12,13,13,14,14,15,15,16,16,17,17,18,18,19,19,20,20,21,21,22,22,23,23,24,24,25,25,26,26,27,27,28,28,29,29,30,30],"right_children":[2,4,6,8,10,12,14,16,18,20,22,24,26,28,30,32,34,36,38,40,42,44,46,48,50,52,54,56,58,60,62,-1,-1,-1,-1,-1,-1,-1,-1,-1,-1,-1,-1,-1,-1,-1,-1,-1,-1,-1,-1,-1,-1,-1,-1,-1,-1,-1,-1,-1,-1,-1,-1],"split_conditions":[8.7338E1,3.1821E1,1.2962E2,1.93E1,4.498E1,6.235E0,6E0,1.1495E1,-1.830375E1,7.644E1,8.613E1,2.8375E0,7.47875E0,9.792E1,3.35E2,2.7E1,3.897E1,3.95E-1,4.4E-1,1.544625E1,1.028875E1,2.1375E2,1.495625E1,2.205E1,5.18125E0,7.928E1,2.1375E2,-2.0125E-1,9.857E1,1.87793E2,1.34316E2,-6.1701876E-1,-8.2443684E-1,-1.2124904E0,-9.6709937E-1,-6.530664E-1,-1.0013133E0,-4.332448E-1,-1.6858517E-1,1.7702827E-1,-1.1432811E0,9.5764905E-1,3.523919E-1,8.0369276E-1,-5.828305E-1,1.054116E0,2.2689342E0,2.5909896E0,1.240293E0,-5.68355E-1,8.4431326E-1,5.6489024E0,3.957116E0,1.219692E0,2.6243236E0,6.3285804E0,4.5654416E0,-1.3834275E0,4.0907326E0,2.1205041E0,-1.1146295E0,1.9530987E0,6.7897363E0],"split_indices":[1,1,1,1,1,5,3,5,5,4,4,5,5,4,2,3,4,3,3,5,5,2,5,3,5,4,2,5,4,1,1,0,0,0,0,0,0,0,0,0,0,0,0,0,0,0,0,0,0,0,0,0,0,0,0,0,0,0,0,0,0,0,0],"split_type":[0,0,0,0,0,0,0,0,0,0,0,0,0,0,0,0,0,0,0,0,0,0,0,0,0,0,0,0,0,0,0,0,0,0,0,0,0,0,0,0,0,0,0,0,0,0,0,0,0,0,0,0,0,0,0,0,0,0,0,0,0,0,0],"sum_hessian":[3.7042E4,3.2541E4,4.501E3,2.5271E4,7.27E3,3.335E3,1.166E3,1.63E4,8.971E3,3.465E3,3.805E3,3.042E3,2.93E2,8.91E2,2.75E2,1.1982E4,4.318E3,8.79E2,8.092E3,1.929E3,1.536E3,2.802E3,1.003E3,2.54E3,5.02E2,2.49E2,4.4E1,8.34E2,5.7E1,2.18E2,5.7E1,9.391E3,2.591E3,1.643E3,2.675E3,4.18E2,4.61E2,2.117E3,5.975E3,1.85E3,7.9E1,3.05E2,1.231E3,2.436E3,3.66E2,8.34E2,1.69E2,1.513E3,1.027E3,3.71E2,1.31E2,5.5E1,1.94E2,2.2E1,2.2E1,2.45E2,5.89E2,3.9E1,1.8E1,1.67E2,5.1E1,4E0,5.3E1],"tree_param":{"num_deleted":"0","num_feature":"7","num_nodes":"63","size_leaf_vector":"1"}},{"base_weights":[4.1963633E-2,-8.117439E0,3.732173E1,-1.2045393E1,5.1846356E0,1.7473183E1,6.6894585E1,-1.6113161E1,-5.6720405E0,-8.937668E0,1.239568E1,8.721028E0,4.6961243E1,5.6332657E1,8.918649E1,-2.0609285E1,-1.3185993E1,-7.6951103E0,1.3826736E0,-1.5015137E1,-4.968353E0,8.804552E0,2.6660952E1,-2.5158474E0,2.294741E1,3.1945135E1,7.300752E1,4.657542E1,7.622801E1,1.1705734E2,7.086369E1,-1.2400244E0,-9.194418E-1,-9.4408315E-1,-5.533929E-1,-3.1458506E-1,-8.1326765E-1,-7.589259E-2,3.4846E-1,-1.1240089E0,-5.5491537E-1,-8.850323E-1,-1.4184877E-1,9.647825E-2,6.104487E-1,9.2726165E-1,2.046786E0,1.4837016E0,-3.2137412E-1,8.651437E-1,2.689402E0,-2.06116E0,1.6915559E0,1.8216218E0,4.650243E0,5.353023E0,2.255778E0,4.0247073E0,1.1781423E0,6.065299E0,3.284329E0,6.2021154E-1,5.015582E0],"categories":[],"categories_nodes":[],"categories_segments":[],"categories_sizes":[],"default_left":[0,0,0,0,0,0,0,0,0,0,0,0,0,0,0,0,0,0,0,0,0,0,0,0,0,0,0,0,0,0,0,0,0,0,0,0,0,0,0,0,0,0,0,0,0,0,0,0,0,0,0,0,0,0,0,0,0,0,0,0,0,0,0],"id":16,"left_children":[1,3,5,7,9,11,13,15,17,19,21,23,25,27,29,31,33,35,37,39,41,43,45,47,49,51,53,55,57,59,61,-1,-1,-1,-1,-1,-1,-1,-1,-1,-1,-1,-1,-1,-1,-1,-1,-1,-1,-1,-1,-1,-1,-1,-1,-1,-1,-1,-1,-1,-1,-1,-1],"loss_changes":[1.1254682E7,1.5861618E6,3.898714E6,6.0749425E5,7.049216E5,1.02599075E6,6.23144E5,1.8799475E5,1.3034419E5,5.6374125E4,2.3449388E5,4.905085E5,3.5358112E5,3.48396E5,4.288405E5,5.202275E4,1.04351375E5,8.525725E4,3.3001637E4,2.6767625E4,3.840337E4,8.568684E4,1.0593875E5,2.1613503E5,2.34775E5,8.129331E4,2.3943788E5,1.028075E5,1.3178575E5,6.58025E4,8.9221975E5,0E0,0E0,0E0,0E0,0E0,0E0,0E0,0E0,0E0,0E0,0E0,0E0,0E0,0E0,0E0,0E0,0E0,0E0,0E0,0E0,0E0,0E0,0E0,0E0,0E0,0E0,0E0,0E0,0E0,0E0,0E0,0E0],"parents":[2147483647,0,0,1,1,2,2,3,3,4,4,5,5,6,6,7,7,8,8,9,9,10,10,11,11,12,12,13,13,14,14,15,15,16,16,17,17,18,18,19,19,20,20,21,21,22,22,23,23,24,24,25,25,26,26,27,27,28,28,29,29,30,30],"right_children":[2,4,6,8,10,12,14,16,18,20,22,24,26,28,30,32,34,36,38,40,42,44,46,48,50,52,54,56,58,60,62,-1,-1,-1,-1,-1,-1,-1,-1,-1,-1,-1,-1,-1,-1,-1,-1,-1,-1,-1,-1,-1,-1,-1,-1,-1,-1,-1,-1,-1,-1,-1,-1],"split_conditions":[6E0,1.007E2,2.0515E3,2.4925E3,1.0528E3,2.9265E2,-7.06625E0,5.695E1,3.7247E3,1.236E2,1.48925E1,8.975E2,-7.06625E0,3.1176E3,1.58375E0,7.485E2,6.692E2,1.405125E1,7.4E0,-2.174E2,-1.2889E3,1.11E2,3.1673E3,4.45E0,5.18125E0,7.035E0,1.0329E3,1.2465E2,3.05E1,7.035E0,5.85125E0,-1.2400244E0,-9.194418E-1,-9.4408315E-1,-5.533929E-1,-3.1458506E-1,-8.1326765E-1,-7.589259E-2,3.4846E-1,-1.1240089E0,-5.5491537E-1,-8.850323E-1,-1.4184877E-1,9.647825E-2,6.104487E-1,9.2726165E-1,2.046786E0,1.4837016E0,-3.2137412E-1,8.651437E-1,2.689402E0,-2.06116E0,1.6915559E0,1.8216218E0,4.650243E0,5.353023E0,2.255778E0,4.0247073E0,1.1781423E0,6.065299E0,3.284329E0,6.2021154E-1,5.015582E0],"split_indices":[6,2,0,0,0,2,5,2,0,2,5,0,5,0,5,0,0,5,3,0,0,2,0,3,5,3,0,2,3,3,5,0,0,0,0,0,0,0,0,0,0,0,0,0,0,0,0,0,0,0,0,0,0,0,0,0,0,0,0,0,0,0,0],"split_type":[0,0,0,0,0,0,0,0,0,0,0,0,0,0,0,0,0,0,0,0,0,0,0,0,0,0,0,0,0,0,0,0,0,0,0,0,0,0,0,0,0,0,0,0,0,0,0,0,0,0,0,0,0,0,0,0,0,0,0,0,0,0,0],"sum_hessian":[3.6998E4,3.0355E4,6.643E3,2.3435E4,6.92E3,3.976E3,2.667E3,1.4304E4,9.131E3,2.339E3,4.581E3,3.067E3,9.09E2,1.812E3,8.55E2,5.638E3,8.666E3,7.096E3,2.035E3,9.23E2,1.416E3,3.661E3,9.2E2,1.714E3,1.353E3,5.78E2,3.31E2,1.218E3,5.94E2,3.37E2,5.18E2,1.949E3,3.689E3,2.347E3,6.319E3,6.099E3,9.97E2,1.34E3,6.95E2,3.16E2,6.07E2,2.02E2,1.214E3,1.213E3,2.448E3,5.88E2,3.32E2,1.85E2,1.529E3,1.145E3,2.08E2,1.4E1,5.64E2,1.18E2,2.13E2,2.7E1,1.191E3,5.49E2,4.5E1,3.1E2,2.7E1,1.74E2,3.44E2],"tree_param":{"num_deleted":"0","num_feature":"7","num_nodes":"63","size_leaf_vector":"1"}},{"base_weights":[1.788616E-2,-7.7903433E0,3.5679314E1,-1.1435104E1,5.436905E0,1.9928688E1,7.01664E1,-1.4477576E1,-4.050495E0,-3.1711185E0,1.7198925E1,1.0477632E1,4.7285706E1,9.173856E1,5.9227974E1,-1.9909933E1,-1.1928958E1,-6.1382294E0,1.3860211E0,-1.026916E1,2.1039248E0,9.453619E0,2.4798544E1,-7.4475574E0,2.0271072E1,7.649825E1,3.3964977E1,7.767894E1,1.23754196E2,1.1524439E2,5.6596462E1,-1.2619166E0,-8.66249E-1,-8.7162393E-1,-4.9647674E-1,-3.487923E-1,2.138851E-1,-7.580744E-2,3.494583E-1,-9.139189E-1,-3.048095E-1,-8.90606E-2,2.7049842E-1,2.915551E-1,6.9002914E-1,1.0142937E0,1.990988E0,7.9721445E-1,-5.550847E-1,2.7176867E0,8.5013866E-1,2.274125E0,4.836686E0,8.562021E-1,1.959219E0,4.985755E0,1.0327171E0,6.2607436E0,8.430176E-1,3.5572476E0,8.407102E0,2.5502203E0,3.9502404E0],"categories":[],"categories_nodes":[],"categories_segments":[],"categories_sizes":[],"default_left":[0,0,0,0,0,0,0,0,0,0,0,0,0,0,0,0,0,0,0,0,0,0,0,0,0,0,0,0,0,0,0,0,0,0,0,0,0,0,0,0,0,0,0,0,0,0,0,0,0,0,0,0,0,0,0,0,0,0,0,0,0,0,0],"id":17,"left_children":[1,3,5,7,9,11,13,15,17,19,21,23,25,27,29,31,33,35,37,39,41,43,45,47,49,51,53,55,57,59,61,-1,-1,-1,-1,-1,-1,-1,-1,-1,-1,-1,-1,-1,-1,-1,-1,-1,-1,-1,-1,-1,-1,-1,-1,-1,-1,-1,-1,-1,-1,-1,-1],"loss_changes":[1.027156E7,1.4589984E6,3.597799E6,5.3298175E5,6.6201225E5,1.1759196E6,4.84667E5,2.323865E5,7.8595914E4,1.4140438E5,1.6239956E5,5.940342E5,4.5190825E5,3.04126E5,1.97048E5,7.34445E4,1.25700125E5,4.3678797E4,3.1264775E4,5.369836E4,2.784352E4,2.1492844E4,9.3685625E4,1.024075E5,2.4280225E5,2.2468075E5,7.0000375E4,6.09906E5,3.083375E4,1.30335625E5,1.615035E5,0E0,0E0,0E0,0E0,0E0,0E0,0E0,0E0,0E0,0E0,0E0,0E0,0E0,0E0,0E0,0E0,0E0,0E0,0E0,0E0,0E0,0E0,0E0,0E0,0E0,0E0,0E0,0E0,0E0,0E0,0E0,0E0],"parents":[2147483647,0,0,1,1,2,2,3,3,4,4,5,5,6,6,7,7,8,8,9,9,10,10,11,11,12,12,13,13,14,14,15,15,16,16,17,17,18,18,19,19,20,20,21,21,22,22,23,23,24,24,25,25,26,26,27,27,28,28,29,29,30,30],"right_children":[2,4,6,8,10,12,14,16,18,20,22,24,26,28,30,32,34,36,38,40,42,44,46,48,50,52,54,56,58,60,62,-1,-1,-1,-1,-1,-1,-1,-1,-1,-1,-1,-1,-1,-1,-1,-1,-1,-1,-1,-1,-1,-1,-1,-1,-1,-1,-1,-1,-1,-1,-1,-1],"split_conditions":[6E0,1.0125E2,2.3747E3,2.8109E3,2.0846E3,2.9265E2,7.035E0,5.857E1,3.7607E3,4.766E2,7.644E1,5.221E2,6.8E0,2.9265E2,1.2465E2,9.169E2,7.485E2,9.675E1,7.4E0,1.22E2,7.712E1,2.8789E3,3.3281E3,4.5E0,4.45E0,1.1618E3,7.095E2,9.326E1,1.1255E2,7.061E1,3.5114E3,-1.2619166E0,-8.66249E-1,-8.7162393E-1,-4.9647674E-1,-3.487923E-1,2.138851E-1,-7.580744E-2,3.494583E-1,-9.139189E-1,-3.048095E-1,-8.90606E-2,2.7049842E-1,2.915551E-1,6.9002914E-1,1.0142937E0,1.990988E0,7.9721445E-1,-5.550847E-1,2.7176867E0,8.5013866E-1,2.274125E0,4.836686E0,8.562021E-1,1.959219E0,4.985755E0,1.0327171E0,6.2607436E0,8.430176E-1,3.5572476E0,8.407102E0,2.5502203E0,3.9502404E0],"split_indices":[6,2,0,0,0,2,3,4,0,0,4,0,3,2,2,0,0,2,3,2,4,0,0,3,3,0,0,4,4,4,0,0,0,0,0,0,0,0,0,0,0,0,0,0,0,0,0,0,0,0,0,0,0,0,0,0,0,0,0,0,0,0,0],"split_type":[0,0,0,0,0,0,0,0,0,0,0,0,0,0,0,0,0,0,0,0,0,0,0,0,0,0,0,0,0,0,0,0,0,0,0,0,0,0,0,0,0,0,0,0,0,0,0,0,0,0,0,0,0,0,0,0,0,0,0,0,0,0,0],"sum_hessian":[3.6886E4,3.0261E4,6.625E3,2.3724E4,6.537E3,4.549E3,2.076E3,1.6801E4,6.923E3,3.775E3,2.762E3,3.382E3,1.167E3,6.96E2,1.38E3,5.363E3,1.1438E4,5.002E3,1.921E3,1.609E3,2.166E3,1.369E3,1.393E3,1.195E3,2.187E3,3.64E2,8.03E2,4.86E2,2.1E2,6E1,1.32E3,1.749E3,3.614E3,3.046E3,8.392E3,4.63E3,3.72E2,1.266E3,6.55E2,5.5E2,1.059E3,9.96E2,1.17E3,7.48E2,6.21E2,1.073E3,3.2E2,1.61E2,1.034E3,1.9E2,1.997E3,1.45E2,2.19E2,1.91E2,6.12E2,3.5E2,1.36E2,2.07E2,3E0,3.4E1,2.6E1,1.059E3,2.61E2],"tree_param":{"num_deleted":"0","num_feature":"7","num_nodes":"63","size_leaf_vector":"1"}},{"base_weights":[-7.49613E-2,-6.0346565E0,4.3255985E1,-1.0317549E1,8.96457E0,1.5100488E1,6.2396492E1,-1.4532076E1,-5.465899E0,-3.3789907E0,2.1640352E1,8.684957E0,5.9138424E1,4.8041897E1,9.715399E1,-1.6879679E1,-8.179729E0,-7.362346E0,4.827652E0,-9.917889E0,2.9896457E0,1.4435278E1,3.5793587E1,-7.7453346E0,1.9469522E1,3.6372646E1,6.881068E1,3.9350723E1,7.480004E1,4.508196E1,1.0405159E2,-1.053396E0,-7.2487694E-1,-8.7038594E-1,-2.904943E-1,-4.6302328E-1,-6.783092E-2,1.7313592E-1,9.459507E-1,3.613499E-1,-5.7568765E-1,-2.5090848E-3,9.700355E-1,2.8861153E-1,9.436809E-1,1.5103883E0,3.17862E0,-1.24158196E-1,-1.449232E0,5.564646E-1,2.0355668E0,5.640365E-1,1.9916537E0,4.727982E0,3.0453856E0,1.864152E0,4.1828637E0,5.5963616E0,3.301691E0,2.535339E0,6.2262017E-1,4.870729E0,7.8107643E0],"categories":[],"categories_nodes":[],"categories_segments":[],"categories_sizes":[],"default_left":[0,0,0,0,0,0,0,0,0,0,0,0,0,0,0,0,0,0,0,0,0,0,0,0,0,0,0,0,0,0,0,0,0,0,0,0,0,0,0,0,0,0,0,0,0,0,0,0,0,0,0,0,0,0,0,0,0,0,0,0,0,0,0],"id":18,"left_children":[1,3,5,7,9,11,13,15,17,19,21,23,25,27,29,31,33,35,37,39,41,43,45,47,49,51,53,55,57,59,61,-1,-1,-1,-1,-1,-1,-1,-1,-1,-1,-1,-1,-1,-1,-1,-1,-1,-1,-1,-1,-1,-1,-1,-1,-1,-1,-1,-1,-1,-1,-1,-1],"loss_changes":[9.58765E6,2.09676E6,2.418227E6,5.1905975E5,1.1344392E6,5.131201E5,1.328474E6,2.0246725E5,2.3046347E5,1.5302922E5,3.6424812E5,2.8153416E5,4.8362562E4,4.37292E5,2.75463E5,9.865625E4,8.011395E4,1.1361856E5,3.526692E4,4.9688562E4,9.2890195E4,9.1093375E4,1.852115E5,7.0339875E4,1.694449E5,5.715492E3,2.7002875E4,1.2797775E5,1.432995E5,1.643739E4,2.22976E5,0E0,0E0,0E0,0E0,0E0,0E0,0E0,0E0,0E0,0E0,0E0,0E0,0E0,0E0,0E0,0E0,0E0,0E0,0E0,0E0,0E0,0E0,0E0,0E0,0E0,0E0,0E0,0E0,0E0,0E0,0E0,0E0],"parents":[2147483647,0,0,1,1,2,2,3,3,4,4,5,5,6,6,7,7,8,8,9,9,10,10,11,11,12,12,13,13,14,14,15,15,16,16,17,17,18,18,19,19,20,20,21,21,22,22,23,23,24,24,25,25,26,26,27,27,28,28,29,29,30,30],"right_children":[2,4,6,8,10,12,14,16,18,20,22,24,26,28,30,32,34,36,38,40,42,44,46,48,50,52,54,56,58,60,62,-1,-1,-1,-1,-1,-1,-1,-1,-1,-1,-1,-1,-1,-1,-1,-1,-1,-1,-1,-1,-1,-1,-1,-1,-1,-1,-1,-1,-1,-1,-1,-1],"split_conditions":[8.7338E1,3.1821E1,1.417E3,2.2138E3,1.6712E3,6.235E0,1.2962E2,2.1775E1,2.352E1,4.129E2,5.5156E1,4.54E2,2.901E2,3.0674E3,-7.06625E0,5.824E1,2.645E2,3.5343E3,1.12175E1,7.305E1,8.733E1,-1.611625E1,3.4889E3,4.0925E0,1.0246E2,6.6975E0,8.078E1,6.6575E0,7.454E1,-1.869375E1,3.4261E3,-1.053396E0,-7.2487694E-1,-8.7038594E-1,-2.904943E-1,-4.6302328E-1,-6.783092E-2,1.7313592E-1,9.459507E-1,3.613499E-1,-5.7568765E-1,-2.5090848E-3,9.700355E-1,2.8861153E-1,9.436809E-1,1.5103883E0,3.17862E0,-1.24158196E-1,-1.449232E0,5.564646E-1,2.0355668E0,5.640365E-1,1.9916537E0,4.727982E0,3.0453856E0,1.864152E0,4.1828637E0,5.5963616E0,3.301691E0,2.535339E0,6.2262017E-1,4.870729E0,7.8107643E0],"split_indices":[1,1,0,0,0,5,1,1,1,0,1,0,0,0,5,4,0,0,5,4,4,5,0,5,4,5,4,5,4,5,0,0,0,0,0,0,0,0,0,0,0,0,0,0,0,0,0,0,0,0,0,0,0,0,0,0,0,0,0,0,0,0,0],"split_type":[0,0,0,0,0,0,0,0,0,0,0,0,0,0,0,0,0,0,0,0,0,0,0,0,0,0,0,0,0,0,0,0,0,0,0,0,0,0,0,0,0,0,0,0,0,0,0,0,0,0,0,0,0,0,0,0,0,0,0,0,0,0,0],"sum_hessian":[3.7125E4,3.2637E4,4.488E3,2.5388E4,7.249E3,1.817E3,2.671E3,1.3585E4,1.1803E4,3.673E3,3.576E3,1.587E3,2.3E2,1.892E3,7.79E2,9.918E3,3.667E3,9.967E3,1.836E3,1.812E3,1.861E3,2.371E3,1.205E3,6.29E2,9.58E2,7E1,1.6E2,1.43E3,4.62E2,9.2E1,6.87E2,3.593E3,6.325E3,7.48E2,2.919E3,7.573E3,2.394E3,1.675E3,1.61E2,1.54E2,1.658E3,1.571E3,2.9E2,8.04E2,1.567E3,1.005E3,2E2,5.05E2,1.24E2,6.89E2,2.69E2,9E0,6.1E1,3.5E1,1.25E2,1.368E3,6.2E1,8.6E1,3.76E2,7.8E1,1.4E1,6.12E2,7.5E1],"tree_param":{"num_deleted":"0","num_feature":"7","num_nodes":"63","size_leaf_vector":"1"}},{"base_weights":[2.7337663E-2,-5.717677E0,4.184127E1,-9.834242E0,8.637436E0,1.561796E1,5.996249E1,-1.5410357E1,-6.377563E0,-6.002835E0,1.8583225E1,9.634098E0,5.6338654E1,4.289464E1,8.521147E1,-2.061083E1,-1.3120475E1,-8.40879E0,1.7500367E0,-1.631529E1,-3.1473653E0,1.1535634E1,2.8849216E1,-5.362259E0,3.0029089E1,3.8623753E1,6.564127E1,3.816722E1,7.511463E1,6.73165E1,1.0772252E2,-1.2636751E0,-9.210415E-1,-1.053976E0,-5.716805E-1,-5.4871273E-1,-1.9377284E-1,2.5665212E-2,6.463349E-1,-5.4725456E-1,-1.6178526E0,-2.7173737E-1,4.634758E-1,1.6643276E0,4.8598573E-1,1.0426129E0,2.4742258E0,7.251576E-1,-7.150535E-1,4.239998E-1,1.9405317E0,5.4536563E-1,2.1135554E0,2.061013E0,4.013552E0,2.0890021E0,8.2672614E-1,-1.0471643E0,3.9863212E0,2.3713357E0,4.5337687E0,3.7012737E0,5.946799E0],"categories":[],"categories_nodes":[],"categories_segments":[],"categories_sizes":[],"default_left":[0,0,0,0,0,0,0,0,0,0,0,0,0,0,0,0,0,0,0,0,0,0,0,0,0,0,0,0,0,0,0,0,0,0,0,0,0,0,0,0,0,0,0,0,0,0,0,0,0,0,0,0,0,0,0,0,0,0,0,0,0,0,0],"id":19,"left_children":[1,3,5,7,9,11,13,15,17,19,21,23,25,27,29,31,33,35,37,39,41,43,45,47,49,51,53,55,57,59,61,-1,-1,-1,-1,-1,-1,-1,-1,-1,-1,-1,-1,-1,-1,-1,-1,-1,-1,-1,-1,-1,-1,-1,-1,-1,-1,-1,-1,-1,-1,-1,-1],"loss_changes":[8.889161E6,1.9226409E6,2.123201E6,4.8724675E5,1.0559228E6,4.448805E5,1.135333E6,1.14944E5,2.5772012E5,8.634587E4,3.1207675E5,4.8799262E5,3.6026688E4,2.376425E5,4.217675E5,2.971875E4,8.99805E4,1.4520588E5,4.3147332E4,5.443561E4,6.534693E4,1.0087016E5,2.889075E5,1.6357472E5,1.2759331E5,7.9295547E3,5.0996875E4,1.07085125E5,9.0712625E4,2.7260275E5,1.687905E5,0E0,0E0,0E0,0E0,0E0,0E0,0E0,0E0,0E0,0E0,0E0,0E0,0E0,0E0,0E0,0E0,0E0,0E0,0E0,0E0,0E0,0E0,0E0,0E0,0E0,0E0,0E0,0E0,0E0,0E0,0E0,0E0],"parents":[2147483647,0,0,1,1,2,2,3,3,4,4,5,5,6,6,7,7,8,8,9,9,10,10,11,11,12,12,13,13,14,14,15,15,16,16,17,17,18,18,19,19,20,20,21,21,22,22,23,23,24,24,25,25,26,26,27,27,28,28,29,29,30,30],"right_children":[2,4,6,8,10,12,14,16,18,20,22,24,26,28,30,32,34,36,38,40,42,44,46,48,50,52,54,56,58,60,62,-1,-1,-1,-1,-1,-1,-1,-1,-1,-1,-1,-1,-1,-1,-1,-1,-1,-1,-1,-1,-1,-1,-1,-1,-1,-1,-1,-1,-1,-1,-1,-1],"split_conditions":[8.7338E1,3.1821E1,1.417E3,1.6387E3,1.2017E3,6.235E0,1.14786E2,5.857E1,2.2375E1,-6.897E2,2.7065E3,2.655E2,3.137E2,3.4468E3,2.6118E3,3.624E2,-1.505E2,3.0517E3,1.12175E1,1.5435E2,8.855E1,-1.809125E1,5.8109E1,1.6525E2,3.883E2,6.6975E0,2.22E2,-7.06625E0,-2.068125E1,3.1835E2,2.22E2,-1.2636751E0,-9.210415E-1,-1.053976E0,-5.716805E-1,-5.4871273E-1,-1.9377284E-1,2.5665212E-2,6.463349E-1,-5.4725456E-1,-1.6178526E0,-2.7173737E-1,4.634758E-1,1.6643276E0,4.8598573E-1,1.0426129E0,2.4742258E0,7.251576E-1,-7.150535E-1,4.239998E-1,1.9405317E0,5.4536563E-1,2.1135554E0,2.061013E0,4.013552E0,2.0890021E0,8.2672614E-1,-1.0471643E0,3.9863212E0,2.3713357E0,4.5337687E0,3.7012737E0,5.946799E0],"split_indices":[1,1,0,0,0,5,1,4,1,0,0,2,0,0,0,0,0,0,5,2,4,5,1,2,0,5,2,5,5,2,2,0,0,0,0,0,0,0,0,0,0,0,0,0,0,0,0,0,0,0,0,0,0,0,0,0,0,0,0,0,0,0,0],"split_type":[0,0,0,0,0,0,0,0,0,0,0,0,0,0,0,0,0,0,0,0,0,0,0,0,0,0,0,0,0,0,0,0,0,0,0,0,0,0,0,0,0,0,0,0,0,0,0,0,0,0,0,0,0,0,0,0,0,0,0,0,0,0,0],"sum_hessian":[3.7002E4,3.2533E4,4.469E3,2.5283E4,7.25E3,1.827E3,2.642E3,9.674E3,1.5609E4,2.933E3,4.317E3,1.594E3,2.33E2,1.578E3,1.064E3,2.955E3,6.719E3,1.2488E4,3.121E3,6.35E2,2.298E3,2.561E3,1.756E3,9.19E2,6.75E2,8.2E1,1.51E2,1.378E3,2E2,5.95E2,4.69E2,9.41E2,2.014E3,1.173E3,5.546E3,7.974E3,4.514E3,2.811E3,3.1E2,4.77E2,1.58E2,1.941E3,3.57E2,1.96E2,2.365E3,1.267E3,4.89E2,2.85E2,6.34E2,1.96E2,4.79E2,1E1,7.2E1,5.8E1,9.3E1,1.18E3,1.98E2,9E0,1.91E2,3.23E2,2.72E2,1.19E2,3.5E2],"tree_param":{"num_deleted":"0","num_feature":"7","num_nodes":"63","size_leaf_vector":"1"}},{"base_weights":[1.5551947E-1,-5.9986424E0,3.5336502E1,-1.0353087E1,4.4465613E0,1.9147257E1,6.3366936E1,-1.3747149E1,-5.3113413E0,-3.152496E0,1.4762581E1,8.141532E-1,3.070675E1,4.804536E1,9.2461685E1,-1.8482077E1,-1.1778098E1,-7.068168E0,7.320251E-1,-8.10116E0,2.5911546E0,9.549917E0,2.8325876E1,-6.1779737E0,1.850229E1,2.4449091E1,5.873935E1,5.4065712E1,1.3596152E1,8.672843E1,1.4396596E2,-1.2081766E0,-8.421794E-1,-7.65771E-1,-4.6245977E-1,-9.031293E-1,-3.0798703E-1,-8.895659E-2,4.294091E-1,-7.567411E-1,-2.925013E-1,-2.8512362E-1,2.176419E-1,2.3074277E-1,8.7204427E-1,1.22484E0,2.51341E0,-6.692366E-1,6.2167364E-1,2.221091E0,1.2621675E-1,1.0674113E0,2.5143E0,6.2918496E-1,3.2667394E0,2.1767898E0,3.4404538E0,1.3464512E0,1.3425232E-1,3.8647935E0,5.111999E0,5.6566873E0,9.076442E0],"categories":[],"categories_nodes":[],"categories_segments":[],"categories_sizes":[],"default_left":[0,0,0,0,0,0,0,0,0,0,0,0,0,0,0,0,0,0,0,0,0,0,0,0,0,0,0,0,0,0,0,0,0,0,0,0,0,0,0,0,0,0,0,0,0,0,0,0,0,0,0,0,0,0,0,0,0,0,0,0,0,0,0],"id":20,"left_children":[1,3,5,7,9,11,13,15,17,19,21,23,25,27,29,31,33,35,37,39,41,43,45,47,49,51,53,55,57,59,61,-1,-1,-1,-1,-1,-1,-1,-1,-1,-1,-1,-1,-1,-1,-1,-1,-1,-1,-1,-1,-1,-1,-1,-1,-1,-1,-1,-1,-1,-1,-1,-1],"loss_changes":[8.005433E6,1.4313981E6,2.496909E6,3.8000175E5,7.259567E5,7.397926E5,8.937995E5,1.2353975E5,9.4901234E4,1.5160297E5,2.7744262E5,1.6720289E5,3.7413488E5,2.734425E5,1.924435E5,3.5870375E4,8.3749625E4,6.905309E4,3.974755E4,4.5275047E4,3.6098758E4,1.1047703E5,9.0349E4,1.3013664E5,1.5850388E5,1.3929094E5,1.17900375E5,1.7165675E5,2.873202E4,8.3836E4,5.8216875E4,0E0,0E0,0E0,0E0,0E0,0E0,0E0,0E0,0E0,0E0,0E0,0E0,0E0,0E0,0E0,0E0,0E0,0E0,0E0,0E0,0E0,0E0,0E0,0E0,0E0,0E0,0E0,0E0,0E0,0E0,0E0,0E0],"parents":[2147483647,0,0,1,1,2,2,3,3,4,4,5,5,6,6,7,7,8,8,9,9,10,10,11,11,12,12,13,13,14,14,15,15,16,16,17,17,18,18,19,19,20,20,21,21,22,22,23,23,24,24,25,25,26,26,27,27,28,28,29,29,30,30],"right_children":[2,4,6,8,10,12,14,16,18,20,22,24,26,28,30,32,34,36,38,40,42,44,46,48,50,52,54,56,58,60,62,-1,-1,-1,-1,-1,-1,-1,-1,-1,-1,-1,-1,-1,-1,-1,-1,-1,-1,-1,-1,-1,-1,-1,-1,-1,-1,-1,-1,-1,-1,-1,-1],"split_conditions":[7.7351E1,2.486E1,2.2418E3,2.4517E3,2.0846E3,7.095E2,1.14786E2,5.588E1,3.6959E3,9.169E2,4.498E1,1.14786E2,1.34316E2,-7.78875E0,3.6103E3,4.766E2,1.0528E3,3.897E1,2.0045E1,-6.897E2,2E0,-3.29875E0,3.7987E3,9.631E1,8.855E1,6.235E0,-1.66875E1,3.0517E3,9.945E1,1.56207E2,7.0725E0,-1.2081766E0,-8.421794E-1,-7.65771E-1,-4.6245977E-1,-9.031293E-1,-3.0798703E-1,-8.895659E-2,4.294091E-1,-7.567411E-1,-2.925013E-1,-2.8512362E-1,2.176419E-1,2.3074277E-1,8.7204427E-1,1.22484E0,2.51341E0,-6.692366E-1,6.2167364E-1,2.221091E0,1.2621675E-1,1.0674113E0,2.5143E0,6.2918496E-1,3.2667394E0,2.1767898E0,3.4404538E0,1.3464512E0,1.3425232E-1,3.8647935E0,5.111999E0,5.6566873E0,9.076442E0],"split_indices":[1,1,0,0,0,0,1,4,0,0,1,1,1,5,0,0,0,4,1,0,6,5,0,4,4,5,5,0,1,1,5,0,0,0,0,0,0,0,0,0,0,0,0,0,0,0,0,0,0,0,0,0,0,0,0,0,0,0,0,0,0,0,0],"split_type":[0,0,0,0,0,0,0,0,0,0,0,0,0,0,0,0,0,0,0,0,0,0,0,0,0,0,0,0,0,0,0,0,0,0,0,0,0,0,0,0,0,0,0,0,0,0,0,0,0,0,0,0,0,0,0,0,0,0,0,0,0,0,0],"sum_hessian":[3.6973E4,3.1469E4,5.504E3,2.221E4,9.259E3,3.49E3,2.014E3,1.3273E4,8.937E3,5.332E3,3.927E3,1.35E3,2.14E3,1.321E3,6.93E2,3.896E3,9.377E3,6.924E3,2.013E3,2.864E3,2.468E3,2.838E3,1.089E3,9.68E2,3.82E2,1.751E3,3.89E2,1.124E3,1.97E2,6.26E2,6.7E1,8.69E2,3.027E3,3.907E3,5.47E3,5.27E2,6.397E3,1.526E3,4.87E2,6.93E2,2.171E3,4.32E2,2.036E3,1.747E3,1.091E3,9.29E2,1.6E2,6.98E2,2.7E2,1.45E2,2.37E2,1.565E3,1.86E2,4.9E1,3.4E2,6.58E2,4.66E2,8.8E1,1.09E2,3.93E2,2.33E2,3.9E1,2.8E1],"tree_param":{"num_deleted":"0","num_feature":"7","num_nodes":"63","size_leaf_vector":"1"}},{"base_weights":[2.2589305E-2,-5.1564918E0,3.744369E1,-8.813914E0,8.000093E0,2.7443998E1,6.471695E1,-1.1260878E1,-3.7403383E0,4.8398747E0,1.2168585E1,2.4299616E1,6.200091E1,2.6460169E1,7.206968E1,-9.692835E0,-1.6749157E1,-1.5614111E1,-2.883158E0,5.6674523E0,-4.500269E0,9.600157E0,2.9648788E1,3.0598986E1,-4.235926E0,6.836182E1,2.5236849E1,2.3029346E1,2.6976867E0,6.363096E1,9.431181E1,-7.735137E-1,-4.63591E-1,-8.652833E-1,-5.7555926E-1,-4.3287268E-1,-9.066718E-1,-2.1483551E-1,-6.077229E-2,2.2173367E-1,5.0481313E-1,9.1682136E-2,-6.8419725E-1,7.1014553E-1,-1.3255908E-1,3.036885E0,1.3990606E0,2.0661564E0,7.571489E-1,-5.0210637E-1,7.139372E-1,3.0081787E0,4.368492E0,7.095517E-1,1.8338848E0,1.5297201E0,2.9149818E-1,1.1756296E0,3.9227064E0,7.2888145E0,4.085696E0],"categories":[],"categories_nodes":[],"categories_segments":[],"categories_sizes":[],"default_left":[0,0,0,0,0,0,0,0,0,0,0,0,0,0,0,0,0,0,0,0,0,0,0,0,0,0,0,0,0,0,0,0,0,0,0,0,0,0,0,0,0,0,0,0,0,0,0,0,0,0,0,0,0,0,0,0,0,0,0,0,0],"id":21,"left_children":[1,3,5,7,9,11,13,15,17,19,21,23,25,27,29,31,33,35,37,39,41,43,45,47,49,51,53,55,-1,57,59,-1,-1,-1,-1,-1,-1,-1,-1,-1,-1,-1,-1,-1,-1,-1,-1,-1,-1,-1,-1,-1,-1,-1,-1,-1,-1,-1,-1,-1,-1],"loss_changes":[7.170468E6,1.563944E6,1.224938E6,3.1568E5,9.307669E4,3.5631125E5,3.373305E5,1.4747975E5,8.4187805E4,3.112207E4,1.3656034E5,5.429925E5,6.2350375E4,1.7245297E4,1.83759E5,3.231925E4,1.090975E4,9.605031E3,1.819389E4,2.0134445E4,1.910439E4,1.4997838E5,1.8519312E4,4.0944575E5,5.8945836E4,3.10525E4,4.7871934E3,2.272175E4,0E0,4.3584075E5,1.6703125E5,0E0,0E0,0E0,0E0,0E0,0E0,0E0,0E0,0E0,0E0,0E0,0E0,0E0,0E0,0E0,0E0,0E0,0E0,0E0,0E0,0E0,0E0,0E0,0E0,0E0,0E0,0E0,0E0,0E0,0E0],"parents":[2147483647,0,0,1,1,2,2,3,3,4,4,5,5,6,6,7,7,8,8,9,9,10,10,11,11,12,12,13,13,14,14,15,15,16,16,17,17,18,18,19,19,20,20,21,21,22,22,23,23,24,24,25,25,26,26,27,27,29,29,30,30],"right_children":[2,4,6,8,10,12,14,16,18,20,22,24,26,28,30,32,34,36,38,40,42,44,46,48,50,52,54,56,-1,58,60,-1,-1,-1,-1,-1,-1,-1,-1,-1,-1,-1,-1,-1,-1,-1,-1,-1,-1,-1,-1,-1,-1,-1,-1,-1,-1,-1,-1,-1,-1],"split_conditions":[8.7338E1,3.2289E1,1.2962E2,2.0045E1,5.1505E1,6.235E0,2.22E2,1.39275E1,-1.830375E1,2.1E1,1.495625E1,2.455E0,7.47875E0,6.90625E0,6.86875E0,3.5E-1,1.1395E1,3.95E-1,6.85E-1,1.39E2,3.6051E1,7.39875E0,3.7E0,2.205E1,5.18125E0,2.3035E2,2.1375E2,-1.869375E1,2.6976867E0,3.135E2,7.665E0,-7.735137E-1,-4.63591E-1,-8.652833E-1,-5.7555926E-1,-4.3287268E-1,-9.066718E-1,-2.1483551E-1,-6.077229E-2,2.2173367E-1,5.0481313E-1,9.1682136E-2,-6.8419725E-1,7.1014553E-1,-1.3255908E-1,3.036885E0,1.3990606E0,2.0661564E0,7.571489E-1,-5.0210637E-1,7.139372E-1,3.0081787E0,4.368492E0,7.095517E-1,1.8338848E0,1.5297201E0,2.9149818E-1,1.1756296E0,3.9227064E0,7.2888145E0,4.085696E0],"split_indices":[1,1,1,1,1,5,2,5,5,3,5,5,5,5,5,3,1,3,3,2,1,5,3,3,5,2,2,5,0,2,5,0,0,0,0,0,0,0,0,0,0,0,0,0,0,0,0,0,0,0,0,0,0,0,0,0,0,0,0,0,0],"split_type":[0,0,0,0,0,0,0,0,0,0,0,0,0,0,0,0,0,0,0,0,0,0,0,0,0,0,0,0,0,0,0,0,0,0,0,0,0,0,0,0,0,0,0,0,0,0,0,0,0,0,0,0,0,0,0,0,0,0,0,0,0],"sum_hessian":[3.6996E4,3.2499E4,4.497E3,2.543E4,7.069E3,3.292E3,1.205E3,1.7155E4,8.275E3,4.022E3,3.047E3,3.019E3,2.73E2,1.95E2,1.01E3,1.3345E4,3.81E3,5.56E2,7.719E3,3.695E3,3.27E2,2.658E3,3.89E2,2.473E3,5.46E2,2.32E2,4.1E1,1.75E2,2E1,7.35E2,2.75E2,9.04E2,1.2441E4,3.442E3,3.68E2,1.49E2,4.07E2,4.177E3,3.542E3,2.892E3,8.03E2,1.94E2,1.33E2,1.932E3,7.26E2,1.8E1,3.71E2,1.459E3,1.014E3,4.16E2,1.3E2,1.65E2,6.7E1,2.2E1,1.9E1,1.21E2,5.4E1,1.99E2,5.36E2,5.2E1,2.23E2],"tree_param":{"num_deleted":"0","num_feature":"7","num_nodes":"61","size_leaf_vector":"1"}},{"base_weights":[1.4490198E-2,-5.9233627E0,2.7053736E1,-8.847401E0,3.9735844E0,9.143186E0,4.778048E1,-1.1349039E1,-2.3720045E0,-3.7291749E0,1.2156298E1,3.3134183E-1,2.663442E1,4.261013E1,7.736926E1,-1.574477E1,-9.363372E0,-4.12164E0,2.5373125E0,-1.1220827E1,-8.201269E-1,4.225675E0,1.8745571E1,-1.2907366E1,6.4076576E0,2.3211617E1,7.1260475E1,3.769931E1,6.8876175E1,6.5384514E1,1.3332971E2,-1.0531416E0,-7.2487706E-1,-6.897995E-1,-3.7751055E-1,-1.5620887E-1,-5.4955107E-1,-1.4216255E-1,2.3608895E-1,-9.377379E-1,-3.746669E-1,-1.0349486E-1,4.3121925E-1,9.2700295E-2,5.968346E-1,6.3137656E-1,1.3967308E0,2.6807949E-2,-8.73476E-1,3.618835E-2,1.6711801E0,2.6875088E0,8.756838E-1,4.2700763E0,8.82208E-1,1.716493E0,3.144838E0,4.7435946E0,2.5187795E0,-1.1012442E0,3.390323E0,2.793458E0,7.3762755E0],"categories":[],"categories_nodes":[],"categories_segments":[],"categories_sizes":[],"default_left":[0,0,0,0,0,0,0,0,0,0,0,0,0,0,0,0,0,0,0,0,0,0,0,0,0,0,0,0,0,0,0,0,0,0,0,0,0,0,0,0,0,0,0,0,0,0,0,0,0,0,0,0,0,0,0,0,0,0,0,0,0,0,0],"id":22,"left_children":[1,3,5,7,9,11,13,15,17,19,21,23,25,27,29,31,33,35,37,39,41,43,45,47,49,51,53,55,57,59,61,-1,-1,-1,-1,-1,-1,-1,-1,-1,-1,-1,-1,-1,-1,-1,-1,-1,-1,-1,-1,-1,-1,-1,-1,-1,-1,-1,-1,-1,-1,-1,-1],"loss_changes":[5.9519365E6,8.796664E5,2.4775055E6,3.8006888E5,4.3702866E5,5.5208494E5,4.70037E5,1.4758175E5,5.6185895E4,7.783745E4,1.75609E5,1.9177734E5,1.8164144E5,3.374155E5,2.9912075E5,3.46165E4,9.3615875E4,3.3005773E4,2.0217967E4,2.7914031E4,3.0399984E4,2.790362E4,1.0286519E5,4.6007938E4,2.508858E5,1.9325025E5,6.2939344E4,1.86577E5,1.9432812E5,8.1939625E4,7.9727E4,0E0,0E0,0E0,0E0,0E0,0E0,0E0,0E0,0E0,0E0,0E0,0E0,0E0,0E0,0E0,0E0,0E0,0E0,0E0,0E0,0E0,0E0,0E0,0E0,0E0,0E0,0E0,0E0,0E0,0E0,0E0,0E0],"parents":[2147483647,0,0,1,1,2,2,3,3,4,4,5,5,6,6,7,7,8,8,9,9,10,10,11,11,12,12,13,13,14,14,15,15,16,16,17,17,18,18,19,19,20,20,21,21,22,22,23,23,24,24,25,25,26,26,27,27,28,28,29,29,30,30],"right_children":[2,4,6,8,10,12,14,16,18,20,22,24,26,28,30,32,34,36,38,40,42,44,46,48,50,52,54,56,58,60,62,-1,-1,-1,-1,-1,-1,-1,-1,-1,-1,-1,-1,-1,-1,-1,-1,-1,-1,-1,-1,-1,-1,-1,-1,-1,-1,-1,-1,-1,-1,-1,-1],"split_conditions":[6E0,1.007E2,1.8113E3,2.8649E3,1.8431E3,2.495E2,3.4468E3,5.425E1,3.83E3,-2.174E2,8.72875E0,1.879E2,3.4435E2,3.26E2,6.6575E0,3.137E2,9.169E2,1.43925E1,-8.79E0,1.22E2,1.448E2,3.2542E3,2.8237E3,8.226E1,5.18125E0,9.062E1,-4.47875E0,6.6575E0,9.467E1,-2.068125E1,2.3035E2,-1.0531416E0,-7.2487706E-1,-6.897995E-1,-3.7751055E-1,-1.5620887E-1,-5.4955107E-1,-1.4216255E-1,2.3608895E-1,-9.377379E-1,-3.746669E-1,-1.0349486E-1,4.3121925E-1,9.2700295E-2,5.968346E-1,6.3137656E-1,1.3967308E0,2.6807949E-2,-8.73476E-1,3.618835E-2,1.6711801E0,2.6875088E0,8.756838E-1,4.2700763E0,8.82208E-1,1.716493E0,3.144838E0,4.7435946E0,2.5187795E0,-1.1012442E0,3.390323E0,2.793458E0,7.3762755E0],"split_indices":[6,2,0,0,0,2,0,2,0,0,5,0,2,2,5,0,0,5,5,2,2,0,0,4,5,4,5,5,4,5,2,0,0,0,0,0,0,0,0,0,0,0,0,0,0,0,0,0,0,0,0,0,0,0,0,0,0,0,0,0,0,0,0],"split_type":[0,0,0,0,0,0,0,0,0,0,0,0,0,0,0,0,0,0,0,0,0,0,0,0,0,0,0,0,0,0,0,0,0,0,0,0,0,0,0,0,0,0,0,0,0,0,0,0,0,0,0,0,0,0,0,0,0,0,0,0,0,0,0],"sum_hessian":[3.7069E4,3.0395E4,6.674E3,2.3463E4,6.932E3,3.581E3,3.093E3,1.6924E4,6.539E3,3.571E3,3.361E3,2.382E3,1.199E3,2.635E3,4.58E2,5.264E3,1.166E4,4.821E3,1.718E3,9.98E2,2.573E3,1.526E3,1.835E3,7.49E2,1.633E3,1.115E3,8.4E1,2.222E3,4.13E2,3.79E2,7.9E1,9.97E2,4.267E3,3.383E3,8.277E3,4.211E3,6.1E2,4.96E2,1.222E3,3.29E2,6.69E2,2.273E3,3E2,1.168E3,3.58E2,1.103E3,7.32E2,1.9E2,5.59E2,1.35E3,2.83E2,1.74E2,9.41E2,6.6E1,1.8E1,1.962E3,2.6E2,1.7E2,2.43E2,1E1,3.69E2,1.3E1,6.6E1],"tree_param":{"num_deleted":"0","num_feature":"7","num_nodes":"63","size_leaf_vector":"1"}},{"base_weights":[-1.5260051E-1,-5.828543E0,2.5777287E1,-8.995771E0,2.0907454E0,1.489382E1,3.9698097E1,-7.6560473E0,-1.5202264E1,3.5394073E-1,1.118222E1,3.3412766E1,9.609398E0,3.4901142E1,8.177166E1,-5.935802E0,-9.324965E0,-1.7715862E1,-1.3538021E1,-3.0102746E0,2.7566426E0,-5.362887E0,1.6061554E1,4.555446E1,2.1072573E1,1.1797104E1,-2.8542439E1,3.9332867E1,1.2305392E0,6.6794586E0,7.0275314E1,-5.404264E-1,-1.4881866E-1,-4.1118655E-1,-6.811745E-1,-9.331791E-1,-7.6720077E-1,-5.8686185E-1,-7.499379E-1,-8.976096E-2,-4.3023682E-1,2.1080713E-1,-3.2957447E-1,-7.592737E-2,-1.1469638E0,7.70379E-1,2.5816095E0,-1.2187239E-1,2.3989165E0,8.2723397E-1,2.3464756E0,3.1852946E-1,2.3134456E0,-1.7889862E0,1.314359E0,1.4323455E0,3.0095594E0,2.0940216E0,-1.4267153E-1,3.59508E0,9.730422E-1],"categories":[],"categories_nodes":[],"categories_segments":[],"categories_sizes":[],"default_left":[0,0,0,0,0,0,0,0,0,0,0,0,0,0,0,0,0,0,0,0,0,0,0,0,0,0,0,0,0,0,0,0,0,0,0,0,0,0,0,0,0,0,0,0,0,0,0,0,0,0,0,0,0,0,0,0,0,0,0,0,0],"id":23,"left_children":[1,3,5,7,9,11,13,15,17,19,21,23,25,27,29,31,33,35,37,39,41,43,45,47,49,51,53,55,57,-1,59,-1,-1,-1,-1,-1,-1,-1,-1,-1,-1,-1,-1,-1,-1,-1,-1,-1,-1,-1,-1,-1,-1,-1,-1,-1,-1,-1,-1,-1,-1],"loss_changes":[5.4531885E6,7.624674E5,1.0075345E6,1.8043525E5,1.371332E5,3.6529106E5,5.862735E5,5.1222562E4,1.58823125E4,5.8959125E4,1.1254172E5,1.2324981E5,2.43053E5,3.91203E5,1.68134E5,1.2683925E5,4.2794062E4,3.1572812E3,5.9345625E3,2.0642404E4,5.8081305E4,2.1452303E4,2.4234656E4,4.8624812E4,4.7576547E4,5.1431212E5,6.3637734E4,5.1471475E5,5.091946E4,0E0,1.8929875E4,0E0,0E0,0E0,0E0,0E0,0E0,0E0,0E0,0E0,0E0,0E0,0E0,0E0,0E0,0E0,0E0,0E0,0E0,0E0,0E0,0E0,0E0,0E0,0E0,0E0,0E0,0E0,0E0,0E0,0E0],"parents":[2147483647,0,0,1,1,2,2,3,3,4,4,5,5,6,6,7,7,8,8,9,9,10,10,11,11,12,12,13,13,14,14,15,15,16,16,17,17,18,18,19,19,20,20,21,21,22,22,23,23,24,24,25,25,26,26,27,27,28,28,30,30],"right_children":[2,4,6,8,10,12,14,16,18,20,22,24,26,28,30,32,34,36,38,40,42,44,46,48,50,52,54,56,58,-1,60,-1,-1,-1,-1,-1,-1,-1,-1,-1,-1,-1,-1,-1,-1,-1,-1,-1,-1,-1,-1,-1,-1,-1,-1,-1,-1,-1,-1,-1,-1],"split_conditions":[6E0,9.675E1,2.3455E2,1.383375E1,1.483E1,7.695E1,6.86875E0,-1.68875E0,3.746E1,2.875E0,7.98E1,1.46E2,7.9025E0,1.58375E0,7.665E0,4.65E-1,2.64E1,1.782625E1,5.22E1,1.1525E1,8.514E1,1.60025E1,8.819E1,6.888E1,7.536E1,6.02375E0,9.845E0,-7.06625E0,9.062E1,6.6794586E0,8.13875E0,-5.404264E-1,-1.4881866E-1,-4.1118655E-1,-6.811745E-1,-9.331791E-1,-7.6720077E-1,-5.8686185E-1,-7.499379E-1,-8.976096E-2,-4.3023682E-1,2.1080713E-1,-3.2957447E-1,-7.592737E-2,-1.1469638E0,7.70379E-1,2.5816095E0,-1.2187239E-1,2.3989165E0,8.2723397E-1,2.3464756E0,3.1852946E-1,2.3134456E0,-1.7889862E0,1.314359E0,1.4323455E0,3.0095594E0,2.0940216E0,-1.4267153E-1,3.59508E0,9.730422E-1],"split_indices":[6,2,2,5,5,4,5,5,4,3,4,2,5,5,5,3,3,5,4,5,4,5,4,4,4,5,5,5,4,0,5,0,0,0,0,0,0,0,0,0,0,0,0,0,0,0,0,0,0,0,0,0,0,0,0,0,0,0,0,0,0],"split_type":[0,0,0,0,0,0,0,0,0,0,0,0,0,0,0,0,0,0,0,0,0,0,0,0,0,0,0,0,0,0,0,0,0,0,0,0,0,0,0,0,0,0,0,0,0,0,0,0,0,0,0,0,0,0,0,0,0,0,0,0,0],"sum_hessian":[3.705E4,3.0397E4,6.653E3,2.1713E4,8.684E3,3.735E3,2.918E3,1.786E4,3.853E3,7.292E3,1.392E3,8.28E2,2.907E3,2.621E3,2.97E2,8.797E3,9.063E3,1.531E3,2.322E3,3.038E3,4.254E3,3.17E2,1.075E3,4.16E2,4.12E2,2.75E3,1.57E2,2.316E3,3.05E2,5.2E1,2.45E2,3.323E3,5.474E3,7.217E3,1.846E3,1.089E3,4.42E2,1.044E3,1.278E3,2.497E3,5.41E2,3.68E3,5.74E2,2.61E2,5.6E1,1.057E3,1.8E1,2E1,3.96E2,3.52E2,6E1,2.377E3,3.73E2,1.39E2,1.8E1,1.533E3,7.83E2,2.7E1,2.78E2,2.37E2,8E0],"tree_param":{"num_deleted":"0","num_feature":"7","num_nodes":"61","size_leaf_vector":"1"}},{"base_weights":[-1.2262784E-2,-4.472099E0,3.2238144E1,-7.63007E0,6.610049E0,1.7356155E1,5.850165E1,-1.138809E1,-3.7356267E0,-5.3317223E0,1.5085842E1,9.773033E-1,2.7811573E1,4.3317158E1,8.090045E1,-1.7497421E1,-9.911538E0,-5.983115E0,1.7344772E0,7.3171115E0,-6.7973614E0,1.045028E1,2.6126371E1,-1.329541E1,8.074296E0,3.7807053E1,1.3136832E1,8.9334545E0,4.85619E1,6.9137985E1,1.0395072E2,-7.441447E-1,-1.0589322E0,-5.9590375E-1,-2.4709311E-1,-7.5751054E-1,-2.5847295E-1,4.7730535E-2,7.727615E-1,1.7431495E-1,5.910028E-1,-4.3547234E-1,2.164654E-1,4.147511E-1,1.2386667E0,9.3628037E-1,2.1795187E0,-2.3982719E-1,-1.1239837E0,7.537484E-1,-4.5395312E-1,3.0344243E0,1.4833294E0,3.4057853E-1,1.1223668E0,1.8810055E0,1.6210794E-2,2.2182035E0,4.206047E0,3.7501469E0,1.747229E0,5.5355887E0,2.9579368E0],"categories":[],"categories_nodes":[],"categories_segments":[],"categories_sizes":[],"default_left":[0,0,0,0,0,0,0,0,0,0,0,0,0,0,0,0,0,0,0,0,0,0,0,0,0,0,0,0,0,0,0,0,0,0,0,0,0,0,0,0,0,0,0,0,0,0,0,0,0,0,0,0,0,0,0,0,0,0,0,0,0,0,0],"id":24,"left_children":[1,3,5,7,9,11,13,15,17,19,21,23,25,27,29,31,33,35,37,39,41,43,45,47,49,51,53,55,57,59,61,-1,-1,-1,-1,-1,-1,-1,-1,-1,-1,-1,-1,-1,-1,-1,-1,-1,-1,-1,-1,-1,-1,-1,-1,-1,-1,-1,-1,-1,-1,-1,-1],"loss_changes":[5.333561E6,1.140151E6,1.7597785E6,3.7100875E5,7.313659E5,4.926525E5,5.50542E5,1.16212125E5,1.530952E5,5.5665625E4,2.1600975E5,1.13758484E5,2.5707538E5,1.75031E5,1.70944E5,2.384275E4,1.035785E5,6.575359E4,3.8795434E4,5.3407715E3,5.7246586E4,9.1725E4,1.6061319E5,2.9007E4,9.020065E4,1.9266062E5,4.1836625E4,3.2093938E4,1.222525E5,8.5216875E4,6.00755E4,0E0,0E0,0E0,0E0,0E0,0E0,0E0,0E0,0E0,0E0,0E0,0E0,0E0,0E0,0E0,0E0,0E0,0E0,0E0,0E0,0E0,0E0,0E0,0E0,0E0,0E0,0E0,0E0,0E0,0E0,0E0,0E0],"parents":[2147483647,0,0,1,1,2,2,3,3,4,4,5,5,6,6,7,7,8,8,9,9,10,10,11,11,12,12,13,13,14,14,15,15,16,16,17,17,18,18,19,19,20,20,21,21,22,22,23,23,24,24,25,25,26,26,27,27,28,28,29,29,30,30],"right_children":[2,4,6,8,10,12,14,16,18,20,22,24,26,28,30,32,34,36,38,40,42,44,46,48,50,52,54,56,58,60,62,-1,-1,-1,-1,-1,-1,-1,-1,-1,-1,-1,-1,-1,-1,-1,-1,-1,-1,-1,-1,-1,-1,-1,-1,-1,-1,-1,-1,-1,-1,-1,-1],"split_conditions":[8.7338E1,3.1821E1,2.3223E3,2.1279E3,1.2558E3,7.865E2,1.14786E2,1.568E2,2.055E1,7.354E1,2.9633E3,-1.66E1,9.3E0,5.06E0,3.1176E3,3E0,2.143E1,3.897E1,4.1141E3,4.498E1,8.855E1,8.733E1,5.8109E1,9.245E1,2.14E1,9.062E1,1.7329E3,9.945E1,3.7247E3,7.2E0,9.326E1,-7.441447E-1,-1.0589322E0,-5.9590375E-1,-2.4709311E-1,-7.5751054E-1,-2.5847295E-1,4.7730535E-2,7.727615E-1,1.7431495E-1,5.910028E-1,-4.3547234E-1,2.164654E-1,4.147511E-1,1.2386667E0,9.3628037E-1,2.1795187E0,-2.3982719E-1,-1.1239837E0,7.537484E-1,-4.5395312E-1,3.0344243E0,1.4833294E0,3.4057853E-1,1.1223668E0,1.8810055E0,1.6210794E-2,2.2182035E0,4.206047E0,3.7501469E0,1.747229E0,5.5355887E0,2.9579368E0],"split_indices":[1,1,0,0,0,0,1,0,1,4,0,0,3,3,0,3,1,4,0,1,4,4,1,4,3,4,0,1,0,3,4,0,0,0,0,0,0,0,0,0,0,0,0,0,0,0,0,0,0,0,0,0,0,0,0,0,0,0,0,0,0,0,0],"split_type":[0,0,0,0,0,0,0,0,0,0,0,0,0,0,0,0,0,0,0,0,0,0,0,0,0,0,0,0,0,0,0,0,0,0,0,0,0,0,0,0,0,0,0,0,0,0,0,0,0,0,0,0,0,0,0,0,0,0,0,0,0,0,0],"sum_hessian":[3.708E4,3.2576E4,4.504E3,2.5352E4,7.224E3,2.876E3,1.628E3,1.2901E4,1.2451E4,2.999E3,4.225E3,1.121E3,1.755E3,9.72E2,6.56E2,2.509E3,1.0392E4,8.825E3,3.626E3,3.11E2,2.688E3,2.977E3,1.248E3,3.72E2,7.49E2,1.043E3,7.12E2,1.29E2,8.43E2,4.37E2,2.19E2,1.47E3,1.039E3,7.402E3,2.99E3,7.18E2,8.107E3,3.432E3,1.94E2,1.69E2,1.42E2,2.294E3,3.94E2,2.589E3,3.88E2,8.78E2,3.7E2,1.94E2,1.78E2,5.32E2,2.17E2,2.72E2,7.71E2,4.25E2,2.87E2,2.9E1,1E2,7.56E2,8.7E1,3.72E2,6.5E1,1.89E2,3E1],"tree_param":{"num_deleted":"0","num_feature":"7","num_nodes":"63","size_leaf_vector":"1"}},{"base_weights":[1.17276914E-1,-5.1235237E0,2.4308935E1,-7.696531E0,3.441325E0,7.849101E0,4.2529625E1,-1.0122279E1,-2.1724408E0,-1.7878971E0,1.2993894E1,5.934357E-1,2.4940119E1,3.3668133E1,5.686697E1,-1.393283E1,-8.341297E0,-4.005178E0,1.6819508E0,-6.675452E0,2.6981022E0,5.0611E0,2.1129448E1,-1.3232527E1,6.601184E0,2.1711828E1,6.019885E1,2.7626884E1,6.0758102E1,5.0523136E1,9.275725E1,-5.8353806E-1,-8.8156396E-1,-5.684437E-1,-3.0908322E-1,-2.3228513E-1,3.1410608E-1,-3.2142963E-2,3.1662047E-1,-6.092757E-1,-1.6184811E-1,1.8498614E-1,-3.7817466E-1,-1.9528376E-2,3.5833147E-1,9.224823E-1,1.8158344E0,-6.878031E-1,2.642207E0,6.5743245E-2,1.6329254E0,1.7370507E0,7.1276426E-1,8.0022424E-1,3.95415E0,1.4171895E0,-1.6457547E0,4.244988E0,1.8340997E0,2.6524444E0,4.327757E-1,2.0464227E0,5.634156E0],"categories":[],"categories_nodes":[],"categories_segments":[],"categories_sizes":[],"default_left":[0,0,0,0,0,0,0,0,0,0,0,0,0,0,0,0,0,0,0,0,0,0,0,0,0,0,0,0,0,0,0,0,0,0,0,0,0,0,0,0,0,0,0,0,0,0,0,0,0,0,0,0,0,0,0,0,0,0,0,0,0,0,0],"id":25,"left_children":[1,3,5,7,9,11,13,15,17,19,21,23,25,27,29,31,33,35,37,39,41,43,45,47,49,51,53,55,57,59,61,-1,-1,-1,-1,-1,-1,-1,-1,-1,-1,-1,-1,-1,-1,-1,-1,-1,-1,-1,-1,-1,-1,-1,-1,-1,-1,-1,-1,-1,-1,-1,-1],"loss_changes":[4.6915E6,6.702946E5,1.9757702E6,3.1339175E5,3.5103947E5,4.294204E5,3.953715E5,1.10178375E5,5.0430184E4,9.9603945E4,1.6033372E5,2.0209633E5,1.1616075E5,3.14998E5,2.66938E5,4.3089125E4,7.236275E4,3.1908055E4,2.4881178E4,4.114979E4,2.4377096E4,1.4465893E4,4.9267375E4,2.6222281E4,2.3357655E5,9.150831E4,7.050759E4,6.9682875E4,2.0148125E5,1.0698E5,1.7921475E5,0E0,0E0,0E0,0E0,0E0,0E0,0E0,0E0,0E0,0E0,0E0,0E0,0E0,0E0,0E0,0E0,0E0,0E0,0E0,0E0,0E0,0E0,0E0,0E0,0E0,0E0,0E0,0E0,0E0,0E0,0E0,0E0],"parents":[2147483647,0,0,1,1,2,2,3,3,4,4,5,5,6,6,7,7,8,8,9,9,10,10,11,11,12,12,13,13,14,14,15,15,16,16,17,17,18,18,19,19,20,20,21,21,22,22,23,23,24,24,25,25,26,26,27,27,28,28,29,29,30,30],"right_children":[2,4,6,8,10,12,14,16,18,20,22,24,26,28,30,32,34,36,38,40,42,44,46,48,50,52,54,56,58,60,62,-1,-1,-1,-1,-1,-1,-1,-1,-1,-1,-1,-1,-1,-1,-1,-1,-1,-1,-1,-1,-1,-1,-1,-1,-1,-1,-1,-1,-1,-1,-1,-1],"split_conditions":[6E0,1.007E2,1.7965E3,2.771E3,2.3608E3,2.655E2,2.8649E3,8.975E2,3.6347E3,9.169E2,9.845E0,1.568E2,3.4435E2,3.26E2,6.6575E0,6.8E0,5.79E1,9.675E1,7.4E0,1.236E2,2.1E1,1.06E2,3.6688E3,9.845E0,5.18125E0,6E0,6E0,8.13875E0,6.8E0,3.05E1,2.3035E2,-5.8353806E-1,-8.8156396E-1,-5.684437E-1,-3.0908322E-1,-2.3228513E-1,3.1410608E-1,-3.2142963E-2,3.1662047E-1,-6.092757E-1,-1.6184811E-1,1.8498614E-1,-3.7817466E-1,-1.9528376E-2,3.5833147E-1,9.224823E-1,1.8158344E0,-6.878031E-1,2.642207E0,6.5743245E-2,1.6329254E0,1.7370507E0,7.1276426E-1,8.0022424E-1,3.95415E0,1.4171895E0,-1.6457547E0,4.244988E0,1.8340997E0,2.6524444E0,4.327757E-1,2.0464227E0,5.634156E0],"split_indices":[6,2,0,0,0,2,0,0,0,0,5,0,2,2,5,3,2,2,3,2,3,2,0,5,5,3,3,5,3,3,2,0,0,0,0,0,0,0,0,0,0,0,0,0,0,0,0,0,0,0,0,0,0,0,0,0,0,0,0,0,0,0,0],"split_type":[0,0,0,0,0,0,0,0,0,0,0,0,0,0,0,0,0,0,0,0,0,0,0,0,0,0,0,0,0,0,0,0,0,0,0,0,0,0,0,0,0,0,0,0,0,0,0,0,0,0,0,0,0,0,0,0,0,0,0,0,0,0,0],"sum_hessian":[3.7002E4,3.0414E4,6.588E3,2.3388E4,7.026E3,3.462E3,3.126E3,1.6251E4,7.137E3,4.541E3,2.485E3,2.431E3,1.031E3,1.934E3,1.192E3,5.174E3,1.1077E4,4.837E3,2.3E3,2.173E3,2.368E3,1.259E3,1.226E3,7.36E2,1.695E3,9.46E2,8.5E1,1.583E3,3.51E2,1.015E3,1.77E2,3.213E3,1.961E3,4.61E3,6.467E3,4.554E3,2.83E2,1.534E3,7.66E2,8.34E2,1.339E3,2.158E3,2.1E2,3.51E2,9.08E2,1.044E3,1.82E2,7.31E2,5E0,1.41E3,2.85E2,3.43E2,6.03E2,2.6E1,5.9E1,1.565E3,1.8E1,1.74E2,1.77E2,9.57E2,5.8E1,5E1,1.27E2],"tree_param":{"num_deleted":"0","num_feature":"7","num_nodes":"63","size_leaf_vector":"1"}},{"base_weights":[1.1127198E-1,-4.0084987E0,2.9531183E1,-7.675498E0,3.9994607E0,1.7100618E1,5.3483654E1,-1.0143551E1,-3.0978642E0,-6.7197566E0,9.653413E0,4.828671E0,2.8339603E1,3.8865974E1,7.417511E1,-1.5126303E1,-8.976979E0,-4.6599007E0,1.3805814E0,-1.4445437E1,-4.709172E0,5.9812994E0,2.1920977E1,-2.03061E0,1.6354525E1,2.0610794E1,5.3250523E1,5.754532E0,4.422235E1,4.7767513E1,8.200586E1,-6.51452E-1,-9.457781E-1,-6.708166E-1,-3.8348445E-1,-2.968509E-1,9.361813E-4,-3.732471E-2,4.1130826E-1,-5.928084E-1,-1.2745432E0,-1.7275666E-1,-7.2292554E-1,1.3453098E-1,5.837773E-1,6.9503707E-1,1.801618E0,6.5114003E-1,-5.6131387E-1,1.0886093E0,-1.0235671E0,1.4997681E0,5.720174E-1,1.7049696E0,4.113418E0,1.1279337E0,-2.653284E-1,2.0252569E0,4.4200816E0,3.939476E0,2.0284724E0,3.6904392E0,5.9970374E0],"categories":[],"categories_nodes":[],"categories_segments":[],"categories_sizes":[],"default_left":[0,0,0,0,0,0,0,0,0,0,0,0,0,0,0,0,0,0,0,0,0,0,0,0,0,0,0,0,0,0,0,0,0,0,0,0,0,0,0,0,0,0,0,0,0,0,0,0,0,0,0,0,0,0,0,0,0,0,0,0,0,0,0],"id":26,"left_children":[1,3,5,7,9,11,13,15,17,19,21,23,25,27,29,31,33,35,37,39,41,43,45,47,49,51,53,55,57,59,61,-1,-1,-1,-1,-1,-1,-1,-1,-1,-1,-1,-1,-1,-1,-1,-1,-1,-1,-1,-1,-1,-1,-1,-1,-1,-1,-1,-1,-1,-1,-1,-1],"loss_changes":[4.4807615E6,9.522849E5,1.3511355E6,2.5126662E5,6.17397E5,4.1239444E5,4.66234E5,8.3864E4,5.4522336E4,5.4577547E4,3.002932E5,1.1316675E5,2.9944462E5,1.61318E5,1.28636E5,2.1528562E4,6.7867875E4,3.4524547E4,2.9361264E4,2.0461078E4,3.4097387E4,9.616919E4,1.7333844E5,1.2445288E5,1.0698408E5,1.0232719E5,2.0225706E5,2.3911363E4,1.2517075E5,3.0075E4,1.4444825E5,0E0,0E0,0E0,0E0,0E0,0E0,0E0,0E0,0E0,0E0,0E0,0E0,0E0,0E0,0E0,0E0,0E0,0E0,0E0,0E0,0E0,0E0,0E0,0E0,0E0,0E0,0E0,0E0,0E0,0E0,0E0,0E0],"parents":[2147483647,0,0,1,1,2,2,3,3,4,4,5,5,6,6,7,7,8,8,9,9,10,10,11,11,12,12,13,13,14,14,15,15,16,16,17,17,18,18,19,19,20,20,21,21,22,22,23,23,24,24,25,25,26,26,27,27,28,28,29,29,30,30],"right_children":[2,4,6,8,10,12,14,16,18,20,22,24,26,28,30,32,34,36,38,40,42,44,46,48,50,52,54,56,58,60,62,-1,-1,-1,-1,-1,-1,-1,-1,-1,-1,-1,-1,-1,-1,-1,-1,-1,-1,-1,-1,-1,-1,-1,-1,-1,-1,-1,-1,-1,-1,-1,-1],"split_conditions":[8.7338E1,2.486E1,2.3747E3,2.6233E3,1.0329E3,1.0329E3,1.14786E2,3.364E2,3.6959E3,-6.897E2,5.5156E1,2.655E2,1.34316E2,5.06E0,2.22E2,6.8E0,5.125E1,2.055E1,2.0045E1,1.5435E2,2.4E1,2.7196E3,2.7065E3,4.75E0,3.31E2,9.3E0,3.2825E2,2.69E2,3.9573E3,1.425E2,3.4034E3,-6.51452E-1,-9.457781E-1,-6.708166E-1,-3.8348445E-1,-2.968509E-1,9.361813E-4,-3.732471E-2,4.1130826E-1,-5.928084E-1,-1.2745432E0,-1.7275666E-1,-7.2292554E-1,1.3453098E-1,5.837773E-1,6.9503707E-1,1.801618E0,6.5114003E-1,-5.6131387E-1,1.0886093E0,-1.0235671E0,1.4997681E0,5.720174E-1,1.7049696E0,4.113418E0,1.1279337E0,-2.653284E-1,2.0252569E0,4.4200816E0,3.939476E0,2.0284724E0,3.6904392E0,5.9970374E0],"split_indices":[1,1,0,0,0,0,1,0,0,0,1,2,1,3,2,3,2,1,1,2,3,0,0,3,2,3,2,2,0,2,0,0,0,0,0,0,0,0,0,0,0,0,0,0,0,0,0,0,0,0,0,0,0,0,0,0,0,0,0,0,0,0,0],"split_type":[0,0,0,0,0,0,0,0,0,0,0,0,0,0,0,0,0,0,0,0,0,0,0,0,0,0,0,0,0,0,0,0,0,0,0,0,0,0,0,0,0,0,0,0,0,0,0,0,0,0,0,0,0,0,0,0,0,0,0,0,0,0,0],"sum_hessian":[3.6967E4,3.2427E4,4.54E3,2.2242E4,1.0185E4,2.99E3,1.55E3,1.445E4,7.792E3,3.517E3,6.668E3,1.43E3,1.56E3,9.1E2,6.4E2,2.739E3,1.1711E4,5.777E3,2.015E3,7.25E2,2.792E3,5.133E3,1.535E3,8.97E2,5.33E2,1.192E3,3.68E2,1.27E2,7.83E2,1.48E2,4.92E2,1.766E3,9.73E2,2.662E3,9.049E3,4.538E3,1.239E3,1.538E3,4.77E2,5.89E2,1.36E2,2.475E3,3.17E2,3.254E3,1.879E3,9.8E2,5.55E2,3.4E2,5.57E2,4.65E2,6.8E1,5.88E2,6.04E2,2.23E2,1.45E2,5E1,7.7E1,7.24E2,5.9E1,2.6E1,1.22E2,4.07E2,8.5E1],"tree_param":{"num_deleted":"0","num_feature":"7","num_nodes":"63","size_leaf_vector":"1"}},{"base_weights":[-9.741284E-2,-3.8920422E0,2.696308E1,-7.2991824E0,3.5649273E0,1.5059604E1,4.8403503E1,-9.934773E0,-3.1676214E0,-1.7314227E0,1.3601401E1,-3.069078E0,2.22228E1,