{"learner":{"attributes":{"best_iteration":"114","best_score":"15.500021474384331","scikit_learn":"{\"_estimator_type\": \"regressor\"}"},"feature_names":["TTF_Gas_Lag1","TTF_Gas_Lag2","Coal_Lag1","Coal_Lag2","EU_ETS_Lag1","EU_ETS_Lag2","Brent_Oil_Lag1","Brent_Oil_Lag2","EU_Gas_Storage_Lag1","EU_Gas_Storage_Lag2","DayOfWeek_Sin","DayOfWeek_Cos","Month_Sin","Month_Cos","Price_Lag1","Price_Lag2","Price_Lag7","Price_Lag14","Price_Lag30","Load_Lag1","Load_Lag2","Load_Lag7","Price_Roll7_Mean","Price_Roll7_Std","Load_Roll7_Mean","Country_Avg_Load","Country_Avg_Residual_Load","Country_Avg_Price"],"feature_types":["float","float","float","float","float","float","float","float","float","float","float","float","float","float","float","float","float","float","float","float","float","float","float","float","float","float","float","float"],"gradient_booster":{"model":{"cats":{"enc":[],"feature_segments":[],"sorted_idx":[]},"gbtree_model_param":{"num_parallel_tree":"1","num_trees":"165"},"iteration_indptr":[0,1,2,3,4,5,6,7,8,9,10,11,12,13,14,15,16,17,18,19,20,21,22,23,24,25,26,27,28,29,30,31,32,33,34,35,36,37,38,39,40,41,42,43,44,45,46,47,48,49,50,51,52,53,54,55,56,57,58,59,60,61,62,63,64,65,66,67,68,69,70,71,72,73,74,75,76,77,78,79,80,81,82,83,84,85,86,87,88,89,90,91,92,93,94,95,96,97,98,99,100,101,102,103,104,105,106,107,108,109,110,111,112,113,114,115,116,117,118,119,120,121,122,123,124,125,126,127,128,129,130,131,132,133,134,135,136,137,138,139,140,141,142,143,144,145,146,147,148,149,150,151,152,153,154,155,156,157,158,159,160,161,162,163,164,165],"tree_info":[0,0,0,0,0,0,0,0,0,0,0,0,0,0,0,0,0,0,0,0,0,0,0,0,0,0,0,0,0,0,0,0,0,0,0,0,0,0,0,0,0,0,0,0,0,0,0,0,0,0,0,0,0,0,0,0,0,0,0,0,0,0,0,0,0,0,0,0,0,0,0,0,0,0,0,0,0,0,0,0,0,0,0,0,0,0,0,0,0,0,0,0,0,0,0,0,0,0,0,0,0,0,0,0,0,0,0,0,0,0,0,0,0,0,0,0,0,0,0,0,0,0,0,0,0,0,0,0,0,0,0,0,0,0,0,0,0,0,0,0,0,0,0,0,0,0,0,0,0,0,0,0,0,0,0,0,0,0,0,0,0,0,0,0,0],"trees":[{"base_weights":[-9.310329E-2,-1.7825424E1,1.4459877E2,-3.1938046E1,1.622205E1,1.1476073E2,2.5663977E2,-4.3541718E1,-2.1566214E1,4.951624E0,3.9224174E1,9.219094E1,1.5383429E2,2.1724718E2,3.3548984E2,-5.434938E1,-3.8278618E1,-3.0870707E1,-1.7767105E1,-2.0083961E0,1.3615376E1,3.22497E1,5.449378E1,7.0397606E1,1.0069229E2,1.2345917E2,1.6556541E2,1.6616864E2,2.3772044E2,2.6323743E2,3.6673557E2,-6.0153492E1,-4.900337E1,-4.5299213E1,-3.5507072E1,-3.459206E1,-2.361547E1,-2.3132147E1,-1.1232314E1,-1.4363961E1,2.763767E0,2.7826474E0,1.7992577E1,1.9735271E1,3.737034E1,3.6707027E1,6.128387E1,6.067354E1,8.747152E1,8.634469E1,1.1505842E2,1.1714076E2,1.1251705E1,1.4838992E2,1.9832303E2,1.07983185E2,1.8399846E2,1.8356876E2,2.5168378E2,1.8822827E2,1.4655565E1,2.5452574E2,4.0197153E2,-3.4371297E0,-2.9178045E0,-2.8297017E0,-2.296982E0,-2.4568715E0,-2.1252506E0,-1.8411875E0,-1.1703037E0,-2.0102565E0,-1.5848411E0,-1.4275178E0,-9.5918113E-1,-1.2277521E0,-7.619881E-1,-7.1049017E-1,-3.5874596E-1,-1.0154806E0,-4.251761E-1,7.521253E-2,7.431826E-1,-3.1738512E-2,5.81289E-1,6.3922054E-1,1.3090063E0,4.333631E-1,1.178213E0,1.5403167E0,2.4718335E0,1.9141868E0,-1.1723918E0,2.3976038E0,3.349468E0,3.4769425E0,2.6106794E0,3.6915834E0,5.188951E0,4.033141E-1,4.37923E0,5.892321E0,3.2460308E0,5.233954E0,6.6531153E0,6.9485793E0,9.574679E0,1.2228737E1,9.551699E0,6.2310987E0,1.5633783E0,9.68497E0,4.8028936E0,4.7560306E0,1.071445E1,1.2840922E1,9.571535E0,7.7778244E0,1.1377029E1,6.8010902E0,1.3222371E1,1.6928602E1,2.1771336E1],"categories":[],"categories_nodes":[],"categories_segments":[],"categories_sizes":[],"default_left":[0,0,0,0,0,0,0,0,0,0,0,0,0,0,0,0,0,0,0,0,0,0,0,0,0,0,0,0,0,0,0,0,0,0,0,0,0,0,0,0,0,0,0,0,0,0,0,0,0,0,0,0,0,0,0,0,0,0,0,0,0,0,0,0,0,0,0,0,0,0,0,0,0,0,0,0,0,0,0,0,0,0,0,0,0,0,0,0,0,0,0,0,0,0,0,0,0,0,0,0,0,0,0,0,0,0,0,0,0,0,0,0,0,0,0,0,0,0,0,0,0,0,0],"id":0,"left_children":[1,3,5,7,9,11,13,15,17,19,21,23,25,27,29,31,33,35,37,39,41,43,45,47,49,51,53,55,57,59,61,63,65,67,69,71,73,75,77,79,81,83,85,87,89,91,93,95,97,99,101,103,-1,105,107,109,111,113,115,117,-1,119,121,-1,-1,-1,-1,-1,-1,-1,-1,-1,-1,-1,-1,-1,-1,-1,-1,-1,-1,-1,-1,-1,-1,-1,-1,-1,-1,-1,-1,-1,-1,-1,-1,-1,-1,-1,-1,-1,-1,-1,-1,-1,-1,-1,-1,-1,-1,-1,-1,-1,-1,-1,-1,-1,-1,-1,-1,-1,-1,-1,-1],"loss_changes":[9.898815E7,1.6514793E7,1.4051584E7,2.92335E6,2.6109038E6,2.920692E6,2.675968E6,6.50174E5,4.53042E5,4.0771606E5,3.50954E5,3.84192E5,4.13188E5,5.80584E5,5.64868E5,1.13492E5,1.48502E5,9.958775E4,3.192685E5,2.2115125E5,1.4276794E5,1.45107E5,1.2298275E5,9.363075E4,3.02728E5,1.937395E5,4.62836E5,1.59578E5,2.7209E5,1.50935E5,6.96292E5,2.3687E4,4.29475E4,2.1282E4,8.7338E4,3.863125E4,2.7092062E4,5.581675E4,4.956028E4,3.623653E4,4.1215453E4,2.624003E4,9.112875E4,2.7890016E4,1.263035E5,2.8309875E4,5.37485E4,2.508175E4,3.99205E4,7.334E4,9.7868E4,5.05305E4,0E0,2.08002E5,5.37E4,5.0975312E4,9.3122E4,2.2412925E5,5.3506E4,1.814E3,0E0,2.3953E4,1.74898E5,0E0,0E0,0E0,0E0,0E0,0E0,0E0,0E0,0E0,0E0,0E0,0E0,0E0,0E0,0E0,0E0,0E0,0E0,0E0,0E0,0E0,0E0,0E0,0E0,0E0,0E0,0E0,0E0,0E0,0E0,0E0,0E0,0E0,0E0,0E0,0E0,0E0,0E0,0E0,0E0,0E0,0E0,0E0,0E0,0E0,0E0,0E0,0E0,0E0,0E0,0E0,0E0,0E0,0E0,0E0,0E0,0E0,0E0,0E0,0E0],"parents":[2147483647,0,0,1,1,2,2,3,3,4,4,5,5,6,6,7,7,8,8,9,9,10,10,11,11,12,12,13,13,14,14,15,15,16,16,17,17,18,18,19,19,20,20,21,21,22,22,23,23,24,24,25,25,26,26,27,27,28,28,29,29,30,30,31,31,32,32,33,33,34,34,35,35,36,36,37,37,38,38,39,39,40,40,41,41,42,42,43,43,44,44,45,45,46,46,47,47,48,48,49,49,50,50,51,51,53,53,54,54,55,55,56,56,57,57,58,58,59,59,61,61,62,62],"right_children":[2,4,6,8,10,12,14,16,18,20,22,24,26,28,30,32,34,36,38,40,42,44,46,48,50,52,54,56,58,60,62,64,66,68,70,72,74,76,78,80,82,84,86,88,90,92,94,96,98,100,102,104,-1,106,108,110,112,114,116,118,-1,120,122,-1,-1,-1,-1,-1,-1,-1,-1,-1,-1,-1,-1,-1,-1,-1,-1,-1,-1,-1,-1,-1,-1,-1,-1,-1,-1,-1,-1,-1,-1,-1,-1,-1,-1,-1,-1,-1,-1,-1,-1,-1,-1,-1,-1,-1,-1,-1,-1,-1,-1,-1,-1,-1,-1,-1,-1,-1,-1,-1,-1],"split_conditions":[1.4178793E2,6.7239365E1,2.7387955E2,4.20006E1,9.8414665E1,1.9959578E2,3.476796E2,2.7556808E1,-4.3388373E-1,8.110394E1,1.22009766E2,-4.3388373E-1,-4.3388373E-1,-4.3388373E-1,9.317E1,1.9309868E1,-4.3388373E-1,5.650548E1,5.390561E1,-4.3388373E-1,-4.3388373E-1,-4.3388373E-1,-4.3388373E-1,1.8694969E2,1.6739415E2,3.9E2,2.4080353E2,2.9996405E2,2.5220961E2,-4.3388373E-1,2.8169995E2,6.950287E0,-4.3388373E-1,3.648755E1,1.7020336E1,4.091395E-1,4.5912218E-1,1.7707418E1,6.0736446E1,4.2083016E-1,1.0413928E2,9.87937E1,5.4948187E-1,1.00813705E2,5.25E0,7.144297E1,1.391E2,2.29E2,1.15E1,-2.00675E1,2.5251791E2,4.9814445E-1,1.1251705E1,3.525E2,1.4549123E2,1.0285794E2,4.294631E2,2.3415E2,4.294631E2,3.658069E2,1.4655565E1,2.6704037E2,-3.875E0,-3.4371297E0,-2.9178045E0,-2.8297017E0,-2.296982E0,-2.4568715E0,-2.1252506E0,-1.8411875E0,-1.1703037E0,-2.0102565E0,-1.5848411E0,-1.4275178E0,-9.5918113E-1,-1.2277521E0,-7.619881E-1,-7.1049017E-1,-3.5874596E-1,-1.0154806E0,-4.251761E-1,7.521253E-2,7.431826E-1,-3.1738512E-2,5.81289E-1,6.3922054E-1,1.3090063E0,4.333631E-1,1.178213E0,1.5403167E0,2.4718335E0,1.9141868E0,-1.1723918E0,2.3976038E0,3.349468E0,3.4769425E0,2.6106794E0,3.6915834E0,5.188951E0,4.033141E-1,4.37923E0,5.892321E0,3.2460308E0,5.233954E0,6.6531153E0,6.9485793E0,9.574679E0,1.2228737E1,9.551699E0,6.2310987E0,1.5633783E0,9.68497E0,4.8028936E0,4.7560306E0,1.071445E1,1.2840922E1,9.571535E0,7.7778244E0,1.1377029E1,6.8010902E0,1.3222371E1,1.6928602E1,2.1771336E1],"split_indices":[22,22,22,22,22,22,22,22,10,22,22,10,10,10,6,22,10,22,22,10,10,10,10,15,22,2,15,15,15,10,17,22,10,15,23,19,19,23,22,19,17,15,19,15,4,23,2,3,4,9,16,19,0,2,17,23,18,2,18,17,0,15,8,0,0,0,0,0,0,0,0,0,0,0,0,0,0,0,0,0,0,0,0,0,0,0,0,0,0,0,0,0,0,0,0,0,0,0,0,0,0,0,0,0,0,0,0,0,0,0,0,0,0,0,0,0,0,0,0,0,0,0,0],"split_type":[0,0,0,0,0,0,0,0,0,0,0,0,0,0,0,0,0,0,0,0,0,0,0,0,0,0,0,0,0,0,0,0,0,0,0,0,0,0,0,0,0,0,0,0,0,0,0,0,0,0,0,0,0,0,0,0,0,0,0,0,0,0,0,0,0,0,0,0,0,0,0,0,0,0,0,0,0,0,0,0,0,0,0,0,0,0,0,0,0,0,0,0,0,0,0,0,0,0,0,0,0,0,0,0,0,0,0,0,0,0,0,0,0,0,0,0,0,0,0,0,0,0,0],"sum_hessian":[3.8579E4,3.4368E4,4.211E3,2.4297E4,1.0071E4,3.327E3,8.84E2,1.1466E4,1.2831E4,6.76E3,3.311E3,2.111E3,1.216E3,5.92E2,2.92E2,3.752E3,7.714E3,3.718E3,9.113E3,3.749E3,3.011E3,2.275E3,1.036E3,5.95E2,1.516E3,3.42E2,8.74E2,1.72E2,4.2E2,9.1E1,2.01E2,1.794E3,1.958E3,2.179E3,5.535E3,2.455E3,1.263E3,5.003E3,4.11E3,1.044E3,2.705E3,8.67E2,2.144E3,6.62E2,1.613E3,2.88E2,7.48E2,3.82E2,2.13E2,7.62E2,7.54E2,3.24E2,1.8E1,5.77E2,2.97E2,4.2E1,1.3E2,8.9E1,3.31E2,2.8E1,6.3E1,5E1,1.51E2,3.04E2,1.49E3,5.58E2,1.4E3,9.11E2,1.268E3,4.99E3,5.45E2,8.31E2,1.624E3,5.95E2,6.68E2,4.237E3,7.66E2,2.369E3,1.741E3,5.17E2,5.27E2,2.451E3,2.54E2,6.26E2,2.41E2,1.312E3,8.32E2,1.71E2,4.91E2,1.047E3,5.66E2,2.81E2,7E0,2.27E2,5.21E2,1.83E2,1.99E2,1.19E2,9.4E1,1.2E1,7.5E2,7.13E2,4.1E1,1.86E2,1.38E2,4.77E2,1E2,3.6E1,2.61E2,3.4E1,8E0,1.16E2,1.4E1,2.4E1,6.5E1,3.02E2,2.9E1,1.8E1,1E1,5E0,4.5E1,5.6E1,9.5E1],"tree_param":{"num_deleted":"0","num_feature":"28","num_nodes":"123","size_leaf_vector":"1"}},{"base_weights":[2.435439E-1,-1.6104834E1,1.4979993E2,-2.9625612E1,2.179038E1,1.1065894E2,2.4868858E2,-3.945576E1,-1.6539473E1,9.841021E0,4.4575268E1,8.8417114E1,1.3280376E2,2.2670406E2,3.750213E2,-5.0099754E1,-3.444775E1,-2.1288324E1,-9.224776E0,4.8543873E0,2.0248144E1,4.0461487E1,7.477717E1,8.231031E1,1.3047255E2,1.19475395E2,1.4943185E2,1.9821768E2,2.5659177E2,1.4247914E1,3.937564E2,-5.774739E1,-4.3824017E1,-3.6926502E1,-2.635231E1,-2.4361763E1,-1.5551117E1,-1.1851559E1,2.1960018E0,-1.8869101E0,1.0257231E1,1.8342455E1,6.2984318E1,3.2375618E1,5.118394E1,4.5375698E1,8.746041E1,6.8143295E1,8.864997E1,1.1838767E2,8.801899E0,9.991571E1,1.26926056E2,1.2905415E2,1.6146724E2,1.7433342E2,2.2176906E2,2.2642047E2,2.7793292E2,1.71042E1,2.1106451E1,-3.114664E0,-2.7232833E0,-2.3476605E0,-1.9057661E0,-2.1174474E0,-1.6690563E0,-1.3940716E0,1.5262667E0,-1.4597125E0,-1.0987991E0,-1.0734886E0,-5.7178444E-1,-8.529605E-1,-3.893363E-1,-2.2452207E-2,2.8147342E0,-4.0364915E-1,4.281158E-2,3.4513658E-1,7.668554E-1,7.479115E-1,1.3615245E0,2.2919393E0,4.8421993E0,1.3538947E0,1.7905632E0,1.9487396E0,2.7359324E0,1.7099799E0,2.6661375E0,6.19795E0,4.1890273E0,3.9424942E0,2.898127E0,3.926602E0,4.8433056E0,4.5966086E0,6.3892503E0,3.996822E0,5.1865654E0,6.1148887E0,7.800851E0,4.8079886E0,6.753157E0,7.0241084E0,9.02689E0,8.158072E0,9.652398E0,1.3365982E1,1.0514718E1,8.554355E0,1.157688E1,1.772843E1,1.3390785E1],"categories":[],"categories_nodes":[],"categories_segments":[],"categories_sizes":[],"default_left":[0,0,0,0,0,0,0,0,0,0,0,0,0,0,0,0,0,0,0,0,0,0,0,0,0,0,0,0,0,0,0,0,0,0,0,0,0,0,0,0,0,0,0,0,0,0,0,0,0,0,0,0,0,0,0,0,0,0,0,0,0,0,0,0,0,0,0,0,0,0,0,0,0,0,0,0,0,0,0,0,0,0,0,0,0,0,0,0,0,0,0,0,0,0,0,0,0,0,0,0,0,0,0,0,0,0,0,0,0,0,0,0,0,0,0],"id":1,"left_children":[1,3,5,7,9,11,13,15,17,19,21,23,25,27,29,31,33,35,37,39,41,43,45,47,49,51,53,55,57,-1,59,61,63,65,67,69,71,73,75,77,79,81,83,85,87,89,91,93,95,97,-1,99,101,103,105,107,109,111,113,-1,-1,-1,-1,-1,-1,-1,-1,-1,-1,-1,-1,-1,-1,-1,-1,-1,-1,-1,-1,-1,-1,-1,-1,-1,-1,-1,-1,-1,-1,-1,-1,-1,-1,-1,-1,-1,-1,-1,-1,-1,-1,-1,-1,-1,-1,-1,-1,-1,-1,-1,-1,-1,-1,-1,-1],"loss_changes":[9.483192E7,1.7915248E7,1.4765872E7,3.31436E6,2.503031E6,1.337802E6,2.922804E6,7.82652E5,3.8384625E5,3.129908E5,3.89947E5,3.41088E5,2.85968E5,7.36632E5,1.56016E5,2.23321E5,1.99887E5,1.17811E5,1.3064656E5,1.4862266E5,1.5797406E5,2.398815E5,1.369765E5,1.01631E5,7.384225E4,9.8927E4,1.27757E5,2.30176E5,2.25482E5,0E0,4.4644E4,2.8193E4,4.4451E4,1.4586E5,2.0523725E5,4.96555E4,5.677275E4,7.480025E4,1.1665206E5,3.0823834E4,3.848853E4,5.5896562E4,4.373153E4,2.7982E4,4.94725E4,8.470391E3,2.4917625E4,3.62915E4,6.09575E4,2.278725E4,0E0,8.156E3,5.5079E4,3.245175E4,1.2548E5,1.90635E4,6.7613E4,1.4429E4,1.05016E5,0E0,0E0,0E0,0E0,0E0,0E0,0E0,0E0,0E0,0E0,0E0,0E0,0E0,0E0,0E0,0E0,0E0,0E0,0E0,0E0,0E0,0E0,0E0,0E0,0E0,0E0,0E0,0E0,0E0,0E0,0E0,0E0,0E0,0E0,0E0,0E0,0E0,0E0,0E0,0E0,0E0,0E0,0E0,0E0,0E0,0E0,0E0,0E0,0E0,0E0,0E0,0E0,0E0,0E0,0E0,0E0],"parents":[2147483647,0,0,1,1,2,2,3,3,4,4,5,5,6,6,7,7,8,8,9,9,10,10,11,11,12,12,13,13,14,14,15,15,16,16,17,17,18,18,19,19,20,20,21,21,22,22,23,23,24,24,25,25,26,26,27,27,28,28,30,30,31,31,32,32,33,33,34,34,35,35,36,36,37,37,38,38,39,39,40,40,41,41,42,42,43,43,44,44,45,45,46,46,47,47,48,48,49,49,51,51,52,52,53,53,54,54,55,55,56,56,57,57,58,58],"right_children":[2,4,6,8,10,12,14,16,18,20,22,24,26,28,30,32,34,36,38,40,42,44,46,48,50,52,54,56,58,-1,60,62,64,66,68,70,72,74,76,78,80,82,84,86,88,90,92,94,96,98,-1,100,102,104,106,108,110,112,114,-1,-1,-1,-1,-1,-1,-1,-1,-1,-1,-1,-1,-1,-1,-1,-1,-1,-1,-1,-1,-1,-1,-1,-1,-1,-1,-1,-1,-1,-1,-1,-1,-1,-1,-1,-1,-1,-1,-1,-1,-1,-1,-1,-1,-1,-1,-1,-1,-1,-1,-1,-1,-1,-1,-1,-1],"split_conditions":[1.53087E2,7.339098E1,2.6704037E2,4.61116E1,1.043602E2,1.9176639E2,4.294631E2,2.935539E1,5.9661163E1,9.188149E1,1E0,1E0,2.2052585E2,3.191771E2,2.8169995E2,2.131442E1,1E0,5.7968517E1,1E0,8.270425E1,1.8694969E2,1.2491874E2,6.4864E1,-4.3388373E-1,1.36913E2,-4.3388373E-1,0E0,0E0,0E0,1.4247914E1,2.4455E2,1.028368E1,3.3129246E1,3.560957E1,7.2422E1,-4.3388373E-1,-4.3388373E-1,6.171363E1,8.7606E1,-4.3388373E-1,9.2132965E1,5.666E1,1E0,9.975423E1,9.975423E1,4.6887E1,1.4E2,-1.314125E1,1.7004315E2,4.4055513E3,8.801899E0,1.9700061E2,1E0,1.2070705E2,1.1602E2,3.000218E2,4.3388373E-1,2.31E2,4.3388373E-1,1.71042E1,2.1106451E1,-3.114664E0,-2.7232833E0,-2.3476605E0,-1.9057661E0,-2.1174474E0,-1.6690563E0,-1.3940716E0,1.5262667E0,-1.4597125E0,-1.0987991E0,-1.0734886E0,-5.7178444E-1,-8.529605E-1,-3.893363E-1,-2.2452207E-2,2.8147342E0,-4.0364915E-1,4.281158E-2,3.4513658E-1,7.668554E-1,7.479115E-1,1.3615245E0,2.2919393E0,4.8421993E0,1.3538947E0,1.7905632E0,1.9487396E0,2.7359324E0,1.7099799E0,2.6661375E0,6.19795E0,4.1890273E0,3.9424942E0,2.898127E0,3.926602E0,4.8433056E0,4.5966086E0,6.3892503E0,3.996822E0,5.1865654E0,6.1148887E0,7.800851E0,4.8079886E0,6.753157E0,7.0241084E0,9.02689E0,8.158072E0,9.652398E0,1.3365982E1,1.0514718E1,8.554355E0,1.157688E1,1.772843E1,1.3390785E1],"split_indices":[14,14,14,14,14,14,14,16,16,17,11,11,14,14,17,14,11,14,11,14,16,14,1,10,1,10,10,10,10,0,1,14,14,14,1,10,10,14,1,10,14,1,11,16,16,1,2,8,14,26,0,14,11,17,1,14,10,2,10,0,0,0,0,0,0,0,0,0,0,0,0,0,0,0,0,0,0,0,0,0,0,0,0,0,0,0,0,0,0,0,0,0,0,0,0,0,0,0,0,0,0,0,0,0,0,0,0,0,0,0,0,0,0,0,0],"split_type":[0,0,0,0,0,0,0,0,0,0,0,0,0,0,0,0,0,0,0,0,0,0,0,0,0,0,0,0,0,0,0,0,0,0,0,0,0,0,0,0,0,0,0,0,0,0,0,0,0,0,0,0,0,0,0,0,0,0,0,0,0,0,0,0,0,0,0,0,0,0,0,0,0,0,0,0,0,0,0,0,0,0,0,0,0,0,0,0,0,0,0,0,0,0,0,0,0,0,0,0,0,0,0,0,0,0,0,0,0,0,0,0,0,0,0],"sum_hessian":[3.8784E4,3.4963E4,3.821E3,2.5769E4,9.194E3,2.739E3,1.082E3,1.4714E4,1.1055E4,6.032E3,3.162E3,1.369E3,1.37E3,9.24E2,1.58E2,4.705E3,1.0009E4,6.702E3,4.353E3,4.079E3,1.953E3,2.785E3,3.77E2,1.198E3,1.71E2,7.65E2,6.05E2,4.77E2,4.47E2,3E1,1.28E2,2.117E3,2.588E3,7.66E3,2.349E3,4.362E3,2.34E3,3.539E3,8.14E2,1.815E3,2.264E3,1.871E3,8.2E1,1.59E3,1.195E3,1.15E2,2.62E2,3.74E2,8.24E2,1.38E2,3.3E1,2.15E2,5.5E2,2.29E2,3.76E2,2.41E2,2.36E2,1.9E2,2.57E2,5E1,7.8E1,8.8E2,1.237E3,1.667E3,9.21E2,3.024E3,4.636E3,2.288E3,6.1E1,1.438E3,2.924E3,9.58E2,1.382E3,1.55E3,1.989E3,7.77E2,3.7E1,5.57E2,1.258E3,1.365E3,8.99E2,1.357E3,5.14E2,5.6E1,2.6E1,6.29E2,9.61E2,2.71E2,9.24E2,5E1,6.5E1,2.1E1,2.41E2,1.79E2,1.95E2,3.74E2,4.5E2,3.9E1,9.9E1,3.8E1,1.77E2,4.79E2,7.1E1,3.8E1,1.91E2,1.83E2,1.93E2,1.57E2,8.4E1,4.3E1,1.93E2,1.9E1,1.71E2,2.6E1,2.31E2],"tree_param":{"num_deleted":"0","num_feature":"28","num_nodes":"115","size_leaf_vector":"1"}},{"base_weights":[-1.2575662E-1,-1.538171E1,1.4198372E2,-2.8203295E1,2.032114E1,1.0466415E2,2.3870663E2,-3.958233E1,-1.8028265E1,9.889314E0,4.3521355E1,8.416601E1,1.24994446E2,2.1687186E2,3.6334393E2,-4.8598125E1,-3.4478184E1,-2.3841753E1,-1.1401588E1,3.3431563E0,1.8216797E1,3.969665E1,7.149404E1,7.852819E1,1.23397644E2,1.1583091E2,1.4395645E2,1.8967471E2,2.4364253E2,3.0465186E2,3.8477872E2,-5.3612995E1,-4.2024952E1,-3.739428E1,-2.5588646E1,-2.5765692E1,-1.1150539E1,-1.3074177E1,3.8374975E0,-3.0390856E-1,1.0201614E1,1.6049803E1,4.2610188E1,3.394729E1,5.238395E1,4.615957E1,8.278442E1,7.1267494E1,8.726242E1,1.11584496E2,1.720014E2,1.1182804E2,1.533479E2,1.009835E2,1.4861981E2,1.8274658E2,1.2165557E1,2.2793329E2,1.356416E1,9.083717E0,1.576078E1,2.0021248E1,1.5007045E1,-2.8436868E0,-2.4491985E0,-2.1094415E0,8.37451E-1,-2.0661066E0,-1.7170248E0,-1.4115418E0,-5.691278E-2,-1.3975271E0,-1.0921512E0,-6.0548633E-1,4.5395975E0,-8.0504495E-1,-4.709284E-1,5.9242725E-2,2.437207E0,-1.9495386E-1,1.2526582E-1,2.5714374E0,4.9119636E-1,5.754856E-1,1.1263878E0,4.4450042E-1,2.5658293E0,1.4822103E0,1.949843E0,1.939659E0,2.7889607E0,1.7049385E0,2.6514814E0,5.921933E0,3.9282556E0,2.8379476E0,3.8403687E0,4.876678E0,4.054827E0,2.1331365E0,5.692701E0,5.044414E0,9.089642E0,1.2051737E1,5.5379586E0,6.8049808E0,9.395659E0,2.0207891E0,5.731058E0,7.6462517E0,5.837449E0,4.9794874E0,9.24236E0,1.101141E1,1.520755E1],"categories":[],"categories_nodes":[],"categories_segments":[],"categories_sizes":[],"default_left":[0,0,0,0,0,0,0,0,0,0,0,0,0,0,0,0,0,0,0,0,0,0,0,0,0,0,0,0,0,0,0,0,0,0,0,0,0,0,0,0,0,0,0,0,0,0,0,0,0,0,0,0,0,0,0,0,0,0,0,0,0,0,0,0,0,0,0,0,0,0,0,0,0,0,0,0,0,0,0,0,0,0,0,0,0,0,0,0,0,0,0,0,0,0,0,0,0,0,0,0,0,0,0,0,0,0,0,0,0,0,0,0,0,0,0],"id":2,"left_children":[1,3,5,7,9,11,13,15,17,19,21,23,25,27,29,31,33,35,37,39,41,43,45,47,49,51,53,55,57,59,61,63,65,67,69,71,73,75,77,79,81,83,85,87,89,91,93,95,97,99,101,103,105,107,109,111,-1,113,-1,-1,-1,-1,-1,-1,-1,-1,-1,-1,-1,-1,-1,-1,-1,-1,-1,-1,-1,-1,-1,-1,-1,-1,-1,-1,-1,-1,-1,-1,-1,-1,-1,-1,-1,-1,-1,-1,-1,-1,-1,-1,-1,-1,-1,-1,-1,-1,-1,-1,-1,-1,-1,-1,-1,-1,-1],"loss_changes":[8.383933E7,1.5986716E7,1.3507592E7,2.974298E6,2.2329305E6,1.117556E6,2.759596E6,5.56468E5,5.223815E5,3.4702125E5,3.03348E5,2.89106E5,2.1909E5,6.01736E5,7.6446E4,1.42185E5,1.99886E5,1.76147E5,1.6170062E5,8.920131E4,1.4742494E5,1.8203175E5,9.4276125E4,6.88505E4,7.723825E4,1.20987E5,7.2742E4,1.21228E5,1.31342E5,2.4425E3,2.4092E4,3.4666E4,1.901975E4,6.8527E4,1.23808125E5,5.315525E4,9.427776E4,6.30795E4,7.474543E4,2.3531963E4,1.87655E4,7.546931E4,6.647434E4,3.657975E4,3.400375E4,7.1317656E3,2.6178E4,4.8032E4,2.582775E4,1.671275E4,3.2163125E3,8.8586E4,2.566525E4,3.3348062E4,3.6043E4,5.1259E4,0E0,1.03271E5,0E0,0E0,0E0,0E0,0E0,0E0,0E0,0E0,0E0,0E0,0E0,0E0,0E0,0E0,0E0,0E0,0E0,0E0,0E0,0E0,0E0,0E0,0E0,0E0,0E0,0E0,0E0,0E0,0E0,0E0,0E0,0E0,0E0,0E0,0E0,0E0,0E0,0E0,0E0,0E0,0E0,0E0,0E0,0E0,0E0,0E0,0E0,0E0,0E0,0E0,0E0,0E0,0E0,0E0,0E0,0E0,0E0],"parents":[2147483647,0,0,1,1,2,2,3,3,4,4,5,5,6,6,7,7,8,8,9,9,10,10,11,11,12,12,13,13,14,14,15,15,16,16,17,17,18,18,19,19,20,20,21,21,22,22,23,23,24,24,25,25,26,26,27,27,28,28,29,29,30,30,31,31,32,32,33,33,34,34,35,35,36,36,37,37,38,38,39,39,40,40,41,41,42,42,43,43,44,44,45,45,46,46,47,47,48,48,49,49,50,50,51,51,52,52,53,53,54,54,55,55,57,57],"right_children":[2,4,6,8,10,12,14,16,18,20,22,24,26,28,30,32,34,36,38,40,42,44,46,48,50,52,54,56,58,60,62,64,66,68,70,72,74,76,78,80,82,84,86,88,90,92,94,96,98,100,102,104,106,108,110,112,-1,114,-1,-1,-1,-1,-1,-1,-1,-1,-1,-1,-1,-1,-1,-1,-1,-1,-1,-1,-1,-1,-1,-1,-1,-1,-1,-1,-1,-1,-1,-1,-1,-1,-1,-1,-1,-1,-1,-1,-1,-1,-1,-1,-1,-1,-1,-1,-1,-1,-1,-1,-1,-1,-1,-1,-1,-1,-1],"split_conditions":[1.53087E2,7.339098E1,2.6704037E2,4.178173E1,1.071566E2,1.9176639E2,4.294631E2,2.9701317E1,5.551133E1,8.4866E1,1E0,1E0,2.2932156E2,3.191771E2,3.658069E2,2.254085E1,1E0,1E0,1E0,8.62255E1,1.2687031E2,1.3264232E2,6.4864E1,1.7428128E2,1.36913E2,1E0,1.3920172E2,1E0,3.658069E2,3.0514005E2,-2.89E0,1.9458157E1,6.902201E1,3.438047E1,1.193E2,5.0104923E1,1.5280757E2,6.42282E1,8.7606E1,6.844007E1,-1.922875E1,9.583517E1,4.4E0,1.187691E2,9.668351E1,4.6887E1,1.4E2,1.2728858E2,-2.2252093E-1,5.666E1,5.57391E1,2E0,3.35E2,1.225E2,2.9996405E2,1.7149435E2,1.2165557E1,1E0,1.356416E1,9.083717E0,1.576078E1,2.0021248E1,1.5007045E1,-2.8436868E0,-2.4491985E0,-2.1094415E0,8.37451E-1,-2.0661066E0,-1.7170248E0,-1.4115418E0,-5.691278E-2,-1.3975271E0,-1.0921512E0,-6.0548633E-1,4.5395975E0,-8.0504495E-1,-4.709284E-1,5.9242725E-2,2.437207E0,-1.9495386E-1,1.2526582E-1,2.5714374E0,4.9119636E-1,5.754856E-1,1.1263878E0,4.4450042E-1,2.5658293E0,1.4822103E0,1.949843E0,1.939659E0,2.7889607E0,1.7049385E0,2.6514814E0,5.921933E0,3.9282556E0,2.8379476E0,3.8403687E0,4.876678E0,4.054827E0,2.1331365E0,5.692701E0,5.044414E0,9.089642E0,1.2051737E1,5.5379586E0,6.8049808E0,9.395659E0,2.0207891E0,5.731058E0,7.6462517E0,5.837449E0,4.9794874E0,9.24236E0,1.101141E1,1.520755E1],"split_indices":[14,14,14,14,14,14,14,22,14,22,11,11,14,14,16,14,11,11,11,14,22,14,0,14,0,11,16,11,14,22,9,16,16,14,2,14,16,14,0,16,9,14,4,14,16,0,2,16,11,0,27,4,2,2,15,22,0,11,0,0,0,0,0,0,0,0,0,0,0,0,0,0,0,0,0,0,0,0,0,0,0,0,0,0,0,0,0,0,0,0,0,0,0,0,0,0,0,0,0,0,0,0,0,0,0,0,0,0,0,0,0,0,0,0,0],"split_type":[0,0,0,0,0,0,0,0,0,0,0,0,0,0,0,0,0,0,0,0,0,0,0,0,0,0,0,0,0,0,0,0,0,0,0,0,0,0,0,0,0,0,0,0,0,0,0,0,0,0,0,0,0,0,0,0,0,0,0,0,0,0,0,0,0,0,0,0,0,0,0,0,0,0,0,0,0,0,0,0,0,0,0,0,0,0,0,0,0,0,0,0,0,0,0,0,0,0,0,0,0,0,0,0,0,0,0,0,0,0,0,0,0,0,0],"sum_hessian":[3.8669E4,3.4921E4,3.748E3,2.5694E4,9.227E3,2.706E3,1.042E3,1.2128E4,1.3566E4,6.366E3,2.861E3,1.35E3,1.356E3,8.89E2,1.53E2,4.381E3,7.747E3,7.225E3,6.341E3,3.565E3,2.801E3,2.519E3,3.42E2,1.183E3,1.67E2,9.19E2,4.37E2,4.45E2,4.44E2,4.5E1,1.08E2,2.481E3,1.9E3,5.831E3,1.916E3,6.273E3,9.52E2,5.714E3,6.27E2,2.328E3,1.237E3,2.574E3,2.27E2,1.736E3,7.83E2,1.07E2,2.35E2,6.51E2,5.32E2,1.37E2,3E1,8.34E2,8.5E1,4.5E1,3.92E2,3.98E2,4.7E1,2.89E2,1.55E2,5E0,4E1,8.8E1,2E1,1.449E3,1.032E3,1.895E3,5E0,2.545E3,3.286E3,1.729E3,1.87E2,4.025E3,2.248E3,9.44E2,8E0,3.124E3,2.59E3,5.93E2,3.4E1,1.021E3,1.307E3,1E1,1.227E3,1.515E3,1.059E3,4.7E1,1.8E2,9.41E2,7.95E2,1.59E2,6.24E2,4.1E1,6.6E1,2.2E1,2.13E2,1.83E2,4.68E2,1.94E2,3.38E2,5E0,1.32E2,5E0,2.5E1,5E0,8.29E2,6E1,2.5E1,9E0,3.6E1,3.42E2,5E1,1.1E1,3.87E2,2.66E2,2.3E1],"tree_param":{"num_deleted":"0","num_feature":"28","num_nodes":"115","size_leaf_vector":"1"}},{"base_weights":[2.7976844E-2,-1.5304154E1,1.24485634E2,-2.7958885E1,1.3333536E1,9.90527E1,2.1968445E2,-3.916776E1,-2.0300049E1,3.141235E0,3.3871292E1,7.760886E1,1.299896E2,2.005732E2,3.4382654E2,-5.070379E1,-3.5909214E1,-2.8158583E1,-1.7103607E1,-7.4157257E0,7.3600717E0,2.4372515E1,4.245851E1,5.7351624E1,8.569406E1,1.113693E2,1.4749937E2,1.3931216E2,2.1931497E2,2.3138011E2,3.74646E2,-5.892286E1,-4.9297203E1,-4.2249012E1,-3.3393295E1,-3.294142E1,-2.4088093E1,-2.2405209E1,-1.1784939E1,-1.4654831E1,1.9092415E-1,2.7311726E0,1.6309605E1,1.3907767E1,2.8481953E1,2.7389252E1,4.821628E1,5.149887E1,7.27886E1,8.014063E1,1.0182147E2,6.828248E1,1.14293205E2,1.0845196E2,1.6288701E2,1.1615297E2,1.02419E1,1.6703241E2,2.4110606E2,7.6814737E0,1.3005918E1,1.0393689E1,1.909619E1,-2.9856412E0,-2.0408542E0,-2.7511413E0,-2.3512547E0,-2.3517277E0,-1.9773085E0,-1.8506926E0,-1.5244435E0,-1.8970507E0,-1.5726069E0,-1.3894192E0,-9.832363E-1,-1.2108657E0,-7.701386E-1,-7.396428E-1,-4.1973016E-1,-9.7366047E-1,-4.7843504E-1,-8.672266E-2,7.3152345E-1,7.694989E-2,6.816924E-1,5.4933363E-1,1.0570849E0,-3.4007192E-1,7.973289E-1,1.1853602E0,1.9277613E0,-1.0099891E0,1.4093246E0,1.8496376E0,2.7665222E0,2.6595244E0,1.145519E0,3.0265388E0,4.601602E0,9.039815E-1,4.072049E0,4.4526668E0,5.694271E0,1.0967261E0,3.7423973E0,2.7360198E0,5.818788E0,4.9974294E0,9.755174E0,2.3120115E0,8.245917E0,3.1825876E0,6.1232047E0,-2.98632E-1,8.603383E0,1.1160564E1,1.4127289E1],"categories":[],"categories_nodes":[],"categories_segments":[],"categories_sizes":[],"default_left":[0,0,0,0,0,0,0,0,0,0,0,0,0,0,0,0,0,0,0,0,0,0,0,0,0,0,0,0,0,0,0,0,0,0,0,0,0,0,0,0,0,0,0,0,0,0,0,0,0,0,0,0,0,0,0,0,0,0,0,0,0,0,0,0,0,0,0,0,0,0,0,0,0,0,0,0,0,0,0,0,0,0,0,0,0,0,0,0,0,0,0,0,0,0,0,0,0,0,0,0,0,0,0,0,0,0,0,0,0,0,0,0,0,0,0,0,0],"id":3,"left_children":[1,3,5,7,9,11,13,15,17,19,21,23,25,27,29,31,33,35,37,39,41,43,45,47,49,51,53,55,57,59,61,63,65,67,69,71,73,75,77,79,81,83,85,87,89,91,93,95,97,99,101,103,105,107,109,111,-1,113,115,-1,-1,-1,-1,-1,-1,-1,-1,-1,-1,-1,-1,-1,-1,-1,-1,-1,-1,-1,-1,-1,-1,-1,-1,-1,-1,-1,-1,-1,-1,-1,-1,-1,-1,-1,-1,-1,-1,-1,-1,-1,-1,-1,-1,-1,-1,-1,-1,-1,-1,-1,-1,-1,-1,-1,-1,-1,-1],"loss_changes":[7.392371E7,1.2499991E7,1.0265828E7,2.052744E6,2.2126855E6,2.215614E6,2.05438E6,3.63138E5,3.56535E5,3.1476072E5,2.8493625E5,3.20019E5,4.30872E5,8.62666E5,3.22187E5,2.17785E4,1.1939E5,7.917725E4,2.8469625E5,1.11126086E5,2.0911588E5,7.128769E4,1.5832E5,4.7647625E4,1.18643E5,7.6459E4,4.05303E5,2.569175E5,6.36426E5,2.2560375E4,3.0998E4,1.943625E3,2.1209E4,2.591475E4,5.59335E4,1.2842625E4,3.5834375E4,6.383025E4,5.1342062E4,2.515089E4,2.7411213E4,4.3247492E4,4.403022E4,2.003821E4,5.6604188E4,1.9957438E4,1.0413925E5,1.889175E4,3.0739938E4,8.3899E4,4.5136E4,1.2041875E4,7.11545E4,1.2931E5,1.11539E5,3.8242875E4,0E0,1.561045E5,2.4611E5,0E0,0E0,0E0,0E0,0E0,0E0,0E0,0E0,0E0,0E0,0E0,0E0,0E0,0E0,0E0,0E0,0E0,0E0,0E0,0E0,0E0,0E0,0E0,0E0,0E0,0E0,0E0,0E0,0E0,0E0,0E0,0E0,0E0,0E0,0E0,0E0,0E0,0E0,0E0,0E0,0E0,0E0,0E0,0E0,0E0,0E0,0E0,0E0,0E0,0E0,0E0,0E0,0E0,0E0,0E0,0E0,0E0,0E0],"parents":[2147483647,0,0,1,1,2,2,3,3,4,4,5,5,6,6,7,7,8,8,9,9,10,10,11,11,12,12,13,13,14,14,15,15,16,16,17,17,18,18,19,19,20,20,21,21,22,22,23,23,24,24,25,25,26,26,27,27,28,28,29,29,30,30,31,31,32,32,33,33,34,34,35,35,36,36,37,37,38,38,39,39,40,40,41,41,42,42,43,43,44,44,45,45,46,46,47,47,48,48,49,49,50,50,51,51,52,52,53,53,54,54,55,55,57,57,58,58],"right_children":[2,4,6,8,10,12,14,16,18,20,22,24,26,28,30,32,34,36,38,40,42,44,46,48,50,52,54,56,58,60,62,64,66,68,70,72,74,76,78,80,82,84,86,88,90,92,94,96,98,100,102,104,106,108,110,112,-1,114,116,-1,-1,-1,-1,-1,-1,-1,-1,-1,-1,-1,-1,-1,-1,-1,-1,-1,-1,-1,-1,-1,-1,-1,-1,-1,-1,-1,-1,-1,-1,-1,-1,-1,-1,-1,-1,-1,-1,-1,-1,-1,-1,-1,-1,-1,-1,-1,-1,-1,-1,-1,-1,-1,-1,-1,-1,-1,-1],"split_conditions":[1.4178793E2,6.590645E1,2.7387955E2,3.9296623E1,9.7259735E1,1.9496259E2,2.4455E2,2.0913658E1,-4.3388373E-1,-4.3388373E-1,1.122365E2,-4.3388373E-1,1.1602E2,1.36913E2,3.3980698E2,6.950287E0,-4.3388373E-1,5.220076E1,5.0830437E1,7.867795E1,8.3069984E1,-4.3388373E-1,-4.3388373E-1,1.9176639E2,1.8694969E2,4.275E0,-4.3388373E-1,6.80625E0,-4.3388373E-1,2.8142917E2,3.476796E2,4.036E1,-4.3388373E-1,3.0435993E1,3.1983044E1,3.282306E-1,4.781612E1,3.0769E1,5.780592E1,4.5047805E-1,7.4302E1,1.0413928E2,4.678623E-1,7.394264E1,5.666E1,3.150131E1,5.666E1,2.6704037E2,1.15E1,-2.03725E1,9.4422E1,1.9700061E2,-2.03725E1,3.9E2,-2.03725E1,-2.08625E1,1.02419E1,7.358753E1,3.476796E2,7.6814737E0,1.3005918E1,1.0393689E1,1.909619E1,-2.9856412E0,-2.0408542E0,-2.7511413E0,-2.3512547E0,-2.3517277E0,-1.9773085E0,-1.8506926E0,-1.5244435E0,-1.8970507E0,-1.5726069E0,-1.3894192E0,-9.832363E-1,-1.2108657E0,-7.701386E-1,-7.396428E-1,-4.1973016E-1,-9.7366047E-1,-4.7843504E-1,-8.672266E-2,7.3152345E-1,7.694989E-2,6.816924E-1,5.4933363E-1,1.0570849E0,-3.4007192E-1,7.973289E-1,1.1853602E0,1.9277613E0,-1.0099891E0,1.4093246E0,1.8496376E0,2.7665222E0,2.6595244E0,1.145519E0,3.0265388E0,4.601602E0,9.039815E-1,4.072049E0,4.4526668E0,5.694271E0,1.0967261E0,3.7423973E0,2.7360198E0,5.818788E0,4.9974294E0,9.755174E0,2.3120115E0,8.245917E0,3.1825876E0,6.1232047E0,-2.98632E-1,8.603383E0,1.1160564E1,1.4127289E1],"split_indices":[22,22,22,22,22,22,1,22,10,10,22,10,0,0,16,22,10,15,22,22,22,10,10,15,15,4,10,8,10,16,22,1,10,22,22,19,17,0,22,19,0,17,19,15,1,17,1,17,4,8,1,17,8,2,8,8,0,17,22,0,0,0,0,0,0,0,0,0,0,0,0,0,0,0,0,0,0,0,0,0,0,0,0,0,0,0,0,0,0,0,0,0,0,0,0,0,0,0,0,0,0,0,0,0,0,0,0,0,0,0,0,0,0,0,0,0,0],"split_type":[0,0,0,0,0,0,0,0,0,0,0,0,0,0,0,0,0,0,0,0,0,0,0,0,0,0,0,0,0,0,0,0,0,0,0,0,0,0,0,0,0,0,0,0,0,0,0,0,0,0,0,0,0,0,0,0,0,0,0,0,0,0,0,0,0,0,0,0,0,0,0,0,0,0,0,0,0,0,0,0,0,0,0,0,0,0,0,0,0,0,0,0,0,0,0,0,0,0,0,0,0,0,0,0,0,0,0,0,0,0,0,0,0,0,0,0,0],"sum_hessian":[3.8738E4,3.449E4,4.248E3,2.392E4,1.057E4,3.354E3,8.94E2,9.708E3,1.4212E4,7.065E3,3.505E3,1.983E3,1.371E3,7.77E2,1.17E2,2.135E3,7.573E3,4.107E3,1.0105E4,2.017E3,5.048E3,1.666E3,1.839E3,5.68E2,1.415E3,6.68E2,7.03E2,1.84E2,5.93E2,2.7E1,9E1,3.06E2,1.829E3,2.147E3,5.426E3,1.885E3,2.222E3,5.059E3,5.046E3,1.033E3,9.84E2,3.328E3,1.72E3,4.71E2,1.195E3,5.1E2,1.329E3,4.15E2,1.53E2,1.057E3,3.58E2,4.4E1,6.24E2,2.01E2,5.02E2,1.38E2,4.6E1,1.77E2,4.16E2,9E0,1.8E1,5E0,8.5E1,2.91E2,1.5E1,5.13E2,1.316E3,7.69E2,1.378E3,2.41E3,3.016E3,4.27E2,1.458E3,1.207E3,1.015E3,4.017E3,1.042E3,2.672E3,2.374E3,5.29E2,5.04E2,8.69E2,1.15E2,3.001E3,3.27E2,8.2E2,9E2,4.2E1,4.29E2,8.13E2,3.82E2,8E0,5.02E2,5.18E2,8.11E2,3.91E2,2.4E1,9.6E1,5.7E1,2.2E1,1.035E3,1.78E2,1.8E2,6E0,3.8E1,2.2E1,6.02E2,1.85E2,1.6E1,9E0,4.93E2,1.6E1,1.22E2,5E0,1.72E2,2.95E2,1.21E2],"tree_param":{"num_deleted":"0","num_feature":"28","num_nodes":"117","size_leaf_vector":"1"}},{"base_weights":[-4.164806E-2,-1.3961554E1,1.2868524E2,-2.553404E1,1.8518797E1,9.479068E1,2.1396446E2,-3.5982903E1,-1.6498682E1,7.362451E0,3.5796364E1,7.61522E1,1.1329045E2,1.8485425E2,2.8543488E2,-4.4475708E1,-3.1395353E1,-2.2253729E1,-1.0925652E1,5.2688427E0,2.4348852E1,2.9140682E1,4.939831E1,7.056466E1,9.024386E1,1.0452168E2,1.308882E2,1.6372113E2,1.990166E2,2.552506E2,3.450683E2,-4.8819935E1,-3.7941856E1,-3.392889E1,-2.5163061E1,-2.3547884E1,-1.1643268E1,-1.44517E1,-6.0948725E0,2.202236E-1,1.1023956E1,1.9998968E1,6.128068E1,2.4479364E1,3.763412E1,4.396462E1,5.4438442E1,6.338492E1,7.788225E1,8.555516E1,1.1817152E2,1.0252063E2,1.368873E2,9.13121E1,1.358668E2,1.0895433E2,1.6789189E2,4.3012505E0,2.0033765E2,2.6343985E2,1.9533327E2,1.2300861E1,1.81792E1,-2.6611717E0,-2.2825983E0,-1.9071455E0,7.729251E-1,-1.8619921E0,-1.5727535E0,-1.4156271E0,-9.636362E-1,-1.307057E0,-1.0575932E0,-7.143454E-1,5.6690425E-1,-8.054082E-1,-5.4089516E-1,-3.6374217E-1,3.696862E-1,-1.9860949E-1,1.6079448E-1,3.9386657E-1,7.1680844E-1,7.113015E-1,1.5040195E0,7.632634E-1,3.527057E0,8.80047E-1,1.3419847E0,5.0951946E-1,1.9501051E0,1.6581053E0,2.4157689E0,3.3144963E0,2.353554E0,1.2766222E0,3.2585666E0,2.164535E0,3.9769554E0,4.375227E0,1.061818E0,3.6581616E0,6.8070054E0,9.634818E0,5.0884337E0,4.396723E0,8.08361E0,5.1496625E0,-7.4370685E-3,4.7827373E0,6.95142E0,5.928785E0,2.9353688E0,8.483939E0,3.5825596E0,9.520361E0,1.0787719E1,1.3966738E1,1.1679481E1,1.1442953E1,7.43893E0],"categories":[],"categories_nodes":[],"categories_segments":[],"categories_sizes":[],"default_left":[0,0,0,0,0,0,0,0,0,0,0,0,0,0,0,0,0,0,0,0,0,0,0,0,0,0,0,0,0,0,0,0,0,0,0,0,0,0,0,0,0,0,0,0,0,0,0,0,0,0,0,0,0,0,0,0,0,0,0,0,0,0,0,0,0,0,0,0,0,0,0,0,0,0,0,0,0,0,0,0,0,0,0,0,0,0,0,0,0,0,0,0,0,0,0,0,0,0,0,0,0,0,0,0,0,0,0,0,0,0,0,0,0,0,0,0,0,0,0,0,0],"id":4,"left_children":[1,3,5,7,9,11,13,15,17,19,21,23,25,27,29,31,33,35,37,39,41,43,45,47,49,51,53,55,57,59,61,63,65,67,69,71,73,75,77,79,81,83,85,87,89,91,93,95,97,99,101,103,105,107,109,111,113,-1,115,117,119,-1,-1,-1,-1,-1,-1,-1,-1,-1,-1,-1,-1,-1,-1,-1,-1,-1,-1,-1,-1,-1,-1,-1,-1,-1,-1,-1,-1,-1,-1,-1,-1,-1,-1,-1,-1,-1,-1,-1,-1,-1,-1,-1,-1,-1,-1,-1,-1,-1,-1,-1,-1,-1,-1,-1,-1,-1,-1,-1,-1],"loss_changes":[6.93918E7,1.3136296E7,1.09029E7,2.432042E6,1.7694108E6,9.24404E5,2.181668E6,4.64104E5,4.4300275E5,1.9830953E5,3.246425E5,9.99905E4,1.95542E5,1.96638E5,4.68058E5,1.170125E5,1.216845E5,9.307E4,1.1953656E5,1.4437261E5,9.708359E4,9.4921375E4,2.996775E4,4.6117E4,3.96285E4,4.4879E4,7.5644E4,5.3175E4,5.0504E4,5.1048E4,9.5725E4,3.26035E4,1.859675E4,4.39935E4,4.1134875E4,3.70835E4,4.518132E4,2.4255188E4,4.724514E4,3.3269113E4,2.4085438E4,3.151911E4,2.6186531E4,2.4947812E4,3.1734E4,2.5367125E4,5.0042625E4,3.186675E4,2.388275E4,3.938125E4,3.2072875E4,3.8743E4,4.6423125E4,5.6649094E4,3.6896E4,5.1071562E3,3.75185E4,0E0,2.7464E4,2.0576E4,1.11755E4,0E0,0E0,0E0,0E0,0E0,0E0,0E0,0E0,0E0,0E0,0E0,0E0,0E0,0E0,0E0,0E0,0E0,0E0,0E0,0E0,0E0,0E0,0E0,0E0,0E0,0E0,0E0,0E0,0E0,0E0,0E0,0E0,0E0,0E0,0E0,0E0,0E0,0E0,0E0,0E0,0E0,0E0,0E0,0E0,0E0,0E0,0E0,0E0,0E0,0E0,0E0,0E0,0E0,0E0,0E0,0E0,0E0,0E0,0E0,0E0],"parents":[2147483647,0,0,1,1,2,2,3,3,4,4,5,5,6,6,7,7,8,8,9,9,10,10,11,11,12,12,13,13,14,14,15,15,16,16,17,17,18,18,19,19,20,20,21,21,22,22,23,23,24,24,25,25,26,26,27,27,28,28,29,29,30,30,31,31,32,32,33,33,34,34,35,35,36,36,37,37,38,38,39,39,40,40,41,41,42,42,43,43,44,44,45,45,46,46,47,47,48,48,49,49,50,50,51,51,52,52,53,53,54,54,55,55,56,56,58,58,59,59,60,60],"right_children":[2,4,6,8,10,12,14,16,18,20,22,24,26,28,30,32,34,36,38,40,42,44,46,48,50,52,54,56,58,60,62,64,66,68,70,72,74,76,78,80,82,84,86,88,90,92,94,96,98,100,102,104,106,108,110,112,114,-1,116,118,120,-1,-1,-1,-1,-1,-1,-1,-1,-1,-1,-1,-1,-1,-1,-1,-1,-1,-1,-1,-1,-1,-1,-1,-1,-1,-1,-1,-1,-1,-1,-1,-1,-1,-1,-1,-1,-1,-1,-1,-1,-1,-1,-1,-1,-1,-1,-1,-1,-1,-1,-1,-1,-1,-1,-1,-1,-1,-1,-1,-1],"split_conditions":[1.53087E2,7.339098E1,2.6704037E2,4.1490665E1,1.00813705E2,1.9176639E2,3.658069E2,2.9286076E1,5.4094246E1,1.14779686E2,1.2687031E2,1.8428079E2,2.2932156E2,3.000218E2,2.4455E2,2.310551E1,4.6208374E1,6.738036E1,6.2724033E1,8.5494446E1,1.8694969E2,1.187691E2,1.457093E2,1.7004315E2,3.38E2,3.71E2,1.186889E2,1.3556384E2,1.03821E2,9E0,2.8169995E2,1.1450718E1,9.141E1,3.3409378E1,5.1567055E1,4.6929012E1,8.745E1,6.42282E1,9.067665E1,6.877939E1,9.2132965E1,5.06E0,5.05E0,8.242713E1,7.560237E1,1.2286471E2,1.3914452E2,4.432E1,7.208006E1,2.6704037E2,2.0566316E2,2.1E0,1.5704611E2,2.5251791E2,1.4919762E2,7.6895076E-1,3.664404E2,4.3012505E0,2.9996405E2,-3.795E0,7.404E1,1.2300861E1,1.81792E1,-2.6611717E0,-2.2825983E0,-1.9071455E0,7.729251E-1,-1.8619921E0,-1.5727535E0,-1.4156271E0,-9.636362E-1,-1.307057E0,-1.0575932E0,-7.143454E-1,5.6690425E-1,-8.054082E-1,-5.4089516E-1,-3.6374217E-1,3.696862E-1,-1.9860949E-1,1.6079448E-1,3.9386657E-1,7.1680844E-1,7.113015E-1,1.5040195E0,7.632634E-1,3.527057E0,8.80047E-1,1.3419847E0,5.0951946E-1,1.9501051E0,1.6581053E0,2.4157689E0,3.3144963E0,2.353554E0,1.2766222E0,3.2585666E0,2.164535E0,3.9769554E0,4.375227E0,1.061818E0,3.6581616E0,6.8070054E0,9.634818E0,5.0884337E0,4.396723E0,8.08361E0,5.1496625E0,-7.4370685E-3,4.7827373E0,6.95142E0,5.928785E0,2.9353688E0,8.483939E0,3.5825596E0,9.520361E0,1.0787719E1,1.3966738E1,1.1679481E1,1.1442953E1,7.43893E0],"split_indices":[14,14,14,14,14,14,14,22,14,17,22,22,14,14,1,14,17,17,16,14,16,14,22,14,2,2,17,16,1,5,17,14,7,14,22,14,7,14,22,17,14,4,4,17,22,14,18,1,16,15,22,4,18,16,16,19,15,0,17,8,7,0,0,0,0,0,0,0,0,0,0,0,0,0,0,0,0,0,0,0,0,0,0,0,0,0,0,0,0,0,0,0,0,0,0,0,0,0,0,0,0,0,0,0,0,0,0,0,0,0,0,0,0,0,0,0,0,0,0,0,0],"split_type":[0,0,0,0,0,0,0,0,0,0,0,0,0,0,0,0,0,0,0,0,0,0,0,0,0,0,0,0,0,0,0,0,0,0,0,0,0,0,0,0,0,0,0,0,0,0,0,0,0,0,0,0,0,0,0,0,0,0,0,0,0,0,0,0,0,0,0,0,0,0,0,0,0,0,0,0,0,0,0,0,0,0,0,0,0,0,0,0,0,0,0,0,0,0,0,0,0,0,0,0,0,0,0,0,0,0,0,0,0,0,0,0,0,0,0,0,0,0,0,0,0],"sum_hessian":[3.8724E4,3.4946E4,3.778E3,2.5766E4,9.18E3,2.705E3,1.073E3,1.1947E4,1.3819E4,5.579E3,3.601E3,1.35E3,1.355E3,7.65E2,3.08E2,4.187E3,7.76E3,6.797E3,7.022E3,4.968E3,6.11E2,2.42E3,1.181E3,9.71E2,3.79E2,9.09E2,4.46E2,3.12E2,4.53E2,2.08E2,1E2,2.511E3,1.676E3,5.514E3,2.246E3,6.057E3,7.4E2,4.058E3,2.964E3,2.647E3,2.321E3,5.48E2,6.3E1,1.565E3,8.55E2,5.73E2,6.08E2,4.95E2,4.76E2,3.28E2,5.1E1,8.6E2,4.9E1,5.2E1,3.94E2,2.4E1,2.88E2,6E0,4.47E2,1.8E2,2.8E1,1.8E1,8.2E1,1.044E3,1.467E3,1.67E3,6E0,2.352E3,3.162E3,1.461E3,7.85E2,2.904E3,3.153E3,6.64E2,7.6E1,2.785E3,1.273E3,2.726E3,2.38E2,1.103E3,1.544E3,1.192E3,1.129E3,3.5E2,1.98E2,1.1E1,5.2E1,4.02E2,1.163E3,4.1E1,8.14E2,1.67E2,4.06E2,2.3E2,3.78E2,2.3E1,4.72E2,2.3E1,4.53E2,3.18E2,1E1,1.6E1,3.5E1,5E0,8.55E2,1.8E1,3.1E1,4.6E1,6E0,3.1E1,3.63E2,1.9E1,5E0,2.82E2,6E0,2.8E2,1.67E2,1.12E2,6.8E1,1.4E1,1.4E1],"tree_param":{"num_deleted":"0","num_feature":"28","num_nodes":"121","size_leaf_vector":"1"}},{"base_weights":[3.5922434E-2,-1.4353922E1,1.1344469E2,-2.5075647E1,1.3512149E1,8.375485E1,2.0485422E2,-3.431632E1,-1.6489677E1,4.4034348E0,2.925972E1,6.6781685E1,1.07488304E2,1.7605884E2,2.7501453E2,-4.3581654E1,-3.061375E1,-2.0480051E1,-1.0496625E1,-8.27179E-1,1.0205216E1,2.6401653E1,5.0428192E1,6.18311E1,1.01218994E2,8.525232E1,1.15441185E2,1.5434926E2,1.9562408E2,2.4749324E2,3.292406E2,-5.0268726E1,-4.0195274E1,-3.3130558E1,-2.2619436E1,-2.341262E1,-1.594296E1,-1.27622795E1,-7.487647E-1,-1.8546411E0,1.966601E1,9.4156E0,4.52109E1,2.0201315E1,3.302114E1,3.2550285E1,6.282357E1,5.2455933E1,7.238731E1,9.100129E1,1.2206904E2,5.1476757E1,8.834314E1,1.02064156E2,1.3203838E2,1.3205925E2,1.6763123E2,1.8769E2,1.327148E1,2.5479948E2,1.911601E2,1.1740123E1,1.7554716E1,-2.6026883E0,-2.2483377E0,-2.1654031E0,-1.833167E0,-2.0061796E0,-1.5664082E0,-1.2044791E0,1.0270264E0,-1.3705337E0,-1.075928E0,-1.0457965E0,-6.2352127E-1,-8.723837E-1,-4.7494873E-1,-1.4068781E-1,2.572583E0,-4.1877612E-1,2.6362717E-2,-3.7880674E-2,1.440809E0,1.2890533E-1,5.7173383E-1,1.6990579E0,4.50486E0,9.2393094E-1,1.4507881E0,1.3075947E0,1.7905146E0,1.2248739E0,2.108306E0,2.4626043E0,3.5427666E0,2.0258617E0,2.8384206E0,3.0090716E0,3.8903012E0,1.9609025E0,4.704424E0,5.240455E0,7.1869807E0,3.2092607E0,1.8635958E-1,3.6575303E0,4.7654996E0,4.623579E0,5.533967E0,6.6666956E0,1.5863823E0,3.7490895E0,6.8155665E0,5.6578856E0,8.576944E0,4.7480087E0,9.503733E0,1.3479927E1,1.1301156E1,1.1967872E1,7.5540314E0],"categories":[],"categories_nodes":[],"categories_segments":[],"categories_sizes":[],"default_left":[0,0,0,0,0,0,0,0,0,0,0,0,0,0,0,0,0,0,0,0,0,0,0,0,0,0,0,0,0,0,0,0,0,0,0,0,0,0,0,0,0,0,0,0,0,0,0,0,0,0,0,0,0,0,0,0,0,0,0,0,0,0,0,0,0,0,0,0,0,0,0,0,0,0,0,0,0,0,0,0,0,0,0,0,0,0,0,0,0,0,0,0,0,0,0,0,0,0,0,0,0,0,0,0,0,0,0,0,0,0,0,0,0,0,0,0,0,0,0,0,0],"id":5,"left_children":[1,3,5,7,9,11,13,15,17,19,21,23,25,27,29,31,33,35,37,39,41,43,45,47,49,51,53,55,57,59,61,63,65,67,69,71,73,75,77,79,81,83,85,87,89,91,93,95,97,99,101,103,105,107,109,111,113,115,-1,117,119,-1,-1,-1,-1,-1,-1,-1,-1,-1,-1,-1,-1,-1,-1,-1,-1,-1,-1,-1,-1,-1,-1,-1,-1,-1,-1,-1,-1,-1,-1,-1,-1,-1,-1,-1,-1,-1,-1,-1,-1,-1,-1,-1,-1,-1,-1,-1,-1,-1,-1,-1,-1,-1,-1,-1,-1,-1,-1,-1,-1],"loss_changes":[6.317709E7,1.0264364E7,1.1812848E7,1.967779E6,1.369147E6,1.318926E6,2.109208E6,4.08541E5,3.0737E5,1.8357767E5,2.1029325E5,3.21397E5,2.32586E5,2.92586E5,3.796E5,7.51675E4,1.71071E5,1.0234E5,1.1357369E5,6.70348E4,7.8843375E4,1.259045E5,8.9911E4,1.627505E5,3.999975E4,3.354225E4,2.10075E5,8.5893E4,1.69458E5,3.7268E4,1.2595E5,8.45775E3,2.3339E4,8.0576E4,1.30443625E5,3.4898E4,5.2129438E4,6.3636125E4,1.0480732E5,4.708287E4,2.8430344E4,3.870711E4,2.868186E4,2.36785E4,2.760475E4,1.2279094E4,2.3094875E4,4.37695E4,4.748825E4,2.2674375E4,1.3336375E4,1.9779133E4,2.825725E4,3.61895E4,5.37135E4,2.39785E4,2.8455E4,6.1306E4,0E0,1.6523E4,1.7887E4,0E0,0E0,0E0,0E0,0E0,0E0,0E0,0E0,0E0,0E0,0E0,0E0,0E0,0E0,0E0,0E0,0E0,0E0,0E0,0E0,0E0,0E0,0E0,0E0,0E0,0E0,0E0,0E0,0E0,0E0,0E0,0E0,0E0,0E0,0E0,0E0,0E0,0E0,0E0,0E0,0E0,0E0,0E0,0E0,0E0,0E0,0E0,0E0,0E0,0E0,0E0,0E0,0E0,0E0,0E0,0E0,0E0,0E0,0E0,0E0],"parents":[2147483647,0,0,1,1,2,2,3,3,4,4,5,5,6,6,7,7,8,8,9,9,10,10,11,11,12,12,13,13,14,14,15,15,16,16,17,17,18,18,19,19,20,20,21,21,22,22,23,23,24,24,25,25,26,26,27,27,28,28,29,29,30,30,31,31,32,32,33,33,34,34,35,35,36,36,37,37,38,38,39,39,40,40,41,41,42,42,43,43,44,44,45,45,46,46,47,47,48,48,49,49,50,50,51,51,52,52,53,53,54,54,55,55,56,56,57,57,59,59,60,60],"right_children":[2,4,6,8,10,12,14,16,18,20,22,24,26,28,30,32,34,36,38,40,42,44,46,48,50,52,54,56,58,60,62,64,66,68,70,72,74,76,78,80,82,84,86,88,90,92,94,96,98,100,102,104,106,108,110,112,114,116,-1,118,120,-1,-1,-1,-1,-1,-1,-1,-1,-1,-1,-1,-1,-1,-1,-1,-1,-1,-1,-1,-1,-1,-1,-1,-1,-1,-1,-1,-1,-1,-1,-1,-1,-1,-1,-1,-1,-1,-1,-1,-1,-1,-1,-1,-1,-1,-1,-1,-1,-1,-1,-1,-1,-1,-1,-1,-1,-1,-1,-1,-1],"split_conditions":[1.3922957E2,7.012236E1,2.6704037E2,4.1490665E1,9.7877E1,1.9176639E2,3.658069E2,2.6604105E1,5.56823E1,8.270425E1,1E0,1E0,-4.3388373E-1,0E0,2.4455E2,1.2574705E1,1E0,5.222175E1,1E0,8.5551E1,1.616905E2,1.1298627E2,5.666E1,1.6583557E2,1.7428128E2,8.440768E1,1.08191E2,3.000218E2,3.476796E2,9E0,3.658069E2,1E0,2.310551E1,2.7717014E1,5.666E1,-4.3388373E-1,-4.3388373E-1,5.7968517E1,8.7606E1,-4.3388373E-1,-4.3388373E-1,6.551908E1,2.3E1,8.7606E1,-4.3388373E-1,4.6887E1,1.14944466E2,1.09852425E2,-4.3388373E-1,5.666E1,1.1602E2,1.65543E2,2.0765483E2,1.9496259E2,3.664404E2,1.4525E2,1.32579E2,8.8463E1,1.327148E1,-3.795E0,7.362E1,1.1740123E1,1.7554716E1,-2.6026883E0,-2.2483377E0,-2.1654031E0,-1.833167E0,-2.0061796E0,-1.5664082E0,-1.2044791E0,1.0270264E0,-1.3705337E0,-1.075928E0,-1.0457965E0,-6.2352127E-1,-8.723837E-1,-4.7494873E-1,-1.4068781E-1,2.572583E0,-4.1877612E-1,2.6362717E-2,-3.7880674E-2,1.440809E0,1.2890533E-1,5.7173383E-1,1.6990579E0,4.50486E0,9.2393094E-1,1.4507881E0,1.3075947E0,1.7905146E0,1.2248739E0,2.108306E0,2.4626043E0,3.5427666E0,2.0258617E0,2.8384206E0,3.0090716E0,3.8903012E0,1.9609025E0,4.704424E0,5.240455E0,7.1869807E0,3.2092607E0,1.8635958E-1,3.6575303E0,4.7654996E0,4.623579E0,5.533967E0,6.6666956E0,1.5863823E0,3.7490895E0,6.8155665E0,5.6578856E0,8.576944E0,4.7480087E0,9.503733E0,1.3479927E1,1.1301156E1,1.1967872E1,7.5540314E0],"split_indices":[14,14,14,14,14,14,14,22,16,14,11,11,10,10,1,14,11,14,11,1,16,14,0,14,14,17,0,14,22,5,16,11,14,14,0,10,10,14,0,10,10,17,5,1,10,0,14,17,10,0,0,0,14,22,15,2,0,1,0,8,7,0,0,0,0,0,0,0,0,0,0,0,0,0,0,0,0,0,0,0,0,0,0,0,0,0,0,0,0,0,0,0,0,0,0,0,0,0,0,0,0,0,0,0,0,0,0,0,0,0,0,0,0,0,0,0,0,0,0,0,0],"split_type":[0,0,0,0,0,0,0,0,0,0,0,0,0,0,0,0,0,0,0,0,0,0,0,0,0,0,0,0,0,0,0,0,0,0,0,0,0,0,0,0,0,0,0,0,0,0,0,0,0,0,0,0,0,0,0,0,0,0,0,0,0,0,0,0,0,0,0,0,0,0,0,0,0,0,0,0,0,0,0,0,0,0,0,0,0,0,0,0,0,0,0,0,0,0,0,0,0,0,0,0,0,0,0,0,0,0,0,0,0,0,0,0,0,0,0,0,0,0,0,0,0],"sum_hessian":[3.8711E4,3.4353E4,4.358E3,2.4808E4,9.545E3,3.291E3,1.067E3,1.1947E4,1.2861E4,6.048E3,3.497E3,1.921E3,1.37E3,7.59E2,3.08E2,3.408E3,8.539E3,7.719E3,5.142E3,3.181E3,2.867E3,3.083E3,4.14E2,1.682E3,2.39E2,3.64E2,1.006E3,3.64E2,3.95E2,2.08E2,1E2,1.141E3,2.267E3,6.492E3,2.047E3,4.686E3,3.033E3,4.172E3,9.7E2,3.03E3,1.51E2,2.805E3,6.2E1,1.594E3,1.489E3,1.71E2,2.43E2,8.94E2,7.88E2,1.64E2,7.5E1,3.2E1,3.32E2,5.61E2,4.45E2,1.4E2,2.24E2,3.58E2,3.7E1,1.81E2,2.7E1,2.1E1,7.9E1,8.47E2,2.94E2,1.199E3,1.068E3,1.326E3,5.166E3,1.98E3,6.7E1,1.502E3,3.184E3,1.245E3,1.788E3,1.711E3,2.461E3,9.34E2,3.6E1,8.1E2,2.22E3,4.7E1,1.04E2,6.4E2,2.165E3,5.1E1,1.1E1,1.336E3,2.58E2,4.33E2,1.056E3,9.5E1,7.6E1,9.3E1,1.5E2,2.4E2,6.54E2,2.46E2,5.42E2,1E1,1.54E2,4.5E1,3E1,2.5E1,7E0,1.08E2,2.24E2,2.71E2,2.9E2,4.39E2,6E0,1.1E1,1.29E2,1.7E1,2.07E2,1E1,3.48E2,1.14E2,6.7E1,1E1,1.7E1],"tree_param":{"num_deleted":"0","num_feature":"28","num_nodes":"121","size_leaf_vector":"1"}},{"base_weights":[-2.8398879E-2,-1.2872376E1,1.1345299E2,-2.3665977E1,1.4678686E1,8.7261055E1,2.0190324E2,-3.2566147E1,-1.5489955E1,6.2188625E0,3.376497E1,6.944807E1,1.091273E2,1.8363867E2,2.9114877E2,-3.9795425E1,-2.8304775E1,-1.9194012E1,-8.846294E0,1.0464411E0,1.3383368E1,3.0310368E1,5.9220314E1,6.4507E1,1.0379614E2,9.885369E1,1.297519E2,1.7330882E2,2.2177336E2,1.202144E1,3.1195764E2,-4.5191654E1,-3.5069958E1,-3.0516548E1,-2.19947E1,-2.264159E1,-1.5300176E1,-1.1204011E1,4.731227E-1,-3.8412938E-1,1.4247799E1,1.276529E1,5.840843E1,2.491907E1,3.8649952E1,4.25832E1,7.289315E1,5.6592148E1,7.444773E1,9.309952E1,1.4267392E2,9.591286E1,1.2730636E2,5.1783268E1,1.3196783E2,1.6753854E2,2.3227502E2,2.27469E2,7.407767E0,1.347555E1,1.7138401E1,-2.4415379E0,-2.127267E0,-1.7968388E0,-1.2588787E0,-1.8388201E0,-1.4431269E0,-1.3537143E0,-6.005191E-1,-1.1717912E0,-7.3361605E-1,-8.194718E-1,-5.381058E-1,-8.050475E-1,-4.1887042E-1,-3.033188E-2,5.594346E0,-2.2398679E-1,1.2281274E-1,5.481756E-1,2.9459035E0,5.675418E-1,1.2701986E0,4.2220125E0,1.7816728E0,1.0921186E0,1.4492458E0,1.6929874E0,2.1668804E0,1.5679218E0,2.5559318E0,2.610977E0,4.066257E0,2.0996559E0,3.0355074E0,8.708873E0,3.6697319E0,3.1357765E0,4.914679E0,3.6709847E0,7.8201447E0,4.9005837E0,3.8344E0,5.570293E0,8.708016E0,1.0122923E0,4.5221095E0,6.40501E0,8.20774E0,5.378628E0,8.530083E0,9.583588E0,1.4179568E1,1.1524951E1,6.8044963E0],"categories":[],"categories_nodes":[],"categories_segments":[],"categories_sizes":[],"default_left":[0,0,0,0,0,0,0,0,0,0,0,0,0,0,0,0,0,0,0,0,0,0,0,0,0,0,0,0,0,0,0,0,0,0,0,0,0,0,0,0,0,0,0,0,0,0,0,0,0,0,0,0,0,0,0,0,0,0,0,0,0,0,0,0,0,0,0,0,0,0,0,0,0,0,0,0,0,0,0,0,0,0,0,0,0,0,0,0,0,0,0,0,0,0,0,0,0,0,0,0,0,0,0,0,0,0,0,0,0,0,0,0,0,0,0],"id":6,"left_children":[1,3,5,7,9,11,13,15,17,19,21,23,25,27,29,31,33,35,37,39,41,43,45,47,49,51,53,55,57,-1,59,61,63,65,67,69,71,73,75,77,79,81,83,85,87,89,91,93,95,97,99,101,103,105,107,109,111,113,-1,-1,-1,-1,-1,-1,-1,-1,-1,-1,-1,-1,-1,-1,-1,-1,-1,-1,-1,-1,-1,-1,-1,-1,-1,-1,-1,-1,-1,-1,-1,-1,-1,-1,-1,-1,-1,-1,-1,-1,-1,-1,-1,-1,-1,-1,-1,-1,-1,-1,-1,-1,-1,-1,-1,-1,-1],"loss_changes":[5.6080776E7,1.0278822E7,9.045216E6,1.806684E6,1.5708564E6,1.168704E6,1.402104E6,3.65158E5,3.18409E5,2.4986561E5,2.60955E5,2.76204E5,2.74048E5,2.54606E5,8.3254E4,1.107845E5,1.037735E5,1.11219E5,1.0187109E5,7.398126E4,7.791972E4,1.174135E5,7.7866E4,1.10646E5,7.319275E4,6.3744E4,7.0377E4,1.61792E5,3.12535E4,0E0,4.2262E4,1.76935E4,1.92745E4,5.6282E4,9.836469E4,2.754E4,1.912875E4,5.107697E4,1.1280028E5,4.11342E4,5.5537008E4,4.9584344E4,1.9508312E4,1.9401875E4,2.1698125E4,1.4005469E4,2.9557875E4,4.655775E4,5.482725E4,2.001675E4,2.9377938E4,2.5835E4,4.1659E4,1.52266875E4,3.29705E4,8.0993E4,4.977675E4,7.912E3,0E0,0E0,0E0,0E0,0E0,0E0,0E0,0E0,0E0,0E0,0E0,0E0,0E0,0E0,0E0,0E0,0E0,0E0,0E0,0E0,0E0,0E0,0E0,0E0,0E0,0E0,0E0,0E0,0E0,0E0,0E0,0E0,0E0,0E0,0E0,0E0,0E0,0E0,0E0,0E0,0E0,0E0,0E0,0E0,0E0,0E0,0E0,0E0,0E0,0E0,0E0,0E0,0E0,0E0,0E0,0E0,0E0],"parents":[2147483647,0,0,1,1,2,2,3,3,4,4,5,5,6,6,7,7,8,8,9,9,10,10,11,11,12,12,13,13,14,14,15,15,16,16,17,17,18,18,19,19,20,20,21,21,22,22,23,23,24,24,25,25,26,26,27,27,28,28,30,30,31,31,32,32,33,33,34,34,35,35,36,36,37,37,38,38,39,39,40,40,41,41,42,42,43,43,44,44,45,45,46,46,47,47,48,48,49,49,50,50,51,51,52,52,53,53,54,54,55,55,56,56,57,57],"right_children":[2,4,6,8,10,12,14,16,18,20,22,24,26,28,30,32,34,36,38,40,42,44,46,48,50,52,54,56,58,-1,60,62,64,66,68,70,72,74,76,78,80,82,84,86,88,90,92,94,96,98,100,102,104,106,108,110,112,114,-1,-1,-1,-1,-1,-1,-1,-1,-1,-1,-1,-1,-1,-1,-1,-1,-1,-1,-1,-1,-1,-1,-1,-1,-1,-1,-1,-1,-1,-1,-1,-1,-1,-1,-1,-1,-1,-1,-1,-1,-1,-1,-1,-1,-1,-1,-1,-1,-1,-1,-1,-1,-1,-1,-1,-1,-1],"split_conditions":[1.4926807E2,7.067279E1,2.8161597E2,4.1490665E1,1.043602E2,1.9700061E2,4.294631E2,2.935539E1,5.7822357E1,8.694755E1,1E0,1E0,2.4090178E2,3.658069E2,3.658069E2,2.131442E1,1E0,5.0990192E1,1E0,1E0,1.6739415E2,1.2491874E2,8.3288E1,1.7428128E2,1.36913E2,1E0,8.3288E1,1E0,1.1943E2,1.202144E1,2.4455E2,1.028368E1,1E0,2.7717014E1,4.6108948E1,1E0,6.42282E1,5.7968517E1,5.8123875E1,6.94934E1,2.76E2,1E0,9.368241E3,1.14944466E2,1.3560498E2,5.078E1,5.6E0,1.14797356E2,8.9087494E1,2.9874192E3,2.0192314E2,7.7914023E-1,3.71E2,8.14523E1,1E0,1.1602E2,3.476796E2,8.428255E-1,7.407767E0,1.347555E1,1.7138401E1,-2.4415379E0,-2.127267E0,-1.7968388E0,-1.2588787E0,-1.8388201E0,-1.4431269E0,-1.3537143E0,-6.005191E-1,-1.1717912E0,-7.3361605E-1,-8.194718E-1,-5.381058E-1,-8.050475E-1,-4.1887042E-1,-3.033188E-2,5.594346E0,-2.2398679E-1,1.2281274E-1,5.481756E-1,2.9459035E0,5.675418E-1,1.2701986E0,4.2220125E0,1.7816728E0,1.0921186E0,1.4492458E0,1.6929874E0,2.1668804E0,1.5679218E0,2.5559318E0,2.610977E0,4.066257E0,2.0996559E0,3.0355074E0,8.708873E0,3.6697319E0,3.1357765E0,4.914679E0,3.6709847E0,7.8201447E0,4.9005837E0,3.8344E0,5.570293E0,8.708016E0,1.0122923E0,4.5221095E0,6.40501E0,8.20774E0,5.378628E0,8.530083E0,9.583588E0,1.4179568E1,1.1524951E1,6.8044963E0],"split_indices":[14,14,14,14,14,14,14,16,16,14,11,11,14,14,16,14,11,14,11,11,22,14,0,14,0,11,0,11,7,0,0,14,11,14,22,11,14,14,23,16,2,11,25,14,14,0,5,16,22,26,16,20,2,27,11,0,22,20,0,0,0,0,0,0,0,0,0,0,0,0,0,0,0,0,0,0,0,0,0,0,0,0,0,0,0,0,0,0,0,0,0,0,0,0,0,0,0,0,0,0,0,0,0,0,0,0,0,0,0,0,0,0,0,0,0],"split_type":[0,0,0,0,0,0,0,0,0,0,0,0,0,0,0,0,0,0,0,0,0,0,0,0,0,0,0,0,0,0,0,0,0,0,0,0,0,0,0,0,0,0,0,0,0,0,0,0,0,0,0,0,0,0,0,0,0,0,0,0,0,0,0,0,0,0,0,0,0,0,0,0,0,0,0,0,0,0,0,0,0,0,0,0,0,0,0,0,0,0,0,0,0,0,0,0,0,0,0,0,0,0,0,0,0,0,0,0,0,0,0,0,0,0,0],"sum_hessian":[3.8474E4,3.4563E4,3.911E3,2.4834E4,9.729E3,3.019E3,8.92E2,1.1889E4,1.2945E4,6.742E3,2.987E3,1.666E3,1.353E3,7.43E2,1.49E2,4.406E3,7.483E3,8.31E3,4.635E3,3.916E3,2.826E3,2.632E3,3.55E2,1.459E3,2.07E2,9.07E2,4.46E2,5.89E2,1.54E2,4.7E1,1.02E2,2.053E3,2.353E3,5.538E3,1.945E3,4.405E3,3.905E3,3.699E3,9.36E2,3.534E3,3.82E2,2.789E3,3.7E1,1.601E3,1.031E3,1.62E2,1.93E2,8.16E2,6.43E2,1.65E2,4.2E1,8.26E2,8.1E1,1.3E1,4.33E2,5.4E2,4.9E1,1.41E2,1.3E1,4.7E1,5.5E1,8.57E2,1.196E3,2.161E3,1.92E2,1.153E3,4.385E3,1.288E3,6.57E2,4.004E3,4.01E2,3.147E3,7.58E2,1.352E3,2.347E3,9.28E2,8E0,1.447E3,2.087E3,3.57E2,2.5E1,2.51E3,2.79E2,1.6E1,2.1E1,9.15E2,6.86E2,5.14E2,5.17E2,7.2E1,9E1,5.8E1,1.35E2,1.82E2,6.34E2,5E0,6.38E2,2.6E1,1.39E2,8E0,3.4E1,7.41E2,8.5E1,6.3E1,1.8E1,8E0,5E0,3.91E2,4.2E1,2.8E1,5.12E2,3E1,1.9E1,1.35E2,6E0],"tree_param":{"num_deleted":"0","num_feature":"28","num_nodes":"115","size_leaf_vector":"1"}},{"base_weights":[-6.519648E-2,-1.2933802E1,9.347446E1,-2.1459705E1,1.0609449E1,7.052656E1,1.7117583E2,-2.8393305E1,-1.2773643E1,4.3935795E0,2.84952E1,5.501799E1,9.596934E1,1.5039366E2,2.4653473E2,-3.5073517E1,-2.3389887E1,-1.5628717E1,-4.191326E0,-1.036167E0,1.4301569E1,2.370205E1,5.886244E1,3.9935402E1,6.751502E1,6.940349E1,1.068653E2,1.25644905E2,1.8269897E2,2.057689E2,1.5763591E1,-3.9409405E1,-3.0850054E1,-2.529038E1,-1.6368465E1,-2.2104515E1,-1.225666E1,-1.1368318E1,3.0565987E0,-7.022762E0,1.9222631E0,1.0356072E1,1.955581E1,5.290436E0,2.7788994E1,5.0358505E1,1.4452937E2,2.2467522E1,4.7386436E1,5.6756344E1,7.966021E1,5.4919746E1,7.980667E1,9.1394066E1,1.338662E2,1.08050064E2,1.5556154E2,1.7529907E2,2.2409447E2,1.6957329E2,2.3194994E2,-2.1055017E0,-1.7356304E0,-1.5625118E0,-3.5319746E-1,-1.3734868E0,-1.1277913E0,-8.6407393E-1,2.3335455E-1,-1.3330075E0,-9.5020026E-1,-7.655159E-1,-4.309597E-1,-6.613068E-1,2.9723468E-1,-3.324704E-2,5.488075E-1,-3.7031588E-1,2.7152805E0,-9.33462E-2,2.953168E-1,6.930831E-2,6.168181E-1,7.705724E-1,1.2357805E0,-2.4745928E-1,1.2300017E0,1.0469664E0,1.930061E0,1.8503659E0,3.603295E0,8.671772E0,4.20402E0,-6.6562504E-1,1.298909E0,1.8954738E0,2.7877061E0,1.6153193E0,2.996306E0,3.2135181E0,4.513908E0,1.8744417E0,3.1141307E0,3.3987522E0,4.6385646E0,3.7317066E0,4.8705273E0,5.4302373E0,7.17874E0,4.9661117E0,7.1986656E0,6.6164804E0,9.4914255E0,8.105332E0,9.798197E0,9.09307E0,1.3036919E1,5.3107758E0,9.095625E0,1.1905827E1,5.706851E0],"categories":[],"categories_nodes":[],"categories_segments":[],"categories_sizes":[],"default_left":[0,0,0,0,0,0,0,0,0,0,0,0,0,0,0,0,0,0,0,0,0,0,0,0,0,0,0,0,0,0,0,0,0,0,0,0,0,0,0,0,0,0,0,0,0,0,0,0,0,0,0,0,0,0,0,0,0,0,0,0,0,0,0,0,0,0,0,0,0,0,0,0,0,0,0,0,0,0,0,0,0,0,0,0,0,0,0,0,0,0,0,0,0,0,0,0,0,0,0,0,0,0,0,0,0,0,0,0,0,0,0,0,0,0,0,0,0,0,0,0,0],"id":7,"left_children":[1,3,5,7,9,11,13,15,17,19,21,23,25,27,29,31,33,35,37,39,41,43,45,47,49,51,53,55,57,59,-1,61,63,65,67,69,71,73,75,77,79,81,83,85,87,89,91,93,95,97,99,101,103,105,107,109,111,113,115,117,119,-1,-1,-1,-1,-1,-1,-1,-1,-1,-1,-1,-1,-1,-1,-1,-1,-1,-1,-1,-1,-1,-1,-1,-1,-1,-1,-1,-1,-1,-1,-1,-1,-1,-1,-1,-1,-1,-1,-1,-1,-1,-1,-1,-1,-1,-1,-1,-1,-1,-1,-1,-1,-1,-1,-1,-1,-1,-1,-1,-1],"loss_changes":[4.6392756E7,6.800876E6,8.298856E6,1.497626E6,1.0013403E6,1.415196E6,1.626104E6,4.6146E5,2.7052088E5,3.597087E5,3.3672025E5,4.193165E5,3.8681E5,6.4461E5,5.73959E5,1.07206E5,1.051475E5,1.80665E5,1.4350203E5,7.65252E4,4.886378E4,1.5094612E5,2.2291E5,1.3129488E5,1.552695E5,5.5723875E4,3.90442E5,2.337215E5,7.0954E4,9.89825E4,0E0,3.5543E4,2.836975E4,3.646775E4,3.2501219E4,3.9546875E4,6.0413E4,4.465925E4,4.0474652E4,3.401165E4,4.367021E4,2.403264E4,2.1298531E4,7.249032E4,1.20866625E5,8.107994E4,3.431725E4,3.8784188E4,5.433875E4,4.858525E4,8.765225E4,1.9473156E4,2.8958E4,5.48275E4,6.99755E4,8.067625E4,1.13367E5,5.2709E4,3.146425E4,3.1465375E4,3.236E4,0E0,0E0,0E0,0E0,0E0,0E0,0E0,0E0,0E0,0E0,0E0,0E0,0E0,0E0,0E0,0E0,0E0,0E0,0E0,0E0,0E0,0E0,0E0,0E0,0E0,0E0,0E0,0E0,0E0,0E0,0E0,0E0,0E0,0E0,0E0,0E0,0E0,0E0,0E0,0E0,0E0,0E0,0E0,0E0,0E0,0E0,0E0,0E0,0E0,0E0,0E0,0E0,0E0,0E0,0E0,0E0,0E0,0E0,0E0,0E0],"parents":[2147483647,0,0,1,1,2,2,3,3,4,4,5,5,6,6,7,7,8,8,9,9,10,10,11,11,12,12,13,13,14,14,15,15,16,16,17,17,18,18,19,19,20,20,21,21,22,22,23,23,24,24,25,25,26,26,27,27,28,28,29,29,31,31,32,32,33,33,34,34,35,35,36,36,37,37,38,38,39,39,40,40,41,41,42,42,43,43,44,44,45,45,46,46,47,47,48,48,49,49,50,50,51,51,52,52,53,53,54,54,55,55,56,56,57,57,58,58,59,59,60,60],"right_children":[2,4,6,8,10,12,14,16,18,20,22,24,26,28,30,32,34,36,38,40,42,44,46,48,50,52,54,56,58,60,-1,62,64,66,68,70,72,74,76,78,80,82,84,86,88,90,92,94,96,98,100,102,104,106,108,110,112,114,116,118,120,-1,-1,-1,-1,-1,-1,-1,-1,-1,-1,-1,-1,-1,-1,-1,-1,-1,-1,-1,-1,-1,-1,-1,-1,-1,-1,-1,-1,-1,-1,-1,-1,-1,-1,-1,-1,-1,-1,-1,-1,-1,-1,-1,-1,-1,-1,-1,-1,-1,-1,-1,-1,-1,-1,-1,-1,-1,-1,-1,-1],"split_conditions":[1.3262817E2,7.100408E1,2.6704037E2,4.6101017E1,1.08450554E2,1.9176639E2,3.658069E2,3.3115345E1,7.013574E1,8.840153E1,3.24E2,0E0,-4.3388373E-1,0E0,2.4455E2,2.597136E1,5.196531E1,-4.3388373E-1,-4.3388373E-1,6.9287315E1,1.0212674E2,7.281271E1,2.6704037E2,1.1289598E2,6.234898E-1,1.6572131E2,1.19639E2,2.5251791E2,2.14665E2,1.9114186E4,1.5763591E1,2.133566E1,5.0273E1,4.1976105E1,5.1367E1,4.1875366E1,5.578405E1,1.0435157E2,8.6929016E1,1.1602E2,4.2557505E-1,6.9287315E1,0E0,5.25E0,7.818315E-1,1.5726422E2,7E0,4.838634E1,1.6204556E2,5.8109E1,1.5309175E2,7E0,4.9557796E-1,1.7392892E2,7.2076E1,7.31125E0,9.577E1,6.234898E-1,2.6704037E2,-4.3388373E-1,6.123234E-17,-2.1055017E0,-1.7356304E0,-1.5625118E0,-3.5319746E-1,-1.3734868E0,-1.1277913E0,-8.6407393E-1,2.3335455E-1,-1.3330075E0,-9.5020026E-1,-7.655159E-1,-4.309597E-1,-6.613068E-1,2.9723468E-1,-3.324704E-2,5.488075E-1,-3.7031588E-1,2.7152805E0,-9.33462E-2,2.953168E-1,6.930831E-2,6.168181E-1,7.705724E-1,1.2357805E0,-2.4745928E-1,1.2300017E0,1.0469664E0,1.930061E0,1.8503659E0,3.603295E0,8.671772E0,4.20402E0,-6.6562504E-1,1.298909E0,1.8954738E0,2.7877061E0,1.6153193E0,2.996306E0,3.2135181E0,4.513908E0,1.8744417E0,3.1141307E0,3.3987522E0,4.6385646E0,3.7317066E0,4.8705273E0,5.4302373E0,7.17874E0,4.9661117E0,7.1986656E0,6.6164804E0,9.4914255E0,8.105332E0,9.798197E0,9.09307E0,1.3036919E1,5.3107758E0,9.095625E0,1.1905827E1,5.706851E0],"split_indices":[15,16,15,15,16,15,16,16,15,15,2,10,10,10,1,17,17,10,10,17,15,15,16,16,11,16,1,17,1,25,0,16,1,16,1,17,15,15,15,1,19,17,10,4,10,17,4,17,15,1,15,4,19,16,27,8,6,11,17,10,13,0,0,0,0,0,0,0,0,0,0,0,0,0,0,0,0,0,0,0,0,0,0,0,0,0,0,0,0,0,0,0,0,0,0,0,0,0,0,0,0,0,0,0,0,0,0,0,0,0,0,0,0,0,0,0,0,0,0,0,0],"split_type":[0,0,0,0,0,0,0,0,0,0,0,0,0,0,0,0,0,0,0,0,0,0,0,0,0,0,0,0,0,0,0,0,0,0,0,0,0,0,0,0,0,0,0,0,0,0,0,0,0,0,0,0,0,0,0,0,0,0,0,0,0,0,0,0,0,0,0,0,0,0,0,0,0,0,0,0,0,0,0,0,0,0,0,0,0,0,0,0,0,0,0,0,0,0,0,0,0,0,0,0,0,0,0,0,0,0,0,0,0,0,0,0,0,0,0,0,0,0,0,0,0],"sum_hessian":[3.8539E4,3.3879E4,4.66E3,2.4872E4,9.007E3,3.599E3,1.061E3,1.383E4,1.1042E4,6.685E3,2.322E3,2.238E3,1.361E3,8.34E2,2.27E2,5.92E3,7.91E3,8.285E3,2.757E3,4.319E3,2.366E3,2.007E3,3.15E2,1.016E3,1.222E3,3.98E2,9.63E2,4.75E2,3.59E2,1.45E2,8.2E1,2.917E3,3.003E3,6.223E3,1.687E3,2.835E3,5.45E3,1.385E3,1.372E3,1.428E3,2.891E3,1.353E3,1.013E3,3.65E2,1.642E3,2.88E2,2.7E1,3.05E2,7.11E2,6.51E2,5.71E2,1.69E2,2.29E2,6.15E2,3.48E2,3.02E2,1.73E2,3.09E2,5E1,6.4E1,8.1E1,1.847E3,1.07E3,2.953E3,5E1,3.458E3,2.765E3,1.617E3,7E1,1.145E3,1.69E3,2.961E3,2.489E3,1.251E3,1.34E2,9.34E2,4.38E2,1.42E3,8E0,1.482E3,1.409E3,2.45E2,1.108E3,5.64E2,4.49E2,2.39E2,1.26E2,1.007E3,6.35E2,1.8E2,1.08E2,1.7E1,1E1,2.7E1,2.78E2,3.36E2,3.75E2,7.6E1,5.75E2,2.36E2,3.35E2,5.2E1,1.17E2,1.23E2,1.06E2,1.66E2,4.49E2,1E2,2.48E2,2.46E2,5.6E1,1.06E2,6.7E1,1.94E2,1.15E2,2.6E1,2.4E1,1.2E1,5.2E1,7.6E1,5E0],"tree_param":{"num_deleted":"0","num_feature":"28","num_nodes":"121","size_leaf_vector":"1"}},{"base_weights":[7.3790945E-2,-1.2581137E1,9.4881615E1,-2.1541773E1,1.1081127E1,7.060316E1,1.767128E2,-2.974604E1,-1.4270631E1,3.7405767E0,2.4593605E1,5.6370914E1,9.264384E1,1.516517E2,2.3621817E2,-3.6291203E1,-2.588798E1,-1.8904676E1,-1.0163611E1,-2.2085786E-1,9.414165E0,2.1947018E1,4.4819294E1,5.2397335E1,8.3567024E1,7.2048874E1,9.991079E1,1.2973613E2,1.722894E2,2.0157306E2,2.6803403E2,-4.0607693E1,-3.1499584E1,-3.0777828E1,-2.1995853E1,-2.0388454E1,-9.337332E0,-1.1500243E1,1.7172952E0,-3.8127518E0,3.7535381E0,8.7460985E0,6.064139E1,1.7290104E1,2.7676538E1,3.325668E1,6.2598957E1,4.348543E1,6.1272114E1,4.2887936E1,8.981548E1,7.729931E1,5.550471E1,8.727123E1,1.15614395E2,1.1042373E2,1.420424E2,1.6422679E2,2.2794264E2,1.849195E2,1.1220271E1,6.686893E0,2.7340894E2,-2.2103906E0,-1.8998384E0,-1.5831219E0,6.986641E-1,-1.7750994E0,-1.3974297E0,-1.2432243E0,-7.080121E-1,-1.1808909E0,-9.433388E-1,-5.111949E-1,3.2186677E0,-8.103224E-1,-4.6865255E-1,1.9644134E-2,2.7644029E0,-5.088112E-1,-1.1807515E-1,-1.2458304E-1,3.3914754E-1,3.2724038E-1,7.6412785E-1,9.377062E-1,4.415439E0,4.632109E-1,9.4693345E-1,1.1045734E0,1.5038651E0,1.0595057E0,1.9713421E0,2.8784463E0,5.3491817E0,1.5018344E0,2.318342E0,2.5072544E0,3.2955468E0,9.2545503E-1,2.4906044E0,4.212608E0,6.467172E0,2.6268091E0,4.006994E0,2.786238E-1,3.1149745E0,9.314579E0,4.3029304E0,5.1153064E0,6.331487E0,2.6385176E0,5.6266003E0,4.674195E0,7.324857E0,3.2559643E0,8.277138E0,1.2965339E1,9.168082E0,9.540788E0,6.697451E0,1.2365442E1,1.4629396E1],"categories":[],"categories_nodes":[],"categories_segments":[],"categories_sizes":[],"default_left":[0,0,0,0,0,0,0,0,0,0,0,0,0,0,0,0,0,0,0,0,0,0,0,0,0,0,0,0,0,0,0,0,0,0,0,0,0,0,0,0,0,0,0,0,0,0,0,0,0,0,0,0,0,0,0,0,0,0,0,0,0,0,0,0,0,0,0,0,0,0,0,0,0,0,0,0,0,0,0,0,0,0,0,0,0,0,0,0,0,0,0,0,0,0,0,0,0,0,0,0,0,0,0,0,0,0,0,0,0,0,0,0,0,0,0,0,0,0,0,0,0,0,0],"id":8,"left_children":[1,3,5,7,9,11,13,15,17,19,21,23,25,27,29,31,33,35,37,39,41,43,45,47,49,51,53,55,57,59,61,63,65,67,69,71,73,75,77,79,81,83,85,87,89,91,93,95,97,99,101,103,105,107,109,111,113,115,117,119,-1,-1,121,-1,-1,-1,-1,-1,-1,-1,-1,-1,-1,-1,-1,-1,-1,-1,-1,-1,-1,-1,-1,-1,-1,-1,-1,-1,-1,-1,-1,-1,-1,-1,-1,-1,-1,-1,-1,-1,-1,-1,-1,-1,-1,-1,-1,-1,-1,-1,-1,-1,-1,-1,-1,-1,-1,-1,-1,-1,-1,-1,-1],"loss_changes":[4.6428124E7,7.2389085E6,9.041052E6,1.476793E6,9.300999E5,1.09769E6,1.51804E6,2.92831E5,2.4969675E5,1.3660938E5,1.7570888E5,2.26761E5,1.99019E5,3.10502E5,2.8432E5,8.78985E4,1.386885E5,8.73665E4,1.1059594E5,5.1120992E4,8.498628E4,7.7454875E4,7.623431E4,1.45146E5,6.5017875E4,2.7228125E4,1.91553E5,7.00865E4,1.31242E5,1.58785E4,7.6721E4,1.960225E4,1.56105E4,4.234675E4,9.1374625E4,2.578625E4,5.489264E4,6.2504438E4,4.9992305E4,1.734571E4,3.2180111E4,3.5409E4,3.541832E4,2.1176875E4,1.6868562E4,1.6505984E4,2.7089812E4,3.4871E4,4.4893E4,5.4856875E3,4.0539375E4,1.4979625E4,3.0520375E4,5.20225E4,5.29905E4,1.166975E4,3.32215E4,3.2496E4,1.533E4,2.35775E3,0E0,0E0,2.673E3,0E0,0E0,0E0,0E0,0E0,0E0,0E0,0E0,0E0,0E0,0E0,0E0,0E0,0E0,0E0,0E0,0E0,0E0,0E0,0E0,0E0,0E0,0E0,0E0,0E0,0E0,0E0,0E0,0E0,0E0,0E0,0E0,0E0,0E0,0E0,0E0,0E0,0E0,0E0,0E0,0E0,0E0,0E0,0E0,0E0,0E0,0E0,0E0,0E0,0E0,0E0,0E0,0E0,0E0,0E0,0E0,0E0,0E0,0E0,0E0],"parents":[2147483647,0,0,1,1,2,2,3,3,4,4,5,5,6,6,7,7,8,8,9,9,10,10,11,11,12,12,13,13,14,14,15,15,16,16,17,17,18,18,19,19,20,20,21,21,22,22,23,23,24,24,25,25,26,26,27,27,28,28,29,29,30,30,31,31,32,32,33,33,34,34,35,35,36,36,37,37,38,38,39,39,40,40,41,41,42,42,43,43,44,44,45,45,46,46,47,47,48,48,49,49,50,50,51,51,52,52,53,53,54,54,55,55,56,56,57,57,58,58,59,59,62,62],"right_children":[2,4,6,8,10,12,14,16,18,20,22,24,26,28,30,32,34,36,38,40,42,44,46,48,50,52,54,56,58,60,62,64,66,68,70,72,74,76,78,80,82,84,86,88,90,92,94,96,98,100,102,104,106,108,110,112,114,116,118,120,-1,-1,122,-1,-1,-1,-1,-1,-1,-1,-1,-1,-1,-1,-1,-1,-1,-1,-1,-1,-1,-1,-1,-1,-1,-1,-1,-1,-1,-1,-1,-1,-1,-1,-1,-1,-1,-1,-1,-1,-1,-1,-1,-1,-1,-1,-1,-1,-1,-1,-1,-1,-1,-1,-1,-1,-1,-1,-1,-1,-1,-1,-1],"split_conditions":[1.3560498E2,7.012236E1,2.6704037E2,4.1011906E1,9.7877E1,1.9176639E2,3.658069E2,2.9701317E1,5.222175E1,8.242713E1,1E0,1E0,-4.3388373E-1,0E0,4.294631E2,2.131442E1,0E0,1E0,1E0,8.002417E1,1.7149435E2,1.1298627E2,1.3172047E2,1.6204556E2,7.4302E1,1.36913E2,1.08191E2,3.000218E2,3.476796E2,7.818315E-1,1.41997E2,1.028368E1,5.2386E1,3.226185E1,4.448092E1,-4.3388373E-1,2.685E2,-4.3388373E-1,4.4320618E1,-7.818315E-1,-4.3388373E-1,5.0273E1,1E0,6.9287315E1,-4.3388373E-1,4.6887E1,3.625E2,-7.818315E-1,-4.3388373E-1,1.3922957E2,3.525E2,1.824135E2,8.440768E1,9.5431046E1,2.2932156E2,1.4919882E2,1.32579E2,1.1866343E2,4.3388373E-1,8.065E0,1.1220271E1,6.686893E0,2.4455E2,-2.2103906E0,-1.8998384E0,-1.5831219E0,6.986641E-1,-1.7750994E0,-1.3974297E0,-1.2432243E0,-7.080121E-1,-1.1808909E0,-9.433388E-1,-5.111949E-1,3.2186677E0,-8.103224E-1,-4.6865255E-1,1.9644134E-2,2.7644029E0,-5.088112E-1,-1.1807515E-1,-1.2458304E-1,3.3914754E-1,3.2724038E-1,7.6412785E-1,9.377062E-1,4.415439E0,4.632109E-1,9.4693345E-1,1.1045734E0,1.5038651E0,1.0595057E0,1.9713421E0,2.8784463E0,5.3491817E0,1.5018344E0,2.318342E0,2.5072544E0,3.2955468E0,9.2545503E-1,2.4906044E0,4.212608E0,6.467172E0,2.6268091E0,4.006994E0,2.786238E-1,3.1149745E0,9.314579E0,4.3029304E0,5.1153064E0,6.331487E0,2.6385176E0,5.6266003E0,4.674195E0,7.324857E0,3.2559643E0,8.277138E0,1.2965339E1,9.168082E0,9.540788E0,6.697451E0,1.2365442E1,1.4629396E1],"split_indices":[14,14,14,14,14,14,14,22,14,17,11,11,10,10,14,14,10,11,11,14,22,14,22,14,0,0,0,14,22,10,0,14,0,14,22,10,2,10,23,10,10,0,11,17,10,0,2,10,10,14,2,15,17,22,14,22,0,16,10,4,0,0,0,0,0,0,0,0,0,0,0,0,0,0,0,0,0,0,0,0,0,0,0,0,0,0,0,0,0,0,0,0,0,0,0,0,0,0,0,0,0,0,0,0,0,0,0,0,0,0,0,0,0,0,0,0,0,0,0,0,0,0,0],"split_type":[0,0,0,0,0,0,0,0,0,0,0,0,0,0,0,0,0,0,0,0,0,0,0,0,0,0,0,0,0,0,0,0,0,0,0,0,0,0,0,0,0,0,0,0,0,0,0,0,0,0,0,0,0,0,0,0,0,0,0,0,0,0,0,0,0,0,0,0,0,0,0,0,0,0,0,0,0,0,0,0,0,0,0,0,0,0,0,0,0,0,0,0,0,0,0,0,0,0,0,0,0,0,0,0,0,0,0,0,0,0,0,0,0,0,0,0,0,0,0,0,0,0,0],"sum_hessian":[3.8695E4,3.4139E4,4.556E3,2.4762E4,9.377E3,3.515E3,1.041E3,1.1633E4,1.3129E4,6.077E3,3.3E3,2.138E3,1.377E3,7.35E2,3.06E2,4.311E3,7.322E3,6.167E3,6.962E3,3.579E3,2.498E3,2.92E3,3.8E2,1.868E3,2.7E2,3.62E2,1.015E3,3.6E2,3.75E2,1.5E2,1.56E2,2.264E3,2.047E3,3.242E3,4.08E3,5.338E3,8.29E2,6.258E3,7.04E2,1.88E3,1.699E3,2.467E3,3.1E1,1.613E3,1.307E3,2.32E2,1.48E2,9.35E2,9.33E2,3.7E1,2.33E2,2.72E2,9E1,5.66E2,4.49E2,1.44E2,2.16E2,3.31E2,4.4E1,9.2E1,5.8E1,7E0,1.49E2,9.45E2,1.319E3,2.04E3,7E0,1.21E3,2.032E3,2.985E3,1.095E3,1.705E3,3.633E3,8.2E2,9E0,1.946E3,4.312E3,6.88E2,1.6E1,3.48E2,1.532E3,5.55E2,1.144E3,1.847E3,6.2E2,1.3E1,1.8E1,2.76E2,1.337E3,3.96E2,9.11E2,8E1,1.52E2,1.35E2,1.3E1,1.67E2,7.68E2,2.78E2,6.55E2,9E0,2.8E1,2.07E2,2.6E1,3E1,2.42E2,1.1E1,7.9E1,5E0,5.61E2,2.08E2,2.41E2,6E0,1.38E2,2E1,1.96E2,5E0,3.26E2,2.3E1,2.1E1,8E1,1.2E1,6.9E1,8E1],"tree_param":{"num_deleted":"0","num_feature":"28","num_nodes":"123","size_leaf_vector":"1"}},{"base_weights":[1.1092416E-1,-1.0689096E1,1.0011388E2,-1.9636105E1,1.5126911E1,7.659357E1,1.7447507E2,-2.6618237E1,-1.1119086E1,6.8310137E0,3.0034555E1,6.696437E1,1.03640724E2,1.4971777E2,2.2415154E2,-3.372202E1,-2.3170912E1,-1.40288515E1,-5.6871986E0,3.4653387E0,1.38921175E1,2.6993536E1,5.1883816E1,5.7365654E1,7.633768E1,8.657031E1,1.1506918E2,1.2898401E2,1.682715E2,2.0364694E2,2.6927606E2,-3.876161E1,-2.9973629E1,-2.8870333E1,-2.0586964E1,-1.5361554E1,-4.134007E0,-1.2397106E1,-3.1505334E0,2.2093196E0,1.5917031E1,1.2021616E1,2.882452E1,2.2943584E1,3.7097282E1,3.658108E1,6.3914654E1,5.317229E1,8.575112E1,6.128259E1,8.189916E1,8.977715E1,5.0341705E1,9.542119E1,1.31009E2,1.1198495E2,1.3831085E2,1.6167038E2,2.1100845E2,1.8888362E2,1.1543133E1,7.693165E0,1.3932912E1,-2.0360668E0,-1.6466926E0,-1.6108612E0,-1.316111E0,-1.6336867E0,-1.2639109E0,-1.1427925E0,-7.188482E-1,-9.503976E-1,-6.8419623E-1,-5.170769E-1,1.5638787E-1,-7.9015005E-1,-5.3131384E-1,-2.2917111E-1,3.0628103E-1,-4.300818E-2,2.5935748E-1,6.674859E-1,4.772401E0,5.7581323E-1,1.6048462E0,1.1337217E0,2.6509702E0,8.7779427E-1,1.2601006E0,1.2616421E0,2.0051332E0,1.2610153E0,2.1729102E0,5.1246924E0,2.9628866E0,2.0797622E0,2.896795E0,3.8890862E0,7.16258E0,3.1169183E0,3.633949E-2,3.9357965E0,5.1651816E0,2.357975E0,4.627292E0,1.0834185E0,3.9773095E0,3.278917E0,4.9621806E0,7.6502967E0,6.218432E0,5.9426703E0,3.252837E0,6.162147E0,7.6587863E0,3.070974E0,8.182781E0,1.2048551E1,8.339049E0,7.8796296E0,1.026971E1],"categories":[],"categories_nodes":[],"categories_segments":[],"categories_sizes":[],"default_left":[0,0,0,0,0,0,0,0,0,0,0,0,0,0,0,0,0,0,0,0,0,0,0,0,0,0,0,0,0,0,0,0,0,0,0,0,0,0,0,0,0,0,0,0,0,0,0,0,0,0,0,0,0,0,0,0,0,0,0,0,0,0,0,0,0,0,0,0,0,0,0,0,0,0,0,0,0,0,0,0,0,0,0,0,0,0,0,0,0,0,0,0,0,0,0,0,0,0,0,0,0,0,0,0,0,0,0,0,0,0,0,0,0,0,0,0,0,0,0,0,0],"id":9,"left_children":[1,3,5,7,9,11,13,15,17,19,21,23,25,27,29,31,33,35,37,39,41,43,45,47,49,51,53,55,57,59,61,63,65,67,69,71,73,75,77,79,81,83,85,87,89,91,93,95,97,99,101,103,105,107,109,111,113,115,117,119,-1,-1,-1,-1,-1,-1,-1,-1,-1,-1,-1,-1,-1,-1,-1,-1,-1,-1,-1,-1,-1,-1,-1,-1,-1,-1,-1,-1,-1,-1,-1,-1,-1,-1,-1,-1,-1,-1,-1,-1,-1,-1,-1,-1,-1,-1,-1,-1,-1,-1,-1,-1,-1,-1,-1,-1,-1,-1,-1,-1,-1],"loss_changes":[4.1629904E7,8.0354915E6,6.5576E6,1.536029E6,1.1071529E6,7.36866E5,1.075734E6,3.46859E5,1.838945E5,1.3669612E5,2.11279E5,1.85357E5,1.35944E5,2.11003E5,2.20843E5,8.64075E4,1.402055E5,9.9878125E4,6.909781E4,6.0926043E4,5.1517406E4,1.14208875E5,6.945275E4,1.199325E5,8.40545E4,3.0785E4,1.268445E5,3.0465E4,5.4996E4,4.0327E4,5.4535E4,2.1196E4,2.0962E4,3.988175E4,9.240625E4,4.0594E4,4.0648008E4,6.5482656E3,3.9225125E4,3.238019E4,7.160753E4,1.6385703E4,2.9443172E4,2.40105E4,2.761425E4,1.2491625E4,3.28965E4,4.7986E4,4.9782062E4,1.8553E4,4.4587E4,2.8424E4,2.0875773E4,1.6632E4,1.64375E4,2.70605E4,2.208325E4,4.5254E4,1.14515E4,4.044E4,0E0,0E0,0E0,0E0,0E0,0E0,0E0,0E0,0E0,0E0,0E0,0E0,0E0,0E0,0E0,0E0,0E0,0E0,0E0,0E0,0E0,0E0,0E0,0E0,0E0,0E0,0E0,0E0,0E0,0E0,0E0,0E0,0E0,0E0,0E0,0E0,0E0,0E0,0E0,0E0,0E0,0E0,0E0,0E0,0E0,0E0,0E0,0E0,0E0,0E0,0E0,0E0,0E0,0E0,0E0,0E0,0E0,0E0,0E0,0E0,0E0],"parents":[2147483647,0,0,1,1,2,2,3,3,4,4,5,5,6,6,7,7,8,8,9,9,10,10,11,11,12,12,13,13,14,14,15,15,16,16,17,17,18,18,19,19,20,20,21,21,22,22,23,23,24,24,25,25,26,26,27,27,28,28,29,29,30,30,31,31,32,32,33,33,34,34,35,35,36,36,37,37,38,38,39,39,40,40,41,41,42,42,43,43,44,44,45,45,46,46,47,47,48,48,49,49,50,50,51,51,52,52,53,53,54,54,55,55,56,56,57,57,58,58,59,59],"right_children":[2,4,6,8,10,12,14,16,18,20,22,24,26,28,30,32,34,36,38,40,42,44,46,48,50,52,54,56,58,60,62,64,66,68,70,72,74,76,78,80,82,84,86,88,90,92,94,96,98,100,102,104,106,108,110,112,114,116,118,120,-1,-1,-1,-1,-1,-1,-1,-1,-1,-1,-1,-1,-1,-1,-1,-1,-1,-1,-1,-1,-1,-1,-1,-1,-1,-1,-1,-1,-1,-1,-1,-1,-1,-1,-1,-1,-1,-1,-1,-1,-1,-1,-1,-1,-1,-1,-1,-1,-1,-1,-1,-1,-1,-1,-1,-1,-1,-1,-1,-1,-1],"split_conditions":[1.53087E2,7.451478E1,2.8161597E2,4.5556267E1,1.043602E2,2.2052585E2,3.658069E2,3.0435993E1,6.171363E1,9.2132965E1,1E0,1.824135E2,0E0,0E0,2.4455E2,1.9444845E1,-4.3388373E-1,1E0,-4.3388373E-1,1E0,1E0,1.3264232E2,8.3288E1,1E0,-4.3388373E-1,3.3940912E2,1.1602E2,-7.818315E-1,3.476796E2,7.818315E-1,3.191771E2,1E0,2.9748125E1,3.6186024E1,4.5589584E1,-4.3388373E-1,2.9368E1,5.0573654E1,1E0,8.270425E1,2.0192314E2,1.4178793E2,2.8208746E1,-4.3388373E-1,9.668351E1,5.078E1,1.391E2,-4.3388373E-1,3.655E2,3.85E2,1E0,1.5999855E2,6.234898E-1,1.7149435E2,4.3388373E-1,3.664404E2,3.191771E2,1.22811806E2,4.3388373E-1,3.476796E2,1.1543133E1,7.693165E0,1.3932912E1,-2.0360668E0,-1.6466926E0,-1.6108612E0,-1.316111E0,-1.6336867E0,-1.2639109E0,-1.1427925E0,-7.188482E-1,-9.503976E-1,-6.8419623E-1,-5.170769E-1,1.5638787E-1,-7.9015005E-1,-5.3131384E-1,-2.2917111E-1,3.0628103E-1,-4.300818E-2,2.5935748E-1,6.674859E-1,4.772401E0,5.7581323E-1,1.6048462E0,1.1337217E0,2.6509702E0,8.7779427E-1,1.2601006E0,1.2616421E0,2.0051332E0,1.2610153E0,2.1729102E0,5.1246924E0,2.9628866E0,2.0797622E0,2.896795E0,3.8890862E0,7.16258E0,3.1169183E0,3.633949E-2,3.9357965E0,5.1651816E0,2.357975E0,4.627292E0,1.0834185E0,3.9773095E0,3.278917E0,4.9621806E0,7.6502967E0,6.218432E0,5.9426703E0,3.252837E0,6.162147E0,7.6587863E0,3.070974E0,8.182781E0,1.2048551E1,8.339049E0,7.8796296E0,1.026971E1],"split_indices":[14,14,14,14,14,14,14,22,14,14,11,14,10,10,1,14,10,11,10,11,11,14,1,11,10,15,1,10,22,10,16,11,14,14,22,10,1,16,11,14,16,22,23,10,16,1,2,10,2,2,11,22,11,22,10,15,14,16,10,22,0,0,0,0,0,0,0,0,0,0,0,0,0,0,0,0,0,0,0,0,0,0,0,0,0,0,0,0,0,0,0,0,0,0,0,0,0,0,0,0,0,0,0,0,0,0,0,0,0,0,0,0,0,0,0,0,0,0,0,0,0],"split_type":[0,0,0,0,0,0,0,0,0,0,0,0,0,0,0,0,0,0,0,0,0,0,0,0,0,0,0,0,0,0,0,0,0,0,0,0,0,0,0,0,0,0,0,0,0,0,0,0,0,0,0,0,0,0,0,0,0,0,0,0,0,0,0,0,0,0,0,0,0,0,0,0,0,0,0,0,0,0,0,0,0,0,0,0,0,0,0,0,0,0,0,0,0,0,0,0,0,0,0,0,0,0,0,0,0,0,0,0,0,0,0,0,0,0,0,0,0,0,0,0,0],"sum_hessian":[3.8543E4,3.4787E4,3.756E3,2.5834E4,8.953E3,2.855E3,9.01E2,1.4195E4,1.1639E4,5.753E3,3.2E3,2.108E3,7.47E2,6.04E2,2.97E2,4.635E3,9.56E3,7.578E3,4.061E3,3.897E3,1.856E3,2.811E3,3.89E2,1.045E3,1.063E3,3.03E2,4.44E2,2.89E2,3.15E2,2.08E2,8.9E1,1.973E3,2.662E3,2.979E3,6.581E3,6.678E3,9E2,1.113E3,2.948E3,3.541E3,3.56E2,1.651E3,2.05E2,2.009E3,8.02E2,1.73E2,2.16E2,9.13E2,1.32E2,2.9E2,7.73E2,2.77E2,2.6E1,2.02E2,2.42E2,1.07E2,1.82E2,2.77E2,3.8E1,1.4E2,6.8E1,8E0,8.1E1,1.472E3,5.01E2,1.644E3,1.018E3,1.443E3,1.536E3,4.818E3,1.763E3,2.101E3,4.577E3,4.85E2,4.15E2,3.78E2,7.35E2,2.554E3,3.94E2,1.744E3,1.797E3,3.46E2,1E1,1.612E3,3.9E1,1.65E2,4E1,5.96E2,1.413E3,1.64E2,6.38E2,6.7E1,1.06E2,2.1E1,1.95E2,2.69E2,6.44E2,1.18E2,1.4E1,2.85E2,5E0,6.77E2,9.6E1,1.8E1,2.59E2,1.4E1,1.2E1,2.5E1,1.77E2,5.1E1,1.91E2,9.2E1,1.5E1,9.5E1,8.7E1,6E0,2.71E2,2E1,1.8E1,5.2E1,8.8E1],"tree_param":{"num_deleted":"0","num_feature":"28","num_nodes":"121","size_leaf_vector":"1"}},{"base_weights":[1.5066266E-2,-1.0292738E1,9.531376E1,-1.8866083E1,1.3667645E1,7.0678795E1,1.5858377E2,-2.7223934E1,-1.2455349E1,6.5385885E0,2.8204197E1,5.645729E1,8.469232E1,1.445013E2,2.4075293E2,-3.335217E1,-2.3864162E1,-1.6415445E1,-7.360932E0,2.9215503E0,1.3810044E1,2.5734411E1,4.687171E1,5.257885E1,8.155704E1,6.4187706E1,9.218872E1,1.2372364E2,1.6473282E2,1.7305937E2,2.5722427E2,-3.745741E1,-2.8991772E1,-2.598087E1,-1.8153801E1,-1.7759499E1,-7.6055884E0,-1.1506962E1,-4.1527886E0,-1.4218951E0,6.3035684E0,1.2767999E1,5.8881912E1,2.0336845E1,3.2614643E1,3.485894E1,5.6364258E1,4.1580933E1,5.753487E1,7.416655E1,1.1444496E2,7.393632E1,5.4408264E1,8.177818E1,1.0869161E2,1.0813201E2,1.3765338E2,1.2393824E2,1.7109296E2,9.214858E0,5.2488275E0,1.3389473E1,9.875213E0,-2.003067E0,-1.7287921E0,-1.4871907E0,-9.7267574E-1,-1.7905549E0,-1.2531692E0,-9.427643E-1,1.9475552E0,-9.9859774E-1,-7.786507E-1,-4.3821764E-1,2.1967094E0,-6.9265217E-1,-4.5677525E-1,-3.3787662E-1,9.050412E-2,-2.971137E-1,2.957187E-2,4.9191784E-2,4.2732E-1,1.034911E0,5.3158724E-1,1.7511561E0,4.0606804E0,5.049352E-1,1.0683352E0,1.1284326E0,1.7480996E0,1.3594309E0,2.2568722E0,-1.3024202E-1,2.9125302E0,-1.3028338E0,2.129232E0,2.5219748E0,3.1380982E0,9.3237793E-1,3.838569E0,3.304054E0,6.1702523E0,3.025117E0,4.052868E0,2.8233147E0,-8.706471E-1,9.122209E0,4.0327816E0,4.11622E0,5.6715336E0,5.600679E0,3.7652702E0,6.168073E0,7.605952E0,6.770256E0,4.6729884E0,8.172364E0,9.960917E0],"categories":[],"categories_nodes":[],"categories_segments":[],"categories_sizes":[],"default_left":[0,0,0,0,0,0,0,0,0,0,0,0,0,0,0,0,0,0,0,0,0,0,0,0,0,0,0,0,0,0,0,0,0,0,0,0,0,0,0,0,0,0,0,0,0,0,0,0,0,0,0,0,0,0,0,0,0,0,0,0,0,0,0,0,0,0,0,0,0,0,0,0,0,0,0,0,0,0,0,0,0,0,0,0,0,0,0,0,0,0,0,0,0,0,0,0,0,0,0,0,0,0,0,0,0,0,0,0,0,0,0,0,0,0,0,0,0,0,0],"id":10,"left_children":[1,3,5,7,9,11,13,15,17,19,21,23,25,27,29,31,33,35,37,39,41,43,45,47,49,51,53,55,57,59,61,63,65,67,69,71,73,75,77,79,81,83,85,87,89,91,93,95,97,99,101,103,105,107,109,111,113,115,117,-1,-1,-1,-1,-1,-1,-1,-1,-1,-1,-1,-1,-1,-1,-1,-1,-1,-1,-1,-1,-1,-1,-1,-1,-1,-1,-1,-1,-1,-1,-1,-1,-1,-1,-1,-1,-1,-1,-1,-1,-1,-1,-1,-1,-1,-1,-1,-1,-1,-1,-1,-1,-1,-1,-1,-1,-1,-1,-1,-1],"loss_changes":[3.795195E7,7.162044E6,5.866456E6,1.375429E6,9.51982E5,5.36485E5,1.187118E6,2.286685E5,2.93071E5,1.6213078E5,1.3816125E5,1.272155E5,2.04036E5,3.59598E5,1.26039E5,6.95065E4,8.65755E4,9.6674E4,8.451875E4,6.051596E4,9.542925E4,9.856025E4,3.8165375E4,6.1533E4,3.50005E4,3.1143375E4,1.62553E5,8.28255E4,9.682E4,5.8724375E3,2.34085E4,1.382425E4,1.31675E4,4.6465E4,7.888606E4,3.399775E4,6.5120684E4,1.5299125E4,5.570957E4,1.64223E4,2.7623453E4,3.3709594E4,2.1653156E4,1.559675E4,2.6866125E4,1.1222172E4,2.1848312E4,2.6094125E4,2.671625E4,2.0106875E4,5.26E3,1.24924375E4,2.8775375E4,5.48675E4,3.85005E4,1.919575E4,2.95845E4,1.003925E4,5.1481E4,0E0,0E0,0E0,0E0,0E0,0E0,0E0,0E0,0E0,0E0,0E0,0E0,0E0,0E0,0E0,0E0,0E0,0E0,0E0,0E0,0E0,0E0,0E0,0E0,0E0,0E0,0E0,0E0,0E0,0E0,0E0,0E0,0E0,0E0,0E0,0E0,0E0,0E0,0E0,0E0,0E0,0E0,0E0,0E0,0E0,0E0,0E0,0E0,0E0,0E0,0E0,0E0,0E0,0E0,0E0,0E0,0E0,0E0,0E0,0E0],"parents":[2147483647,0,0,1,1,2,2,3,3,4,4,5,5,6,6,7,7,8,8,9,9,10,10,11,11,12,12,13,13,14,14,15,15,16,16,17,17,18,18,19,19,20,20,21,21,22,22,23,23,24,24,25,25,26,26,27,27,28,28,29,29,30,30,31,31,32,32,33,33,34,34,35,35,36,36,37,37,38,38,39,39,40,40,41,41,42,42,43,43,44,44,45,45,46,46,47,47,48,48,49,49,50,50,51,51,52,52,53,53,54,54,55,55,56,56,57,57,58,58],"right_children":[2,4,6,8,10,12,14,16,18,20,22,24,26,28,30,32,34,36,38,40,42,44,46,48,50,52,54,56,58,60,62,64,66,68,70,72,74,76,78,80,82,84,86,88,90,92,94,96,98,100,102,104,106,108,110,112,114,116,118,-1,-1,-1,-1,-1,-1,-1,-1,-1,-1,-1,-1,-1,-1,-1,-1,-1,-1,-1,-1,-1,-1,-1,-1,-1,-1,-1,-1,-1,-1,-1,-1,-1,-1,-1,-1,-1,-1,-1,-1,-1,-1,-1,-1,-1,-1,-1,-1,-1,-1,-1,-1,-1,-1,-1,-1,-1,-1,-1,-1],"split_conditions":[1.53087E2,7.339098E1,2.6704037E2,4.0197514E1,1.056989E2,1.9176639E2,4.294631E2,2.7709877E1,5.551133E1,9.188149E1,1E0,1E0,-4.3388373E-1,3.191771E2,2.8169995E2,2.131442E1,1E0,1E0,0E0,8.270425E1,1.7149435E2,1.2491874E2,8.3288E1,-4.3388373E-1,3.2825E2,3.6453026E1,1.1602E2,0E0,-7.818315E-1,-3.4775E0,-2.89E0,1.2574705E1,1E0,1.8101715E1,1.3556384E2,4.718935E1,8.7606E1,5.6200108E1,6.590645E1,-4.3388373E-1,-4.3388373E-1,-6.9375E0,1E0,3.5029E1,9.573606E1,1.2286471E2,7.832398E1,8.110394E1,1.7004315E2,-2.08625E1,2.2880226E-1,2.0765483E2,3.85E2,9.8414665E1,1.7545354E2,3.664404E2,6.234898E-1,7.144297E1,2.14665E2,9.214858E0,5.2488275E0,1.3389473E1,9.875213E0,-2.003067E0,-1.7287921E0,-1.4871907E0,-9.7267574E-1,-1.7905549E0,-1.2531692E0,-9.427643E-1,1.9475552E0,-9.9859774E-1,-7.786507E-1,-4.3821764E-1,2.1967094E0,-6.9265217E-1,-4.5677525E-1,-3.3787662E-1,9.050412E-2,-2.971137E-1,2.957187E-2,4.9191784E-2,4.2732E-1,1.034911E0,5.3158724E-1,1.7511561E0,4.0606804E0,5.049352E-1,1.0683352E0,1.1284326E0,1.7480996E0,1.3594309E0,2.2568722E0,-1.3024202E-1,2.9125302E0,-1.3028338E0,2.129232E0,2.5219748E0,3.1380982E0,9.3237793E-1,3.838569E0,3.304054E0,6.1702523E0,3.025117E0,4.052868E0,2.8233147E0,-8.706471E-1,9.122209E0,4.0327816E0,4.11622E0,5.6715336E0,5.600679E0,3.7652702E0,6.168073E0,7.605952E0,6.770256E0,4.6729884E0,8.172364E0,9.960917E0],"split_indices":[14,14,14,14,14,14,14,16,14,17,11,11,10,14,17,14,11,11,10,14,22,14,0,10,2,23,1,10,10,9,9,14,11,14,17,14,0,17,22,10,10,9,11,0,16,14,17,22,14,9,21,14,2,22,22,18,11,23,0,0,0,0,0,0,0,0,0,0,0,0,0,0,0,0,0,0,0,0,0,0,0,0,0,0,0,0,0,0,0,0,0,0,0,0,0,0,0,0,0,0,0,0,0,0,0,0,0,0,0,0,0,0,0,0,0,0,0,0,0],"split_type":[0,0,0,0,0,0,0,0,0,0,0,0,0,0,0,0,0,0,0,0,0,0,0,0,0,0,0,0,0,0,0,0,0,0,0,0,0,0,0,0,0,0,0,0,0,0,0,0,0,0,0,0,0,0,0,0,0,0,0,0,0,0,0,0,0,0,0,0,0,0,0,0,0,0,0,0,0,0,0,0,0,0,0,0,0,0,0,0,0,0,0,0,0,0,0,0,0,0,0,0,0,0,0,0,0,0,0,0,0,0,0,0,0,0,0,0,0,0,0],"sum_hessian":[3.8633E4,3.4863E4,3.77E3,2.5676E4,9.187E3,2.715E3,1.055E3,1.1144E4,1.4532E4,6.165E3,3.022E3,1.35E3,1.365E3,9.03E2,1.52E2,3.943E3,7.201E3,8.175E3,6.357E3,4.118E3,2.047E3,2.671E3,3.51E2,1.172E3,1.78E2,3.68E2,9.97E2,4.49E2,4.54E2,3.2E1,1.2E2,2.027E3,1.916E3,5.251E3,1.95E3,7.092E3,1.083E3,2.772E3,3.585E3,1.803E3,2.315E3,2.002E3,4.5E1,1.499E3,1.172E3,1.57E2,1.94E2,3.67E2,8.05E2,1.48E2,3E1,1.81E2,1.87E2,6.15E2,3.82E2,2.16E2,2.33E2,6.4E1,3.9E2,2.6E1,6E0,9.9E1,2.1E1,1.058E3,9.69E2,1.774E3,1.42E2,4.45E2,4.806E3,1.927E3,2.3E1,3.521E3,3.571E3,1.06E3,2.3E1,1.391E3,1.381E3,2.495E3,1.09E3,5.55E2,1.248E3,6.87E2,1.628E3,4.23E2,1.579E3,2.3E1,2.2E1,1.38E2,1.361E3,2.24E2,9.48E2,9.2E1,6.5E1,6E0,1.88E2,5E0,3.62E2,3.46E2,4.59E2,7E0,1.41E2,6E0,2.4E1,6.6E1,1.15E2,1.82E2,5E0,5E0,6.1E2,6.1E1,3.21E2,1.91E2,2.5E1,1.22E2,1.11E2,4.4E1,2E1,3.12E2,7.8E1],"tree_param":{"num_deleted":"0","num_feature":"28","num_nodes":"119","size_leaf_vector":"1"}},{"base_weights":[1.2135605E-1,-1.0264015E1,8.4617836E1,-1.8448742E1,1.0588433E1,6.239816E1,1.5172437E2,-2.5815248E1,-1.2553435E1,4.257997E0,2.4554945E1,5.0552204E1,8.149903E1,1.3181601E2,2.0142024E2,-3.175448E1,-2.2687431E1,-1.6015774E1,-8.173635E0,-7.0282537E-1,8.677049E0,2.2023994E1,4.3542477E1,4.7160576E1,7.509594E1,6.610635E1,8.706285E1,1.1416144E2,1.4611613E2,1.826598E2,2.4363295E2,-3.5590454E1,-2.7567219E1,-2.4792368E1,-1.6790916E1,-1.727138E1,-7.8207135E0,-9.40517E0,2.9806488E0,-6.82648E0,1.6202967E0,7.234253E0,2.1217947E1,1.7665443E1,2.7327108E1,2.925823E1,5.3731773E1,4.0321304E1,5.498737E1,5.856825E1,8.673171E1,3.3698982E1,6.879337E1,7.8762085E1,1.01818306E2,1.1776278E2,8.402471E1,1.7847485E2,1.3816911E2,1.7041248E2,1.0108569E1,8.123627E0,1.3095954E1,-1.9361467E0,-1.6709146E0,-1.4752914E0,-1.2034601E0,-1.4778111E0,-1.1555153E0,-9.4337064E-1,1.445299E-1,-1.0186968E0,-7.895977E-1,-4.1914782E-1,4.433631E0,-6.7216843E-1,-3.7621325E-1,3.3754747E-2,2.611124E0,-1.1469535E0,-3.1303096E-1,3.0425882E-2,1.0994922E0,1.16836905E-1,4.6010724E-1,9.5517284E-1,4.707526E0,8.330718E-1,1.4360174E0,1.2218146E0,1.6412328E0,1.138748E0,1.8581537E0,2.3642485E0,3.9260252E0,1.2540978E0,2.1500125E0,2.1826305E0,2.9923978E0,3.1388664E0,1.3960297E0,4.003627E0,5.8948436E0,-4.503587E-1,2.7779007E0,2.9184144E0,3.7374256E0,8.367419E-1,3.986017E0,4.5283914E0,5.569031E0,5.117596E0,6.2886314E0,5.6826086E0,2.264581E0,8.125648E0,1.1733698E1,3.9443913E0,7.0835567E0,9.512891E0,7.533902E0],"categories":[],"categories_nodes":[],"categories_segments":[],"categories_sizes":[],"default_left":[0,0,0,0,0,0,0,0,0,0,0,0,0,0,0,0,0,0,0,0,0,0,0,0,0,0,0,0,0,0,0,0,0,0,0,0,0,0,0,0,0,0,0,0,0,0,0,0,0,0,0,0,0,0,0,0,0,0,0,0,0,0,0,0,0,0,0,0,0,0,0,0,0,0,0,0,0,0,0,0,0,0,0,0,0,0,0,0,0,0,0,0,0,0,0,0,0,0,0,0,0,0,0,0,0,0,0,0,0,0,0,0,0,0,0,0,0,0,0,0,0],"id":11,"left_children":[1,3,5,7,9,11,13,15,17,19,21,23,25,27,29,31,33,35,37,39,41,43,45,47,49,51,53,55,57,59,61,63,65,67,69,71,73,75,77,79,81,83,85,87,89,91,93,95,97,99,101,103,105,107,109,111,113,115,117,119,-1,-1,-1,-1,-1,-1,-1,-1,-1,-1,-1,-1,-1,-1,-1,-1,-1,-1,-1,-1,-1,-1,-1,-1,-1,-1,-1,-1,-1,-1,-1,-1,-1,-1,-1,-1,-1,-1,-1,-1,-1,-1,-1,-1,-1,-1,-1,-1,-1,-1,-1,-1,-1,-1,-1,-1,-1,-1,-1,-1,-1],"loss_changes":[3.3928716E7,5.87676E6,6.300782E6,1.073512E6,8.580399E5,7.15626E5,1.014224E6,2.034515E5,2.0817925E5,1.4644672E5,1.4450162E5,1.60102E5,9.837E4,1.7365E5,1.92242E5,5.987225E4,8.8982E4,7.879525E4,8.337047E4,4.4795023E4,6.3769656E4,6.129625E4,5.0088625E4,9.037925E4,4.0483875E4,2.6146375E4,1.009715E5,2.7203E4,8.1513E4,1.5932E4,8.9488E4,1.21305E4,1.1599375E4,4.182925E4,7.762469E4,3.020275E4,5.612735E4,4.1398406E4,6.853139E4,7.749211E3,4.7035805E4,3.0529094E4,5.432439E4,1.5832719E4,1.8326625E4,6.835008E3,2.9195E4,3.675975E4,4.167225E4,1.1267E4,1.8972125E4,2.5709988E4,1.4310625E4,3.277325E4,2.3995E4,2.4506E4,4.0739156E4,3.179225E4,5.85575E4,2.456075E4,0E0,0E0,0E0,0E0,0E0,0E0,0E0,0E0,0E0,0E0,0E0,0E0,0E0,0E0,0E0,0E0,0E0,0E0,0E0,0E0,0E0,0E0,0E0,0E0,0E0,0E0,0E0,0E0,0E0,0E0,0E0,0E0,0E0,0E0,0E0,0E0,0E0,0E0,0E0,0E0,0E0,0E0,0E0,0E0,0E0,0E0,0E0,0E0,0E0,0E0,0E0,0E0,0E0,0E0,0E0,0E0,0E0,0E0,0E0,0E0,0E0],"parents":[2147483647,0,0,1,1,2,2,3,3,4,4,5,5,6,6,7,7,8,8,9,9,10,10,11,11,12,12,13,13,14,14,15,15,16,16,17,17,18,18,19,19,20,20,21,21,22,22,23,23,24,24,25,25,26,26,27,27,28,28,29,29,30,30,31,31,32,32,33,33,34,34,35,35,36,36,37,37,38,38,39,39,40,40,41,41,42,42,43,43,44,44,45,45,46,46,47,47,48,48,49,49,50,50,51,51,52,52,53,53,54,54,55,55,56,56,57,57,58,58,59,59],"right_children":[2,4,6,8,10,12,14,16,18,20,22,24,26,28,30,32,34,36,38,40,42,44,46,48,50,52,54,56,58,60,62,64,66,68,70,72,74,76,78,80,82,84,86,88,90,92,94,96,98,100,102,104,106,108,110,112,114,116,118,120,-1,-1,-1,-1,-1,-1,-1,-1,-1,-1,-1,-1,-1,-1,-1,-1,-1,-1,-1,-1,-1,-1,-1,-1,-1,-1,-1,-1,-1,-1,-1,-1,-1,-1,-1,-1,-1,-1,-1,-1,-1,-1,-1,-1,-1,-1,-1,-1,-1,-1,-1,-1,-1,-1,-1,-1,-1,-1,-1,-1,-1],"split_conditions":[1.426772E2,7.012236E1,2.6704037E2,3.999857E1,1.0212674E2,1.9700061E2,3.658069E2,2.7335714E1,5.4094246E1,8.270425E1,1E0,1E0,-4.3388373E-1,0E0,2.4455E2,2.131442E1,1E0,1E0,1E0,-4.3388373E-1,1E0,1.187691E2,7.2422E1,1.7004315E2,1.6204556E2,8.440768E1,1.19639E2,4.294631E2,4.3388373E-1,7.818315E-1,2.8169995E2,-4.3388373E-1,3.1245085E1,2.8182535E1,1.193E2,-4.3388373E-1,1.5726422E2,-4.3388373E-1,8.7606E1,3.0059578E1,8.5551E1,-4.3388373E-1,2.0764589E2,1.1602E2,7.818315E-1,7.978E1,2.3E1,9.484929E1,-4.3388373E-1,2.2052585E2,1.49245E2,-5E-1,1.6567746E2,4.432E1,5.38E0,-7.818315E-1,1.87665E2,2.14665E2,1.1602E2,-1.8369701E-16,1.0108569E1,8.123627E0,1.3095954E1,-1.9361467E0,-1.6709146E0,-1.4752914E0,-1.2034601E0,-1.4778111E0,-1.1555153E0,-9.4337064E-1,1.445299E-1,-1.0186968E0,-7.895977E-1,-4.1914782E-1,4.433631E0,-6.7216843E-1,-3.7621325E-1,3.3754747E-2,2.611124E0,-1.1469535E0,-3.1303096E-1,3.0425882E-2,1.0994922E0,1.16836905E-1,4.6010724E-1,9.5517284E-1,4.707526E0,8.330718E-1,1.4360174E0,1.2218146E0,1.6412328E0,1.138748E0,1.8581537E0,2.3642485E0,3.9260252E0,1.2540978E0,2.1500125E0,2.1826305E0,2.9923978E0,3.1388664E0,1.3960297E0,4.003627E0,5.8948436E0,-4.503587E-1,2.7779007E0,2.9184144E0,3.7374256E0,8.367419E-1,3.986017E0,4.5283914E0,5.569031E0,5.117596E0,6.2886314E0,5.6826086E0,2.264581E0,8.125648E0,1.1733698E1,3.9443913E0,7.0835567E0,9.512891E0,7.533902E0],"split_indices":[14,14,14,14,14,14,14,16,14,14,11,11,10,10,1,14,11,11,11,10,11,14,0,14,14,17,0,18,10,10,17,10,14,14,2,10,16,10,0,18,1,10,16,1,10,6,4,16,10,18,0,12,18,0,4,10,0,0,0,13,0,0,0,0,0,0,0,0,0,0,0,0,0,0,0,0,0,0,0,0,0,0,0,0,0,0,0,0,0,0,0,0,0,0,0,0,0,0,0,0,0,0,0,0,0,0,0,0,0,0,0,0,0,0,0,0,0,0,0,0,0],"split_type":[0,0,0,0,0,0,0,0,0,0,0,0,0,0,0,0,0,0,0,0,0,0,0,0,0,0,0,0,0,0,0,0,0,0,0,0,0,0,0,0,0,0,0,0,0,0,0,0,0,0,0,0,0,0,0,0,0,0,0,0,0,0,0,0,0,0,0,0,0,0,0,0,0,0,0,0,0,0,0,0,0,0,0,0,0,0,0,0,0,0,0,0,0,0,0,0,0,0,0,0,0,0,0,0,0,0,0,0,0,0,0,0,0,0,0,0,0,0,0,0,0],"sum_hessian":[3.8662E4,3.4431E4,4.231E3,2.4726E4,9.705E3,3.18E3,1.051E3,1.099E4,1.3736E4,6.679E3,3.026E3,1.965E3,1.215E3,7.53E2,2.98E2,3.788E3,7.202E3,7.67E3,6.066E3,3.147E3,3.532E3,2.672E3,3.54E2,1.729E3,2.36E2,3.26E2,8.89E2,3.41E2,4.12E2,2.1E2,8.8E1,1.973E3,1.815E3,5.305E3,1.897E3,6.65E3,1.02E3,5.463E3,6.03E2,8.65E2,2.282E3,3.169E3,3.63E2,1.469E3,1.203E3,1.49E2,2.05E2,9.26E2,8.03E2,1E2,1.36E2,2.6E1,3E2,5.73E2,3.16E2,3.02E2,3.9E1,7.7E1,3.35E2,1.35E2,7.5E1,1.8E1,7E1,8.01E2,1.172E3,1.163E3,6.52E2,1.38E3,3.925E3,1.716E3,1.81E2,2.143E3,4.507E3,1.015E3,5E0,1.734E3,3.729E3,5.77E2,2.6E1,2.8E1,8.37E2,2.175E3,1.07E2,9.09E2,2.26E3,3.54E2,9E0,1.349E3,1.2E2,7.92E2,4.11E2,8.4E1,6.5E1,1.65E2,4E1,1.4E2,7.86E2,2.44E2,5.59E2,8.7E1,1.3E1,1.15E2,2.1E1,9E0,1.7E1,1.13E2,1.87E2,9E0,5.64E2,1.5E2,1.66E2,1.08E2,1.94E2,2.1E1,1.8E1,6.3E1,1.4E1,2E1,3.15E2,6.3E1,7.2E1],"tree_param":{"num_deleted":"0","num_feature":"28","num_nodes":"121","size_leaf_vector":"1"}},{"base_weights":[-1.3910641E-1,-1.0235093E1,7.661505E1,-1.8688126E1,6.766991E0,5.6662525E1,1.4303693E2,-2.563482E1,-1.3706097E1,2.9242348E-2,1.8129154E1,4.4011715E1,7.364879E1,1.185876E2,1.7584691E2,-3.0530231E1,-2.2225618E1,-1.6769918E1,-9.643896E0,-2.7256472E0,5.788196E0,1.3589682E1,2.5365545E1,4.0793324E1,6.633743E1,5.787876E1,7.920915E1,1.0259368E2,1.3166628E2,1.5737386E2,2.1457112E2,-3.5957336E1,-2.792382E1,-2.4557531E1,-1.6607662E1,-1.8348251E1,-1.3801165E1,-1.1339026E1,-2.8667026E0,-4.840179E0,2.01891E0,4.8889117E0,3.5833057E1,6.547593E0,1.5740648E1,2.1685873E1,3.9482784E1,3.5579704E1,4.9074085E1,6.2460583E1,5.9441996E0,2.6673933E1,6.031811E1,7.147474E1,9.3765236E1,5.950099E1,1.05390816E2,2.762366E0,1.336613E2,1.4372685E2,1.8807368E2,1.5694476E2,2.2821184E2,-1.865098E0,-1.5572565E0,-1.4013126E0,1.0950948E0,-1.6211128E0,-1.1696124E0,-8.498923E-1,4.6754766E0,-1.0240453E0,-8.225247E-1,-8.568732E-1,-5.58729E-1,-7.593387E-1,-4.7533995E-1,-2.2622955E-1,2.1583712E0,-5.467979E-1,-1.7334372E-1,-2.6633784E-1,1.9688003E-1,9.6840076E-2,4.0673018E-1,8.421259E-1,3.2564023E0,-3.2088158E-1,4.313262E-1,7.481091E-1,1.9490461E0,7.9158455E-1,1.2282102E0,1.7891273E0,3.8014553E0,-1.1081308E-1,1.8168553E0,1.9011158E0,2.7088532E0,1.8791361E0,3.3932035E0,-2.4781501E-1,2.1370933E0,2.5225556E0,3.3147657E0,3.1686552E0,3.9655018E0,4.3790226E0,5.723368E0,1.1614121E0,3.5394619E0,4.714548E0,5.7630873E0,6.3792486E0,8.108586E0,5.7113686E0,7.567226E0,6.8268647E0,9.953002E0,8.377141E0,4.330603E0,1.1957351E1,8.65496E0],"categories":[],"categories_nodes":[],"categories_segments":[],"categories_sizes":[],"default_left":[0,0,0,0,0,0,0,0,0,0,0,0,0,0,0,0,0,0,0,0,0,0,0,0,0,0,0,0,0,0,0,0,0,0,0,0,0,0,0,0,0,0,0,0,0,0,0,0,0,0,0,0,0,0,0,0,0,0,0,0,0,0,0,0,0,0,0,0,0,0,0,0,0,0,0,0,0,0,0,0,0,0,0,0,0,0,0,0,0,0,0,0,0,0,0,0,0,0,0,0,0,0,0,0,0,0,0,0,0,0,0,0,0,0,0,0,0,0,0,0,0,0,0],"id":12,"left_children":[1,3,5,7,9,11,13,15,17,19,21,23,25,27,29,31,33,35,37,39,41,43,45,47,49,51,53,55,57,59,61,63,65,67,69,71,73,75,77,79,81,83,85,87,89,91,93,95,97,99,-1,101,103,105,107,109,111,-1,113,115,117,119,121,-1,-1,-1,-1,-1,-1,-1,-1,-1,-1,-1,-1,-1,-1,-1,-1,-1,-1,-1,-1,-1,-1,-1,-1,-1,-1,-1,-1,-1,-1,-1,-1,-1,-1,-1,-1,-1,-1,-1,-1,-1,-1,-1,-1,-1,-1,-1,-1,-1,-1,-1,-1,-1,-1,-1,-1,-1,-1,-1,-1],"loss_changes":[3.0030826E7,4.922366E6,5.962282E6,7.91352E5,8.707389E5,7.41556E5,8.13386E5,1.587505E5,1.6566425E5,1.1331006E5,1.3873562E5,1.4019825E5,1.250035E5,1.11767E5,2.82382E5,5.4425E4,7.340975E4,3.53265E4,6.580506E4,4.8477137E4,6.2261383E4,3.933828E4,8.3862875E4,7.34095E4,4.328125E4,2.7993E4,1.15997E5,2.67395E4,4.22975E4,9.9881E4,7.41935E4,7.036E3,1.4149125E4,3.571125E4,7.2733625E4,1.97135E4,2.2940188E4,3.2170125E4,8.780617E4,2.7937734E4,2.1020988E4,2.1494023E4,3.616883E4,1.6524354E4,3.5486344E4,2.1445062E4,4.2705594E4,3.0771875E4,3.5716625E4,2.8894875E4,0E0,1.5462594E4,1.7875375E4,4.04105E4,3.7969E4,6.125953E3,1.716E4,0E0,3.41965E4,3.07755E4,2.3745E4,7.8250625E3,2.54585E4,0E0,0E0,0E0,0E0,0E0,0E0,0E0,0E0,0E0,0E0,0E0,0E0,0E0,0E0,0E0,0E0,0E0,0E0,0E0,0E0,0E0,0E0,0E0,0E0,0E0,0E0,0E0,0E0,0E0,0E0,0E0,0E0,0E0,0E0,0E0,0E0,0E0,0E0,0E0,0E0,0E0,0E0,0E0,0E0,0E0,0E0,0E0,0E0,0E0,0E0,0E0,0E0,0E0,0E0,0E0,0E0,0E0,0E0,0E0,0E0],"parents":[2147483647,0,0,1,1,2,2,3,3,4,4,5,5,6,6,7,7,8,8,9,9,10,10,11,11,12,12,13,13,14,14,15,15,16,16,17,17,18,18,19,19,20,20,21,21,22,22,23,23,24,24,25,25,26,26,27,27,28,28,29,29,30,30,31,31,32,32,33,33,34,34,35,35,36,36,37,37,38,38,39,39,40,40,41,41,42,42,43,43,44,44,45,45,46,46,47,47,48,48,49,49,51,51,52,52,53,53,54,54,55,55,56,56,58,58,59,59,60,60,61,61,62,62],"right_children":[2,4,6,8,10,12,14,16,18,20,22,24,26,28,30,32,34,36,38,40,42,44,46,48,50,52,54,56,58,60,62,64,66,68,70,72,74,76,78,80,82,84,86,88,90,92,94,96,98,100,-1,102,104,106,108,110,112,-1,114,116,118,120,122,-1,-1,-1,-1,-1,-1,-1,-1,-1,-1,-1,-1,-1,-1,-1,-1,-1,-1,-1,-1,-1,-1,-1,-1,-1,-1,-1,-1,-1,-1,-1,-1,-1,-1,-1,-1,-1,-1,-1,-1,-1,-1,-1,-1,-1,-1,-1,-1,-1,-1,-1,-1,-1,-1,-1,-1,-1,-1,-1,-1],"split_conditions":[1.3560498E2,6.42282E1,2.6704037E2,3.7606113E1,9.2132965E1,1.8694969E2,3.3980698E2,2.8978537E1,5.08807E1,8.17862E1,1.0894043E2,1E0,-4.3388373E-1,0E0,4.294631E2,1.5596011E1,1E0,4.831581E1,1E0,7.868893E1,3.26E2,-4.3388373E-1,1E0,1.6583557E2,3.655E2,8.440768E1,1.1602E2,2.2910902E2,1.22811806E2,6.234898E-1,2.8169995E2,1E0,1.01269E2,1.8101715E1,1.0188053E2,0E0,-4.3388373E-1,5.131905E1,7.9595E1,-7.818315E-1,-7.818315E-1,8.214687E1,1E0,4.7288204E1,1.19639E2,1.1298627E2,2.2052585E2,4.0817604E1,-4.3388373E-1,7.4302E1,5.9441996E0,-5E-1,2.0765483E2,1.9496259E2,3.71E2,5.9E0,3.000218E2,2.762366E0,3.2219843E2,-7.818315E-1,-4.3388373E-1,-3.4775E0,-2.89E0,-1.865098E0,-1.5572565E0,-1.4013126E0,1.0950948E0,-1.6211128E0,-1.1696124E0,-8.498923E-1,4.6754766E0,-1.0240453E0,-8.225247E-1,-8.568732E-1,-5.58729E-1,-7.593387E-1,-4.7533995E-1,-2.2622955E-1,2.1583712E0,-5.467979E-1,-1.7334372E-1,-2.6633784E-1,1.9688003E-1,9.6840076E-2,4.0673018E-1,8.421259E-1,3.2564023E0,-3.2088158E-1,4.313262E-1,7.481091E-1,1.9490461E0,7.9158455E-1,1.2282102E0,1.7891273E0,3.8014553E0,-1.1081308E-1,1.8168553E0,1.9011158E0,2.7088532E0,1.8791361E0,3.3932035E0,-2.4781501E-1,2.1370933E0,2.5225556E0,3.3147657E0,3.1686552E0,3.9655018E0,4.3790226E0,5.723368E0,1.1614121E0,3.5394619E0,4.714548E0,5.7630873E0,6.3792486E0,8.108586E0,5.7113686E0,7.567226E0,6.8268647E0,9.953002E0,8.377141E0,4.330603E0,1.1957351E1,8.65496E0],"split_indices":[14,14,14,14,14,14,14,17,16,17,22,11,10,10,14,14,11,14,11,14,2,10,11,14,2,17,1,15,16,11,17,11,1,14,22,10,10,14,1,10,10,14,11,17,1,14,16,17,10,1,0,12,14,22,2,4,14,0,22,10,10,9,9,0,0,0,0,0,0,0,0,0,0,0,0,0,0,0,0,0,0,0,0,0,0,0,0,0,0,0,0,0,0,0,0,0,0,0,0,0,0,0,0,0,0,0,0,0,0,0,0,0,0,0,0,0,0,0,0,0,0,0,0],"split_type":[0,0,0,0,0,0,0,0,0,0,0,0,0,0,0,0,0,0,0,0,0,0,0,0,0,0,0,0,0,0,0,0,0,0,0,0,0,0,0,0,0,0,0,0,0,0,0,0,0,0,0,0,0,0,0,0,0,0,0,0,0,0,0,0,0,0,0,0,0,0,0,0,0,0,0,0,0,0,0,0,0,0,0,0,0,0,0,0,0,0,0,0,0,0,0,0,0,0,0,0,0,0,0,0,0,0,0,0,0,0,0,0,0,0,0,0,0,0,0,0,0,0,0],"sum_hessian":[3.8752E4,3.4248E4,4.504E3,2.2875E4,1.1373E4,3.465E3,1.039E3,9.552E3,1.3323E4,7.14E3,4.233E3,1.988E3,1.477E3,5.98E2,4.41E2,3.918E3,5.634E3,7.593E3,5.73E3,4.83E3,2.31E3,2.603E3,1.63E3,1.74E3,2.48E2,3.88E2,1.089E3,2.73E2,3.25E2,3.02E2,1.39E2,1.267E3,2.651E3,3.979E3,1.655E3,4.954E3,2.639E3,4.583E3,1.147E3,3.341E3,1.489E3,2.244E3,6.6E1,6.1E2,1.993E3,1.295E3,3.35E2,1.071E3,6.69E2,2.33E2,1.5E1,2.9E1,3.59E2,7.15E2,3.74E2,1.8E1,2.55E2,9E0,3.16E2,2.13E2,8.9E1,2.9E1,1.1E2,9.85E2,2.82E2,2.646E3,5E0,5.1E2,3.469E3,1.65E3,5E0,2.328E3,2.626E3,1.16E3,1.479E3,1.476E3,3.107E3,1.108E3,3.9E1,6.13E2,2.728E3,3.08E2,1.181E3,1.176E3,1.068E3,4.1E1,2.5E1,8.4E1,5.26E2,1.93E3,6.3E1,4.29E2,8.66E2,3.06E2,2.9E1,2.1E1,1.05E3,2.14E2,4.55E2,4.3E1,1.9E2,1E1,1.9E1,1.39E2,2.2E2,3.56E2,3.59E2,2.92E2,8.2E1,5E0,1.3E1,1.25E2,1.3E2,2.65E2,5.1E1,4.7E1,1.66E2,1.8E1,7.1E1,2.4E1,5E0,8.9E1,2.1E1],"tree_param":{"num_deleted":"0","num_feature":"28","num_nodes":"123","size_leaf_vector":"1"}},{"base_weights":[6.0085724E-3,-8.816014E0,8.1882286E1,-1.6607224E1,1.0782477E1,6.1928177E1,1.4547527E2,-2.2710707E1,-1.0712212E1,3.0575688E0,2.1807585E1,5.386869E1,8.4967896E1,1.3157144E2,2.0926932E2,-2.823581E1,-1.9816452E1,-1.3814514E1,-6.992837E0,1.8296353E0,1.4369645E1,1.7242903E1,3.0808237E1,4.5450203E1,6.219707E1,7.145247E1,9.4051056E1,1.1486113E2,1.4518456E2,1.6050275E2,2.2076688E2,-3.4343346E1,-2.6174873E1,-2.3776009E1,-1.6750513E1,-1.5026292E1,-5.646183E0,-8.129582E0,3.3590188E0,-1.4047182E0,4.986967E0,6.221591E0,2.6635473E1,1.5377657E1,3.2169216E1,2.807588E1,4.781952E1,4.229085E1,6.736418E1,8.548827E0,6.15232E1,7.386691E1,3.371042E1,8.0678154E1,1.0516464E2,1.056711E2,1.2999037E2,1.4048651E2,1.0844809E1,4.6334186E0,8.586277E0,9.507743E0,1.1888822E1,-1.7268518E0,-1.1514108E-2,-1.5500282E0,-1.2132257E0,-1.3956616E0,-1.0741622E0,-9.5214605E-1,-4.7278738E-1,-8.983027E-1,-6.838674E-1,-4.6395478E-1,4.3878037E-1,-6.000112E-1,-3.171373E-1,-1.5839568E-1,5.197203E-1,-3.334137E-1,3.1042492E-2,1.4505329E-2,3.389702E-1,3.7813112E-1,-1.0045708E0,8.5447836E-1,2.3334353E0,4.7956696E-1,8.514187E-1,1.2744855E0,2.7557847E0,-9.4052E-1,1.4285196E0,2.178073E0,3.5875385E0,2.2649477E0,1.3709434E0,4.2311144E0,2.6127636E0,2.9357688E0,4.3533854E0,3.86686E0,2.6055195E0,3.342537E0,7.362615E-1,4.131258E0,1.1317898E0,4.8400426E0,5.864672E0,2.355786E0,5.3707356E0,3.7671227E0,6.656797E0,6.437942E0,7.7976656E0],"categories":[],"categories_nodes":[],"categories_segments":[],"categories_sizes":[],"default_left":[0,0,0,0,0,0,0,0,0,0,0,0,0,0,0,0,0,0,0,0,0,0,0,0,0,0,0,0,0,0,0,0,0,0,0,0,0,0,0,0,0,0,0,0,0,0,0,0,0,0,0,0,0,0,0,0,0,0,0,0,0,0,0,0,0,0,0,0,0,0,0,0,0,0,0,0,0,0,0,0,0,0,0,0,0,0,0,0,0,0,0,0,0,0,0,0,0,0,0,0,0,0,0,0,0,0,0,0,0,0,0,0,0,0,0],"id":13,"left_children":[1,3,5,7,9,11,13,15,17,19,21,23,25,27,29,31,33,35,37,39,41,43,45,47,49,51,53,55,57,59,61,63,65,67,69,71,73,75,77,79,81,83,85,87,89,91,93,95,97,-1,99,101,103,105,107,109,111,113,-1,-1,-1,-1,-1,-1,-1,-1,-1,-1,-1,-1,-1,-1,-1,-1,-1,-1,-1,-1,-1,-1,-1,-1,-1,-1,-1,-1,-1,-1,-1,-1,-1,-1,-1,-1,-1,-1,-1,-1,-1,-1,-1,-1,-1,-1,-1,-1,-1,-1,-1,-1,-1,-1,-1,-1,-1],"loss_changes":[2.7944182E7,5.332932E6,4.765996E6,8.988965E5,8.460744E5,5.27592E5,7.68942E5,1.95758E5,1.4660338E5,8.113414E4,1.676255E5,1.462215E5,8.42305E4,1.51633E5,5.3679E4,5.218825E4,9.7444E4,6.85175E4,6.8090625E4,5.3844645E4,5.6998188E4,7.5173E4,6.26075E4,7.0597E4,6.75985E4,2.5019375E4,5.689025E4,3.3096E4,1.05602E5,9.9439375E3,2.03505E4,6.999E3,2.835525E4,3.2737625E4,7.5837875E4,2.368325E4,4.7078082E4,3.596928E4,2.6345523E4,2.7778447E4,2.2458758E4,1.23245625E4,4.279772E4,2.2929688E4,4.4721656E4,2.8083125E4,1.6122156E4,4.03555E4,2.9983562E4,0E0,7.0973E4,1.732375E4,1.1590957E4,2.1173E4,1.26665E4,1.6875E4,1.109175E4,4.9182E4,0E0,0E0,0E0,0E0,0E0,0E0,0E0,0E0,0E0,0E0,0E0,0E0,0E0,0E0,0E0,0E0,0E0,0E0,0E0,0E0,0E0,0E0,0E0,0E0,0E0,0E0,0E0,0E0,0E0,0E0,0E0,0E0,0E0,0E0,0E0,0E0,0E0,0E0,0E0,0E0,0E0,0E0,0E0,0E0,0E0,0E0,0E0,0E0,0E0,0E0,0E0,0E0,0E0,0E0,0E0,0E0,0E0],"parents":[2147483647,0,0,1,1,2,2,3,3,4,4,5,5,6,6,7,7,8,8,9,9,10,10,11,11,12,12,13,13,14,14,15,15,16,16,17,17,18,18,19,19,20,20,21,21,22,22,23,23,24,24,25,25,26,26,27,27,28,28,29,29,30,30,31,31,32,32,33,33,34,34,35,35,36,36,37,37,38,38,39,39,40,40,41,41,42,42,43,43,44,44,45,45,46,46,47,47,48,48,50,50,51,51,52,52,53,53,54,54,55,55,56,56,57,57],"right_children":[2,4,6,8,10,12,14,16,18,20,22,24,26,28,30,32,34,36,38,40,42,44,46,48,50,52,54,56,58,60,62,64,66,68,70,72,74,76,78,80,82,84,86,88,90,92,94,96,98,-1,100,102,104,106,108,110,112,114,-1,-1,-1,-1,-1,-1,-1,-1,-1,-1,-1,-1,-1,-1,-1,-1,-1,-1,-1,-1,-1,-1,-1,-1,-1,-1,-1,-1,-1,-1,-1,-1,-1,-1,-1,-1,-1,-1,-1,-1,-1,-1,-1,-1,-1,-1,-1,-1,-1,-1,-1,-1,-1,-1,-1,-1,-1],"split_conditions":[1.53087E2,7.067279E1,2.8161597E2,4.2051872E1,9.7877E1,2.2052585E2,4.294631E2,2.9286076E1,5.514997E1,1.14779686E2,1.2491874E2,1.824135E2,0E0,0E0,2.8169995E2,1.1450718E1,0E0,1E0,1E0,8.214687E1,5.06E0,1E0,1E0,1E0,2E0,3.3940912E2,1.1602E2,3.3980698E2,4.1388428E2,3.175E2,9.857E1,9.577E1,-4.3388373E-1,3.226185E1,4.5840416E1,-4.3388373E-1,1.1545E2,-4.3388373E-1,1.139E2,-4.3388373E-1,-4.3388373E-1,2.8169995E2,1E0,7.832398E1,1.6572131E2,-2.08625E1,2.5E1,4.742669E1,-2.4492937E-16,8.548827E0,1E0,3.655E2,2.8597453E-1,5.85125E0,2.588053E2,1.4525E2,2.31E2,3.3980698E2,1.0844809E1,4.6334186E0,8.586277E0,9.507743E0,1.1888822E1,-1.7268518E0,-1.1514108E-2,-1.5500282E0,-1.2132257E0,-1.3956616E0,-1.0741622E0,-9.5214605E-1,-4.7278738E-1,-8.983027E-1,-6.838674E-1,-4.6395478E-1,4.3878037E-1,-6.000112E-1,-3.171373E-1,-1.5839568E-1,5.197203E-1,-3.334137E-1,3.1042492E-2,1.4505329E-2,3.389702E-1,3.7813112E-1,-1.0045708E0,8.5447836E-1,2.3334353E0,4.7956696E-1,8.514187E-1,1.2744855E0,2.7557847E0,-9.4052E-1,1.4285196E0,2.178073E0,3.5875385E0,2.2649477E0,1.3709434E0,4.2311144E0,2.6127636E0,2.9357688E0,4.3533854E0,3.86686E0,2.6055195E0,3.342537E0,7.362615E-1,4.131258E0,1.1317898E0,4.8400426E0,5.864672E0,2.355786E0,5.3707356E0,3.7671227E0,6.656797E0,6.437942E0,7.7976656E0],"split_indices":[14,14,14,14,14,14,14,22,14,17,14,14,10,10,17,14,10,11,11,14,4,11,11,11,4,15,1,14,22,2,6,7,10,14,22,10,2,10,2,10,10,17,11,17,17,9,4,23,12,0,11,2,19,8,22,2,2,14,0,0,0,0,0,0,0,0,0,0,0,0,0,0,0,0,0,0,0,0,0,0,0,0,0,0,0,0,0,0,0,0,0,0,0,0,0,0,0,0,0,0,0,0,0,0,0,0,0,0,0,0,0,0,0,0,0],"split_type":[0,0,0,0,0,0,0,0,0,0,0,0,0,0,0,0,0,0,0,0,0,0,0,0,0,0,0,0,0,0,0,0,0,0,0,0,0,0,0,0,0,0,0,0,0,0,0,0,0,0,0,0,0,0,0,0,0,0,0,0,0,0,0,0,0,0,0,0,0,0,0,0,0,0,0,0,0,0,0,0,0,0,0,0,0,0,0,0,0,0,0,0,0,0,0,0,0,0,0,0,0,0,0,0,0,0,0,0,0,0,0,0,0,0,0],"sum_hessian":[3.8685E4,3.4923E4,3.762E3,2.4989E4,9.934E3,2.865E3,8.97E2,1.2276E4,1.2713E4,5.842E3,4.092E3,2.125E3,7.4E2,7.39E2,1.58E2,4.217E3,8.059E3,6.93E3,5.783E3,5.271E3,5.71E2,2.717E3,1.375E3,1.06E3,1.065E3,3.01E2,4.39E2,3.36E2,4.03E2,3.3E1,1.25E2,1.06E3,3.157E3,3.514E3,4.545E3,6.034E3,8.96E2,5.211E3,5.72E2,2.604E3,2.667E3,3.44E2,2.27E2,2.417E3,3E2,1.187E3,1.88E2,9.29E2,1.31E2,5E0,1.06E3,2.82E2,1.9E1,2.03E2,2.36E2,2.14E2,1.22E2,3.81E2,2.2E1,6E0,2.7E1,4.9E1,7.6E1,1.054E3,6E0,8.91E2,2.266E3,1.249E3,2.265E3,3.457E3,1.088E3,1.894E3,4.14E3,7.16E2,1.8E2,1.644E3,3.567E3,2.97E2,2.75E2,7.23E2,1.881E3,7.37E2,1.93E3,3.28E2,1.6E1,1.55E2,7.2E1,5.38E2,1.879E3,2.34E2,6.6E1,1.2E1,1.175E3,1.62E2,2.6E1,7.71E2,1.58E2,5.9E1,7.2E1,9.58E2,1.02E2,2.41E2,4.1E1,6E0,1.3E1,1.96E2,7E0,1.45E2,9.1E1,7E0,2.07E2,8E0,1.14E2,2.22E2,1.59E2],"tree_param":{"num_deleted":"0","num_feature":"28","num_nodes":"115","size_leaf_vector":"1"}},{"base_weights":[6.0436733E-2,-8.331851E0,7.732974E1,-1.5405734E1,1.13296995E1,5.8579918E1,1.346618E2,-2.0532421E1,-8.552556E0,4.124103E0,2.1696266E1,4.8468407E1,7.575319E1,1.2268575E2,1.9398174E2,-2.6119057E1,-1.751932E1,-1.0965675E1,-4.394151E0,2.7485468E0,1.5796989E1,1.7301928E1,2.932448E1,4.5336647E1,7.1359276E1,5.9380993E1,8.201345E1,1.05499756E2,1.3631714E2,1.1013558E2,1.9962112E2,-2.8564415E1,-1.934201E1,-1.8516584E1,-7.6256866E0,-1.4194932E1,-9.2002325E0,-6.096432E0,2.6813426E0,3.9926997E-1,7.138456E0,7.761476E0,2.7608559E1,1.5726793E1,2.9956219E1,2.649693E1,4.6710888E1,3.5373344E1,4.9676414E1,6.2351658E1,1.0309482E2,1.9676653E1,6.2032997E1,6.796012E1,9.181792E1,6.639241E1,1.08969124E2,1.2709179E2,1.7291238E2,6.499267E0,3.4302464E0,1.6823668E2,2.0779144E2,-1.693034E0,-1.3345063E0,-9.98621E-1,3.8958757E0,-1.0852841E0,-8.489279E-1,-6.545346E-1,1.11419104E-1,-8.0355847E-1,-5.9277123E-1,-5.5633396E-1,-2.632102E-1,-4.6896228E-1,-1.846305E-1,5.942277E-2,1.6373179E0,-2.4527123E-2,5.232703E-1,1.1385065E-1,4.5393363E-1,4.4758883E-1,-1.2904309E0,9.17437E-1,2.2827122E0,4.4565675E-1,8.536135E-1,1.3398118E0,4.4571147E0,9.4339734E-1,1.4533608E0,1.4127202E0,2.5767238E0,1.5673875E0,2.4485648E0,2.127898E0,2.7267475E0,7.627191E-1,3.2444527E0,3.6553102E0,6.2678504E0,-9.028109E-1,2.317246E0,3.1649654E0,1.0941318E0,-3.2864287E-2,3.4869535E0,4.0028353E0,5.040053E0,3.5752819E0,1.657651E0,4.8042207E0,5.951089E0,5.719389E0,7.1742907E0,9.674216E0,6.3610663E0,6.784607E0,9.919816E0,9.219642E0,1.1391783E1],"categories":[],"categories_nodes":[],"categories_segments":[],"categories_sizes":[],"default_left":[0,0,0,0,0,0,0,0,0,0,0,0,0,0,0,0,0,0,0,0,0,0,0,0,0,0,0,0,0,0,0,0,0,0,0,0,0,0,0,0,0,0,0,0,0,0,0,0,0,0,0,0,0,0,0,0,0,0,0,0,0,0,0,0,0,0,0,0,0,0,0,0,0,0,0,0,0,0,0,0,0,0,0,0,0,0,0,0,0,0,0,0,0,0,0,0,0,0,0,0,0,0,0,0,0,0,0,0,0,0,0,0,0,0,0,0,0,0,0,0,0,0,0],"id":14,"left_children":[1,3,5,7,9,11,13,15,17,19,21,23,25,27,29,31,33,35,37,39,41,43,45,47,49,51,53,55,57,59,61,63,65,67,69,71,73,75,77,79,81,83,85,87,89,91,93,95,97,99,101,103,105,107,109,111,113,115,117,-1,-1,119,121,-1,-1,-1,-1,-1,-1,-1,-1,-1,-1,-1,-1,-1,-1,-1,-1,-1,-1,-1,-1,-1,-1,-1,-1,-1,-1,-1,-1,-1,-1,-1,-1,-1,-1,-1,-1,-1,-1,-1,-1,-1,-1,-1,-1,-1,-1,-1,-1,-1,-1,-1,-1,-1,-1,-1,-1,-1,-1,-1,-1],"loss_changes":[2.5079434E7,4.852242E6,4.06514E6,9.01222E5,6.8943875E5,4.92428E5,6.3899E5,2.465805E5,1.10141625E5,8.741563E4,1.26364625E5,1.258645E5,1.034525E5,1.6809E5,5.1274E4,8.462425E4,9.395375E4,3.9478062E4,4.860411E4,5.02625E4,5.4261688E4,4.7441312E4,6.66955E4,6.68535E4,5.5015625E4,2.9938875E4,9.87365E4,4.0099E4,1.23501E5,9.549844E2,1.929E3,3.656375E4,8.5304125E4,4.2119E4,4.7151227E4,1.0578406E4,3.4023344E4,2.5626562E4,3.510161E4,2.8453475E4,1.6003586E4,1.3935107E4,3.7923047E4,1.9464E4,4.7161844E4,2.2800688E4,1.5629031E4,2.5005625E4,3.5817E4,1.9317875E4,2.1525938E4,2.0965047E4,1.2689625E4,3.8748E4,3.90335E4,2.8876719E3,2.9861E4,5.60395E4,5.430875E4,0E0,0E0,7.399375E3,9.5385E3,0E0,0E0,0E0,0E0,0E0,0E0,0E0,0E0,0E0,0E0,0E0,0E0,0E0,0E0,0E0,0E0,0E0,0E0,0E0,0E0,0E0,0E0,0E0,0E0,0E0,0E0,0E0,0E0,0E0,0E0,0E0,0E0,0E0,0E0,0E0,0E0,0E0,0E0,0E0,0E0,0E0,0E0,0E0,0E0,0E0,0E0,0E0,0E0,0E0,0E0,0E0,0E0,0E0,0E0,0E0,0E0,0E0,0E0,0E0,0E0],"parents":[2147483647,0,0,1,1,2,2,3,3,4,4,5,5,6,6,7,7,8,8,9,9,10,10,11,11,12,12,13,13,14,14,15,15,16,16,17,17,18,18,19,19,20,20,21,21,22,22,23,23,24,24,25,25,26,26,27,27,28,28,29,29,30,30,31,31,32,32,33,33,34,34,35,35,36,36,37,37,38,38,39,39,40,40,41,41,42,42,43,43,44,44,45,45,46,46,47,47,48,48,49,49,50,50,51,51,52,52,53,53,54,54,55,55,56,56,57,57,58,58,61,61,62,62],"right_children":[2,4,6,8,10,12,14,16,18,20,22,24,26,28,30,32,34,36,38,40,42,44,46,48,50,52,54,56,58,60,62,64,66,68,70,72,74,76,78,80,82,84,86,88,90,92,94,96,98,100,102,104,106,108,110,112,114,116,118,-1,-1,120,122,-1,-1,-1,-1,-1,-1,-1,-1,-1,-1,-1,-1,-1,-1,-1,-1,-1,-1,-1,-1,-1,-1,-1,-1,-1,-1,-1,-1,-1,-1,-1,-1,-1,-1,-1,-1,-1,-1,-1,-1,-1,-1,-1,-1,-1,-1,-1,-1,-1,-1,-1,-1,-1,-1,-1,-1,-1,-1,-1,-1],"split_conditions":[1.53087E2,7.339098E1,2.8161597E2,4.61116E1,9.987995E1,2.0765483E2,4.294631E2,2.8182535E1,6.077342E1,1.14779686E2,1.2491874E2,1E0,-4.3388373E-1,0E0,3.2219843E2,1E0,6.217974E1,-4.3388373E-1,1E0,8.84059E1,5.06E0,1E0,1E0,-4.3388373E-1,1.36913E2,8.440768E1,1.08191E2,1.32579E2,2.14665E2,-1.511625E1,2.9996405E2,1.1450718E1,3E2,-4.3388373E-1,1E0,5.6870644E1,5.7968517E1,6.171363E1,8.7606E1,1E0,-4.3388373E-1,3.3980698E2,1E0,7.358753E1,2.2894327E2,9.9667305E1,2.9874192E3,2.36E1,1.7428128E2,-2.08625E1,2.6704037E2,-5E-1,3.85E2,4.432E1,2.4090178E2,7.790562E-1,3.191771E2,1.7792506E4,-2.9E0,