{"learner":{"attributes":{"best_iteration":"54","best_score":"26.6801444897386","scikit_learn":"{\"_estimator_type\": \"regressor\"}"},"feature_names":["Residual_Load","TTF_Gas_Price","Coal_Price","EU_ETS_Price","EU_Gas_Storage_Anomaly","Physical_Cluster"],"feature_types":["float","float","float","float","float","int"],"gradient_booster":{"model":{"cats":{"enc":[],"feature_segments":[],"sorted_idx":[]},"gbtree_model_param":{"num_parallel_tree":"1","num_trees":"105"},"iteration_indptr":[0,1,2,3,4,5,6,7,8,9,10,11,12,13,14,15,16,17,18,19,20,21,22,23,24,25,26,27,28,29,30,31,32,33,34,35,36,37,38,39,40,41,42,43,44,45,46,47,48,49,50,51,52,53,54,55,56,57,58,59,60,61,62,63,64,65,66,67,68,69,70,71,72,73,74,75,76,77,78,79,80,81,82,83,84,85,86,87,88,89,90,91,92,93,94,95,96,97,98,99,100,101,102,103,104,105],"tree_info":[0,0,0,0,0,0,0,0,0,0,0,0,0,0,0,0,0,0,0,0,0,0,0,0,0,0,0,0,0,0,0,0,0,0,0,0,0,0,0,0,0,0,0,0,0,0,0,0,0,0,0,0,0,0,0,0,0,0,0,0,0,0,0,0,0,0,0,0,0,0,0,0,0,0,0,0,0,0,0,0,0,0,0,0,0,0,0,0,0,0,0,0,0,0,0,0,0,0,0,0,0,0,0,0,0],"trees":[{"base_weights":[-2.6322434E-2,-1.4847504E1,2.9217789E1,-1.2700431E1,-2.5443048E1,2.3977325E1,5.8148045E1,-2.0968712E1,-1.1937137E1,-2.6961884E1,-2.2652376E1,5.2494854E1,2.121534E1,8.111811E1,4.83941E1,-2.4320295E1,-1.7858482E1,-1.2666591E1,-9.012464E0,-1.0903783E0,-2.6603748E1,-2.1334059E1,-2.683332E1,2.8706102E0,4.9635178E1,2.4309664E1,8.988514E0,4.252098E0,7.728172E1,5.13497E1,4.3138527E1,-6.964945E-1,-7.958214E-1,-5.9116894E-1,-2.9064158E-1,-3.6746442E-1,-5.7723755E-1,-3.1839433E-1,-1.0670758E-1,-7.7141124E-1,-8.3771414E-1,-6.2238175E-1,-1.0556313E0,-8.2645816E-1,-4.2984617E-1,1.0273076E0,1.6092277E0,4.4886285E-1,8.4386903E-1,2.1796641E-1,5.375609E-1,1.9384531E0,2.535465E0,1.459078E0,1.8358691E0,1.6648254E0,1.0703677E0],"categories":[],"categories_nodes":[],"categories_segments":[],"categories_sizes":[],"default_left":[0,0,0,0,0,0,0,0,0,0,0,0,0,0,0,0,0,0,0,0,0,0,0,0,0,0,0,0,0,0,0,0,0,0,0,0,0,0,0,0,0,0,0,0,0,0,0,0,0,0,0,0,0,0,0,0,0],"id":0,"left_children":[1,3,5,7,9,11,13,15,17,19,21,23,25,27,29,31,33,35,37,-1,39,41,43,-1,45,47,49,-1,51,53,55,-1,-1,-1,-1,-1,-1,-1,-1,-1,-1,-1,-1,-1,-1,-1,-1,-1,-1,-1,-1,-1,-1,-1,-1,-1,-1],"loss_changes":[1.5298858E7,5.32578E5,1.798488E6,1.2268725E5,1.61095E4,7.907035E5,4.0383E5,1.670925E4,3.793525E4,7.59675E3,7.1228125E3,1.047945E5,3.4660025E5,1.1483725E5,1.7658E4,1.3013125E3,1.274E4,3.896525E4,3.1083781E4,0E0,2.166875E3,7.9560938E3,2.5618125E3,0E0,4.95745E4,2.60729E5,2.8378297E4,0E0,4.134575E4,1.876275E4,4.1053562E4,0E0,0E0,0E0,0E0,0E0,0E0,0E0,0E0,0E0,0E0,0E0,0E0,0E0,0E0,0E0,0E0,0E0,0E0,0E0,0E0,0E0,0E0,0E0,0E0,0E0,0E0],"parents":[2147483647,0,0,1,1,2,2,3,3,4,4,5,5,6,6,7,7,8,8,9,9,10,10,11,11,12,12,13,13,14,14,15,15,16,16,17,17,18,18,20,20,21,21,22,22,24,24,25,25,26,26,28,28,29,29,30,30],"right_children":[2,4,6,8,10,12,14,16,18,20,22,24,26,28,30,32,34,36,38,-1,40,42,44,-1,46,48,50,-1,52,54,56,-1,-1,-1,-1,-1,-1,-1,-1,-1,-1,-1,-1,-1,-1,-1,-1,-1,-1,-1,-1,-1,-1,-1,-1,-1,-1],"split_conditions":[1.0385E2,1.371375E1,3.1E2,3.75E-1,4.875E1,-1.8095E1,7.43E0,3.35E-1,8.825E1,1.42575E1,5.28E1,2.02E1,2E0,6.75E0,8.75E0,9.55E1,8.565E1,9.78125E0,6.9E-1,-1.0903783E0,4.645E1,1.5875E1,3.85E0,2.8706102E0,-1.977125E1,3.125E0,-1.677E1,4.252098E0,-7.41875E0,8.1E0,-1.4045E1,-6.964945E-1,-7.958214E-1,-5.9116894E-1,-2.9064158E-1,-3.6746442E-1,-5.7723755E-1,-3.1839433E-1,-1.0670758E-1,-7.7141124E-1,-8.3771414E-1,-6.2238175E-1,-1.0556313E0,-8.2645816E-1,-4.2984617E-1,1.0273076E0,1.6092277E0,4.4886285E-1,8.4386903E-1,2.1796641E-1,5.375609E-1,1.9384531E0,2.535465E0,1.459078E0,1.8358691E0,1.6648254E0,1.0703677E0],"split_indices":[2,4,2,3,2,4,3,3,2,4,2,3,5,3,3,2,2,4,3,0,2,4,3,0,4,3,4,0,4,3,4,0,0,0,0,0,0,0,0,0,0,0,0,0,0,0,0,0,0,0,0,0,0,0,0,0,0],"split_type":[0,0,0,0,0,0,0,0,0,0,0,0,0,0,0,0,0,0,0,0,0,0,0,0,0,0,0,0,0,0,0,0,0,0,0,0,0,0,0,0,0,0,0,0,0,0,0,0,0,0,0,0,0,0,0,0,0],"sum_hessian":[3.5295E4,2.3424E4,1.1871E4,1.9479E4,3.945E3,1.0052E4,1.819E3,1.644E3,1.7835E4,2.549E3,1.396E3,8.86E2,9.166E3,5.4E2,1.279E3,7.88E2,8.56E2,1.4272E4,3.563E3,9E1,2.459E3,1.066E3,3.3E2,5.3E1,8.33E2,7.314E3,1.852E3,3E1,5.1E2,8.13E2,4.66E2,5.33E2,2.55E2,6.97E2,1.59E2,1.3422E4,8.5E2,2.754E3,8.09E2,1.481E3,9.78E2,1.025E3,4.1E1,3.11E2,1.9E1,1.74E2,6.59E2,2.123E3,5.191E3,1.554E3,2.98E2,1.89E2,3.21E2,6.42E2,1.71E2,1.73E2,2.93E2],"tree_param":{"num_deleted":"0","num_feature":"6","num_nodes":"57","size_leaf_vector":"1"}},{"base_weights":[-2.6087653E-2,-1.4443214E1,2.874117E1,-2.0088718E1,-4.7580657E0,1.4408172E1,4.5923164E1,-1.818386E1,-2.7396997E1,-9.090806E0,-1.162373E0,-4.9483333E0,1.9677464E1,3.0838148E1,6.3754494E1,-2.1847767E1,-1.5165868E1,-3.1633148E1,-2.3950176E1,-1.088779E1,-2.8921916E0,-3.470038E0,5.296988E0,-2.4554531E1,1.5226033E0,1.5302442E1,4.303176E1,1.5003946E1,4.0967464E1,5.681482E1,1.05547165E2,-6.9884235E-1,-4.827564E-1,-4.8560312E-1,-1.953386E-1,-8.2172674E-1,-1.0668945E0,-6.3990676E-1,-7.867007E-1,-2.8082827E-1,-4.9522877E-1,-1.2411275E-1,1.6282904E-1,-7.196565E-2,-3.6198568E-1,9.541561E-2,4.8461226E-1,-1.1618173E0,-5.0261533E-1,-3.476942E-1,1.2786664E-1,3.2040814E-1,6.0634923E-1,8.633015E-1,1.6267349E0,3.9754173E-1,6.865556E-1,1.065494E0,1.5643775E0,1.3971909E0,2.3988202E0,2.65129E0,4.083866E0],"categories":[],"categories_nodes":[],"categories_segments":[],"categories_sizes":[],"default_left":[0,0,0,0,0,0,0,0,0,0,0,0,0,0,0,0,0,0,0,0,0,0,0,0,0,0,0,0,0,0,0,0,0,0,0,0,0,0,0,0,0,0,0,0,0,0,0,0,0,0,0,0,0,0,0,0,0,0,0,0,0,0,0],"id":1,"left_children":[1,3,5,7,9,11,13,15,17,19,21,23,25,27,29,31,33,35,37,39,41,43,45,47,49,51,53,55,57,59,61,-1,-1,-1,-1,-1,-1,-1,-1,-1,-1,-1,-1,-1,-1,-1,-1,-1,-1,-1,-1,-1,-1,-1,-1,-1,-1,-1,-1,-1,-1,-1,-1],"loss_changes":[1.4705065E7,1.291331E6,2.914423E6,2.072165E5,1.3551186E5,6.584769E5,1.445976E6,1.30576E5,4.425225E4,4.390975E4,7.089642E4,1.7537466E5,5.1777425E5,4.673965E5,7.09195E5,4.413775E4,5.7279E4,2.2027125E4,9.5843125E3,2.6082469E4,9.219653E3,3.2234617E4,2.8715105E4,3.726664E4,3.740858E4,9.678575E4,1.26073625E5,1.5439156E4,1.065405E5,4.981085E5,1.7173675E5,0E0,0E0,0E0,0E0,0E0,0E0,0E0,0E0,0E0,0E0,0E0,0E0,0E0,0E0,0E0,0E0,0E0,0E0,0E0,0E0,0E0,0E0,0E0,0E0,0E0,0E0,0E0,0E0,0E0,0E0,0E0,0E0],"parents":[2147483647,0,0,1,1,2,2,3,3,4,4,5,5,6,6,7,7,8,8,9,9,10,10,11,11,12,12,13,13,14,14,15,15,16,16,17,17,18,18,19,19,20,20,21,21,22,22,23,23,24,24,25,25,26,26,27,27,28,28,29,29,30,30],"right_children":[2,4,6,8,10,12,14,16,18,20,22,24,26,28,30,32,34,36,38,40,42,44,46,48,50,52,54,56,58,60,62,-1,-1,-1,-1,-1,-1,-1,-1,-1,-1,-1,-1,-1,-1,-1,-1,-1,-1,-1,-1,-1,-1,-1,-1,-1,-1,-1,-1,-1,-1,-1,-1],"split_conditions":[1.0385E2,1.87445E4,1.60495E4,1.371375E1,2.04655E4,1.14397E4,7.4353E1,1.50535E4,1.45745E4,2.042E1,2.042E1,9.0272E3,3.1E2,-1.547875E1,-9.94625E0,2.2905E1,2.4681E1,6.62E0,6.62E0,1.098E1,2.493E1,1.109625E1,2.36549E4,7.6388E3,-1.343625E1,9.96625E0,-9.94625E0,4.7806E1,1.90744E4,2.01474E4,1.86995E4,-6.9884235E-1,-4.827564E-1,-4.8560312E-1,-1.953386E-1,-8.2172674E-1,-1.0668945E0,-6.3990676E-1,-7.867007E-1,-2.8082827E-1,-4.9522877E-1,-1.2411275E-1,1.6282904E-1,-7.196565E-2,-3.6198568E-1,9.541561E-2,4.8461226E-1,-1.1618173E0,-5.0261533E-1,-3.476942E-1,1.2786664E-1,3.2040814E-1,6.0634923E-1,8.633015E-1,1.6267349E0,3.9754173E-1,6.865556E-1,1.065494E0,1.5643775E0,1.3971909E0,2.3988202E0,2.65129E0,4.083866E0],"split_indices":[2,0,0,4,0,0,1,0,0,1,1,0,2,4,4,1,1,1,1,4,1,4,0,0,4,4,4,1,0,0,0,0,0,0,0,0,0,0,0,0,0,0,0,0,0,0,0,0,0,0,0,0,0,0,0,0,0,0,0,0,0,0,0],"split_type":[0,0,0,0,0,0,0,0,0,0,0,0,0,0,0,0,0,0,0,0,0,0,0,0,0,0,0,0,0,0,0,0,0,0,0,0,0,0,0,0,0,0,0,0,0,0,0,0,0,0,0,0,0,0,0,0,0,0,0,0,0,0,0],"sum_hessian":[3.5454E4,2.3618E4,1.1836E4,1.492E4,8.698E3,6.454E3,5.382E3,1.1838E4,3.082E3,3.944E3,4.754E3,1.381E3,5.073E3,2.917E3,2.465E3,5.344E3,6.494E3,1.379E3,1.703E3,3.057E3,8.87E2,3.503E3,1.251E3,3.42E2,1.039E3,4.274E3,7.99E2,1.139E3,1.778E3,2.116E3,3.49E2,4.268E3,1.076E3,5.808E3,6.86E2,6.67E2,7.12E2,7.96E2,9.07E2,2.406E3,6.51E2,7.72E2,1.15E2,3.116E3,3.87E2,1.048E3,2.03E2,1.2E2,2.22E2,1.79E2,8.6E2,2.203E3,2.071E3,3.53E2,4.46E2,9.34E2,2.05E2,1.198E3,5.8E2,1.469E3,6.47E2,2.26E2,1.23E2],"tree_param":{"num_deleted":"0","num_feature":"6","num_nodes":"63","size_leaf_vector":"1"}},{"base_weights":[4.6815142E-2,-1.2814779E1,2.9246887E1,-1.7862274E1,-4.3467298E0,1.5188173E1,4.6273556E1,-2.0530897E1,-1.9978424E0,-6.902755E0,2.9564495E0,-3.611264E0,1.99216E1,3.1043972E1,6.2547382E1,-2.5692247E1,-1.801466E1,-1.0340913E1,1.5555643E1,-1.0828921E1,-3.2930067E0,2.1012895E0,5.0446857E1,-2.421986E1,2.1921341E0,1.8237762E1,5.64488E1,1.582427E1,4.0326668E1,5.646512E1,9.943732E1,-7.066232E-1,-9.37046E-1,-4.9734437E-1,-7.126848E-1,-4.5507666E-1,-1.4713638E-1,-5.960128E-1,6.2481356E-1,-2.7611375E-1,-4.877028E-1,-6.66166E-2,-3.5181144E-1,-1.6055282E-3,3.495886E-1,6.9900185E-1,1.5580522E0,-1.097029E0,-4.9486014E-1,1.6034332E-1,-3.2971594E-1,6.965656E-1,3.277736E-1,4.9446476E-1,2.0121133E0,4.5473623E-1,1.0785519E0,1.0962179E0,1.7402588E0,1.3801663E0,2.3330972E0,2.4969847E0,3.7421632E0],"categories":[],"categories_nodes":[],"categories_segments":[],"categories_sizes":[],"default_left":[0,0,0,0,0,0,0,0,0,0,0,0,0,0,0,0,0,0,0,0,0,0,0,0,0,0,0,0,0,0,0,0,0,0,0,0,0,0,0,0,0,0,0,0,0,0,0,0,0,0,0,0,0,0,0,0,0,0,0,0,0,0,0],"id":2,"left_children":[1,3,5,7,9,11,13,15,17,19,21,23,25,27,29,31,33,35,37,39,41,43,45,47,49,51,53,55,57,59,61,-1,-1,-1,-1,-1,-1,-1,-1,-1,-1,-1,-1,-1,-1,-1,-1,-1,-1,-1,-1,-1,-1,-1,-1,-1,-1,-1,-1,-1,-1,-1,-1],"loss_changes":[1.3275653E7,1.0488195E6,2.586674E6,6.50876E5,1.7112356E5,5.2704725E5,1.209509E6,1.70457E5,3.24547E5,9.619397E4,9.642321E4,1.4261838E5,2.8994712E5,3.563705E5,5.24341E5,5.0348E4,7.2603E4,3.9348797E4,1.3373917E5,2.8533531E4,3.1983223E4,4.8081324E4,4.7920312E2,2.4381234E4,3.8750766E4,1.6451438E5,8.718456E4,1.2312875E4,1.0290775E5,4.487735E5,1.26126E5,0E0,0E0,0E0,0E0,0E0,0E0,0E0,0E0,0E0,0E0,0E0,0E0,0E0,0E0,0E0,0E0,0E0,0E0,0E0,0E0,0E0,0E0,0E0,0E0,0E0,0E0,0E0,0E0,0E0,0E0,0E0,0E0],"parents":[2147483647,0,0,1,1,2,2,3,3,4,4,5,5,6,6,7,7,8,8,9,9,10,10,11,11,12,12,13,13,14,14,15,15,16,16,17,17,18,18,19,19,20,20,21,21,22,22,23,23,24,24,25,25,26,26,27,27,28,28,29,29,30,30],"right_children":[2,4,6,8,10,12,14,16,18,20,22,24,26,28,30,32,34,36,38,40,42,44,46,48,50,52,54,56,58,60,62,-1,-1,-1,-1,-1,-1,-1,-1,-1,-1,-1,-1,-1,-1,-1,-1,-1,-1,-1,-1,-1,-1,-1,-1,-1,-1,-1,-1,-1,-1,-1,-1],"split_conditions":[3.0557E1,1.86067E4,1.62569E4,2.45E1,2.042E1,1.15444E4,7.4353E1,1.41488E4,1.109625E1,2.04655E4,-1.625E0,9.0272E3,1.17738E2,-1.547875E1,-9.94625E0,1.391125E1,1.3555E1,1.78E0,9.7624E3,1.098E1,1.109625E1,2.22674E4,2.4865E1,7.6388E3,1.02E1,1.02E1,-1.521E1,7.0123E1,2.062E4,2.01474E4,1.86067E4,-7.066232E-1,-9.37046E-1,-4.9734437E-1,-7.126848E-1,-4.5507666E-1,-1.4713638E-1,-5.960128E-1,6.2481356E-1,-2.7611375E-1,-4.877028E-1,-6.66166E-2,-3.5181144E-1,-1.6055282E-3,3.495886E-1,6.9900185E-1,1.5580522E0,-1.097029E0,-4.9486014E-1,1.6034332E-1,-3.2971594E-1,6.965656E-1,3.277736E-1,4.9446476E-1,2.0121133E0,4.5473623E-1,1.0785519E0,1.0962179E0,1.7402588E0,1.3801663E0,2.3330972E0,2.4969847E0,3.7421632E0],"split_indices":[1,0,0,1,1,0,1,0,4,0,4,0,1,4,4,4,4,3,0,4,4,0,1,0,3,3,4,1,0,0,0,0,0,0,0,0,0,0,0,0,0,0,0,0,0,0,0,0,0,0,0,0,0,0,0,0,0,0,0,0,0,0,0],"split_type":[0,0,0,0,0,0,0,0,0,0,0,0,0,0,0,0,0,0,0,0,0,0,0,0,0,0,0,0,0,0,0,0,0,0,0,0,0,0,0,0,0,0,0,0,0,0,0,0,0,0,0,0,0,0,0,0,0,0,0,0,0,0,0],"sum_hessian":[3.5347E4,2.4539E4,1.0808E4,1.5374E4,9.165E3,5.921E3,4.887E3,1.316E4,2.214E3,6.789E3,2.376E3,1.191E3,4.73E3,2.526E3,2.361E3,4.31E3,8.85E3,1.501E3,7.13E2,3.251E3,3.538E3,2.335E3,4.1E1,2.61E2,9.3E2,4.523E3,2.07E2,9.58E2,1.568E3,2.029E3,3.32E2,3.114E3,1.196E3,7.082E3,1.768E3,7.94E2,7.07E2,9.2E1,6.21E2,2.504E3,7.47E2,3.14E3,3.98E2,1.906E3,4.29E2,3E0,3.8E1,9.9E1,1.62E2,7.51E2,1.79E2,2.689E3,1.834E3,4.4E1,1.63E2,9.29E2,2.9E1,1.294E3,2.74E2,1.363E3,6.66E2,2.05E2,1.27E2],"tree_param":{"num_deleted":"0","num_feature":"6","num_nodes":"63","size_leaf_vector":"1"}},{"base_weights":[-5.3802703E-2,-1.3652889E1,2.6969534E1,-1.9086369E1,-4.824377E0,1.3759109E1,4.3856045E1,-1.7296211E1,-2.600042E1,-8.737808E0,-1.3183985E0,-8.5566025E0,1.8089682E1,2.9283484E1,6.0963127E1,-2.0564068E1,-1.430068E1,-2.9059864E1,-2.1773254E1,-1.0497099E1,-3.022278E0,-3.4644318E0,4.942765E0,-2.7776022E1,-2.6967587E0,1.4009246E1,3.964372E1,1.4321401E1,3.9344826E1,5.4807384E1,9.809937E1,-6.451876E-1,-3.9024866E-1,-4.563786E-1,-1.8553713E-1,-7.5712866E-1,-9.681519E-1,-5.77535E-1,-6.9970113E-1,-2.9184568E-1,-6.690271E-1,-1.2125597E-1,1.2763941E-1,-6.990727E-2,-3.4365883E-1,8.565864E-2,4.3490064E-1,-1.0391566E0,-6.017773E-1,-4.9976823E-1,-1.46797085E-2,2.602221E-1,5.411518E-1,7.759472E-1,1.5008678E0,4.1109926E-1,1.0730554E0,1.0105553E0,1.4792387E0,1.3587166E0,2.3218153E0,2.5545688E0,3.8816395E0],"categories":[],"categories_nodes":[],"categories_segments":[],"categories_sizes":[],"default_left":[0,0,0,0,0,0,0,0,0,0,0,0,0,0,0,0,0,0,0,0,0,0,0,0,0,0,0,0,0,0,0,0,0,0,0,0,0,0,0,0,0,0,0,0,0,0,0,0,0,0,0,0,0,0,0,0,0,0,0,0,0,0,0],"id":3,"left_children":[1,3,5,7,9,11,13,15,17,19,21,23,25,27,29,31,33,35,37,39,41,43,45,47,49,51,53,55,57,59,61,-1,-1,-1,-1,-1,-1,-1,-1,-1,-1,-1,-1,-1,-1,-1,-1,-1,-1,-1,-1,-1,-1,-1,-1,-1,-1,-1,-1,-1,-1,-1,-1],"loss_changes":[1.297874E7,1.126902E6,2.636841E6,1.795485E5,1.2281255E5,6.4136075E5,1.291793E6,1.1281375E5,3.801825E4,4.250075E4,6.347835E4,1.21442055E5,4.8817675E5,4.215415E5,5.4005E5,3.904175E4,4.4549125E4,2.0430375E4,4.468875E3,2.9131812E4,7.414382E3,3.185609E4,2.4008846E4,1.2644766E4,2.5509602E4,1.0031425E5,1.2519525E5,1.4471219E4,9.283675E4,4.36918E5,1.2588325E5,0E0,0E0,0E0,0E0,0E0,0E0,0E0,0E0,0E0,0E0,0E0,0E0,0E0,0E0,0E0,0E0,0E0,0E0,0E0,0E0,0E0,0E0,0E0,0E0,0E0,0E0,0E0,0E0,0E0,0E0,0E0,0E0],"parents":[2147483647,0,0,1,1,2,2,3,3,4,4,5,5,6,6,7,7,8,8,9,9,10,10,11,11,12,12,13,13,14,14,15,15,16,16,17,17,18,18,19,19,20,20,21,21,22,22,23,23,24,24,25,25,26,26,27,27,28,28,29,29,30,30],"right_children":[2,4,6,8,10,12,14,16,18,20,22,24,26,28,30,32,34,36,38,40,42,44,46,48,50,52,54,56,58,60,62,-1,-1,-1,-1,-1,-1,-1,-1,-1,-1,-1,-1,-1,-1,-1,-1,-1,-1,-1,-1,-1,-1,-1,-1,-1,-1,-1,-1,-1,-1,-1,-1],"split_conditions":[1.0385E2,1.86067E4,1.62154E4,1.371375E1,2.04655E4,1.09283E4,7.4353E1,1.51683E4,1.54934E4,2.042E1,2.042E1,8.5401E3,3.1E2,-1.547875E1,-9.94625E0,2.4681E1,2.4681E1,6.62E0,5.945E0,8.24E1,2.493E1,8.19E1,2.34606E4,7.6388E3,-1.343625E1,1.37428E4,-9.94625E0,7.0123E1,1.90744E4,2.03321E4,9.8801E1,-6.451876E-1,-3.9024866E-1,-4.563786E-1,-1.8553713E-1,-7.5712866E-1,-9.681519E-1,-5.77535E-1,-6.9970113E-1,-2.9184568E-1,-6.690271E-1,-1.2125597E-1,1.2763941E-1,-6.990727E-2,-3.4365883E-1,8.565864E-2,4.3490064E-1,-1.0391566E0,-6.017773E-1,-4.9976823E-1,-1.46797085E-2,2.602221E-1,5.411518E-1,7.759472E-1,1.5008678E0,4.1109926E-1,1.0730554E0,1.0105553E0,1.4792387E0,1.3587166E0,2.3218153E0,2.5545688E0,3.8816395E0],"split_indices":[2,0,0,4,0,0,1,0,0,1,1,0,2,4,4,1,1,1,1,2,1,2,0,0,4,0,4,1,0,0,1,0,0,0,0,0,0,0,0,0,0,0,0,0,0,0,0,0,0,0,0,0,0,0,0,0,0,0,0,0,0,0,0],"split_type":[0,0,0,0,0,0,0,0,0,0,0,0,0,0,0,0,0,0,0,0,0,0,0,0,0,0,0,0,0,0,0,0,0,0,0,0,0,0,0,0,0,0,0,0,0,0,0,0,0,0,0,0,0,0,0,0,0,0,0,0,0,0,0],"sum_hessian":[3.5315E4,2.3493E4,1.1822E4,1.4542E4,8.951E3,6.634E3,5.188E3,1.1554E4,2.988E3,4.229E3,4.722E3,1.078E3,5.556E3,2.803E3,2.385E3,5.523E3,6.031E3,1.73E3,1.258E3,3.233E3,9.96E2,3.517E3,1.205E3,2.51E2,8.27E2,4.673E3,8.83E2,1.128E3,1.675E3,2.048E3,3.37E2,4.909E3,6.14E2,5.421E3,6.1E2,7.94E2,9.36E2,4.84E2,7.74E2,3.037E3,1.96E2,8.74E2,1.22E2,3.081E3,4.36E2,9.9E2,2.15E2,1.31E2,1.2E2,1.12E2,7.15E2,2.012E3,2.661E3,3.81E2,5.02E2,1.098E3,3E1,1.071E3,6.04E2,1.443E3,6.05E2,2.41E2,9.6E1],"tree_param":{"num_deleted":"0","num_feature":"6","num_nodes":"63","size_leaf_vector":"1"}},{"base_weights":[5.850749E-2,-1.3186315E1,2.6153269E1,-1.8308601E1,-4.382514E0,1.3334199E1,4.2589176E1,-2.310884E1,-1.5895432E1,-7.338447E0,-4.1580606E-2,-1.0201666E1,1.707384E1,2.877715E1,5.9028503E1,-2.4628632E1,-1.5659035E1,-1.7099129E1,-9.300901E0,-9.041103E0,-1.8092219E0,-2.309188E0,6.8927054E0,-2.7691908E1,-3.8286529E0,1.3261391E1,3.781465E1,3.948035E1,1.7448061E1,5.083981E1,7.729742E1,-1.0859358E0,-7.082273E-1,-5.8714205E-1,-3.0275947E-1,-6.924572E-1,-4.816495E-1,-4.0513644E-1,3.920704E-2,-2.5077716E-1,-6.049178E-1,-8.056875E-2,8.131451E-2,-2.872865E-1,-2.534257E-2,1.3353024E-1,4.835622E-1,-1.04846E0,-5.8753926E-1,-5.4530147E-2,-5.0569135E-1,2.4085587E-1,5.274165E-1,1.6948789E0,8.729351E-1,9.8390746E-1,1.4760467E0,4.0267467E-1,1.0116599E0,2.4061332E0,1.2916273E0,2.1995542E0,4.143489E0],"categories":[],"categories_nodes":[],"categories_segments":[],"categories_sizes":[],"default_left":[0,0,0,0,0,0,0,0,0,0,0,0,0,0,0,0,0,0,0,0,0,0,0,0,0,0,0,0,0,0,0,0,0,0,0,0,0,0,0,0,0,0,0,0,0,0,0,0,0,0,0,0,0,0,0,0,0,0,0,0,0,0,0],"id":4,"left_children":[1,3,5,7,9,11,13,15,17,19,21,23,25,27,29,31,33,35,37,39,41,43,45,47,49,51,53,55,57,59,61,-1,-1,-1,-1,-1,-1,-1,-1,-1,-1,-1,-1,-1,-1,-1,-1,-1,-1,-1,-1,-1,-1,-1,-1,-1,-1,-1,-1,-1,-1,-1,-1],"loss_changes":[1.2223214E7,1.0578148E6,2.508148E6,1.714165E5,1.1073486E5,5.8908775E5,1.182867E6,5.575675E4,7.820025E4,4.8315938E4,5.5003113E4,1.022162E5,4.5606262E5,3.43313E5,3.52251E5,4.77725E4,1.816036E4,5.176825E4,6.806542E4,2.9596844E4,4.8001885E3,2.8043434E4,1.9344633E4,1.3724047E4,1.7625291E4,1.1012931E5,1.4425362E5,9.310575E4,8.994909E4,3.73072E5,1.677185E5,0E0,0E0,0E0,0E0,0E0,0E0,0E0,0E0,0E0,0E0,0E0,0E0,0E0,0E0,0E0,0E0,0E0,0E0,0E0,0E0,0E0,0E0,0E0,0E0,0E0,0E0,0E0,0E0,0E0,0E0,0E0,0E0],"parents":[2147483647,0,0,1,1,2,2,3,3,4,4,5,5,6,6,7,7,8,8,9,9,10,10,11,11,12,12,13,13,14,14,15,15,16,16,17,17,18,18,19,19,20,20,21,21,22,22,23,23,24,24,25,25,26,26,27,27,28,28,29,29,30,30],"right_children":[2,4,6,8,10,12,14,16,18,20,22,24,26,28,30,32,34,36,38,40,42,44,46,48,50,52,54,56,58,60,62,-1,-1,-1,-1,-1,-1,-1,-1,-1,-1,-1,-1,-1,-1,-1,-1,-1,-1,-1,-1,-1,-1,-1,-1,-1,-1,-1,-1,-1,-1,-1,-1],"split_conditions":[1.0385E2,1.87445E4,1.62154E4,1.42772E4,2.10801E4,1.06228E4,7.4353E1,2.25E1,2.25E1,2.042E1,2.1005E1,8.5401E3,3.1E2,6.75E0,2.00218E4,1.09283E4,7.75E-1,4.875E1,1.78E0,8.24E1,1.78E0,4.05E-1,2.36549E4,7.6388E3,9.5E0,1.37428E4,7.43E0,1.86067E4,6.0061E1,7.9E0,3.2815E2,-1.0859358E0,-7.082273E-1,-5.8714205E-1,-3.0275947E-1,-6.924572E-1,-4.816495E-1,-4.0513644E-1,3.920704E-2,-2.5077716E-1,-6.049178E-1,-8.056875E-2,8.131451E-2,-2.872865E-1,-2.534257E-2,1.3353024E-1,4.835622E-1,-1.04846E0,-5.8753926E-1,-5.4530147E-2,-5.0569135E-1,2.4085587E-1,5.274165E-1,1.6948789E0,8.729351E-1,9.8390746E-1,1.4760467E0,4.0267467E-1,1.0116599E0,2.4061332E0,1.2916273E0,2.1995542E0,4.143489E0],"split_indices":[2,0,0,0,0,0,1,1,1,1,1,0,2,3,0,0,3,2,3,2,3,3,0,0,3,0,3,0,1,3,2,0,0,0,0,0,0,0,0,0,0,0,0,0,0,0,0,0,0,0,0,0,0,0,0,0,0,0,0,0,0,0,0],"split_type":[0,0,0,0,0,0,0,0,0,0,0,0,0,0,0,0,0,0,0,0,0,0,0,0,0,0,0,0,0,0,0,0,0,0,0,0,0,0,0,0,0,0,0,0,0,0,0,0,0,0,0,0,0,0,0,0,0,0,0,0,0,0,0],"sum_hessian":[3.5364E4,2.3458E4,1.1906E4,1.4829E4,8.629E3,6.69E3,5.216E3,4.958E3,9.871E3,5.133E3,3.496E3,9.17E2,5.773E3,2.836E3,2.38E3,4.116E3,8.42E2,8.346E3,1.525E3,3.924E3,1.209E3,2.635E3,8.61E2,2.44E2,6.73E2,4.878E3,8.95E2,1.457E3,1.379E3,1.646E3,7.34E2,3.31E2,3.785E3,4.93E2,3.49E2,1.237E3,7.109E3,1.092E3,4.33E2,3.699E3,2.25E2,1.013E3,1.96E2,4.41E2,2.194E3,6.82E2,1.79E2,1.27E2,1.17E2,5.84E2,8.9E1,2.207E3,2.671E3,2.83E2,6.12E2,8.66E2,5.91E2,1.107E3,2.72E2,3.43E2,1.303E3,6.91E2,4.3E1],"tree_param":{"num_deleted":"0","num_feature":"6","num_nodes":"63","size_leaf_vector":"1"}},{"base_weights":[-8.024974E-2,2.8368156E1,-1.1412825E1,1.4551973E1,4.906653E1,-1.6968845E1,-3.798769E0,-4.8006334E0,2.0414295E1,4.081514E1,6.1718876E1,-1.4872079E1,-2.4515263E1,-2.0993807E0,-1.3974739E1,-2.6930695E1,-6.1068423E-2,1.4538994E1,2.5653185E1,4.5855442E1,3.3601273E1,5.7308926E1,7.456553E1,-1.7382519E1,-1.0807633E1,-2.995259E1,-2.253619E1,-1.3907484E1,-1.0536318E0,-1.5077772E1,-7.0232267E0,-1.0457803E0,-5.4125994E-1,-2.6089713E-1,9.6432626E-2,4.91025E-1,2.194663E-1,8.527244E-1,5.4597104E-1,1.1652963E0,2.4909284E0,9.1791075E-1,1.175104E0,1.9696422E0,1.4202524E0,3.1315286E0,2.0460262E0,-7.4832386E-1,-4.8391736E-1,-3.9786708E-2,-5.3771436E-1,-1.1238624E0,-8.5491234E-1,-7.005131E-1,-5.028517E-1,-5.573663E-1,-3.101355E-1,-1.1834602E-1,5.893192E-2,-3.3014983E-1,-4.792513E-1,-2.3216794E-1,-1.0675793E-1],"categories":[],"categories_nodes":[],"categories_segments":[],"categories_sizes":[],"default_left":[0,0,0,0,0,0,0,0,0,0,0,0,0,0,0,0,0,0,0,0,0,0,0,0,0,0,0,0,0,0,0,0,0,0,0,0,0,0,0,0,0,0,0,0,0,0,0,0,0,0,0,0,0,0,0,0,0,0,0,0,0,0,0],"id":5,"left_children":[1,3,5,7,9,11,13,15,17,19,21,23,25,27,29,31,33,35,37,39,41,43,45,47,49,51,53,55,57,59,61,-1,-1,-1,-1,-1,-1,-1,-1,-1,-1,-1,-1,-1,-1,-1,-1,-1,-1,-1,-1,-1,-1,-1,-1,-1,-1,-1,-1,-1,-1,-1,-1],"loss_changes":[1.1403064E7,2.880738E6,1.0699675E6,6.8579875E5,4.18514E5,2.31012E5,1.8451916E5,1.474666E5,1.4241162E5,8.731525E4,8.5792E4,1.16599E5,3.351775E4,1.129215E5,1.16005E4,1.6843656E4,3.2811395E4,2.87905E4,5.0103875E4,3.7110375E5,1.5675375E4,9.570325E4,6.93475E4,6.656075E4,2.9502684E5,8.1618125E3,1.0578625E4,1.2211359E4,7.333113E4,4.6343438E3,4.945371E2,0E0,0E0,0E0,0E0,0E0,0E0,0E0,0E0,0E0,0E0,0E0,0E0,0E0,0E0,0E0,0E0,0E0,0E0,0E0,0E0,0E0,0E0,0E0,0E0,0E0,0E0,0E0,0E0,0E0,0E0,0E0,0E0],"parents":[2147483647,0,0,1,1,2,2,3,3,4,4,5,5,6,6,7,7,8,8,9,9,10,10,11,11,12,12,13,13,14,14,15,15,16,16,17,17,18,18,19,19,20,20,21,21,22,22,23,23,24,24,25,25,26,26,27,27,28,28,29,29,30,30],"right_children":[2,4,6,8,10,12,14,16,18,20,22,24,26,28,30,32,34,36,38,40,42,44,46,48,50,52,54,56,58,60,62,-1,-1,-1,-1,-1,-1,-1,-1,-1,-1,-1,-1,-1,-1,-1,-1,-1,-1,-1,-1,-1,-1,-1,-1,-1,-1,-1,-1,-1,-1,-1,-1],"split_conditions":[2E0,1.62569E4,1.81535E4,1.14397E4,1.92448E4,1.0635E1,9.78125E0,8.5401E3,1.40296E4,-6.55125E0,2.16664E4,7.9E0,1.3145E4,3.65E-1,2.18161E4,7.6388E3,9.7624E3,1.02E1,1.7E1,-9.94625E0,1.79726E4,2.02E1,-1.859625E1,3.8E-1,-1.169125E1,1.0798E4,7.21E0,2.0564E4,2.04655E4,1.371375E1,2.32971E4,-1.0457803E0,-5.4125994E-1,-2.6089713E-1,9.6432626E-2,4.91025E-1,2.194663E-1,8.527244E-1,5.4597104E-1,1.1652963E0,2.4909284E0,9.1791075E-1,1.175104E0,1.9696422E0,1.4202524E0,3.1315286E0,2.0460262E0,-7.4832386E-1,-4.8391736E-1,-3.9786708E-2,-5.3771436E-1,-1.1238624E0,-8.5491234E-1,-7.005131E-1,-5.028517E-1,-5.573663E-1,-3.101355E-1,-1.1834602E-1,5.893192E-2,-3.3014983E-1,-4.792513E-1,-2.3216794E-1,-1.0675793E-1],"split_indices":[5,0,0,0,0,4,4,0,0,4,0,3,0,3,0,0,0,3,3,4,0,3,4,3,4,0,3,0,0,4,0,0,0,0,0,0,0,0,0,0,0,0,0,0,0,0,0,0,0,0,0,0,0,0,0,0,0,0,0,0,0,0,0],"split_type":[0,0,0,0,0,0,0,0,0,0,0,0,0,0,0,0,0,0,0,0,0,0,0,0,0,0,0,0,0,0,0,0,0,0,0,0,0,0,0,0,0,0,0,0,0,0,0,0,0,0,0,0,0,0,0,0,0,0,0,0,0,0,0],"sum_hessian":[3.5368E4,1.0075E4,2.5293E4,6.043E3,4.032E3,1.4622E4,1.0671E4,1.405E3,4.638E3,2.443E3,1.589E3,1.1445E4,3.177E3,9.145E3,1.526E3,2.47E2,1.158E3,2.188E3,2.45E3,1.435E3,1.008E3,1.187E3,4.02E2,7.073E3,4.372E3,8.44E2,2.333E3,7.43E2,8.402E3,1.316E3,2.1E2,1.29E2,1.18E2,3.18E2,8.4E2,1.745E3,4.43E2,1.784E3,6.66E2,1.209E3,2.26E2,6.59E2,3.49E2,6.43E2,5.44E2,6.8E1,3.34E2,1.002E3,6.071E3,1.875E3,2.497E3,1.33E2,7.11E2,2.042E3,2.91E2,3.2E2,4.23E2,4.291E3,4.111E3,2.4E2,1.076E3,1.73E2,3.7E1],"tree_param":{"num_deleted":"0","num_feature":"6","num_nodes":"63","size_leaf_vector":"1"}},{"base_weights":[9.814245E-2,-1.1442195E1,2.6350773E1,-1.5806547E1,-3.877296E0,1.3992847E1,4.166909E1,-1.8158274E1,-1.9902719E0,-6.1640754E0,2.6215265E0,-2.3813605E0,1.8241104E1,2.8947144E1,5.7589237E1,-2.293946E1,-1.5879865E1,-9.30515E0,1.3928162E1,-9.827343E0,-3.3300853E0,1.8511763E0,4.5582024E1,-2.0500513E1,2.0909595E0,1.6685295E1,5.033652E1,1.7661009E1,3.5160263E1,5.124614E1,9.293591E1,-9.6204513E-1,-6.5458715E-1,-4.36947E-1,-6.304768E-1,-3.9933994E-1,-1.4197911E-1,5.1337585E-2,7.9571563E-1,-2.5514004E-1,-4.5531294E-1,-3.037154E-1,-6.331632E-2,1.8018465E-2,4.1022167E-1,5.460552E-1,1.3955057E0,-9.586693E-1,-4.0294838E-1,1.5014353E-1,-3.0380735E-1,6.337185E-1,2.9998526E-1,4.7301298E-1,1.7923579E0,3.9705464E-1,1.32159E0,9.529313E-1,1.5136185E0,1.2641293E0,2.2463026E0,2.3343494E0,3.6335998E0],"categories":[],"categories_nodes":[],"categories_segments":[],"categories_sizes":[],"default_left":[0,0,0,0,0,0,0,0,0,0,0,0,0,0,0,0,0,0,0,0,0,0,0,0,0,0,0,0,0,0,0,0,0,0,0,0,0,0,0,0,0,0,0,0,0,0,0,0,0,0,0,0,0,0,0,0,0,0,0,0,0,0,0],"id":6,"left_children":[1,3,5,7,9,11,13,15,17,19,21,23,25,27,29,31,33,35,37,39,41,43,45,47,49,51,53,55,57,59,61,-1,-1,-1,-1,-1,-1,-1,-1,-1,-1,-1,-1,-1,-1,-1,-1,-1,-1,-1,-1,-1,-1,-1,-1,-1,-1,-1,-1,-1,-1,-1,-1],"loss_changes":[1.0666765E7,8.07406E5,2.0346045E6,5.0388175E5,1.3301095E5,4.14077E5,9.704935E5,1.440035E5,2.6293738E5,6.869255E4,7.702136E4,9.947422E4,2.3514312E5,1.8659975E5,4.73009E5,4.2999E4,6.033175E4,2.827364E4,1.0936078E5,2.0296906E4,3.0914613E4,3.384853E4,1.9627344E2,1.924321E4,3.5116895E4,1.3359425E5,6.9956E4,1.10378E5,8.777025E4,3.86201E5,1.2823875E5,0E0,0E0,0E0,0E0,0E0,0E0,0E0,0E0,0E0,0E0,0E0,0E0,0E0,0E0,0E0,0E0,0E0,0E0,0E0,0E0,0E0,0E0,0E0,0E0,0E0,0E0,0E0,0E0,0E0,0E0,0E0,0E0],"parents":[2147483647,0,0,1,1,2,2,3,3,4,4,5,5,6,6,7,7,8,8,9,9,10,10,11,11,12,12,13,13,14,14,15,15,16,16,17,17,18,18,19,19,20,20,21,21,22,22,23,23,24,24,25,25,26,26,27,27,28,28,29,29,30,30],"right_children":[2,4,6,8,10,12,14,16,18,20,22,24,26,28,30,32,34,36,38,40,42,44,46,48,50,52,54,56,58,60,62,-1,-1,-1,-1,-1,-1,-1,-1,-1,-1,-1,-1,-1,-1,-1,-1,-1,-1,-1,-1,-1,-1,-1,-1,-1,-1,-1,-1,-1,-1,-1,-1],"split_conditions":[3.0557E1,1.86493E4,1.62569E4,2.45E1,2.042E1,1.16367E4,7.7426E1,1.41488E4,1.109625E1,2.03321E4,-1.625E0,9.0272E3,1.17738E2,-1.59325E1,-9.94625E0,1.10701E4,1.3555E1,1.78E0,1.34865E4,1.3555E1,4.05E-1,2.34606E4,2.4865E1,7.6388E3,1.02E1,1.02E1,-1.521E1,7.0123E1,2.062E4,2.03321E4,1.88457E4,-9.6204513E-1,-6.5458715E-1,-4.36947E-1,-6.304768E-1,-3.9933994E-1,-1.4197911E-1,5.1337585E-2,7.9571563E-1,-2.5514004E-1,-4.5531294E-1,-3.037154E-1,-6.331632E-2,1.8018465E-2,4.1022167E-1,5.460552E-1,1.3955057E0,-9.586693E-1,-4.0294838E-1,1.5014353E-1,-3.0380735E-1,6.337185E-1,2.9998526E-1,4.7301298E-1,1.7923579E0,3.9705464E-1,1.32159E0,9.529313E-1,1.5136185E0,1.2641293E0,2.2463026E0,2.3343494E0,3.6335998E0],"split_indices":[1,0,0,1,1,0,1,0,4,0,4,0,1,4,4,0,4,3,0,4,3,0,1,0,3,3,4,1,0,0,0,0,0,0,0,0,0,0,0,0,0,0,0,0,0,0,0,0,0,0,0,0,0,0,0,0,0,0,0,0,0,0,0],"split_type":[0,0,0,0,0,0,0,0,0,0,0,0,0,0,0,0,0,0,0,0,0,0,0,0,0,0,0,0,0,0,0,0,0,0,0,0,0,0,0,0,0,0,0,0,0,0,0,0,0,0,0,0,0,0,0,0,0,0,0,0,0,0,0],"sum_hessian":[3.5206E4,2.4456E4,1.075E4,1.5508E4,8.948E3,5.951E3,4.799E3,1.3252E4,2.256E3,6.619E3,2.329E3,1.226E3,4.725E3,2.669E3,2.13E3,4.274E3,8.978E3,1.546E3,7.1E2,2.886E3,3.733E3,2.289E3,4E1,2.42E2,9.84E2,4.508E3,2.17E2,9.49E2,1.72E3,1.808E3,3.22E2,4.64E2,3.81E3,7.151E3,1.827E3,8.23E2,7.23E2,3.61E2,3.49E2,2.316E3,5.7E2,5.67E2,3.166E3,2.071E3,2.18E2,2E0,3.8E1,9.1E1,1.51E2,7.95E2,1.89E2,2.708E3,1.8E3,4.7E1,1.7E2,8.14E2,1.35E2,1.41E3,3.1E2,1.307E3,5.01E2,2.12E2,1.1E2],"tree_param":{"num_deleted":"0","num_feature":"6","num_nodes":"63","size_leaf_vector":"1"}},{"base_weights":[9.249833E-2,2.6712269E1,-1.064948E1,1.25813055E1,4.4742622E1,-1.6139343E1,-3.6885548E0,-8.676771E0,1.7261692E1,3.7100716E1,5.8483353E1,-1.7599146E1,3.0965552E0,-5.84111E0,7.9330955E0,-2.1816149E1,-1.4517335E0,1.5933376E1,4.554355E1,3.5323135E1,6.661813E1,4.383706E1,6.870606E1,-2.1560799E1,-1.541678E1,-3.359154E0,7.559952E0,-1.0069827E1,-2.3762171E0,3.209742E0,1.4109253E1,-9.616436E-1,-4.6785438E-1,1.3452118E-2,-4.275269E-1,3.0012843E-1,6.471085E-1,1.6791568E0,4.137252E-1,9.0597457E-1,1.2462565E0,2.719129E0,1.1048465E0,1.1648722E0,1.5227098E0,3.0129137E0,1.8432552E0,-9.678488E-1,-6.2141144E-1,-4.841534E-1,-2.3380281E-1,-1.5732363E-1,3.46367E-1,1.7356868E-1,4.9776235E-1,-3.6141267E-1,-2.1183883E-1,-3.1588778E-1,-4.516084E-2,4.0081456E-2,5.296793E-1,3.6384276E-1,5.2047926E-1],"categories":[],"categories_nodes":[],"categories_segments":[],"categories_sizes":[],"default_left":[0,0,0,0,0,0,0,0,0,0,0,0,0,0,0,0,0,0,0,0,0,0,0,0,0,0,0,0,0,0,0,0,0,0,0,0,0,0,0,0,0,0,0,0,0,0,0,0,0,0,0,0,0,0,0,0,0,0,0,0,0,0,0],"id":7,"left_children":[1,3,5,7,9,11,13,15,17,19,21,23,25,27,29,31,33,35,37,39,41,43,45,47,49,51,53,55,57,59,61,-1,-1,-1,-1,-1,-1,-1,-1,-1,-1,-1,-1,-1,-1,-1,-1,-1,-1,-1,-1,-1,-1,-1,-1,-1,-1,-1,-1,-1,-1,-1,-1],"loss_changes":[1.0107724E7,2.588824E6,9.623715E5,5.671783E5,4.6667E5,3.95431E5,2.7787656E5,9.765154E4,1.7474462E5,1.48329E5,2.35638E5,1.12811E5,2.8667318E4,1.3727919E5,5.0595883E4,2.274386E4,1.6180682E4,1.4894225E5,6.8426875E4,8.512375E4,1.125665E5,2.0823125E4,2.09747E5,4.144E4,4.631575E4,1.1494542E4,9.325035E3,2.5016375E4,3.6564273E4,2.6636312E4,4.6137812E3,0E0,0E0,0E0,0E0,0E0,0E0,0E0,0E0,0E0,0E0,0E0,0E0,0E0,0E0,0E0,0E0,0E0,0E0,0E0,0E0,0E0,0E0,0E0,0E0,0E0,0E0,0E0,0E0,0E0,0E0,0E0,0E0],"parents":[2147483647,0,0,1,1,2,2,3,3,4,4,5,5,6,6,7,7,8,8,9,9,10,10,11,11,12,12,13,13,14,14,15,15,16,16,17,17,18,18,19,19,20,20,21,21,22,22,23,23,24,24,25,25,26,26,27,27,28,28,29,29,30,30],"right_children":[2,4,6,8,10,12,14,16,18,20,22,24,26,28,30,32,34,36,38,40,42,44,46,48,50,52,54,56,58,60,62,-1,-1,-1,-1,-1,-1,-1,-1,-1,-1,-1,-1,-1,-1,-1,-1,-1,-1,-1,-1,-1,-1,-1,-1,-1,-1,-1,-1,-1,-1,-1,-1],"split_conditions":[2E0,1.58577E4,1.79184E4,1.0798E4,1.92448E4,2.9127E1,2.3689E1,9.0272E3,1.17738E2,1.17738E2,7.7426E1,1.41488E4,1.50169E4,2.00659E4,2.803E1,7.6388E3,9.5E0,1.37428E4,7.43E0,7.7426E1,7.43E0,2.09125E4,8.4E0,1.0798E4,2.4795E1,4.8542E1,4.8542E1,6E0,3.65E-1,2.34606E4,2.00659E4,-9.616436E-1,-4.6785438E-1,1.3452118E-2,-4.275269E-1,3.0012843E-1,6.471085E-1,1.6791568E0,4.137252E-1,9.0597457E-1,1.2462565E0,2.719129E0,1.1048465E0,1.1648722E0,1.5227098E0,3.0129137E0,1.8432552E0,-9.678488E-1,-6.2141144E-1,-4.841534E-1,-2.3380281E-1,-1.5732363E-1,3.46367E-1,1.7356868E-1,4.9776235E-1,-3.6141267E-1,-2.1183883E-1,-3.1588778E-1,-4.516084E-2,4.0081456E-2,5.296793E-1,3.6384276E-1,5.2047926E-1],"split_indices":[5,0,0,0,0,1,1,0,1,1,1,0,0,0,1,0,3,0,3,1,3,0,3,0,1,1,1,5,3,0,0,0,0,0,0,0,0,0,0,0,0,0,0,0,0,0,0,0,0,0,0,0,0,0,0,0,0,0,0,0,0,0,0],"split_type":[0,0,0,0,0,0,0,0,0,0,0,0,0,0,0,0,0,0,0,0,0,0,0,0,0,0,0,0,0,0,0,0,0,0,0,0,0,0,0,0,0,0,0,0,0,0,0,0,0,0,0,0,0,0,0,0,0,0,0,0,0,0,0],"sum_hessian":[3.5346E4,1.0162E4,2.5184E4,5.698E3,4.464E3,1.4079E4,1.1105E4,1.028E3,4.67E3,2.871E3,1.593E3,1.3086E4,9.93E2,9.37E3,1.735E3,3.64E2,6.64E2,4.462E3,2.08E2,2.71E3,1.61E2,6.57E2,9.36E2,4.645E3,8.441E3,4.06E2,5.87E2,4.219E3,5.151E3,9.84E2,7.51E2,1.36E2,2.28E2,5.79E2,8.5E1,2.176E3,2.286E3,1.56E2,5.2E1,1.489E3,1.221E3,8.8E1,7.3E1,3.85E2,2.72E2,1.72E2,7.64E2,3.38E2,4.307E3,7.71E3,7.31E2,3.61E2,4.5E1,4.92E2,9.5E1,2.544E3,1.675E3,4.96E2,4.655E3,8.72E2,1.12E2,4.69E2,2.82E2],"tree_param":{"num_deleted":"0","num_feature":"6","num_nodes":"63","size_leaf_vector":"1"}},{"base_weights":[5.922783E-2,-1.1656036E1,2.3148203E1,-1.5971899E1,-3.275564E0,1.1680066E1,3.8038116E1,-1.4366514E1,-2.2285454E1,-2.0694532E0,-1.1763569E1,8.202766E0,3.2252705E1,2.5347473E1,5.2762627E1,-1.7353394E1,-1.1494022E1,-2.5332249E1,-1.8578743E1,-2.7979717E0,1.0122513E1,-1.2834766E1,-6.2764616E0,-1.3497536E1,1.1176864E1,1.848428E1,4.247768E1,1.3593194E1,3.4288425E1,4.70738E1,8.7142395E1,-5.5770975E-1,-3.8896835E-1,-3.6577886E-1,-8.299577E-2,-6.451304E-1,-8.5378015E-1,-4.881082E-1,-6.188306E-1,-1.2802269E-1,3.230808E-2,1.2279879E0,2.483361E-1,-2.635843E-1,-4.1855755E-1,-2.1528916E-1,-1.01983786E-1,-7.4627805E-1,-2.1581475E-1,1.849713E-1,4.5337477E-1,4.0386206E-1,1.1114796E0,8.7353307E-1,1.5862496E0,3.6485618E-1,7.926182E-1,8.266952E-1,1.2210735E0,1.1569723E0,2.0378585E0,2.1938343E0,3.597149E0],"categories":[],"categories_nodes":[],"categories_segments":[],"categories_sizes":[],"default_left":[0,0,0,0,0,0,0,0,0,0,0,0,0,0,0,0,0,0,0,0,0,0,0,0,0,0,0,0,0,0,0,0,0,0,0,0,0,0,0,0,0,0,0,0,0,0,0,0,0,0,0,0,0,0,0,0,0,0,0,0,0,0,0],"id":8,"left_children":[1,3,5,7,9,11,13,15,17,19,21,23,25,27,29,31,33,35,37,39,41,43,45,47,49,51,53,55,57,59,61,-1,-1,-1,-1,-1,-1,-1,-1,-1,-1,-1,-1,-1,-1,-1,-1,-1,-1,-1,-1,-1,-1,-1,-1,-1,-1,-1,-1,-1,-1,-1,-1],"loss_changes":[9.564378E6,8.483615E5,2.0319315E6,1.56607E5,8.161814E4,4.808193E5,9.662345E5,1.05732E5,3.4953E4,6.205998E4,5.7482812E3,3.7150694E5,1.3604856E5,2.92007E5,4.644955E5,3.2597125E4,3.8358188E4,1.995975E4,6.3724688E3,3.7534004E4,2.2048918E4,3.6246406E3,3.9911914E2,4.9595773E4,9.971794E4,3.8283016E4,7.58235E4,2.1780438E4,6.7093875E4,3.62529E5,1.4686525E5,0E0,0E0,0E0,0E0,0E0,0E0,0E0,0E0,0E0,0E0,0E0,0E0,0E0,0E0,0E0,0E0,0E0,0E0,0E0,0E0,0E0,0E0,0E0,0E0,0E0,0E0,0E0,0E0,0E0,0E0,0E0,0E0],"parents":[2147483647,0,0,1,1,2,2,3,3,4,4,5,5,6,6,7,7,8,8,9,9,10,10,11,11,12,12,13,13,14,14,15,15,16,16,17,17,18,18,19,19,20,20,21,21,22,22,23,23,24,24,25,25,26,26,27,27,28,28,29,29,30,30],"right_children":[2,4,6,8,10,12,14,16,18,20,22,24,26,28,30,32,34,36,38,40,42,44,46,48,50,52,54,56,58,60,62,-1,-1,-1,-1,-1,-1,-1,-1,-1,-1,-1,-1,-1,-1,-1,-1,-1,-1,-1,-1,-1,-1,-1,-1,-1,-1,-1,-1,-1,-1,-1,-1],"split_conditions":[1.0385E2,1.90744E4,1.62154E4,1.371375E1,9.96625E0,3.1E2,7.4353E1,1.54176E4,1.54934E4,2.39092E4,2.19006E4,1.02452E4,1.34366E4,-1.528625E1,-9.94625E0,2.25E1,2.493E1,6.62E0,6.62E0,2.042E1,-1.66675E1,1.371375E1,2.31217E4,8.5401E3,1.36174E4,-7.15625E0,-9.94625E0,5.7889E1,1.81078E4,2.03321E4,9.8801E1,-5.5770975E-1,-3.8896835E-1,-3.6577886E-1,-8.299577E-2,-6.451304E-1,-8.5378015E-1,-4.881082E-1,-6.188306E-1,-1.2802269E-1,3.230808E-2,1.2279879E0,2.483361E-1,-2.635843E-1,-4.1855755E-1,-2.1528916E-1,-1.01983786E-1,-7.4627805E-1,-2.1581475E-1,1.849713E-1,4.5337477E-1,4.0386206E-1,1.1114796E0,8.7353307E-1,1.5862496E0,3.6485618E-1,7.926182E-1,8.266952E-1,1.2210735E0,1.1569723E0,2.0378585E0,2.1938343E0,3.597149E0],"split_indices":[2,0,0,4,4,2,1,0,0,0,0,0,0,4,4,1,1,1,1,1,4,4,0,0,0,4,4,1,0,0,1,0,0,0,0,0,0,0,0,0,0,0,0,0,0,0,0,0,0,0,0,0,0,0,0,0,0,0,0,0,0,0,0],"split_type":[0,0,0,0,0,0,0,0,0,0,0,0,0,0,0,0,0,0,0,0,0,0,0,0,0,0,0,0,0,0,0,0,0,0,0,0,0,0,0,0,0,0,0,0,0,0,0,0,0,0,0,0,0,0,0,0,0,0,0,0,0,0,0],"sum_hessian":[3.5357E4,2.3456E4,1.1901E4,1.5482E4,7.974E3,6.724E3,5.177E3,1.2346E4,3.136E3,6.983E3,9.91E2,5.753E3,9.71E2,2.782E3,2.395E3,6.05E3,6.296E3,1.718E3,1.418E3,6.59E3,3.93E2,8.28E2,1.63E2,6.93E2,5.06E3,4.15E2,5.56E2,1.203E3,1.579E3,2.057E3,3.38E2,4.717E3,1.333E3,5.829E3,4.67E2,7.76E2,9.42E2,6.71E2,7.47E2,4.778E3,1.812E3,2.1E1,3.72E2,1.81E2,6.47E2,1.23E2,4E1,2.46E2,4.47E2,2.227E3,2.833E3,3.28E2,8.7E1,2.45E2,3.11E2,1.084E3,1.19E2,7.73E2,8.06E2,1.463E3,5.94E2,2.39E2,9.9E1],"tree_param":{"num_deleted":"0","num_feature":"6","num_nodes":"63","size_leaf_vector":"1"}},{"base_weights":[3.4155935E-2,2.5132177E1,-1.0124065E1,1.2858114E1,4.377254E1,-1.5291522E1,-3.614241E0,-4.6619143E0,1.7976042E1,3.7708412E1,5.8592453E1,-1.346635E1,-2.2407442E1,-2.046225E0,-1.2740295E1,-2.0743767E1,1.0748416E0,1.4268718E1,2.5304924E1,3.0674324E1,4.2039253E1,5.3030384E1,6.96372E1,-2.2722185E1,-1.2582601E1,-3.0028376E1,-2.1294037E1,-1.2734436E1,-1.1281012E0,-1.3650566E1,-6.2692757E0,-9.218776E-1,-4.2741138E-1,8.795084E-2,-3.0876777E-1,4.8697683E-1,2.3470807E-1,6.336343E-1,8.674347E-1,9.992507E-1,7.08892E-1,1.0287671E0,1.3915491E0,1.8795587E0,1.3026135E0,2.9411137E0,1.892928E0,-8.3806545E-1,-6.0131294E-1,-1.9707361E-1,-4.331593E-1,-1.0467311E0,-8.338527E-1,-6.909283E-1,-5.591481E-1,-5.125528E-1,-2.7222142E-1,-1.0444425E-1,5.569814E-2,-4.3147367E-1,-2.9553103E-1,-2.1919157E-1,-9.811396E-2],"categories":[],"categories_nodes":[],"categories_segments":[],"categories_sizes":[],"default_left":[0,0,0,0,0,0,0,0,0,0,0,0,0,0,0,0,0,0,0,0,0,0,0,0,0,0,0,0,0,0,0,0,0,0,0,0,0,0,0,0,0,0,0,0,0,0,0,0,0,0,0,0,0,0,0,0,0,0,0,0,0,0,0],"id":9,"left_children":[1,3,5,7,9,11,13,15,17,19,21,23,25,27,29,31,33,35,37,39,41,43,45,47,49,51,53,55,57,59,61,-1,-1,-1,-1,-1,-1,-1,-1,-1,-1,-1,-1,-1,-1,-1,-1,-1,-1,-1,-1,-1,-1,-1,-1,-1,-1,-1,-1,-1,-1,-1,-1],"loss_changes":[9.002585E6,2.3271715E6,8.455325E5,5.502772E5,3.607655E5,1.816925E5,1.5916894E5,1.280779E5,1.28668E5,8.6103E4,6.82315E4,9.0956625E4,2.3614625E4,9.315964E4,9.519656E3,2.3236328E4,2.1643045E4,3.9816688E4,2.345625E4,1.9562812E4,5.809175E4,6.96675E4,6.604475E4,1.29938125E4,1.1358075E5,2.955125E3,1.1089375E4,1.1802102E4,6.1432637E4,3.8297188E3,6.063965E2,0E0,0E0,0E0,0E0,0E0,0E0,0E0,0E0,0E0,0E0,0E0,0E0,0E0,0E0,0E0,0E0,0E0,0E0,0E0,0E0,0E0,0E0,0E0,0E0,0E0,0E0,0E0,0E0,0E0,0E0,0E0,0E0],"parents":[2147483647,0,0,1,1,2,2,3,3,4,4,5,5,6,6,7,7,8,8,9,9,10,10,11,11,12,12,13,13,14,14,15,15,16,16,17,17,18,18,19,19,20,20,21,21,22,22,23,23,24,24,25,25,26,26,27,27,28,28,29,29,30,30],"right_children":[2,4,6,8,10,12,14,16,18,20,22,24,26,28,30,32,34,36,38,40,42,44,46,48,50,52,54,56,58,60,62,-1,-1,-1,-1,-1,-1,-1,-1,-1,-1,-1,-1,-1,-1,-1,-1,-1,-1,-1,-1,-1,-1,-1,-1,-1,-1,-1,-1,-1,-1,-1,-1],"split_conditions":[2E0,1.62569E4,1.79184E4,1.14397E4,1.9889E4,1.1655E1,9.78125E0,9.0272E3,1.47977E4,1.74651E4,2.16664E4,3.8E-1,1.18843E4,3.65E-1,2.18161E4,7.6388E3,1.02E1,1.02E1,4.5E0,1.5E1,4.5E0,2.02E1,-1.859625E1,3.35E-1,-1.521E1,1.06228E4,1.54934E4,2.0564E4,2.0564E4,7.21E0,2.31217E4,-9.218776E-1,-4.2741138E-1,8.795084E-2,-3.0876777E-1,4.8697683E-1,2.3470807E-1,6.336343E-1,8.674347E-1,9.992507E-1,7.08892E-1,1.0287671E0,1.3915491E0,1.8795587E0,1.3026135E0,2.9411137E0,1.892928E0,-8.3806545E-1,-6.0131294E-1,-1.9707361E-1,-4.331593E-1,-1.0467311E0,-8.338527E-1,-6.909283E-1,-5.591481E-1,-5.125528E-1,-2.7222142E-1,-1.0444425E-1,5.569814E-2,-4.3147367E-1,-2.9553103E-1,-2.1919157E-1,-9.811396E-2],"split_indices":[5,0,0,0,0,4,4,0,0,0,0,3,0,3,0,0,3,3,3,3,3,3,4,3,4,0,0,0,0,3,0,0,0,0,0,0,0,0,0,0,0,0,0,0,0,0,0,0,0,0,0,0,0,0,0,0,0,0,0,0,0,0,0],"split_type":[0,0,0,0,0,0,0,0,0,0,0,0,0,0,0,0,0,0,0,0,0,0,0,0,0,0,0,0,0,0,0,0,0,0,0,0,0,0,0,0,0,0,0,0,0,0,0,0,0,0,0,0,0,0,0,0,0,0,0,0,0,0,0],"sum_hessian":[3.5309E4,1.0173E4,2.5136E4,6.135E3,4.038E3,1.4012E4,1.1124E4,1.387E3,4.748E3,2.868E3,1.17E3,1.1154E4,2.858E3,9.494E3,1.63E3,3.64E2,1.023E3,3.155E3,1.593E3,1.096E3,1.772E3,7.82E2,3.88E2,9.7E2,1.0184E4,3.61E2,2.497E3,7.5E2,8.744E3,1.428E3,2.02E2,1.42E2,2.22E2,8.8E2,1.43E2,2.417E3,7.38E2,7.41E2,8.52E2,7.95E2,3.01E2,6.4E2,1.132E3,3.88E2,3.94E2,7E1,3.18E2,3.26E2,6.44E2,2.403E3,7.781E3,1.09E2,2.52E2,1.505E3,9.92E2,3.41E2,4.09E2,4.889E3,3.855E3,1.195E3,2.33E2,1.49E2,5.3E1],"tree_param":{"num_deleted":"0","num_feature":"6","num_nodes":"63","size_leaf_vector":"1"}},{"base_weights":[8.115819E-2,2.4260422E1,-9.78909E0,1.099847E1,4.0206635E1,-1.4960156E1,-3.611106E0,-7.454198E0,1.5549509E1,3.3156845E1,5.3400047E1,-1.624483E1,2.3584826E0,-5.6544423E0,7.0870976E0,-2.3386408E1,-2.1279612E0,1.4222561E1,4.4339603E1,3.153157E1,6.1366634E1,5.218203E1,1.7193422E2,-2.057815E1,-1.4377903E1,-5.029941E0,5.6803718E0,-9.434107E0,-2.274447E0,2.6530466E0,1.3104048E1,-8.972081E-1,-4.8612002E-1,-1.8168863E-2,-3.9701793E-1,2.7815112E-1,5.815846E-1,1.5627626E0,3.478154E-1,8.0190694E-1,1.1141479E0,2.55821E0,1.036896E0,1.1986346E0,1.8295144E0,5.5984426E0,1.3824068E0,-8.5784936E-1,-5.841003E-1,-7.0672333E-1,-4.163114E-1,-2.0746799E-1,3.009989E-1,1.19462684E-1,4.949739E-1,-6.3498414E-1,-2.691441E-1,-2.865797E-1,-4.3823946E-2,1.2666705E-3,3.5930407E-1,3.3837998E-1,5.0255406E-1],"categories":[],"categories_nodes":[],"categories_segments":[],"categories_sizes":[],"default_left":[0,0,0,0,0,0,0,0,0,0,0,0,0,0,0,0,0,0,0,0,0,0,0,0,0,0,0,0,0,0,0,0,0,0,0,0,0,0,0,0,0,0,0,0,0,0,0,0,0,0,0,0,0,0,0,0,0,0,0,0,0,0,0],"id":10,"left_children":[1,3,5,7,9,11,13,15,17,19,21,23,25,27,29,31,33,35,37,39,41,43,45,47,49,51,53,55,57,59,61,-1,-1,-1,-1,-1,-1,-1,-1,-1,-1,-1,-1,-1,-1,-1,-1,-1,-1,-1,-1,-1,-1,-1,-1,-1,-1,-1,-1,-1,-1,-1,-1],"loss_changes":[8.423102E6,2.1631835E6,8.00626E5,4.693063E5,4.30256E5,3.0357975E5,2.4970334E5,9.380144E4,1.7058912E5,1.3697725E5,2.243185E5,1.024515E5,2.317318E4,1.2249203E5,4.8840445E4,1.2483547E4,1.4023393E4,1.093855E5,4.9400312E4,7.617925E4,1.0213031E5,1.698595E5,2.0939188E4,3.339225E4,4.0496375E4,8.391482E3,1.1893273E4,2.4378156E4,2.9973477E4,2.5704172E4,4.980047E3,0E0,0E0,0E0,0E0,0E0,0E0,0E0,0E0,0E0,0E0,0E0,0E0,0E0,0E0,0E0,0E0,0E0,0E0,0E0,0E0,0E0,0E0,0E0,0E0,0E0,0E0,0E0,0E0,0E0,0E0,0E0,0E0],"parents":[2147483647,0,0,1,1,2,2,3,3,4,4,5,5,6,6,7,7,8,8,9,9,10,10,11,11,12,12,13,13,14,14,15,15,16,16,17,17,18,18,19,19,20,20,21,21,22,22,23,23,24,24,25,25,26,26,27,27,28,28,29,29,30,30],"right_children":[2,4,6,8,10,12,14,16,18,20,22,24,26,28,30,32,34,36,38,40,42,44,46,48,50,52,54,56,58,60,62,-1,-1,-1,-1,-1,-1,-1,-1,-1,-1,-1,-1,-1,-1,-1,-1,-1,-1,-1,-1,-1,-1,-1,-1,-1,-1,-1,-1,-1,-1,-1,-1],"split_conditions":[2E0,1.56704E4,1.77824E4,1.09283E4,1.92448E4,2.9127E1,2.3689E1,8.5401E3,1.17738E2,1.17738E2,1.28505E2,1.37815E4,1.42772E4,2.00659E4,2.803E1,7.6388E3,1.02E1,1.37428E4,7.43E0,7.7426E1,7.43E0,7.7426E1,7.035E0,1.10701E4,3.65E-1,4.8542E1,5.0232E1,3.35E-1,3.65E-1,2.22674E4,2.01474E4,-8.972081E-1,-4.8612002E-1,-1.8168863E-2,-3.9701793E-1,2.7815112E-1,5.815846E-1,1.5627626E0,3.478154E-1,8.0190694E-1,1.1141479E0,2.55821E0,1.036896E0,1.1986346E0,1.8295144E0,5.5984426E0,1.3824068E0,-8.5784936E-1,-5.841003E-1,-7.0672333E-1,-4.163114E-1,-2.0746799E-1,3.009989E-1,1.19462684E-1,4.949739E-1,-6.3498414E-1,-2.691441E-1,-2.865797E-1,-4.3823946E-2,1.2666705E-3,3.5930407E-1,3.3837998E-1,5.0255406E-1],"split_indices":[5,0,0,0,0,1,1,0,1,1,1,0,0,0,1,0,3,0,3,1,3,1,3,0,3,1,1,3,3,0,0,0,0,0,0,0,0,0,0,0,0,0,0,0,0,0,0,0,0,0,0,0,0,0,0,0,0,0,0,0,0,0,0],"split_type":[0,0,0,0,0,0,0,0,0,0,0,0,0,0,0,0,0,0,0,0,0,0,0,0,0,0,0,0,0,0,0,0,0,0,0,0,0,0,0,0,0,0,0,0,0,0,0,0,0,0,0,0,0,0,0,0,0,0,0,0,0,0,0],"sum_hessian":[3.5292E4,1.023E4,2.5062E4,5.586E3,4.644E3,1.3642E4,1.142E4,1.105E3,4.481E3,3.029E3,1.615E3,1.27E4,9.42E2,9.589E3,1.831E3,2.76E2,8.29E2,4.285E3,1.96E2,2.866E3,1.63E2,1.6E3,1.5E1,3.821E3,8.879E3,2.92E2,6.5E2,4.526E3,5.063E3,1.055E3,7.76E2,1.43E2,1.33E2,7.3E2,9.9E1,2.189E3,2.096E3,1.58E2,3.8E1,1.547E3,1.319E3,8.5E1,7.8E1,6.72E2,9.28E2,1.3E1,2E0,4.61E2,3.36E3,4.57E2,8.422E3,2.6E2,3.2E1,5.63E2,8.7E1,1.7E2,4.356E3,5.08E2,4.555E3,8.25E2,2.3E2,5.2E2,2.56E2],"tree_param":{"num_deleted":"0","num_feature":"6","num_nodes":"63","size_leaf_vector":"1"}},{"base_weights":[-1.8179363E-2,-1.0688824E1,2.11094E1,-9.069299E0,-1.8640516E1,1.684615E1,4.416998E1,-1.6782354E1,-8.505723E0,-1.990935E1,-1.636344E1,3.8790543E1,1.4772967E1,6.3148872E1,3.6037582E1,-1.8971191E1,-1.3781644E1,7.499175E0,-8.624834E0,-8.451133E-1,-1.9568373E1,-1.5912448E1,-2.3706125E1,2.1190893E1,4.3172245E1,1.68234E1,6.430443E0,3.3278272E0,6.0081112E1,3.884714E1,3.1108305E1,-5.4531133E-1,-6.1939675E-1,-4.4115433E-1,-2.2549257E-1,6.96471E-2,9.3386894E-1,-4.193576E-1,-2.4864122E-1,-5.565163E-1,-6.3421065E-1,-4.3268013E-1,-5.590815E-1,-5.4879606E-1,-7.527177E-1,5.0362194E-1,1.0917145E0,2.2704682E0,1.2231517E0,3.013489E-1,5.8821017E-1,1.4302209E-1,3.9630446E-1,7.860288E-1,1.8352816E0,1.0854809E0,1.4588355E0,1.070725E0,6.4427453E-1],"categories":[],"categories_nodes":[],"categories_segments":[],"categories_sizes":[],"default_left":[0,0,0,0,0,0,0,0,0,0,0,0,0,0,0,0,0,0,0,0,0,0,0,0,0,0,0,0,0,0,0,0,0,0,0,0,0,0,0,0,0,0,0,0,0,0,0,0,0,0,0,0,0,0,0,0,0,0,0],"id":11,"left_children":[1,3,5,7,9,11,13,15,17,19,21,23,25,27,29,31,33,35,37,-1,39,41,43,45,47,49,51,-1,53,55,57,-1,-1,-1,-1,-1,-1,-1,-1,-1,-1,-1,-1,-1,-1,-1,-1,-1,-1,-1,-1,-1,-1,-1,-1,-1,-1,-1,-1],"loss_changes":[7.9167225E6,3.0029675E5,1.1577705E6,8.4123625E4,1.1074375E4,4.5195775E5,2.813985E5,8.398531E3,3.450875E4,6.5705625E3,4.3145E3,6.5244625E4,1.5538112E5,7.39335E4,1.6635875E4,6.32E2,3.1273672E3,1.6318717E4,3.2220625E4,0E0,3.49675E3,5.161E3,1.3619531E2,1.0962898E4,5.043875E4,1.3746462E5,2.017371E4,0E0,1.764175E4,1.952325E4,2.0106562E4,0E0,0E0,0E0,0E0,0E0,0E0,0E0,0E0,0E0,0E0,0E0,0E0,0E0,0E0,0E0,0E0,0E0,0E0,0E0,0E0,0E0,0E0,0E0,0E0,0E0,0E0,0E0,0E0],"parents":[2147483647,0,0,1,1,2,2,3,3,4,4,5,5,6,6,7,7,8,8,9,9,10,10,11,11,12,12,13,13,14,14,15,15,16,16,17,17,18,18,20,20,21,21,22,22,23,23,24,24,25,25,26,26,28,28,29,29,30,30],"right_children":[2,4,6,8,10,12,14,16,18,20,22,24,26,28,30,32,34,36,38,-1,40,42,44,46,48,50,52,-1,54,56,58,-1,-1,-1,-1,-1,-1,-1,-1,-1,-1,-1,-1,-1,-1,-1,-1,-1,-1,-1,-1,-1,-1,-1,-1,-1,-1,-1,-1],"split_conditions":[1.0385E2,1.3555E1,3.1E2,3.65E-1,4.875E1,-1.8095E1,7.43E0,3.35E-1,1E0,1.42575E1,1.567375E1,-1.977125E1,2E0,6.75E0,8.75E0,9.55E1,8.61E1,1.0085E2,-1.859625E1,-8.451133E-1,4.645E1,5.14E1,4.935E1,1.657E2,2.02E1,3.125E0,-1.69E1,3.3278272E0,-1.58125E1,8.1E0,-1.306E1,-5.4531133E-1,-6.1939675E-1,-4.4115433E-1,-2.2549257E-1,6.96471E-2,9.3386894E-1,-4.193576E-1,-2.4864122E-1,-5.565163E-1,-6.3421065E-1,-4.3268013E-1,-5.590815E-1,-5.4879606E-1,-7.527177E-1,5.0362194E-1,1.0917145E0,2.2704682E0,1.2231517E0,3.013489E-1,5.8821017E-1,1.4302209E-1,3.9630446E-1,7.860288E-1,1.8352816E0,1.0854809E0,1.4588355E0,1.070725E0,6.4427453E-1],"split_indices":[2,4,2,3,2,4,3,3,5,4,4,4,5,3,3,2,2,2,4,0,2,2,2,2,3,3,4,0,4,3,4,0,0,0,0,0,0,0,0,0,0,0,0,0,0,0,0,0,0,0,0,0,0,0,0,0,0,0,0],"split_type":[0,0,0,0,0,0,0,0,0,0,0,0,0,0,0,0,0,0,0,0,0,0,0,0,0,0,0,0,0,0,0,0,0,0,0,0,0,0,0,0,0,0,0,0,0,0,0,0,0,0,0,0,0,0,0,0,0,0,0],"sum_hessian":[3.5114E4,2.3331E4,1.1783E4,1.9385E4,3.946E3,9.946E3,1.837E3,1.318E3,1.8067E4,2.529E3,1.417E3,8.57E2,9.089E3,5.49E2,1.288E3,7.59E2,5.59E2,1.33E2,1.7934E4,9.7E1,2.432E3,1.338E3,7.9E1,1.72E2,6.85E2,7.295E3,1.794E3,3.1E1,5.18E2,8.16E2,4.72E2,5.23E2,2.36E2,4.86E2,7.3E1,1.1E2,2.3E1,1.059E3,1.6875E4,1.484E3,9.48E2,8.69E2,4.69E2,1.9E1,6E1,1.35E2,3.7E1,4.5E1,6.4E2,2.125E3,5.17E3,1.442E3,3.52E2,1.7E1,5.01E2,6.45E2,1.71E2,3.18E2,1.54E2],"tree_param":{"num_deleted":"0","num_feature":"6","num_nodes":"59","size_leaf_vector":"1"}},{"base_weights":[4.3775663E-2,-1.0361081E1,2.0595167E1,-8.789042E0,-1.810586E1,1.6502113E1,4.3317924E1,-1.6520039E1,-8.207493E0,-1.9316328E1,-1.595153E1,3.740883E1,1.4451116E1,6.166945E1,3.517256E1,-1.887307E1,-1.3209022E1,-1.5457623E1,-8.007112E0,-1.8011251E1,-2.1088787E1,-1.5625107E1,-8.344779E-1,7.3977776E1,3.5440277E1,1.6512285E1,6.2788334E0,8.198968E1,5.6416332E1,3.8503147E1,2.929078E1,-5.477355E-1,-6.3826275E-1,-4.15935E-1,-2.6686275E-1,-4.3317974E-1,-5.3416675E-1,-2.6415023E-1,-1.8648542E-1,-3.2508928E-1,-5.854659E-1,-8.0495244E-1,-6.1479783E-1,-4.3753377E-1,-5.53028E-1,2.3545203E0,1.2994037E0,6.5073305E-1,1.1761249E0,2.949201E-1,5.765909E-1,1.3972911E-1,3.8775402E-1,1.6775521E0,2.854524E0,1.4763377E0,1.8551713E0,1.0718176E0,1.4551307E0,1.0082445E0,5.6038195E-1],"categories":[],"categories_nodes":[],"categories_segments":[],"categories_sizes":[],"default_left":[0,0,0,0,0,0,0,0,0,0,0,0,0,0,0,0,0,0,0,0,0,0,0,0,0,0,0,0,0,0,0,0,0,0,0,0,0,0,0,0,0,0,0,0,0,0,0,0,0,0,0,0,0,0,0,0,0,0,0,0,0],"id":12,"left_children":[1,3,5,7,9,11,13,15,17,19,21,23,25,27,29,31,33,35,37,39,41,43,-1,45,47,49,51,53,55,57,59,-1,-1,-1,-1,-1,-1,-1,-1,-1,-1,-1,-1,-1,-1,-1,-1,-1,-1,-1,-1,-1,-1,-1,-1,-1,-1,-1,-1,-1,-1],"loss_changes":[7.5592565E6,2.855755E5,1.10437E6,8.7582625E4,1.0012375E4,4.31252E5,2.6882825E5,1.03743125E4,2.6239E4,5.4686875E3,5.0991875E3,6.208425E4,1.5439138E5,5.471025E4,2.3509375E4,7.8259375E2,1.4860547E3,9.040469E2,2.5182375E4,1.5586625E4,3.094625E3,3.803E3,0E0,2.8065469E3,4.3390125E4,1.322985E5,1.9860945E4,3.3094375E4,1.4332375E4,2.0468375E4,2.0395281E4,0E0,0E0,0E0,0E0,0E0,0E0,0E0,0E0,0E0,0E0,0E0,0E0,0E0,0E0,0E0,0E0,0E0,0E0,0E0,0E0,0E0,0E0,0E0,0E0,0E0,0E0,0E0,0E0,0E0,0E0],"parents":[2147483647,0,0,1,1,2,2,3,3,4,4,5,5,6,6,7,7,8,8,9,9,10,10,11,11,12,12,13,13,14,14,15,15,16,16,17,17,18,18,19,19,20,20,21,21,23,23,24,24,25,25,26,26,27,27,28,28,29,29,30,30],"right_children":[2,4,6,8,10,12,14,16,18,20,22,24,26,28,30,32,34,36,38,40,42,44,-1,46,48,50,52,54,56,58,60,-1,-1,-1,-1,-1,-1,-1,-1,-1,-1,-1,-1,-1,-1,-1,-1,-1,-1,-1,-1,-1,-1,-1,-1,-1,-1,-1,-1,-1,-1],"split_conditions":[1.0385E2,1.3555E1,3.1E2,3.65E-1,4.875E1,-1.8095E1,7.43E0,3.35E-1,-2.00675E1,4.645E1,1.5875E1,2.02E1,2E0,7E0,8.75E0,9.57E1,8.61E1,4.45E-1,8.155E1,1.61575E1,1.42575E1,5.255E1,-8.344779E-1,1.3635E2,-1.977125E1,3.125E0,-1.69E1,3.3175E2,3.2515E2,8.1E0,-1.275E1,-5.477355E-1,-6.3826275E-1,-4.15935E-1,-2.6686275E-1,-4.3317974E-1,-5.3416675E-1,-2.6415023E-1,-1.8648542E-1,-3.2508928E-1,-5.854659E-1,-8.0495244E-1,-6.1479783E-1,-4.3753377E-1,-5.53028E-1,2.3545203E0,1.2994037E0,6.5073305E-1,1.1761249E0,2.949201E-1,5.765909E-1,1.3972911E-1,3.8775402E-1,1.6775521E0,2.854524E0,1.4763377E0,1.8551713E0,1.0718176E0,1.4551307E0,1.0082445E0,5.6038195E-1],"split_indices":[2,4,2,3,2,4,3,3,4,2,4,3,5,3,3,2,2,3,2,4,4,2,0,2,4,3,4,2,2,3,4,0,0,0,0,0,0,0,0,0,0,0,0,0,0,0,0,0,0,0,0,0,0,0,0,0,0,0,0,0,0],"split_type":[0,0,0,0,0,0,0,0,0,0,0,0,0,0,0,0,0,0,0,0,0,0,0,0,0,0,0,0,0,0,0,0,0,0,0,0,0,0,0,0,0,0,0,0,0,0,0,0,0,0,0,0,0,0,0,0,0,0,0,0,0],"sum_hessian":[3.5349E4,2.3468E4,1.1881E4,1.951E4,3.958E3,1.0069E4,1.812E3,1.363E3,1.8147E4,2.529E3,1.429E3,8.98E2,9.171E3,5.55E2,1.257E3,7.94E2,5.69E2,4.86E2,1.7661E4,1.463E3,1.066E3,1.393E3,3.6E1,4.4E1,8.54E2,7.323E3,1.848E3,1.11E2,4.44E2,7.99E2,4.58E2,6.39E2,1.55E2,4.92E2,7.7E1,3.44E2,1.42E2,1.2215E4,5.446E3,2.55E2,1.208E3,9.6E1,9.7E2,1.021E3,3.72E2,3.7E1,7E0,1.85E2,6.69E2,2.113E3,5.21E3,1.487E3,3.61E2,3.9E1,7.2E1,1.95E2,2.49E2,6.29E2,1.7E2,3.24E2,1.34E2],"tree_param":{"num_deleted":"0","num_feature":"6","num_nodes":"61","size_leaf_vector":"1"}},{"base_weights":[-7.4166656E-2,-1.0036142E1,1.9798916E1,-1.4013354E1,-2.5676785E0,9.380955E0,3.3191883E1,-1.7676039E1,-1.1676446E1,-5.09379E0,8.079372E-1,-8.983748E0,1.2609376E1,2.8450468E1,5.8033787E1,-1.6129868E1,-2.27529E1,-1.0580761E1,-1.660203E1,-4.107608E0,-1.1772717E1,1.31699E-1,1.7346933E1,-1.9818426E1,-2.9388444E0,9.504638E0,2.974633E1,2.5375156E1,5.7630135E1,4.479142E1,7.870885E1,-6.0829914E-1,-4.4774348E-1,-8.619036E-1,-6.491639E-1,-5.715873E-1,-2.882504E-1,-5.3843105E-1,-4.2442107E-1,-4.9221542E-1,-1.0757685E-1,-2.061052E-1,-3.8769528E-1,-2.0404789E-1,2.6962122E-2,2.0208743E0,3.7335238E-1,-8.7490135E-1,-4.318867E-1,-3.084193E-2,-4.183296E-1,1.8170735E-1,4.3138146E-1,1.1562643E0,5.6090236E-1,1.3098875E0,6.9146717E-1,2.5525765E0,1.5313638E0,1.1770763E0,2.656E0,1.9522746E0,3.2287283E0],"categories":[],"categories_nodes":[],"categories_segments":[],"categories_sizes":[],"default_left":[0,0,0,0,0,0,0,0,0,0,0,0,0,0,0,0,0,0,0,0,0,0,0,0,0,0,0,0,0,0,0,0,0,0,0,0,0,0,0,0,0,0,0,0,0,0,0,0,0,0,0,0,0,0,0,0,0,0,0,0,0,0,0],"id":13,"left_children":[1,3,5,7,9,11,13,15,17,19,21,23,25,27,29,31,33,35,37,39,41,43,45,47,49,51,53,55,57,59,61,-1,-1,-1,-1,-1,-1,-1,-1,-1,-1,-1,-1,-1,-1,-1,-1,-1,-1,-1,-1,-1,-1,-1,-1,-1,-1,-1,-1,-1,-1,-1,-1],"loss_changes":[6.96734E6,6.9627575E5,1.6392715E6,1.3071475E5,6.9475484E4,3.9207312E5,6.03877E5,4.6381875E4,5.0234E4,3.064379E4,3.900681E4,6.471364E4,2.9888938E5,3.861015E5,2.21789E5,2.2526125E4,8.6163125E3,6.2788688E4,5.3516875E3,2.6004398E4,3.2877031E3,1.7831809E4,3.2741824E4,1.7513047E4,1.3358638E4,7.994475E4,8.305156E4,1.6528325E5,6.9946625E4,1.18990625E5,1.19124375E5,0E0,0E0,0E0,0E0,0E0,0E0,0E0,0E0,0E0,0E0,0E0,0E0,0E0,0E0,0E0,0E0,0E0,0E0,0E0,0E0,0E0,0E0,0E0,0E0,0E0,0E0,0E0,0E0,0E0,0E0,0E0,0E0],"parents":[2147483647,0,0,1,1,2,2,3,3,4,4,5,5,6,6,7,7,8,8,9,9,10,10,11,11,12,12,13,13,14,14,15,15,16,16,17,17,18,18,19,19,20,20,21,21,22,22,23,23,24,24,25,25,26,26,27,27,28,28,29,29,30,30],"right_children":[2,4,6,8,10,12,14,16,18,20,22,24,26,28,30,32,34,36,38,40,42,44,46,48,50,52,54,56,58,60,62,-1,-1,-1,-1,-1,-1,-1,-1,-1,-1,-1,-1,-1,-1,-1,-1,-1,-1,-1,-1,-1,-1,-1,-1,-1,-1,-1,-1,-1,-1,-1,-1],"split_conditions":[1.0385E2,1.8982E4,1.62154E4,1.4721E4,2.10801E4,1.0798E4,3.1E2,1.391125E1,1.3555E1,1.21375E1,2.46851E4,9.0272E3,3.1E2,2.15262E4,-9.94625E0,1.22532E4,1.14397E4,3.8E-1,1.75961E4,3.35E-1,4.645E1,3.65E-1,-1.66675E1,7.6388E3,9.5E0,1.129375E1,7.9E0,-1.83175E1,-1.859625E1,2.08105E4,1.88457E4,-6.0829914E-1,-4.4774348E-1,-8.619036E-1,-6.491639E-1,-5.715873E-1,-2.882504E-1,-5.3843105E-1,-4.2442107E-1,-4.9221542E-1,-1.0757685E-1,-2.061052E-1,-3.8769528E-1,-2.0404789E-1,2.6962122E-2,2.0208743E0,3.7335238E-1,-8.7490135E-1,-4.318867E-1,-3.084193E-2,-4.183296E-1,1.8170735E-1,4.3138146E-1,1.1562643E0,5.6090236E-1,1.3098875E0,6.9146717E-1,2.5525765E0,1.5313638E0,1.1770763E0,2.656E0,1.9522746E0,3.2287283E0],"split_indices":[2,0,0,0,0,0,2,4,4,4,0,0,2,0,4,0,0,3,0,3,2,3,4,0,3,4,3,4,4,0,0,0,0,0,0,0,0,0,0,0,0,0,0,0,0,0,0,0,0,0,0,0,0,0,0,0,0,0,0,0,0,0,0],"split_type":[0,0,0,0,0,0,0,0,0,0,0,0,0,0,0,0,0,0,0,0,0,0,0,0,0,0,0,0,0,0,0,0,0,0,0,0,0,0,0,0,0,0,0,0,0,0,0,0,0,0,0,0,0,0,0,0,0,0,0,0,0,0,0],"sum_hessian":[3.5191E4,2.3441E4,1.175E4,1.5295E4,8.146E3,6.61E3,5.14E3,5.955E3,9.34E3,4.659E3,3.487E3,9.88E2,5.622E3,4.318E3,8.22E2,4.568E3,1.387E3,7.643E3,1.697E3,4.061E3,5.98E2,3.351E3,1.36E2,3.53E2,6.35E2,4.761E3,8.61E2,3.908E3,4.1E2,5.03E2,3.19E2,1.025E3,3.543E3,2.14E2,1.173E3,7.85E2,6.858E3,1.092E3,6.05E2,1.64E2,3.897E3,1.15E2,4.83E2,3.33E2,3.018E3,1.1E1,1.25E2,1.28E2,2.25E2,5.42E2,9.3E1,2.79E3,1.971E3,4.78E2,3.83E2,4.39E2,3.469E3,7.7E1,3.33E2,4.48E2,5.5E1,2.19E2,1E2],"tree_param":{"num_deleted":"0","num_feature":"6","num_nodes":"63","size_leaf_vector":"1"}},{"base_weights":[-2.6506554E-2,-9.747963E0,1.916242E1,-8.271631E0,-1.7073914E1,1.1512522E1,3.1436544E1,-1.4775281E1,-7.6672044E0,-1.4012838E1,-1.810751E1,9.577416E0,2.0728617E1,2.6726824E1,4.365328E1,-1.5230843E1,5.6414294E0,-8.306429E0,-3.9829383E0,-1.8029922E1,-1.1115349E1,-2.0245577E1,-1.5303886E1,4.4771276E0,1.1542143E1,1.5008371E1,2.8838928E1,3.5313595E1,2.1367481E1,6.1198185E1,3.316389E1,-5.281565E-1,-3.9078557E-1,1.1952643E-1,1.9417782E-1,-1.7514785E-1,-2.7257693E-1,-1.8361624E-1,-1.410677E-3,-5.0218236E-1,-6.197695E-1,-2.9589665E-1,-3.8981313E-1,-6.599363E-1,-5.0647044E-1,-3.2249385E-1,-4.878706E-1,-1.527686E-1,1.5403578E-1,2.7389193E-1,4.1524827E-1,7.734666E-1,3.5384437E-1,8.9838487E-1,4.398763E-1,1.1700336E0,6.8600637E-1,5.099772E-1,9.886968E-1,2.8496225E0,1.7634753E0,1.0985794E0,7.896469E-1],"categories":[],"categories_nodes":[],"categories_segments":[],"categories_sizes":[],"default_left":[0,0,0,0,0,0,0,0,0,0,0,0,0,0,0,0,0,0,0,0,0,0,0,0,0,0,0,0,0,0,0,0,0,0,0,0,0,0,0,0,0,0,0,0,0,0,0,0,0,0,0,0,0,0,0,0,0,0,0,0,0,0,0],"id":14,"left_children":[1,3,5,7,9,11,13,15,17,19,21,23,25,27,29,31,33,35,37,39,41,43,45,47,49,51,53,55,57,59,61,-1,-1,-1,-1,-1,-1,-1,-1,-1,-1,-1,-1,-1,-1,-1,-1,-1,-1,-1,-1,-1,-1,-1,-1,-1,-1,-1,-1,-1,-1,-1,-1],"loss_changes":[6.603855E6,2.5398875E5,1.1173695E6,7.67665E4,1.2208875E4,1.3061169E5,2.617725E5,1.5545281E4,4.21145E4,1.14245E4,1.7321875E4,6.0712125E4,5.8574688E4,1.5115E5,2.31686E5,8.279156E3,2.4130615E1,2.9284375E4,2.227784E4,1.06525E3,1.2407812E3,9.443125E3,5.3965E3,1.0645215E4,2.415175E4,2.5589688E4,7.797125E3,5.725425E4,1.0245431E5,3.3090625E4,1.7873375E4,0E0,0E0,0E0,0E0,0E0,0E0,0E0,0E0,0E0,0E0,0E0,0E0,0E0,0E0,0E0,0E0,0E0,0E0,0E0,0E0,0E0,0E0,0E0,0E0,0E0,0E0,0E0,0E0,0E0,0E0,0E0,0E0],"parents":[2147483647,0,0,1,1,2,2,3,3,4,4,5,5,6,6,7,7,8,8,9,9,10,10,11,11,12,12,13,13,14,14,15,15,16,16,17,17,18,18,19,19,20,20,21,21,22,22,23,23,24,24,25,25,26,26,27,27,28,28,29,29,30,30],"right_children":[2,4,6,8,10,12,14,16,18,20,22,24,26,28,30,32,34,36,38,40,42,44,46,48,50,52,54,56,58,60,62,-1,-1,-1,-1,-1,-1,-1,-1,-1,-1,-1,-1,-1,-1,-1,-1,-1,-1,-1,-1,-1,-1,-1,-1,-1,-1,-1,-1,-1,-1,-1,-1],"split_conditions":[1.0385E2,1.371375E1,7.4353E1,3.75E-1,5.71E0,1.48925E1,3.2165E2,2.2605E1,2.3689E1,4.005E1,4.875E1,-1.669875E1,5.0232E1,1.83E2,7.43E0,3.35E-1,2.3103E1,1.2855E1,6.75E-1,5.21E0,1.64425E1,8.625E0,6.62E0,2.803E1,3.125E0,3.575E0,1.60175E1,-1.638375E1,3.1E2,6.75E0,8.75E0,-5.281565E-1,-3.9078557E-1,1.1952643E-1,1.9417782E-1,-1.7514785E-1,-2.7257693E-1,-1.8361624E-1,-1.410677E-3,-5.0218236E-1,-6.197695E-1,-2.9589665E-1,-3.8981313E-1,-6.599363E-1,-5.0647044E-1,-3.2249385E-1,-4.878706E-1,-1.527686E-1,1.5403578E-1,2.7389193E-1,4.1524827E-1,7.734666E-1,3.5384437E-1,8.9838487E-1,4.398763E-1,1.1700336E0,6.8600637E-1,5.099772E-1,9.886968E-1,2.8496225E0,1.7634753E0,1.0985794E0,7.896469E-1],"split_indices":[2,4,1,3,1,4,2,1,1,2,2,4,1,2,3,3,1,1,3,1,4,1,1,1,3,3,4,4,2,3,3,0,0,0,0,0,0,0,0,0,0,0,0,0,0,0,0,0,0,0,0,0,0,0,0,0,0,0,0,0,0,0,0],"split_type":[0,0,0,0,0,0,0,0,0,0,0,0,0,0,0,0,0,0,0,0,0,0,0,0,0,0,0,0,0,0,0,0,0,0,0,0,0,0,0,0,0,0,0,0,0,0,0,0,0,0,0,0,0,0,0,0,0,0,0,0,0,0,0],"sum_hessian":[3.5399E4,2.3496E4,1.1903E4,1.9557E4,3.939E3,7.334E3,4.569E3,1.661E3,1.7896E4,9.98E2,2.941E3,6.063E3,1.271E3,3.3E3,1.269E3,1.625E3,3.6E1,1.5249E4,2.647E3,4.16E2,5.82E2,1.665E3,1.276E3,1.687E3,4.376E3,7.47E2,5.24E2,1.266E3,2.034E3,4.73E2,7.96E2,7.79E2,8.46E2,1.4E1,2.2E1,3.662E3,1.1587E4,1.715E3,9.32E2,2.84E2,1.32E2,3.53E2,2.29E2,1.091E3,5.74E2,2.24E2,1.052E3,1.08E2,1.579E3,2.138E3,2.238E3,1.7E2,5.77E2,4.85E2,3.9E1,9.75E2,2.91E2,1.479E3,5.55E2,2.9E1,4.44E2,5.26E2,2.7E2],"tree_param":{"num_deleted":"0","num_feature":"6","num_nodes":"63","size_leaf_vector":"1"}},{"base_weights":[5.1972035E-2,2.1044796E1,-8.457028E0,7.391843E0,3.4441494E1,-1.3439449E1,-2.8605478E0,-1.1241745E1,1.1092062E1,2.7137287E1,4.6570835E1,-1.4664067E1,-4.1176566E-1,-3.9555297E0,1.1270786E1,-2.0057056E1,-4.3488355E0,8.435269E0,2.5381527E1,2.2720568E1,4.4384327E1,4.3646782E1,9.970195E1,-2.0912014E1,-1.3601085E1,-4.3558297E0,5.7026668E0,-7.984614E0,-1.0724893E0,9.409315E0,1.3926404E1,-8.4541E-1,-4.4767565E-1,-4.457151E-1,-8.4230915E-2,8.371041E-2,3.3444995E-1,4.7419772E-1,1.0578599E0,6.0037374E-1,8.5327536E-1,9.685063E-1,1.7239242E0,1.1470249E0,1.6346729E0,2.2022095E0,5.042198E0,-1.0289671E0,-6.039107E-1,-3.6910915E-1,-5.274938E-1,-1.641621E-1,3.5735494E-1,8.7322995E-2,2.93458E-1,-2.0046155E-1,-3.757446E-1,-5.719099E-2,2.4036698E-1,2.335407E-1,4.0486315E-1,3.525476E-1,4.6868643E-1],"categories":[],"categories_nodes":[],"categories_segments":[],"categories_sizes":[],"default_left":[0,0,0,0,0,0,0,0,0,0,0,0,0,0,0,0,0,0,0,0,0,0,0,0,0,0,0,0,0,0,0,0,0,0,0,0,0,0,0,0,0,0,0,0,0,0,0,0,0,0,0,0,0,0,0,0,0,0,0,0,0,0,0],"id":15,"left_children":[1,3,5,7,9,11,13,15,17,19,21,23,25,27,29,31,33,35,37,39,41,43,45,47,49,51,53,55,57,59,61,-1,-1,-1,-1,-1,-1,-1,-1,-1,-1,-1,-1,-1,-1,-1,-1,-1,-1,-1,-1,-1,-1,-1,-1,-1,-1,-1,-1,-1,-1,-1,-1],"loss_changes":[6.312177E6,1.8639035E6,7.011036E5,3.4824488E5,4.54463E5,2.1221175E5,1.8331262E5,5.0769086E4,1.5972547E5,2.43736E5,2.9578575E5,8.04655E4,2.761308E4,1.2768534E5,4.0783672E3,1.4882469E4,7.5842676E3,5.439711E4,6.187672E4,3.9094875E4,1.01648375E5,1.054775E5,1.6742031E5,1.7783562E4,5.3481E4,1.2702944E4,5.083877E3,2.7029656E4,4.8566312E4,3.2385742E3,1.1013203E3,0E0,0E0,0E0,0E0,0E0,0E0,0E0,0E0,0E0,0E0,0E0,0E0,0E0,0E0,0E0,0E0,0E0,0E0,0E0,0E0,0E0,0E0,0E0,0E0,0E0,0E0,0E0,0E0,0E0,0E0,0E0,0E0],"parents":[2147483647,0,0,1,1,2,2,3,3,4,4,5,5,6,6,7,7,8,8,9,9,10,10,11,11,12,12,13,13,14,14,15,15,16,16,17,17,18,18,19,19,20,20,21,21,22,22,23,23,24,24,25,25,26,26,27,27,28,28,29,29,30,30],"right_children":[2,4,6,8,10,12,14,16,18,20,22,24,26,28,30,32,34,36,38,40,42,44,46,48,50,52,54,56,58,60,62,-1,-1,-1,-1,-1,-1,-1,-1,-1,-1,-1,-1,-1,-1,-1,-1,-1,-1,-1,-1,-1,-1,-1,-1,-1,-1,-1,-1,-1,-1,-1,-1],"split_conditions":[2E0,1.52801E4,1.75961E4,1.04644E4,1.87445E4,1.0125E2,1.0385E2,9.0272E3,3.175E2,3.175E2,3.2815E2,1.26058E4,1.55994E4,1.976E4,1.98055E4,7.6388E3,-1.275E1,1.26058E4,1.34366E4,1.74651E4,-9.94625E0,2.10218E4,-7.15625E0,9.7624E3,8.975E0,1.5435E2,1.4425E2,1.098E1,2.36549E4,-1.71275E1,-1.764625E1,-8.4541E-1,-4.4767565E-1,-4.457151E-1,-8.4230915E-2,8.371041E-2,3.3444995E-1,4.7419772E-1,1.0578599E0,6.0037374E-1,8.5327536E-1,9.685063E-1,1.7239242E0,1.1470249E0,1.6346729E0,2.2022095E0,5.042198E0,-1.0289671E0,-6.039107E-1,-3.6910915E-1,-5.274938E-1,-1.641621E-1,3.5735494E-1,8.7322995E-2,2.93458E-1,-2.0046155E-1,-3.757446E-1,-5.719099E-2,2.4036698E-1,2.335407E-1,4.0486315E-1,3.525476E-1,4.6868643E-1],"split_indices":[5,0,0,0,0,2,2,0,2,2,2,0,0,0,0,0,4,0,0,0,4,0,4,0,4,2,2,4,0,4,4,0,0,0,0,0,0,0,0,0,0,0,0,0,0,0,0,0,0,0,0,0,0,0,0,0,0,0,0,0,0,0,0],"split_type":[0,0,0,0,0,0,0,0,0,0,0,0,0,0,0,0,0,0,0,0,0,0,0,0,0,0,0,0,0,0,0,0,0,0,0,0,0,0,0,0,0,0,0,0,0,0,0,0,0,0,0,0,0,0,0,0,0,0,0,0,0,0,0],"sum_hessian":[3.5335E4,1.0191E4,2.5144E4,5.048E3,5.143E3,1.3301E4,1.1843E4,8.36E2,4.212E3,3.212E3,1.931E3,1.2158E4,1.143E3,1.0992E4,8.51E2,3.66E2,4.7E2,3.553E3,6.59E2,2.559E3,6.53E2,1.832E3,9.9E1,1.765E3,1.0393E4,6.95E2,4.48E2,4.584E3,6.408E3,5.03E2,3.48E2,1.4E2,2.26E2,5.9E1,4.11E2,1.154E3,2.399E3,3.36E2,3.23E2,1.74E3,8.19E2,3.41E2,3.12E2,1.225E3,6.07E2,7.3E1,2.6E1,9.5E1,1.67E3,7.842E3,2.551E3,6.51E2,4.4E1,2.67E2,1.81E2,3.564E3,1.02E3,5.87E3,5.38E2,3.62E2,1.41E2,1.56E2,1.92E2],"tree_param":{"num_deleted":"0","num_feature":"6","num_nodes":"63","size_leaf_vector":"1"}},{"base_weights":[-4.1478532E-3,-9.1883E0,1.808301E1,-1.2911967E1,-2.026565E0,8.338741E0,3.047067E1,-1.5896161E1,-1.0230545E1,-3.6596487E0,2.9403644E0,-2.839398E0,1.2764672E1,2.0663572E1,4.182621E1,-2.2360113E1,-1.4950924E1,-1.1192257E1,-4.7200174E0,-5.7250404E0,-5.3115237E-1,1.101607E0,9.698433E0,-1.5891379E1,1.2650771E0,9.785525E0,3.0819105E1,2.862036E1,1.25894E1,6.809822E1,3.8071E1,-9.022463E-1,-6.169497E-1,-4.7836712E-1,-2.9896134E-1,-5.6199765E-1,-3.1818777E-1,-2.5466228E-1,1.3628134E-1,-1.3873227E-1,-3.1804818E-1,-2.9267112E-2,4.870399E-1,1.2042994E-1,-2.3032652E-2,2.1380822E-1,6.58912E-1,-7.885292E-1,-3.6799616E-1,1.2487467E-1,-2.8805014E-1,3.901272E-1,1.5240213E-1,1.1878966E0,5.7927686E-1,7.289099E-1,1.1306568E0,3.5387933E-1,1.3818624E0,1.6659569E0,3.0014563E0,9.2381746E-1,1.6165851E0],"categories":[],"categories_nodes":[],"categories_segments":[],"categories_sizes":[],"default_left":[0,0,0,0,0,0,0,0,0,0,0,0,0,0,0,0,0,0,0,0,0,0,0,0,0,0,0,0,0,0,0,0,0,0,0,0,0,0,0,0,0,0,0,0,0,0,0,0,0,0,0,0,0,0,0,0,0,0,0,0,0,0,0],"id":16,"left_children":[1,3,5,7,9,11,13,15,17,19,21,23,25,27,29,31,33,35,37,39,41,43,45,47,49,51,53,55,57,59,61,-1,-1,-1,-1,-1,-1,-1,-1,-1,-1,-1,-1,-1,-1,-1,-1,-1,-1,-1,-1,-1,-1,-1,-1,-1,-1,-1,-1,-1,-1,-1,-1],"loss_changes":[5.865361E6,6.244816E5,1.4350892E6,1.2311975E5,6.499946E4,3.293835E5,5.821245E5,4.4203625E4,4.296725E4,3.89596E4,2.4629887E4,1.0121819E5,2.5620356E5,1.8022675E5,2.3664E5,1.22283125E4,3.139175E4,3.0338062E4,4.2208637E4,1.9443469E4,1.7889338E4,8.497508E3,1.321357E4,1.670179E4,4.5315504E4,6.195303E4,6.7423E4,5.4553375E4,3.6552375E4,1.15681125E5,2.4277975E5,0E0,0E0,0E0,0E0,0E0,0E0,0E0,0E0,0E0,0E0,0E0,0E0,0E0,0E0,0E0,0E0,0E0,0E0,0E0,0E0,0E0,0E0,0E0,0E0,0E0,0E0,0E0,0E0,0E0,0E0,0E0,0E0],"parents":[2147483647,0,0,1,1,2,2,3,3,4,4,5,5,6,6,7,7,8,8,9,9,10,10,11,11,12,12,13,13,14,14,15,15,16,16,17,17,18,18,19,19,20,20,21,21,22,22,23,23,24,24,25,25,26,26,27,27,28,28,29,29,30,30],"right_children":[2,4,6,8,10,12,14,16,18,20,22,24,26,28,30,32,34,36,38,40,42,44,46,48,50,52,54,56,58,60,62,-1,-1,-1,-1,-1,-1,-1,-1,-1,-1,-1,-1,-1,-1,-1,-1,-1,-1,-1,-1,-1,-1,-1,-1,-1,-1,-1,-1,-1,-1,-1,-1],"split_conditions":[1.0385E2,1.90312E4,1.62154E4,1.52427E4,2.042E1,1.21151E4,7.4353E1,1.17211E4,2.25E1,2.11955E4,2.22674E4,9.4579E3,3.175E2,6.75E0,7.74E0,1.0022E4,2.25E1,3.7E-1,1.78E0,7.175E1,2.46851E4,4.45E-1,9.125E1,7.6388E3,1.02E1,1.5E1,7.9E0,1.90744E4,2.19922E4,3.3175E2,2.01474E4,-9.022463E-1,-6.169497E-1,-4.7836712E-1,-2.9896134E-1,-5.6199765E-1,-3.1818777E-1,-2.5466228E-1,1.3628134E-1,-1.3873227E-1,-3.1804818E-1,-2.9267112E-2,4.870399E-1,1.2042994E-1,-2.3032652E-2,2.1380822E-1,6.58912E-1,-7.885292E-1,-3.6799616E-1,1.2487467E-1,-2.8805014E-1,3.901272E-1,1.5240213E-1,1.1878966E0,5.7927686E-1,7.289099E-1,1.1306568E0,3.5387933E-1,1.3818624E0,1.6659569E0,3.0014563E0,9.2381746E-1,1.6165851E0],"split_indices":[2,0,0,0,1,0,1,0,1,0,0,0,2,3,3,0,1,3,3,2,0,3,2,0,3,3,3,0,0,2,0,0,0,0,0,0,0,0,0,0,0,0,0,0,0,0,0,0,0,0,0,0,0,0,0,0,0,0,0,0,0,0,0],"split_type":[0,0,0,0,0,0,0,0,0,0,0,0,0,0,0,0,0,0,0,0,0,0,0,0,0,0,0,0,0,0,0,0,0,0,0,0,0,0,0,0,0,0,0,0,0,0,0,0,0,0,0,0,0,0,0,0,0,0,0,0,0,0,0],"sum_hessian":[3.5307E4,2.3417E4,1.189E4,1.5406E4,8.011E3,6.656E3,5.234E3,7.289E3,8.117E3,6.029E3,1.982E3,1.888E3,4.768E3,2.81E3,2.424E3,9.27E2,6.362E3,6.91E3,1.207E3,3.631E3,2.398E3,1.559E3,4.23E2,4.51E2,1.437E3,4.094E3,6.74E2,1.414E3,1.396E3,3.01E2,2.123E3,1.72E2,7.55E2,5.302E3,1.06E3,4.96E2,6.414E3,8.58E2,3.49E2,2.964E3,6.67E2,2.337E3,6.1E1,6.09E2,9.5E2,3.51E2,7.2E1,1.15E2,3.36E2,1.135E3,3.02E2,2.43E3,1.664E3,3.81E2,2.93E2,9.6E2,4.54E2,1.365E3,3.1E1,2.18E2,8.3E1,1.456E3,6.67E2],"tree_param":{"num_deleted":"0","num_feature":"6","num_nodes":"63","size_leaf_vector":"1"}},{"base_weights":[-2.2613822E-2,-8.896385E0,1.7583351E1,-1.2579133E1,-1.9607198E0,6.5469136E0,2.7974947E1,-1.5964118E1,-1.0377669E1,-3.5720482E0,2.9408288E0,-1.1923947E1,9.253643E0,1.9780344E1,3.9882713E1,-1.7040115E1,-1.0430803E1,-1.1280824E1,-5.2887135E0,-5.510242E0,-4.7564167E-1,8.278599E-1,9.679218E0,-2.230666E1,-6.4479737E0,6.6128683E0,2.3637693E1,2.6144102E1,1.3552519E1,3.1719395E1,5.372384E1,-6.8226E-1,-4.7461006E-1,-4.1513088E-1,-1.6253644E-1,-5.59322E-1,-3.2198733E-1,-2.6372382E-1,1.0663624E-1,-1.3696799E-1,-3.5074195E-1,-2.8491009E-2,5.5854136E-1,1.1973114E-1,-3.344577E-2,1.5038365E-1,4.1070744E-1,-7.9998845E-1,-4.1633245E-1,-1.4034621E-1,-5.0236464E-1,2.8157738E-1,5.9939425E-2,1.1309237E0,5.0890875E-1,6.086E-1,9.9120605E-1,2.6488566E-1,7.0150894E-1,1.3822821E0,7.431031E-1,1.5004022E0,3.5505898E0],"categories":[],"categories_nodes":[],"categories_segments":[],"categories_sizes":[],"default_left":[0,0,0,0,0,0,0,0,0,0,0,0,0,0,0,0,0,0,0,0,0,0,0,0,0,0,0,0,0,0,0,0,0,0,0,0,0,0,0,0,0,0,0,0,0,0,0,0,0,0,0,0,0,0,0,0,0,0,0,0,0,0,0],"id":17,"left_children":[1,3,5,7,9,11,13,15,17,19,21,23,25,27,29,31,33,35,37,39,41,43,45,47,49,51,53,55,57,59,61,-1,-1,-1,-1,-1,-1,-1,-1,-1,-1,-1,-1,-1,-1,-1,-1,-1,-1,-1,-1,-1,-1,-1,-1,-1,-1,-1,-1,-1,-1,-1,-1],"loss_changes":[5.493717E6,5.971531E5,1.3512752E6,1.1362975E5,6.4063375E4,2.8588506E5,5.914145E5,3.5637875E4,4.248025E4,3.6629547E4,2.8566617E4,4.1414633E4,1.8923403E5,1.4219938E5,2.7771025E5,3.4655125E4,1.669418E4,3.15075E4,4.329658E4,2.1864531E4,2.1296057E4,9.400695E3,8.895039E3,8.886102E3,8.667133E3,5.390789E4,7.189016E4,7.1144E4,8.4297125E4,1.5429125E5,2.1372275E5,0E0,0E0,0E0,0E0,0E0,0E0,0E0,0E0,0E0,0E0,0E0,0E0,0E0,0E0,0E0,0E0,0E0,0E0,0E0,0E0,0E0,0E0,0E0,0E0,0E0,0E0,0E0,0E0,0E0,0E0,0E0,0E0],"parents":[2147483647,0,0,1,1,2,2,3,3,4,4,5,5,6,6,7,7,8,8,9,9,10,10,11,11,12,12,13,13,14,14,15,15,16,16,17,17,18,18,19,19,20,20,21,21,22,22,23,23,24,24,25,25,26,26,27,27,28,28,29,29,30,30],"right_children":[2,4,6,8,10,12,14,16,18,20,22,24,26,28,30,32,34,36,38,40,42,44,46,48,50,52,54,56,58,60,62,-1,-1,-1,-1,-1,-1,-1,-1,-1,-1,-1,-1,-1,-1,-1,-1,-1,-1,-1,-1,-1,-1,-1,-1,-1,-1,-1,-1,-1,-1,-1,-1],"split_conditions":[1.0385E2,1.8982E4,1.54934E4,1.4721E4,2.042E1,1.02452E4,7.7426E1,2.25E1,2.25E1,2.12507E4,2.20806E4,8.5401E3,3.1E2,6.75E0,1.92448E4,1.18843E4,1.78E0,3.7E-1,1.78E0,7.895E1,2.46851E4,4.45E-1,8.805E1,1.1935E2,8.4E0,1.02E1,7.43E0,1.77358E4,5.7889E1,8.4E0,3.355E2,-6.8226E-1,-4.7461006E-1,-4.1513088E-1,-1.6253644E-1,-5.59322E-1,-3.2198733E-1,-2.6372382E-1,1.0663624E-1,-1.3696799E-1,-3.5074195E-1,-2.8491009E-2,5.5854136E-1,1.1973114E-1,-3.344577E-2,1.5038365E-1,4.1070744E-1,-7.9998845E-1,-4.1633245E-1,-1.4034621E-1,-5.0236464E-1,2.8157738E-1,5.9939425E-2,1.1309237E0,5.0890875E-1,6.086E-1,9.9120605E-1,2.6488566E-1,7.0150894E-1,1.3822821E0,7.431031E-1,1.5004022E0,3.5505898E0],"split_indices":[2,0,0,0,1,0,1,1,1,0,0,0,2,3,0,0,3,3,3,2,0,3,2,2,3,3,3,0,1,3,2,0,0,0,0,0,0,0,0,0,0,0,0,0,0,0,0,0,0,0,0,0,0,0,0,0,0,0,0,0,0,0,0],"split_type":[0,0,0,0,0,0,0,0,0,0,0,0,0,0,0,0,0,0,0,0,0,0,0,0,0,0,0,0,0,0,0,0,0,0,0,0,0,0,0,0,0,0,0,0,0,0,0,0,0,0,0,0,0,0,0,0,0,0,0,0,0,0,0],"sum_hessian":[3.5162E4,2.3379E4,1.1783E4,1.527E4,8.109E3,5.715E3,6.068E3,6.015E3,9.255E3,6.103E3,2.006E3,7.3E2,4.985E3,3.596E3,2.472E3,5.034E3,9.81E2,7.859E3,1.396E3,3.753E3,2.35E3,1.528E3,4.78E2,2.51E2,4.79E2,4.213E3,7.72E2,1.777E3,1.819E3,1.557E3,9.15E2,8.84E2,4.15E3,5.83E2,3.98E2,5.42E2,7.317E3,1E3,3.96E2,3.257E3,4.96E2,2.294E3,5.6E1,5.81E2,9.47E2,2.22E2,2.56E2,1.64E2,8.7E1,4.1E2,6.9E1,2.631E3,1.582E3,2.47E2,5.25E2,9.63E2,8.14E2,1.23E3,5.89E2,5.06E2,1.051E3,8.67E2,4.8E1],"tree_param":{"num_deleted":"0","num_feature":"6","num_nodes":"63","size_leaf_vector":"1"}},{"base_weights":[-5.4866225E-2,1.9234509E1,-7.790763E0,5.6291146E0,3.0503012E1,-1.2462563E1,-2.6851628E0,-1.43146E1,8.5372305E0,2.4323092E1,4.310709E1,-1.3530559E1,-7.94841E-1,-3.6748607E0,1.008708E1,-2.7738604E1,-1.0068467E1,6.3704715E0,1.9873167E1,2.0049637E1,4.109589E1,4.0233997E1,8.973223E1,-1.9232658E1,-1.2515203E1,-5.5168295E0,3.4054534E0,-6.4862227E0,2.0606697E-1,8.23534E0,1.2862006E1,1.1647021E-2,-8.700498E-1,-3.828537E-1,-2.1654081E-1,2.240566E-2,2.77197E-1,8.3688205E-1,2.8898895E-1,5.246835E-1,7.8321546E-1,1.5008407E0,9.331063E-1,1.0646881E0,1.6338482E0,4.5425596E0,2.0875251E0,-9.566289E-1,-5.5419475E-1,-5.3467035E-1,-3.510882E-1,-2.0412792E-1,3.049309E-1,9.005215E-3,2.5417098E-1,-5.104875E-1,-1.8244971E-1,-1.6601058E-2,3.6679405E-1,1.9695482E-1,3.5204566E-1,3.5297358E-1,4.8114553E-1],"categories":[],"categories_nodes":[],"categories_segments":[],"categories_sizes":[],"default_left":[0,0,0,0,0,0,0,0,0,0,0,0,0,0,0,0,0,0,0,0,0,0,0,0,0,0,0,0,0,0,0,0,0,0,0,0,0,0,0,0,0,0,0,0,0,0,0,0,0,0,0,0,0,0,0,0,0,0,0,0,0,0,0],"id":18,"left_children":[1,3,5,7,9,11,13,15,17,19,21,23,25,27,29,31,33,35,37,39,41,43,45,47,49,51,53,55,57,59,61,-1,-1,-1,-1,-1,-1,-1,-1,-1,-1,-1,-1,-1,-1,-1,-1,-1,-1,-1,-1,-1,-1,-1,-1,-1,-1,-1,-1,-1,-1,-1,-1],"loss_changes":[5.284946E6,1.5541058E6,6.029281E5,2.665673E5,4.308575E5,1.6447425E5,1.5273562E5,3.3061992E4,9.8365375E4,2.6602625E5,2.4058275E5,6.977025E4,2.1994783E4,1.22332625E5,4.3572734E3,4.9877266E3,3.3298945E3,5.4340062E4,5.2553906E4,4.558375E4,6.5821875E4,1.14093E5,1.1994206E5,1.6956438E4,4.405175E4,1.0607228E4,9.232543E3,2.7593281E4,4.3013336E4,2.9838125E3,1.01321875E3,0E0,0E0,0E0,0E0,0E0,0E0,0E0,0E0,0E0,0E0,0E0,0E0,0E0,0E0,0E0,0E0,0E0,0E0,0E0,0E0,0E0,0E0,0E0,0E0,0E0,0E0,0E0,0E0,0E0,0E0,0E0,0E0],"parents":[2147483647,0,0,1,1,2,2,3,3,4,4,5,5,6,6,7,7,8,8,9,9,10,10,11,11,12,12,13,13,14,14,15,15,16,16,17,17,18,18,19,19,20,20,21,21,22,22,23,23,24,24,25,25,26,26,27,27,28,28,29,29,30,30],"right_children":[2,4,6,8,10,12,14,16,18,20,22,24,26,28,30,32,34,36,38,40,42,44,46,48,50,52,54,56,58,60,62,-1,-1,-1,-1,-1,-1,-1,-1,-1,-1,-1,-1,-1,-1,-1,-1,-1,-1,-1,-1,-1,-1,-1,-1,-1,-1,-1,-1,-1,-1,-1,-1],"split_conditions":[2E0,1.48764E4,1.74651E4,9.7624E3,1.88837E4,1.0125E2,1.0385E2,7.6388E3,3.1E2,3.175E2,3.2815E2,1.26058E4,1.50169E4,2.04655E4,1.976E4,2.625E0,9.0272E3,1.22532E4,7.9E0,1.74651E4,7.9E0,2.15262E4,7.035E0,9.7624E3,4.875E1,1.5435E2,1.4425E2,3.35E-1,2.42173E4,1.465E2,1.35E2,1.1647021E-2,-8.700498E-1,-3.828537E-1,-2.1654081E-1,2.240566E-2,2.77197E-1,8.3688205E-1,2.8898895E-1,5.246835E-1,7.8321546E-1,1.5008407E0,9.331063E-1,1.0646881E0,1.6338482E0,4.5425596E0,2.0875251E0,-9.566289E-1,-5.5419475E-1,-5.3467035E-1,-3.510882E-1,-2.0412792E-1,3.049309E-1,9.005215E-3,2.5417098E-1,-5.104875E-1,-1.8244971E-1,-1.6601058E-2,3.6679405E-1,1.9695482E-1,3.5204566E-1,3.5297358E-1,4.8114553E-1],"split_indices":[5,0,0,0,0,2,2,0,2,2,2,0,0,0,0,3,0,0,3,0,3,0,3,0,2,2,2,3,0,2,2,0,0,0,0,0,0,0,0,0,0,0,0,0,0,0,0,0,0,0,0,0,0,0,0,0,0,0,0,0,0,0,0],"split_type":[0,0,0,0,0,0,0,0,0,0,0,0,0,0,0,0,0,0,0,0,0,0,0,0,0,0,0,0,0,0,0,0,0,0,0,0,0,0,0,0,0,0,0,0,0,0,0,0,0,0,0,0,0,0,0,0,0,0,0,0,0,0,0],"sum_hessian":[3.5415E4,1.0137E4,2.5278E4,4.593E3,5.544E3,1.3199E4,1.2079E4,5.84E2,4.009E3,3.722E3,1.822E3,1.2092E4,1.107E3,1.1211E4,8.68E2,1.39E2,4.45E2,3.367E3,6.42E2,2.968E3,7.54E2,1.718E3,1.04E2,1.825E3,1.0267E4,5.21E2,5.86E2,6.501E3,4.71E3,5.23E2,3.45E2,6E0,1.33E2,2.27E2,2.18E2,1.138E3,2.229E3,3.59E2,2.83E2,2.089E3,8.79E2,3.96E2,3.58E2,1.291E3,4.27E2,2.4E1,8E1,1.01E2,1.724E3,1.36E3,8.907E3,4.82E2,3.9E1,3.64E2,2.22E2,2.39E2,6.262E3,4.431E3,2.79E2,3.56E2,1.67E2,2.6E2,8.5E1],"tree_param":{"num_deleted":"0","num_feature":"6","num_nodes":"63","size_leaf_vector":"1"}},{"base_weights":[-8.424374E-3,1.852773E1,-7.4762526E0,1.0394102E1,3.6208458E1,-1.2318737E1,-2.7315152E0,-2.1307232E0,1.5312504E1,2.7608292E1,4.3154793E1,-1.3788605E1,-3.8710241E0,-4.3557878E0,5.7912197E0,-1.7886656E1,1.417849E0,1.4374624E1,3.6149937E1,2.520874E1,3.7956493E1,7.655408E1,3.8738056E1,-1.9004795E1,-1.2766389E1,-5.392598E0,7.0592527E0,-7.423681E0,-9.993113E-1,2.744474E0,1.0799397E1,-7.722088E-1,-3.8664806E-1,2.4334027E-2,9.935598E-1,2.8003925E-1,5.434029E-1,1.4352132E0,4.015476E-1,9.5590293E-1,7.167838E-1,1.0227801E0,1.3050767E0,1.8609551E0,3.343121E0,1.005428E0,1.7236134E0,-8.610968E-1,-5.4485697E-1,-4.309567E-1,-3.1495133E-1,-9.022026E-2,-2.802232E-1,6.636357E-2,3.4665588E-1,-2.7214143E-1,-1.4904773E-1,-4.2721033E-2,2.9573798E-1,2.81417E-2,3.315779E-1,2.9900876E-1,4.201777E-1],"categories":[],"categories_nodes":[],"categories_segments":[],"categories_sizes":[],"default_left":[0,0,0,0,0,0,0,0,0,0,0,0,0,0,0,0,0,0,0,0,0,0,0,0,0,0,0,0,0,0,0,0,0,0,0,0,0,0,0,0,0,0,0,0,0,0,0,0,0,0,0,0,0,0,0,0,0,0,0,0,0,0,0],"id":19,"left_children":[1,3,5,7,9,11,13,15,17,19,21,23,25,27,29,31,33,35,37,39,41,43,45,47,49,51,53,55,57,59,61,-1,-1,-1,-1,-1,-1,-1,-1,-1,-1,-1,-1,-1,-1,-1,-1,-1,-1,-1,-1,-1,-1,-1,-1,-1,-1,-1,-1,-1,-1,-1,-1],"loss_changes":[4.883765E6,1.4566865E6,5.7779625E5,4.276142E5,1.894905E5,1.5448712E5,1.7588966E5,1.0950088E5,9.6877625E4,3.4520375E4,2.5724075E5,5.62795E4,3.0739143E4,1.0987433E5,3.1005094E4,1.3796375E4,3.072387E4,8.973069E4,5.6306375E4,9.4176875E3,4.2306562E3,9.6919625E4,1.5058175E5,1.365725E4,3.1999875E4,1.5236297E4,4.8981533E3,2.2508844E4,2.3517105E4,1.898848E4,1.9106484E3,0E0,0E0,0E0,0E0,0E0,0E0,0E0,0E0,0E0,0E0,0E0,0E0,0E0,0E0,0E0,0E0,0E0,0E0,0E0,0E0,0E0,0E0,0E0,0E0,0E0,0E0,0E0,0E0,0E0,0E0,0E0,0E0],"parents":[2147483647,0,0,1,1,2,2,3,3,4,4,5,5,6,6,7,7,8,8,9,9,10,10,11,11,12,12,13,13,14,14,15,15,16,16,17,17,18,18,19,19,20,20,21,21,22,22,23,23,24,24,25,25,26,26,27,27,28,28,29,29,30,30],"right_children":[2,4,6,8,10,12,14,16,18,20,22,24,26,28,30,32,34,36,38,40,42,44,46,48,50,52,54,56,58,60,62,-1,-1,-1,-1,-1,-1,-1,-1,-1,-1,-1,-1,-1,-1,-1,-1,-1,-1,-1,-1,-1,-1,-1,-1,-1,-1,-1,-1,-1,-1,-1,-1],"split_conditions":[2E0,1.71621E4,1.72043E4,1.22532E4,7.7426E1,2.4795E1,2.3689E1,9.0272E3,1.17738E2,2.09125E4,7.43E0,1.26644E4,4.487E1,2.00659E4,2.9785E1,7.6388E3,1.24364E2,1.44278E4,7.43E0,3.5029E1,2.19922E4,1.24364E2,2.10218E4,1.0022E4,6E0,3E0,1.8E1,6E0,2.42173E4,2.22674E4,2.0564E4,-7.722088E-1,-3.8664806E-1,2.4334027E-2,9.935598E-1,2.8003925E-1,5.434029E-1,1.4352132E0,4.015476E-1,9.5590293E-1,7.167838E-1,1.0227801E0,1.3050767E0,1.8609551E0,3.343121E0,1.005428E0,1.7236134E0,-8.610968E-1,-5.4485697E-1,-4.309567E-1,-3.1495133E-1,-9.022026E-2,-2.802232E-1,6.636357E-2,3.4665588E-1,-2.7214143E-1,-1.4904773E-1,-4.2721033E-2,2.9573798E-1,2.81417E-2,3.315779E-1,2.9900876E-1,4.201777E-1],"split_indices":[5,0,0,0,1,1,1,0,1,0,3,0,1,0,1,0,1,0,3,1,0,1,0,0,5,5,3,5,0,0,0,0,0,0,0,0,0,0,0,0,0,0,0,0,0,0,0,0,0,0,0,0,0,0,0,0,0,0,0,0,0,0,0],"split_type":[0,0,0,0,0,0,0,0,0,0,0,0,0,0,0,0,0,0,0,0,0,0,0,0,0,0,0,0,0,0,0,0,0,0,0,0,0,0,0,0,0,0,0,0,0,0,0,0,0,0,0,0,0,0,0,0,0,0,0,0,0,0,0],"sum_hessian":[3.5279E4,1.0131E4,2.5148E4,6.94E3,3.191E3,1.2445E4,1.2703E4,1.957E3,4.983E3,1.428E3,1.763E3,1.06E4,1.845E3,1.067E4,2.033E3,3.59E2,1.598E3,4.77E3,2.13E2,1.162E3,2.66E2,2.04E2,1.559E3,1.734E3,8.866E3,1.62E3,2.25E2,5.574E3,5.096E3,1.265E3,7.68E2,1.38E2,2.21E2,1.569E3,2.9E1,2.033E3,2.737E3,1.4E2,7.3E1,1.88E2,9.74E2,1.61E2,1.05E2,1.46E2,5.8E1,1.221E3,3.38E2,1.36E2,1.598E3,5.197E3,3.669E3,1.011E3,6.09E2,1.09E2,1.16E2,3.334E3,2.24E3,4.905E3,1.91E2,1.04E3,2.25E2,6.13E2,1.55E2],"tree_param":{"num_deleted":"0","num_feature":"6","num_nodes":"63","size_leaf_vector":"1"}},{"base_weights":[3.955607E-3,-8.14042E0,1.6051054E1,-1.1353761E1,-1.6495773E0,8.154884E0,2.8645805E1,-1.3985651E1,-8.793137E0,-6.7028606E-1,-8.5088825E0,-3.261557E0,1.20554905E1,2.4520075E1,5.1235104E1,-1.2726799E1,-1.858557E1,-7.8032775E0,-1.3135734E1,-6.6547117E0,2.8420657E-1,-9.443244E0,-4.1346908E0,-1.7882467E1,1.556441E-1,9.243385E0,2.8484266E1,2.1616852E1,4.7199154E1,3.977612E1,7.130046E1,-9.129542E-1,-3.753488E-1,-7.3602694E-1,-5.3095996E-1,-4.6579042E-1,-2.0746519E-1,-4.3156886E-1,-3.488978E-1,-1.13495395E-1,-2.957034E-1,-2.312743E-2,2.003145E-1,-1.5731728E-1,-3.045523E-1,-1.4423405E-1,-5.5929508E-2,-7.78383E-1,-3.9645705E-1,7.645959E-2,-2.930332E-1,1.8799295E-1,4.1239408E-1,1.2247307E0,6.771078E-1,1.0876796E0,5.896757E-1,2.2854104E0,1.2271194E0,1.0377877E0,2.5396976E0,1.6914021E0,2.8047347E0],"categories":[],"categories_nodes":[],"categories_segments":[],"categories_sizes":[],"default_left":[0,0,0,0,0,0,0,0,0,0,0,0,0,0,0,0,0,0,0,0,0,0,0,0,0,0,0,0,0,0,0,0,0,0,0,0,0,0,0,0,0,0,0,0,0,0,0,0,0,0,0,0,0,0,0,0,0,0,0,0,0,0,0],"id":20,"left_children":[1,3,5,7,9,11,13,15,17,19,21,23,25,27,29,31,33,35,37,39,41,43,45,47,49,51,53,55,57,59,61,-1,-1,-1,-1,-1,-1,-1,-1,-1,-1,-1,-1,-1,-1,-1,-1,-1,-1,-1,-1,-1,-1,-1,-1,-1,-1,-1,-1,-1,-1,-1,-1],"loss_changes":[4.605251E6,4.8749838E5,1.1795412E6,1.05236625E5,5.1991668E4,3.2480506E5,4.247415E5,4.43945E4,3.3970062E4,3.8701938E4,3.9117969E3,9.283506E4,2.5087312E5,2.535855E5,1.5925262E5,2.268225E4,8.287875E3,4.416853E4,2.5967656E3,8.530941E3,3.9425438E4,2.3135078E3,2.5322241E2,1.2900664E4,3.5810637E4,6.215347E4,5.7017875E4,9.7747625E4,7.6781625E4,1.01973125E5,7.9142875E4,0E0,0E0,0E0,0E0,0E0,0E0,0E0,0E0,0E0,0E0,0E0,0E0,0E0,0E0,0E0,0E0,0E0,0E0,0E0,0E0,0E0,0E0,0E0,0E0,0E0,0E0,0E0,0E0,0E0,0E0,0E0,0E0],"parents":[2147483647,0,0,1,1,2,2,3,3,4,4,5,5,6,6,7,7,8,8,9,9,10,10,11,11,12,12,13,13,14,14,15,15,16,16,17,17,18,18,19,19,20,20,21,21,22,22,23,23,24,24,25,25,26,26,27,27,28,28,29,29,30,30],"right_children":[2,4,6,8,10,12,14,16,18,20,22,24,26,28,30,32,34,36,38,40,42,44,46,48,50,52,54,56,58,60,62,-1,-1,-1,-1,-1,-1,-1,-1,-1,-1,-1,-1,-1,-1,-1,-1,-1,-1,-1,-1,-1,-1,-1,-1,-1,-1,-1,-1,-1,-1,-1,-1],"split_conditions":[1.0385E2,1.91606E4,1.67304E4,1.54176E4,9.78125E0,1.21151E4,3.1E2,1.39375E1,1.3555E1,3.8E-1,2.19922E4,9.0272E3,3.175E2,2.14466E4,-9.94625E0,9.4579E3,1.13238E4,3.8E-1,1.75961E4,-1.1465E1,2.28349E4,4.675E1,2.31217E4,7.6388E3,1.02E1,1.129375E1,7.43E0,-1.83175E1,-1.859625E1,2.13143E4,1.88837E4,-9.129542E-1,-3.753488E-1,-7.3602694E-1,-5.3095996E-1,-4.6579042E-1,-2.0746519E-1,-4.3156886E-1,-3.488978E-1,-1.13495395E-1,-2.957034E-1,-2.312743E-2,2.003145E-1,-1.5731728E-1,-3.045523E-1,-1.4423405E-1,-5.5929508E-2,-7.78383E-1,-3.9645705E-1,7.645959E-2,-2.930332E-1,1.8799295E-1,4.1239408E-1,1.2247307E0,6.771078E-1,1.0876796E0,5.896757E-1,2.2854104E0,1.2271194E0,1.0377877E0,2.5396976E0,1.6914021E0,2.8047347E0],"split_indices":[2,0,0,0,4,0,2,4,4,3,0,0,2,0,4,0,0,3,0,4,0,2,0,0,3,4,3,4,4,0,0,0,0,0,0,0,0,0,0,0,0,0,0,0,0,0,0,0,0,0,0,0,0,0,0,0,0,0,0,0,0,0,0],"split_type":[0,0,0,0,0,0,0,0,0,0,0,0,0,0,0,0,0,0,0,0,0,0,0,0,0,0,0,0,0,0,0,0,0,0,0,0,0,0,0,0,0,0,0,0,0,0,0,0,0,0,0,0,0,0,0,0,0,0,0,0,0,0,0],"sum_hessian":[3.5235E4,2.3373E4,1.1862E4,1.5633E4,7.74E3,7.292E3,4.57E3,7.707E3,7.926E3,6.774E3,9.66E2,1.857E3,5.435E3,3.866E3,7.04E2,6.054E3,1.653E3,6.457E3,1.469E3,9.31E2,5.843E3,7.95E2,1.71E2,3.51E2,1.506E3,4.642E3,7.93E2,3.429E3,4.37E2,4.5E2,2.54E2,7.1E1,5.983E3,2.11E2,1.442E3,6.64E2,5.793E3,7.98E2,6.71E2,4.92E2,4.39E2,5.016E3,8.27E2,1.16E2,6.79E2,1.31E2,4E1,1.27E2,2.24E2,1.214E3,2.92E2,2.796E3,1.846E3,2.55E2,5.38E2,4.03E2,3.026E3,7.6E1,3.61E2,4.05E2,4.5E1,1.54E2,1E2],"tree_param":{"num_deleted":"0","num_feature":"6","num_nodes":"63","size_leaf_vector":"1"}},{"base_weights":[-2.1074183E-2,-7.9131E0,1.559126E1,-1.14466095E1,-2.3626063E0,7.609967E0,2.6950752E1,-1.4705262E1,-9.704076E0,-4.299929E0,1.2663945E0,-4.9089355E0,1.0853162E1,2.3055218E1,4.9027508E1,-1.3420352E1,-1.874987E1,-1.6355274E1,-9.128304E0,-3.3381486E0,-1.0496042E1,1.313797E-1,9.190954E0,-1.3237687E1,4.7397336E-1,8.354682E0,2.562423E1,2.0337719E1,4.695818E1,3.8088974E1,7.133795E1,-8.901147E-1,-3.9253363E-1,-7.0516664E-1,-5.310214E-1,-4.0191182E-1,-5.9353065E-1,-2.3951715E-1,-4.1501522E-1,-4.2378327E-1,-8.644226E-2,-1.9449347E-1,-3.550158E-1,-1.9424571E-1,2.6747629E-2,1.1814882E0,2.2467127E-1,-7.0433974E-1,-3.041875E-1,8.991196E-2,-2.9658508E-1,1.6414393E-1,3.7578163E-1,1.0087632E0,4.8561725E-1,9.983005E-1,5.6240237E-1,2.249359E0,1.2216439E0,9.533106E-1,1.7060491E0,1.6429232E0,2.8817205E0],"categories":[],"categories_nodes":[],"categories_segments":[],"categories_sizes":[],"default_left":[0,0,0,0,0,0,0,0,0,0,0,0,0,0,0,0,0,0,0,0,0,0,0,0,0,0,0,0,0,0,0,0,0,0,0,0,0,0,0,0,0,0,0,0,0,0,0,0,0,0,0,0,0,0,0,0,0,0,0,0,0,0,0],"id":21,"left_children":[1,3,5,7,9,11,13,15,17,19,21,23,25,27,29,31,33,35,37,39,41,43,45,47,49,51,53,55,57,59,61,-1,-1,-1,-1,-1,-1,-1,-1,-1,-1,-1,-1,-1,-1,-1,-1,-1,-1,-1,-1,-1,-1,-1,-1,-1,-1,-1,-1,-1,-1,-1,-1],"loss_changes":[4.3513875E6,4.6004675E5,1.0748785E6,8.1242125E4,6.4166523E4,2.828821E5,4.1966425E5,2.56885E4,3.5624062E4,3.542143E4,2.8573363E4,6.4297953E4,2.0397919E5,2.69321E5,1.7615588E5,2.0305625E4,5.5721562E3,7.268578E3,4.61985E4,2.5343004E4,4.2109297E3,1.3966692E4,2.0151238E4,1.7620047E4,2.2822666E4,5.6865375E4,5.9856562E4,7.631975E4,7.103156E4,5.6739938E4,9.305125E4,0E0,0E0,0E0,0E0,0E0,0E0,0E0,0E0,0E0,0E0,0E0,0E0,0E0,0E0,0E0,0E0,0E0,0E0,0E0,0E0,0E0,0E0,0E0,0E0,0E0,0E0,0E0,0E0,0E0,0E0,0E0,0E0],"parents":[2147483647,0,0,1,1,2,2,3,3,4,4,5,5,6,6,7,7,8,8,9,9,10,10,11,11,12,12,13,13,14,14,15,15,16,16,17,17,18,18,19,19,20,20,21,21,22,22,23,23,24,24,25,25,26,26,27,27,28,28,29,29,30,30],"right_children":[2,4,6,8,10,12,14,16,18,20,22,24,26,28,30,32,34,36,38,40,42,44,46,48,50,52,54,56,58,60,62,-1,-1,-1,-1,-1,-1,-1,-1,-1,-1,-1,-1,-1,-1,-1,-1,-1,-1,-1,-1,-1,-1,-1,-1,-1,-1,-1,-1,-1,-1,-1,-1],"split_conditions":[1.0385E2,1.85141E4,1.64681E4,1.42772E4,2.12507E4,1.15444E4,3.175E2,1.39375E1,3.8E-1,1.3555E1,2.39092E4,9.7624E3,3.175E2,2.15262E4,-8.20125E0,9.4579E3,1.13238E4,-1.75725E1,1.3555E1,3.35E-1,4.645E1,3.65E-1,-1.66675E1,7.6388E3,1.02E1,1.129375E1,7.9E0,-1.83175E1,-1.859625E1,1.9889E4,1.85633E4,-8.901147E-1,-3.9253363E-1,-7.0516664E-1,-5.310214E-1,-4.0191182E-1,-5.9353065E-1,-2.3951715E-1,-4.1501522E-1,-4.2378327E-1,-8.644226E-2,-1.9449347E-1,-3.550158E-1,-1.9424571E-1,2.6747629E-2,1.1814882E0,2.2467127E-1,-7.0433974E-1,-3.041875E-1,8.991196E-2,-2.9658508E-1,1.6414393E-1,3.7578163E-1,1.0087632E0,4.8561725E-1,9.983005E-1,5.6240237E-1,2.249359E0,1.2216439E0,9.533106E-1,1.7060491E0,1.6429232E0,2.8817205E0],"split_indices":[2,0,0,0,0,0,2,4,3,4,0,0,2,0,4,0,0,4,4,3,2,3,4,0,3,4,3,4,4,0,0,0,0,0,0,0,0,0,0,0,0,0,0,0,0,0,0,0,0,0,0,0,0,0,0,0,0,0,0,0,0,0,0],"split_type":[0,0,0,0,0,0,0,0,0,0,0,0,0,0,0,0,0,0,0,0,0,0,0,0,0,0,0,0,0,0,0,0,0,0,0,0,0,0,0,0,0,0,0,0,0,0,0,0,0,0,0,0,0,0,0,0,0,0,0,0,0,0,0],"sum_hessian":[3.5314E4,2.3457E4,1.1857E4,1.4332E4,9.125E3,6.965E3,4.892E3,4.991E3,9.341E3,5.949E3,3.176E3,1.433E3,5.532E3,4.16E3,7.32E2,3.791E3,1.2E3,7.42E2,8.599E3,5.151E3,7.98E2,2.779E3,3.97E2,5.62E2,8.71E2,4.733E3,7.99E2,3.737E3,4.23E2,4.93E2,2.39E2,7.5E1,3.716E3,2.13E2,9.87E2,4.01E2,3.41E2,6.919E3,1.68E3,2.08E2,4.943E3,2.01E2,5.97E2,2.86E2,2.493E3,2E1,3.77E2,1.29E2,4.33E2,7.01E2,1.7E2,2.8E3,1.933E3,4.31E2,3.68E2,4.07E2,3.33E3,7.5E1,3.48E2,3.71E2,1.22E2,1.45E2,9.4E1],"tree_param":{"num_deleted":"0","num_feature":"6","num_nodes":"63","size_leaf_vector":"1"}},{"base_weights":[2.8571337E-2,1.7152E1,-6.8895574E0,5.1130333E0,2.722262E1,-1.12981615E1,-2.581049E0,-6.4580317E0,8.728596E0,2.1786465E1,3.897605E1,-9.922855E0,-1.5951303E1,-1.3305569E0,-9.520995E0,-1.8043085E1,-2.8719292E0,3.3615324E0,1.0733902E1,1.9115625E1,2.7534676E1,3.591112E1,4.9414284E1,-1.5624915E1,-9.0839615E0,-1.6894703E1,-1.0565466E1,-8.147475E0,-4.5613316E-1,-1.0147929E1,-4.7989635E0,-6.800448E-1,-3.8006604E-1,-4.3802775E-2,-3.874879E-1,-1.0913459E-1,1.9788122E-1,2.2907929E-1,6.893815E-1,6.343678E-1,4.0689504E-1,6.8649095E-1,9.535457E-1,1.2459232E0,8.691743E-1,2.200806E0,1.3182044E0,-6.441437E-1,-4.1479412E-1,-1.6147533E-1,-3.215865E-1,-6.5951514E-1,-4.796854E-1,-3.661982E-1,-2.328046E-1,-3.9217338E-1,-1.6345502E-1,-9.266779E-2,4.9478333E-2,-3.2138902E-1,-2.162837E-1,-1.7003469E-1,-4.9090263E-2],"categories":[],"categories_nodes":[],"categories_segments":[],"categories_sizes":[],"default_left":[0,0,0,0,0,0,0,0,0,0,0,0,0,0,0,0,0,0,0,0,0,0,0,0,0,0,0,0,0,0,0,0,0,0,0,0,0,0,0,0,0,0,0,0,0,0,0,0,0,0,0,0,0,0,0,0,0,0,0,0,0,0,0],"id":22,"left_children":[1,3,5,7,9,11,13,15,17,19,21,23,25,27,29,31,33,35,37,39,41,43,45,47,49,51,53,55,57,59,61,-1,-1,-1,-1,-1,-1,-1,-1,-1,-1,-1,-1,-1,-1,-1,-1,-1,-1,-1,-1,-1,-1,-1,-1,-1,-1,-1,-1,-1,-1,-1,-1],"loss_changes":[4.1916632E6,1.2343215E6,4.7866888E5,1.9413339E5,3.5337025E5,7.955125E4,1.1060916E5,4.5853527E4,3.8008312E4,5.770125E4,5.4268E4,4.5857688E4,1.4248875E4,6.4384793E4,5.71075E3,6.196742E3,1.1962614E4,2.1826094E4,9.742975E4,2.893625E4,2.3011375E4,5.174175E4,4.8542688E4,1.2653656E4,5.071E4,1.07696875E4,1.8645469E3,1.6249945E4,5.308054E4,2.7717969E3,6.2200635E2,0E0,0E0,0E0,0E0,0E0,0E0,0E0,0E0,0E0,0E0,0E0,0E0,0E0,0E0,0E0,0E0,0E0,0E0,0E0,0E0,0E0,0E0,0E0,0E0,0E0,0E0,0E0,0E0,0E0,0E0,0E0,0E0],"parents":[2147483647,0,0,1,1,2,2,3,3,4,4,5,5,6,6,7,7,8,8,9,9,10,10,11,11,12,12,13,13,14,14,15,15,16,16,17,17,18,18,19,19,20,20,21,21,22,22,23,23,24,24,25,25,26,26,27,27,28,28,29,29,30,30],"right_children":[2,4,6,8,10,12,14,16,18,20,22,24,26,28,30,32,34,36,38,40,42,44,46,48,50,52,54,56,58,60,62,-1,-1,-1,-1,-1,-1,-1,-1,-1,-1,-1,-1,-1,-1,-1,-1,-1,-1,-1,-1,-1,-1,-1,-1,-1,-1,-1,-1,-1,-1,-1,-1],"split_conditions":[2E0,1.48764E4,1.72043E4,1.09283E4,1.90312E4,9.78125E0,9.78125E0,8.5401E3,-1.19725E1,1.74651E4,2.16664E4,4.05E-1,7.21E0,3.8E-1,2.15939E4,7.6388E3,1.02E1,1.27726E4,4.5E0,1.5E1,-1.19725E1,2.02E1,-1.859625E1,3.35E-1,-9.94625E0,1.19741E4,1.49132E4,1.95911E4,1.976E4,7.21E0,2.31217E4,-6.800448E-1,-3.8006604E-1,-4.3802775E-2,-3.874879E-1,-1.0913459E-1,1.9788122E-1,2.2907929E-1,6.893815E-1,6.343678E-1,4.0689504E-1,6.8649095E-1,9.535457E-1,1.2459232E0,8.691743E-1,2.200806E0,1.3182044E0,-6.441437E-1,-4.1479412E-1,-1.6147533E-1,-3.215865E-1,-6.5951514E-1,-4.796854E-1,-3.661982E-1,-2.328046E-1,-3.9217338E-1,-1.6345502E-1,-9.266779E-2,4.9478333E-2,-3.2138902E-1,-2.162837E-1,-1.7003469E-1,-4.9090263E-2],"split_indices":[5,0,0,0,0,4,4,0,4,0,0,3,3,3,0,0,3,0,3,3,4,3,4,3,4,0,0,0,0,3,0,0,0,0,0,0,0,0,0,0,0,0,0,0,0,0,0,0,0,0,0,0,0,0,0,0,0,0,0,0,0,0,0],"split_type":[0,0,0,0,0,0,0,0,0,0,0,0,0,0,0,0,0,0,0,0,0,0,0,0,0,0,0,0,0,0,0,0,0,0,0,0,0,0,0,0,0,0,0,0,0,0,0,0,0,0,0,0,0,0,0,0,0,0,0,0,0,0,0],"sum_hessian":[3.5382E4,1.0181E4,2.5201E4,4.638E3,5.543E3,1.2455E4,1.2746E4,1.104E3,3.534E3,3.792E3,1.751E3,9.616E3,2.839E3,1.0801E4,1.945E3,2.6E2,8.44E2,9.62E2,2.572E3,2.592E3,1.2E3,1.357E3,3.94E2,1.231E3,8.385E3,2.414E3,4.25E2,1.227E3,9.574E3,1.716E3,2.29E2,1.38E2,1.22E2,7.41E2,1.03E2,3.04E2,6.58E2,2.054E3,5.18E2,1.896E3,6.96E2,5.76E2,6.24E2,7.47E2,6.1E2,7.1E1,3.23E2,2.87E2,9.44E2,2.571E3,5.814E3,3.61E2,2.053E3,2.66E2,1.59E2,4.33E2,7.94E2,4.254E3,5.32E3,1.437E3,2.79E2,1.79E2,5E1],"tree_param":{"num_deleted":"0","num_feature":"6","num_nodes":"63","size_leaf_vector":"1"}},{"base_weights":[-1.980477E-2,1.6595804E1,-6.7118216E0,4.8599505E0,2.651457E1,-1.0307719E1,-1.7341528E0,-9.172896E0,7.9256306E0,2.1410713E1,3.9004566E1,-1.1238536E1,-1.4212829E-1,-2.5146635E0,8.772411E0,-1.8583353E1,-4.901606E0,5.987611E0,1.8061787E1,1.7794857E1,3.5879005E1,3.6215977E1,8.870047E1,-1.4826402E1,-9.820434E0,-4.0268526E0,4.685498E0,-5.1070414E0,2.4296297E-1,6.6846237E0,1.1050682E1,-6.7177105E-1,-3.2251722E-1,-4.285748E-1,-1.08437955E-1,7.697032E-2,2.5184482E-1,2.0847115E-1,7.4483585E-1,7.785073E-1,4.9135384E-1,6.714735E-1,1.3146265E0,1.4972578E0,9.809204E-1,1.9638821E0,4.140505E0,-7.000365E-1,-4.2299235E-1,-2.6610816E-1,-3.9466882E-1,-1.5830255E-1,3.1745183E-1,6.640499E-2,2.5081524E-1,-1.2297081E-1,-2.8545567E-1,-1.6315533E-2,2.549259E-1,8.387598E-2,2.4470912E-1,2.977333E-1,4.374551E-1],"categories":[],"categories_nodes":[],"categories_segments":[],"categories_sizes":[],"default_left":[0,0,0,0,0,0,0,0,0,0,0,0,0,0,0,0,0,0,0,0,0,0,0,0,0,0,0,0,0,0,0,0,0,0,0,0,0,0,0,0,0,0,0,0,0,0,0,0,0,0,0,0,0,0,0,0,0,0,0,0,0,0,0],"id":23,"left_children":[1,3,5,7,9,11,13,15,17,19,21,23,25,27,29,31,33,35,37,39,41,43,45,47,49,51,53,55,57,59,61,-1,-1,-1,-1,-1,-1,-1,-1,-1,-1,-1,-1,-1,-1,-1,-1,-1,-1,-1,-1,-1,-1,-1,-1,-1,-1,-1,-1,-1,-1,-1,-1],"loss_changes":[3.9296338E6,1.1810315E6,4.5093312E5,2.0007356E5,3.497045E5,1.3840212E5,8.668416E4,3.3429023E4,7.485122E4,2.0369962E5,2.17674E5,6.8030625E4,2.3048713E4,7.033172E4,3.4013906E3,7.513086E3,6.891172E3,2.6378031E4,4.5840375E4,3.5691438E4,8.261919E4,7.1158875E4,8.720881E4,2.3123625E4,3.0325375E4,1.2489856E4,4.9588066E3,2.2492484E4,3.097267E4,2.1747305E3,1.2368008E3,0E0,0E0,0E0,0E0,0E0,0E0,0E0,0E0,0E0,0E0,0E0,0E0,0E0,0E0,0E0,0E0,0E0,0E0,0E0,0E0,0E0,0E0,0E0,0E0,0E0,0E0,0E0,0E0,0E0,0E0,0E0,0E0],"parents":[2147483647,0,0,1,1,2,2,3,3,4,4,5,5,6,6,7,7,8,8,9,9,10,10,11,11,12,12,13,13,14,14,15,15,16,16,17,17,18,18,19,19,20,20,21,21,22,22,23,23,24,24,25,25,26,26,27,27,28,28,29,29,30,30],"right_children":[2,4,6,8,10,12,14,16,18,20,22,24,26,28,30,32,34,36,38,40,42,44,46,48,50,52,54,56,58,60,62,-1,-1,-1,-1,-1,-1,-1,-1,-1,-1,-1,-1,-1,-1,-1,-1,-1,-1,-1,-1,-1,-1,-1,-1,-1,-1,-1,-1,-1,-1,-1,-1],"split_conditions":[2E0,1.48764E4,1.81535E4,1.04644E4,1.92448E4,1.0125E2,1.0385E2,8.5401E3,3.175E2,3.175E2,3.2815E2,1.37815E4,1.55623E4,2.04655E4,1.976E4,1.1935E2,-1.275E1,1.28378E4,-1.015E1,-1.749875E1,-1.19725E1,-1.749875E1,-7.15625E0,1.06228E4,9.555E0,1.5435E2,1.4425E2,1.098E1,2.39092E4,1.105E2,1.35E2,-6.7177105E-1,-3.2251722E-1,-4.285748E-1,-1.08437955E-1,7.697032E-2,2.5184482E-1,2.0847115E-1,7.4483585E-1,7.785073E-1,4.9135384E-1,6.714735E-1,1.3146265E0,1.4972578E0,9.809204E-1,1.9638821E0,4.140505E0,-7.000365E-1,-4.2299235E-1,-2.6610816E-1,-3.9466882E-1,-1.5830255E-1,3.1745183E-1,6.640499E-2,2.5081524E-1,-1.2297081E-1,-2.8545567E-1,-1.6315533E-2,2.549259E-1,8.387598E-2,2.4470912E-1,2.977333E-1,4.374551E-1],"split_indices":[5,0,0,0,0,2,2,0,2,2,2,0,0,0,0,2,4,0,4,4,4,4,4,0,4,2,2,4,0,2,2,0,0,0,0,0,0,0,0,0,0,0,0,0,0,0,0,0,0,0,0,0,0,0,0,0,0,0,0,0,0,0,0],"split_type":[0,0,0,0,0,0,0,0,0,0,0,0,0,0,0,0,0,0,0,0,0,0,0,0,0,0,0,0,0,0,0,0,0,0,0,0,0,0,0,0,0,0,0,0,0,0,0,0,0,0,0,0,0,0,0,0,0,0,0,0,0,0,0],"sum_hessian":[3.5339E4,1.0146E4,2.5193E4,4.648E3,5.498E3,1.4626E4,1.0567E4,8.33E2,3.815E3,3.905E3,1.593E3,1.3399E4,1.227E3,9.837E3,7.3E2,2.59E2,5.74E2,3.204E3,6.11E2,3.126E3,7.79E2,1.51E3,8.3E1,3.793E3,9.606E3,6.8E2,5.47E2,5.07E3,4.767E3,3.83E2,3.47E2,1.73E2,8.6E1,6.8E1,5.06E2,1.324E3,1.88E3,2.32E2,3.79E2,4.6E2,2.666E3,2.9E2,4.89E2,3.06E2,1.204E3,5.8E1,2.5E1,2.96E2,3.497E3,7.479E3,2.127E3,6.27E2,5.3E1,3.28E2,2.19E2,4.128E3,9.42E2,4.353E3,4.14E2,1.06E2,2.77E2,2.66E2,8.1E1],"tree_param":{"num_deleted":"0","num_feature":"6","num_nodes":"63","size_leaf_vector":"1"}},{"base_weights":[-3.6769215E-2,1.6026197E1,-6.4916377E0,4.741911E0,2.547834E1,-1.0475616E1,-2.2461097E0,-9.531423E0,7.5407066E0,1.8557722E1,3.329258E1,-1.1804241E1,-2.803909E0,-4.454355E0,2.9792814E0,-2.3024025E1,-6.490934E0,5.7165785E0,1.6568064E1,1.5122468E1,3.1967716E1,3.100668E1,6.9994026E1,-1.677859E1,-1.0925555E1,-4.4940295E0,4.321161E0,-7.5599647E0,-2.140002E0,1.4090703E0,9.157664E0,-7.6630557E-1,-4.025766E-1,-2.2928794E-1,9.879447E-2,5.1526405E-2,2.4297655E-1,3.151345E-1,7.5282884E-1,7.1223795E-1,4.2353094E-1,8.8449895E-1,1.2565833E0,8.1884074E-1,1.2777973E0,1.7621101E0,2.8095403E0,-7.0670575E-1,-4.7071856E-1,-4.541681E-1,-3.0671355E-1,-2.1314682E-1,-4.9035568E-2,5.0912008E-2,3.169194E-1,-2.620708E-1,-1.4339928E-3,3.2747056E-2,-1.167876E-1,-6.0107395E-2,1.175601E-1,2.371819E-1,3.3776134E-1],"categories":[],"categories_nodes":[],"categories_segments":[],"categories_sizes":[],"default_left":[0,0,0,0,0,0,0,0,0,0,0,0,0,0,0,0,0,0,0,0,0,0,0,0,0,0,0,0,0,0,0,0,0,0,0,0,0,0,0,0,0,0,0,0,0,0,0,0,0,0,0,0,0,0,0,0,0,0,0,0,0,0,0],"id":24,"left_children":[1,3,5,7,9,11,13,15,17,19,21,23,25,27,29,31,33,35,37,39,41,43,45,47,49,51,53,55,57,59,61,-1,-1,-1,-1,-1,-1,-1,-1,-1,-1,-1,-1,-1,-1,-1,-1,-1,-1,-1,-1,-1,-1,-1,-1,-1,-1,-1,-1,-1,-1,-1,-1],"loss_changes":[3.665863E6,1.0808822E6,4.265655E5,1.8467203E5,2.976245E5,1.3258425E5,1.4091544E5,3.0943867E4,6.3531766E4,1.3434919E5,2.15026E5,4.8287E4,2.3164592E4,6.168014E4,3.5182586E4,3.0170234E3,7.0137715E3,3.062796E4,3.3285797E4,1.9855938E4,1.34441875E4,1.0372975E5,3.4696938E4,1.1890344E4,2.771975E4,1.1589359E4,6.0257095E3,3.2369E4,2.7874748E4,2.4793375E4,1.8418828E3,0E0,0E0,0E0,0E0,0E0,0E0,0E0,0E0,0E0,0E0,0E0,0E0,0E0,0E0,0E0,0E0,0E0,0E0,0E0,0E0,0E0,0E0,0E0,0E0,0E0,0E0,0E0,0E0,0E0,0E0,0E0,0E0],"parents":[2147483647,0,0,1,1,2,2,3,3,4,4,5,5,6,6,7,7,8,8,9,9,10,10,11,11,12,12,13,13,14,14,15,15,16,16,17,17,18,18,19,19,20,20,21,21,22,22,23,23,24,24,25,25,26,26,27,27,28,28,29,29,30,30],"right_children":[2,4,6,8,10,12,14,16,18,20,22,24,26,28,30,32,34,36,38,40,42,44,46,48,50,52,54,56,58,60,62,-1,-1,-1,-1,-1,-1,-1,-1,-1,-1,-1,-1,-1,-1,-1,-1,-1,-1,-1,-1,-1,-1,-1,-1,-1,-1,-1,-1,-1,-1,-1,-1],"split_conditions":[2E0,1.48764E4,1.74217E4,1.02452E4,1.78727E4,2.4795E1,2.042E1,7.6388E3,3.1E2,3.175E2,3.2815E2,1.26058E4,1.4425E2,5E0,2.9785E1,1.1935E2,3.1E2,1.26058E4,1.34366E4,1.1565E2,1.17738E2,2.10218E4,1.9889E4,1.04644E4,4.875E1,1.50169E4,5.0232E1,2.25859E4,1.2985E1,1.976E4,1.99769E4,-7.6630557E-1,-4.025766E-1,-2.2928794E-1,9.879447E-2,5.1526405E-2,2.4297655E-1,3.151345E-1,7.5282884E-1,7.1223795E-1,4.2353094E-1,8.8449895E-1,1.2565833E0,8.1884074E-1,1.2777973E0,1.7621101E0,2.8095403E0,-7.0670575E-1,-4.7071856E-1,-4.541681E-1,-3.0671355E-1,-2.1314682E-1,-4.9035568E-2,5.0912008E-2,3.169194E-1,-2.620708E-1,-1.4339928E-3,3.2747056E-2,-1.167876E-1,-6.0107395E-2,1.175601E-1,2.371819E-1,3.3776134E-1],"split_indices":[5,0,0,0,0,1,1,0,2,2,2,0,2,5,1,2,2,0,0,2,1,0,0,0,2,0,1,0,1,0,0,0,0,0,0,0,0,0,0,0,0,0,0,0,0,0,0,0,0,0,0,0,0,0,0,0,0,0,0,0,0,0,0],"split_type":[0,0,0,0,0,0,0,0,0,0,0,0,0,0,0,0,0,0,0,0,0,0,0,0,0,0,0,0,0,0,0,0,0,0,0,0,0,0,0,0,0,0,0,0,0,0,0,0,0,0,0,0,0,0,0,0,0,0,0,0,0,0,0],"sum_hessian":[3.5354E4,1.0134E4,2.522E4,4.62E3,5.514E3,1.301E4,1.221E4,7.57E2,3.863E3,2.926E3,2.588E3,1.1089E4,1.921E3,8.583E3,3.627E3,1.38E2,6.19E2,3.215E3,6.48E2,2.331E3,5.95E2,2.438E3,1.5E2,1.662E3,9.427E3,1.553E3,3.68E2,3.664E3,4.919E3,2.893E3,7.34E2,1.08E2,3E1,5.54E2,6.5E1,1.201E3,2.014E3,3.8E2,2.68E2,2.41E2,2.09E3,4.79E2,1.16E2,1.849E3,5.89E2,1.04E2,4.6E1,2.27E2,1.435E3,1.343E3,8.084E3,8.11E2,7.42E2,2.6E2,1.08E2,3.168E3,4.96E2,1.73E3,3.189E3,1.226E3,1.667E3,4.63E2,2.71E2],"tree_param":{"num_deleted":"0","num_feature":"6","num_nodes":"63","size_leaf_vector":"1"}},{"base_weights":[-5.8581594E-2,-7.051276E0,1.3727097E1,-9.857695E0,-1.3890315E0,4.8929563E0,2.2119219E1,-1.2153187E1,-7.5740986E0,-2.7695699E0,2.8643725E0,-1.2137053E1,6.6992397E0,1.503583E1,3.248581E1,-1.3069932E1,-7.596516E0,-8.070381E0,4.1179353E-1,-4.292823E0,-2.2881435E-1,1.4886712E0,9.8123E0,-2.2572758E1,-8.955687E0,4.6532507E0,1.814098E1,2.0387547E1,1.003338E1,2.7013023E1,4.6794064E1,-5.5904496E-1,-3.6609903E-1,-3.1252247E-1,-8.3937615E-2,-4.3975377E-1,-2.2794423E-1,-1.5704443E-1,2.3731533E-1,-9.63554E-2,-2.7105972E-1,-2.0304251E-2,4.4112003E-1,1.3617952E-1,-8.996091E-3,2.3724084E-1,9.1793305E-1,-7.4796414E-1,-4.4851682E-1,-4.9050236E-1,-2.3316273E-1,1.12100905E-2,1.9869585E-1,2.844699E-1,7.9363275E-1,4.8074722E-1,7.9244417E-1,2.0152867E-1,5.301654E-1,1.3107281E0,6.644286E-1,1.3098226E0,3.926271E0],"categories":[],"categories_nodes":[],"categories_segments":[],"categories_sizes":[],"default_left":[0,0,0,0,0,0,0,0,0,0,0,0,0,0,0,0,0,0,0,0,0,0,0,0,0,0,0,0,0,0,0,0,0,0,0,0,0,0,0,0,0,0,0,0,0,0,0,0,0,0,0,0,0,0,0,0,0,0,0,0,0,0,0],"id":25,"left_children":[1,3,5,7,9,11,13,15,17,19,21,23,25,27,29,31,33,35,37,39,41,43,45,47,49,51,53,55,57,59,61,-1,-1,-1,-1,-1,-1,-1,-1,-1,-1,-1,-1,-1,-1,-1,-1,-1,-1,-1,-1,-1,-1,-1,-1,-1,-1,-1,-1,-1,-1,-1,-1],"loss_changes":[3.4000902E6,3.7184188E5,8.7989725E5,8.1921875E4,4.5551055E4,1.7800252E5,4.4647875E5,3.248575E4,3.1099781E4,2.266254E4,1.8154537E4,1.8220586E4,1.2234591E5,9.6652375E4,1.9214475E5,3.1083375E4,1.7688617E4,2.28685E4,1.9519145E4,1.8737984E4,1.4699379E4,8.666239E3,1.218267E4,1.9431484E3,3.6076016E3,3.7411547E4,5.6828234E4,4.5509375E4,4.7293625E4,1.4419375E5,1.73944E5,0E0,0E0,0E0,0E0,0E0,0E0,0E0,0E0,0E0,0E0,0E0,0E0,0E0,0E0,0E0,0E0,0E0,0E0,0E0,0E0,0E0,0E0,0E0,0E0,0E0,0E0,0E0,0E0,0E0,0E0,0E0,0E0],"parents":[2147483647,0,0,1,1,2,2,3,3,4,4,5,5,6,6,7,7,8,8,9,9,10,10,11,11,12,12,13,13,14,14,15,15,16,16,17,17,18,18,19,19,20,20,21,21,22,22,23,23,24,24,25,25,26,26,27,27,28,28,29,29,30,30],"right_children":[2,4,6,8,10,12,14,16,18,20,22,24,26,28,30,32,34,36,38,40,42,44,46,48,50,52,54,56,58,60,62,-1,-1,-1,-1,-1,-1,-1,-1,-1,-1,-1,-1,-1,-1,-1,-1,-1,-1,-1,-1,-1,-1,-1,-1,-1,-1,-1,-1,-1,-1,-1,-1],"split_conditions":[1.0385E2,1.91606E4,1.54934E4,1.54541E4,2.042E1,9.7624E3,7.7426E1,2.25E1,2.493E1,2.1381E4,2.28349E4,7.6388E3,3.1E2,6.75E0,1.9889E4,1.18843E4,1.78E0,3.7E-1,7.15E-1,7.175E1,2.46851E4,4.45E-1,9.125E1,1.1935E2,1.105E2,1.25425E4,1.34366E4,1.79726E4,6.0061E1,7.9E0,3.355E2,-5.5904496E-1,-3.6609903E-1,-3.1252247E-1,-8.3937615E-2,-4.3975377E-1,-2.2794423E-1,-1.5704443E-1,2.3731533E-1,-9.63554E-2,-2.7105972E-1,-2.0304251E-2,4.4112003E-1,1.3617952E-1,-8.996091E-3,2.3724084E-1,9.1793305E-1,-7.4796414E-1,-4.4851682E-1,-4.9050236E-1,-2.3316273E-1,1.12100905E-2,1.9869585E-1,2.844699E-1,7.9363275E-1,4.8074722E-1,7.9244417E-1,2.0152867E-1,5.301654E-1,1.3107281E0,6.644286E-1,1.3098226E0,3.926271E0],"split_indices":[2,0,0,0,1,0,1,1,1,0,0,0,2,3,0,0,3,3,3,2,0,3,2,2,2,0,0,0,1,3,2,0,0,0,0,0,0,0,0,0,0,0,0,0,0,0,0,0,0,0,0,0,0,0,0,0,0,0,0,0,0,0,0],"split_type":[0,0,0,0,0,0,0,0,0,0,0,0,0,0,0,0,0,0,0,0,0,0,0,0,0,0,0,0,0,0,0,0,0,0,0,0,0,0,0,0,0,0,0,0,0,0,0,0,0,0,0,0,0,0,0,0,0,0,0,0,0,0,0],"sum_hessian":[3.5269E4,2.34E4,1.1869E4,1.5645E4,7.755E3,5.783E3,6.086E3,7.8E3,7.845E3,5.855E3,1.9E3,5.54E2,5.229E3,3.617E3,2.469E3,6.492E3,1.308E3,7.386E3,4.59E2,3.66E3,2.195E3,1.587E3,3.13E2,1.28E2,4.26E2,4.437E3,7.92E2,1.746E3,1.871E3,1.788E3,6.81E2,8.72E2,5.62E3,8.23E2,4.85E2,4.92E2,6.894E3,2.62E2,1.97E2,2.982E3,6.78E2,2.132E3,6.3E1,5.86E2,1.001E3,2.88E2,2.5E1,9.6E1,3.2E1,5.7E1,3.69E2,1.399E3,3.038E3,3.89E2,4.03E2,1.015E3,7.31E2,1.306E3,5.65E2,4.02E2,1.386E3,6.58E2,2.3E1],"tree_param":{"num_deleted":"0","num_feature":"6","num_nodes":"63","size_leaf_vector":"1"}},{"base_weights":[3.259683E-2,1.5287175E1,-6.125613E0,5.9923053E0,2.6152098E1,-9.889931E0,-2.1394815E0,-2.349639E0,1.0333398E1,2.2710356E1,4.1107204E1,-1.1114608E1,-2.9402966E0,-4.15974E0,2.6477551E0,-1.2236804E1,9.1957307E-1,8.133946E0,2.1450294E1,1.8667328E1,3.5135983E1,2.9686718E1,4.993172E1,-1.5704402E1,-1.0237154E1,-4.5455713E0,3.8659358E0,-6.6478305E0,-1.5494069E0,7.586769E-1,7.4952335E0,-6.177531E-1,-2.6588365E-1,3.8194938E-3,5.9038675E-1,1.9214152E-1,3.27393E-1,3.40209E-1,7.856521E-1,4.5360342E-1,6.610581E-1,8.732832E-1,1.3144037E0,8.4500813E-1,1.0790117E0,1.2598827E0,1.9168655E0,-6.6099393E-1,-4.417268E-1,-3.4771252E-1,-2.4781308E-1,-2.1144244E-1,-4.9104385E-2,3.736933E-2,2.990348E-1,-2.3920195E-1,-2.585925E-3,3.869345E-2,-1.0588384E-1,-5.751018E-2,1.3254014E-1,1.7528768E-1,3.0933735E-1],"categories":[],"categories_nodes":[],"categories_segments":[],"categories_sizes":[],"default_left":[0,0,0,0,0,0,0,0,0,0,0,0,0,0,0,0,0,0,0,0,0,0,0,0,0,0,0,0,0,0,0,0,0,0,0,0,0,0,0,0,0,0,0,0,0,0,0,0,0,0,0,0,0,0,0,0,0,0,0,0,0,0,0],"id":26,"left_children":[1,3,5,7,9,11,13,15,17,19,21,23,25,27,29,31,33,35,37,39,41,43,45,47,49,51,53,55,57,59,61,-1,-1,-1,-1,-1,-1,-1,-1,-1,-1,-1,-1,-1,-1,-1,-1,-1,-1,-1,-1,-1,-1,-1,-1,-1,-1,-1,-1,-1,-1,-1,-1],"loss_changes":[3.3108535E6,1.023455E6,3.7672475E5,1.9789377E5,2.3958675E5,1.0986925E5,1.1796426E5,6.0489164E4,8.769972E4,1.9029025E5,8.6490875E4,4.4048625E4,2.1170133E4,5.5694312E4,3.314279E4,1.2922805E4,2.0907363E4,1.4355359E4,2.8105281E4,3.3950562E4,4.7456375E4,2.6361562E3,5.17145E4,1.0589625E4,2.4563312E4,1.1394094E4,5.902293E3,3.8190938E4,2.3543035E4,2.5524588E4,4.6608594E3,0E0,0E0,0E0,0E0,0E0,0E0,0E0,0E0,0E0,0E0,0E0,0E0,0E0,0E0,0E0,0E0,0E0,0E0,0E0,0E0,0E0,0E0,0E0,0E0,0E0,0E0,0E0,0E0,0E0,0E0,0E0,0E0],"parents":[2147483647,0,0,1,1,2,2,3,3,4,4,5,5,6,6,7,7,8,8,9,9,10,10,11,11,12,12,13,13,14,14,15,15,16,16,17,17,18,18,19,19,20,20,21,21,22,22,23,23,24,24,25,25,26,26,27,27,28,28,29,29,30,30],"right_children":[2,4,6,8,10,12,14,16,18,20,22,24,26,28,30,32,34,36,38,40,42,44,46,48,50,52,54,56,58,60,62,-1,-1,-1,-1,-1,-1,-1,-1,-1,-1,-1,-1,-1,-1,-1,-1,-1,-1,-1,-1,-1,-1,-1,-1,-1,-1,-1,-1,-1,-1,-1,-1],"split_conditions":[2E0,1.5635E4,1.74217E4,1.21151E4,3.175E2,2.4795E1,2.042E1,9.4579E3,3.175E2,2.01474E4,1.75498E4,1.26644E4,1.4425E2,6E0,2.622E1,7.6388E3,3.3175E2,1.44278E4,1.35313E4,1.74651E4,8.4607E1,1.17738E2,3.2815E2,1.04644E4,6E0,1.50169E4,5.0232E1,2.2469E4,1.2985E1,2.062E4,2.00218E4,-6.177531E-1,-2.6588365E-1,3.8194938E-3,5.9038675E-1,1.9214152E-1,3.27393E-1,3.40209E-1,7.856521E-1,4.5360342E-1,6.610581E-1,8.732832E-1,1.3144037E0,8.4500813E-1,1.0790117E0,1.2598827E0,1.9168655E0,-6.6099393E-1,-4.417268E-1,-3.4771252E-1,-2.4781308E-1,-2.1144244E-1,-4.9104385E-2,3.736933E-2,2.990348E-1,-2.3920195E-1,-2.585925E-3,3.869345E-2,-1.0588384E-1,-5.751018E-2,1.3254014E-1,1.7528768E-1,3.0933735E-1],"split_indices":[5,0,0,0,2,1,1,0,2,0,0,0,2,5,1,0,2,0,0,0,1,1,2,0,5,0,1,0,1,0,0,0,0,0,0,0,0,0,0,0,0,0,0,0,0,0,0,0,0,0,0,0,0,0,0,0,0,0,0,0,0,0,0],"split_type":[0,0,0,0,0,0,0,0,0,0,0,0,0,0,0,0,0,0,0,0,0,0,0,0,0,0,0,0,0,0,0,0,0,0,0,0,0,0,0,0,0,0,0,0,0,0,0,0,0,0,0,0,0,0,0,0,0,0,0,0,0,0,0],"sum_hessian":[3.5242E4,1.0135E4,2.5107E4,5.463E3,4.672E3,1.2912E4,1.2195E4,1.87E3,3.593E3,