{"learner":{"attributes":{"best_iteration":"51","best_score":"26.25284330144569","scikit_learn":"{\"_estimator_type\": \"regressor\"}"},"feature_names":["Residual_Load","TTF_Gas_Price","Coal_Price","EU_ETS_Price","Brent_Oil_Price","EU_Gas_Storage_Anomaly"],"feature_types":["float","float","float","float","float","float"],"gradient_booster":{"model":{"cats":{"enc":[],"feature_segments":[],"sorted_idx":[]},"gbtree_model_param":{"num_parallel_tree":"1","num_trees":"102"},"iteration_indptr":[0,1,2,3,4,5,6,7,8,9,10,11,12,13,14,15,16,17,18,19,20,21,22,23,24,25,26,27,28,29,30,31,32,33,34,35,36,37,38,39,40,41,42,43,44,45,46,47,48,49,50,51,52,53,54,55,56,57,58,59,60,61,62,63,64,65,66,67,68,69,70,71,72,73,74,75,76,77,78,79,80,81,82,83,84,85,86,87,88,89,90,91,92,93,94,95,96,97,98,99,100,101,102],"tree_info":[0,0,0,0,0,0,0,0,0,0,0,0,0,0,0,0,0,0,0,0,0,0,0,0,0,0,0,0,0,0,0,0,0,0,0,0,0,0,0,0,0,0,0,0,0,0,0,0,0,0,0,0,0,0,0,0,0,0,0,0,0,0,0,0,0,0,0,0,0,0,0,0,0,0,0,0,0,0,0,0,0,0,0,0,0,0,0,0,0,0,0,0,0,0,0,0,0,0,0,0,0,0],"trees":[{"base_weights":[3.7639305E-2,-1.6125053E1,2.9077662E1,-1.6937193E1,3.860271E0,2.2189283E1,4.3011772E1,-1.6148928E1,-2.6870293E1,-2.191609E0,1.58894005E1,4.6765415E1,1.8724043E1,5.122354E1,2.4121191E1,-2.4694439E1,-1.5370467E1,-2.5825224E1,-3.0528902E1,-1.2112889E1,-2.2713679E-1,2.1109346E1,1.19270315E1,9.0411644E1,4.432267E1,1.6089825E1,3.1417671E1,5.408989E1,4.736626E0,2.0990849E1,3.32796E1,-1.413863E0,-1.0738E0,-8.30311E-1,-5.4663587E-1,-1.2245582E0,-1.5609943E0,-1.7044665E0,-1.3468491E0,-7.256054E-1,-7.498351E-2,7.5513E-2,-6.741116E-1,1.3595574E0,8.2341015E-1,9.772518E-1,-1.3682084E-1,4.7299533E0,2.4390993E0,1.8225422E0,2.5950298E0,6.385622E-1,1.5117887E0,1.0901216E0,2.1561902E0,3.5527542E0,2.425933E0,-6.706716E-2,3.3613267E0,1.1321216E0,3.0223572E-1,1.7225245E0,6.489348E-1],"categories":[],"categories_nodes":[],"categories_segments":[],"categories_sizes":[],"default_left":[0,0,0,0,0,0,0,0,0,0,0,0,0,0,0,0,0,0,0,0,0,0,0,0,0,0,0,0,0,0,0,0,0,0,0,0,0,0,0,0,0,0,0,0,0,0,0,0,0,0,0,0,0,0,0,0,0,0,0,0,0,0,0],"id":0,"left_children":[1,3,5,7,9,11,13,15,17,19,21,23,25,27,29,31,33,35,37,39,41,43,45,47,49,51,53,55,57,59,61,-1,-1,-1,-1,-1,-1,-1,-1,-1,-1,-1,-1,-1,-1,-1,-1,-1,-1,-1,-1,-1,-1,-1,-1,-1,-1,-1,-1,-1,-1,-1,-1],"loss_changes":[1.6467668E7,3.65909E5,1.203157E6,1.691625E5,6.41706E4,7.14232E5,6.42379E5,1.33133E5,5.29475E3,1.1437925E4,5.8498203E3,1.06554E5,2.4563025E5,3.84962E5,3.5395625E4,1.8695812E4,1.00707E5,8.188125E3,3.5322188E3,2.4481895E3,1.1327776E4,3.10875E3,1.9043537E4,4.798625E3,5.6806E4,2.8588112E5,1.41332E5,2.539225E5,6.4278355E4,2.3091531E4,7.1355312E3,0E0,0E0,0E0,0E0,0E0,0E0,0E0,0E0,0E0,0E0,0E0,0E0,0E0,0E0,0E0,0E0,0E0,0E0,0E0,0E0,0E0,0E0,0E0,0E0,0E0,0E0,0E0,0E0,0E0,0E0,0E0,0E0],"parents":[2147483647,0,0,1,1,2,2,3,3,4,4,5,5,6,6,7,7,8,8,9,9,10,10,11,11,12,12,13,13,14,14,15,15,16,16,17,17,18,18,19,19,20,20,21,21,22,22,23,23,24,24,25,25,26,26,27,27,28,28,29,29,30,30],"right_children":[2,4,6,8,10,12,14,16,18,20,22,24,26,28,30,32,34,36,38,40,42,44,46,48,50,52,54,56,58,60,62,-1,-1,-1,-1,-1,-1,-1,-1,-1,-1,-1,-1,-1,-1,-1,-1,-1,-1,-1,-1,-1,-1,-1,-1,-1,-1,-1,-1,-1,-1,-1,-1],"split_conditions":[1.105E2,1.0165E2,1.9275E2,1.3625E1,1.12175E1,-1.822625E1,8.75E0,3.75E-1,5.28E1,1.0385E2,7.978E1,2.02E1,1.49E1,8.105E0,2.9375E2,3.35E-1,8.825E1,1.5845E1,5.32E1,7.903E1,1.101E2,1.15125E1,1.14825E1,1.36E2,-1.954875E1,2.2E1,8.336E1,8.855E1,2.3E2,2.76E2,-1.220625E1,-1.413863E0,-1.0738E0,-8.30311E-1,-5.4663587E-1,-1.2245582E0,-1.5609943E0,-1.7044665E0,-1.3468491E0,-7.256054E-1,-7.498351E-2,7.5513E-2,-6.741116E-1,1.3595574E0,8.2341015E-1,9.772518E-1,-1.3682084E-1,4.7299533E0,2.4390993E0,1.8225422E0,2.5950298E0,6.385622E-1,1.5117887E0,1.0901216E0,2.1561902E0,3.5527542E0,2.425933E0,-6.706716E-2,3.3613267E0,1.1321216E0,3.0223572E-1,1.7225245E0,6.489348E-1],"split_indices":[2,2,2,5,5,5,3,3,2,2,4,3,5,5,2,3,2,5,2,4,2,5,5,2,5,3,4,4,2,2,5,0,0,0,0,0,0,0,0,0,0,0,0,0,0,0,0,0,0,0,0,0,0,0,0,0,0,0,0,0,0,0,0],"split_type":[0,0,0,0,0,0,0,0,0,0,0,0,0,0,0,0,0,0,0,0,0,0,0,0,0,0,0,0,0,0,0,0,0,0,0,0,0,0,0,0,0,0,0,0,0,0,0,0,0,0,0,0,0,0,0,0,0,0,0,0,0,0,0],"sum_hessian":[3.5083E4,2.2539E4,1.2544E4,2.1659E4,8.8E2,8.396E3,4.148E3,2.0069E4,1.59E3,5.86E2,2.94E2,1.036E3,7.36E3,2.89E3,1.258E3,1.673E3,1.8396E4,1.243E3,3.47E2,9.6E1,4.9E2,1.25E2,1.69E2,5.3E1,9.83E2,6.097E3,1.263E3,2.722E3,1.68E2,9.4E2,3.18E2,7.88E2,8.85E2,1.4387E4,4.009E3,1.001E3,2.42E2,1.7E2,1.77E2,7.8E1,1.8E1,4.34E2,5.6E1,5.2E1,7.3E1,1.11E2,5.8E1,4.7E1,6E0,4.85E2,4.98E2,4.94E3,1.157E3,6.95E2,5.68E2,6.7E2,2.052E3,1.54E2,1.4E1,8.46E2,9.4E1,3E2,1.8E1],"tree_param":{"num_deleted":"0","num_feature":"6","num_nodes":"63","size_leaf_vector":"1"}},{"base_weights":[-1.6708629E-1,-1.5401987E1,2.7514593E1,-2.1318884E1,-7.0447593E0,6.786525E0,4.092229E1,-2.364512E1,-8.387521E0,-9.173201E0,4.462576E0,-1.8130287E1,1.1468451E1,2.6897688E1,5.550457E1,-2.8639303E1,-2.1167404E1,-1.3882954E1,3.4696968E0,-1.3045554E1,-5.5363884E0,8.8870466E-1,1.0575353E1,-3.7554695E1,-1.0355872E1,8.520544E0,3.01775E1,2.3914785E1,5.855392E1,4.980959E1,8.177077E1,-1.882465E0,-1.3697366E0,-1.1433616E0,-9.425117E-1,-8.574297E-1,-4.750888E-1,-1.2760904E0,3.6968872E-1,-7.0025796E-1,-4.367349E-1,-3.4103063E-1,3.8629513E-2,-6.0526997E-2,7.743055E-1,4.1527238E-1,1.5083557E0,-2.272658E0,-1.3641164E0,-8.198336E-1,-3.515341E-1,1.0441971E-1,5.84706E-1,9.8666877E-1,2.1180027E0,7.472655E-1,1.5497897E0,2.3425329E0,3.3452244E0,2.1657696E0,3.3130767E0,3.8059537E0,5.6760073E0],"categories":[],"categories_nodes":[],"categories_segments":[],"categories_sizes":[],"default_left":[0,0,0,0,0,0,0,0,0,0,0,0,0,0,0,0,0,0,0,0,0,0,0,0,0,0,0,0,0,0,0,0,0,0,0,0,0,0,0,0,0,0,0,0,0,0,0,0,0,0,0,0,0,0,0,0,0,0,0,0,0,0,0],"id":1,"left_children":[1,3,5,7,9,11,13,15,17,19,21,23,25,27,29,31,33,35,37,39,41,43,45,47,49,51,53,55,57,59,61,-1,-1,-1,-1,-1,-1,-1,-1,-1,-1,-1,-1,-1,-1,-1,-1,-1,-1,-1,-1,-1,-1,-1,-1,-1,-1,-1,-1,-1,-1,-1,-1],"loss_changes":[1.486548E7,1.124119E6,3.477281E6,4.00216E5,2.30909E5,5.7370194E5,1.552379E6,1.389865E5,1.3238923E5,1.1195825E5,3.2148324E4,1.1709955E5,2.2801919E5,3.64506E5,5.52984E5,4.088525E4,2.928325E4,1.9695688E4,7.34533E4,1.58123125E4,3.3256453E4,2.8517225E4,2.389745E4,1.6772094E4,1.1073078E4,7.299255E4,7.079797E4,2.24563E5,2.940925E4,3.24388E5,1.10147E5,0E0,0E0,0E0,0E0,0E0,0E0,0E0,0E0,0E0,0E0,0E0,0E0,0E0,0E0,0E0,0E0,0E0,0E0,0E0,0E0,0E0,0E0,0E0,0E0,0E0,0E0,0E0,0E0,0E0,0E0,0E0,0E0],"parents":[2147483647,0,0,1,1,2,2,3,3,4,4,5,5,6,6,7,7,8,8,9,9,10,10,11,11,12,12,13,13,14,14,15,15,16,16,17,17,18,18,19,19,20,20,21,21,22,22,23,23,24,24,25,25,26,26,27,27,28,28,29,29,30,30],"right_children":[2,4,6,8,10,12,14,16,18,20,22,24,26,28,30,32,34,36,38,40,42,44,46,48,50,52,54,56,58,60,62,-1,-1,-1,-1,-1,-1,-1,-1,-1,-1,-1,-1,-1,-1,-1,-1,-1,-1,-1,-1,-1,-1,-1,-1,-1,-1,-1,-1,-1,-1,-1,-1],"split_conditions":[1.105E2,1.85156E4,1.48077E4,2.4645E1,2.373E1,1.05119E4,7.7351E1,1.42805E4,1.0165E2,2.04922E4,2.6607E1,8.3933E3,3.13E2,2.12248E4,2.03233E4,1.12898E4,1.6584E4,1.58665E4,1.00469E4,2.042E1,2.042E1,2.35633E4,2.20116E4,7.3465E3,9.4318E3,1.25163E4,1.35494E4,7.661E1,2.20116E4,1.15509E2,2.29311E4,-1.882465E0,-1.3697366E0,-1.1433616E0,-9.425117E-1,-8.574297E-1,-4.750888E-1,-1.2760904E0,3.6968872E-1,-7.0025796E-1,-4.367349E-1,-3.4103063E-1,3.8629513E-2,-6.0526997E-2,7.743055E-1,4.1527238E-1,1.5083557E0,-2.272658E0,-1.3641164E0,-8.198336E-1,-3.515341E-1,1.0441971E-1,5.84706E-1,9.8666877E-1,2.1180027E0,7.472655E-1,1.5497897E0,2.3425329E0,3.3452244E0,2.1657696E0,3.3130767E0,3.8059537E0,5.6760073E0],"split_indices":[2,0,0,1,1,0,1,0,2,0,1,0,2,0,0,0,0,0,0,1,1,0,0,0,0,0,0,4,0,1,0,0,0,0,0,0,0,0,0,0,0,0,0,0,0,0,0,0,0,0,0,0,0,0,0,0,0,0,0,0,0,0,0],"split_type":[0,0,0,0,0,0,0,0,0,0,0,0,0,0,0,0,0,0,0,0,0,0,0,0,0,0,0,0,0,0,0,0,0,0,0,0,0,0,0,0,0,0,0,0,0,0,0,0,0,0,0,0,0,0,0,0,0,0,0,0,0,0,0],"sum_hessian":[3.5247E4,2.2735E4,1.2512E4,1.331E4,9.425E3,4.915E3,7.597E3,1.128E4,2.03E3,7.954E3,1.471E3,7.77E2,4.138E3,3.874E3,3.723E3,3.737E3,7.543E3,1.387E3,6.43E2,3.851E3,4.103E3,9.29E2,5.42E2,2.21E2,5.56E2,3.576E3,5.62E2,3.542E3,3.32E2,3.062E3,6.61E2,4.5E2,3.287E3,4.346E3,3.197E3,7.93E2,5.94E2,7.6E1,5.67E2,3.148E3,7.03E2,3.409E3,6.94E2,8.13E2,1.16E2,4.87E2,5.5E1,1.23E2,9.8E1,1.96E2,3.6E2,1.182E3,2.394E3,3.04E2,2.58E2,1.564E3,1.978E3,1.41E2,1.91E2,2.198E3,8.64E2,5.64E2,9.7E1],"tree_param":{"num_deleted":"0","num_feature":"6","num_nodes":"63","size_leaf_vector":"1"}},{"base_weights":[3.1133825E-2,-1.3933339E1,2.7055307E1,-1.8805664E1,-5.971946E0,1.213295E1,4.318646E1,-2.2025316E1,-4.737456E0,-8.10178E0,5.6164155E0,-4.1434636E0,1.8335957E1,2.8822649E1,5.7200016E1,-2.6486895E1,-1.9350113E1,-1.6460466E1,1.7132792E0,-1.1809519E1,-5.1736073E0,1.4032823E0,1.2476262E1,-2.4309547E1,4.0153E-1,1.4658036E1,4.286596E1,1.5903511E1,3.8134823E1,5.0804825E1,7.775981E1,-1.870737E0,-1.2818652E0,-1.3783649E0,-9.207282E-1,-9.9609804E-1,-6.171732E-1,-1.6052551E0,2.5319746E-1,-1.2615801E0,-5.6525284E-1,-3.0268902E-1,2.1048358E-1,-2.3554249E-2,6.9914323E-1,5.1763976E-1,1.385775E0,-1.9682978E0,-9.388577E-1,1.9483176E-1,-5.648477E-1,5.952091E-1,2.044564E0,1.8620551E0,4.0980496E0,1.7434723E0,6.508383E-1,1.5421389E0,2.7834213E0,3.1058547E0,2.0224955E0,3.6488178E0,5.169018E0],"categories":[],"categories_nodes":[],"categories_segments":[],"categories_sizes":[],"default_left":[0,0,0,0,0,0,0,0,0,0,0,0,0,0,0,0,0,0,0,0,0,0,0,0,0,0,0,0,0,0,0,0,0,0,0,0,0,0,0,0,0,0,0,0,0,0,0,0,0,0,0,0,0,0,0,0,0,0,0,0,0,0,0],"id":2,"left_children":[1,3,5,7,9,11,13,15,17,19,21,23,25,27,29,31,33,35,37,39,41,43,45,47,49,51,53,55,57,59,61,-1,-1,-1,-1,-1,-1,-1,-1,-1,-1,-1,-1,-1,-1,-1,-1,-1,-1,-1,-1,-1,-1,-1,-1,-1,-1,-1,-1,-1,-1,-1,-1],"loss_changes":[1.3266735E7,8.989735E5,2.882516E6,6.511435E5,2.172655E5,6.283668E5,1.156764E6,1.39134E5,2.0261962E5,8.066E4,3.949078E4,1.5747258E5,4.0590025E5,3.4154175E5,3.78931E5,3.9733E4,5.575E4,1.3306766E4,1.960829E5,2.1923438E4,3.4349516E4,2.0001371E4,1.6540273E4,2.5582984E4,5.7409082E4,2.8270388E5,1.260315E5,6.4862625E4,2.0950075E5,2.580015E5,7.68955E4,0E0,0E0,0E0,0E0,0E0,0E0,0E0,0E0,0E0,0E0,0E0,0E0,0E0,0E0,0E0,0E0,0E0,0E0,0E0,0E0,0E0,0E0,0E0,0E0,0E0,0E0,0E0,0E0,0E0,0E0,0E0,0E0],"parents":[2147483647,0,0,1,1,2,2,3,3,4,4,5,5,6,6,7,7,8,8,9,9,10,10,11,11,12,12,13,13,14,14,15,15,16,16,17,17,18,18,19,19,20,20,21,21,22,22,23,23,24,24,25,25,26,26,27,27,28,28,29,29,30,30],"right_children":[2,4,6,8,10,12,14,16,18,20,22,24,26,28,30,32,34,36,38,40,42,44,46,48,50,52,54,56,58,60,62,-1,-1,-1,-1,-1,-1,-1,-1,-1,-1,-1,-1,-1,-1,-1,-1,-1,-1,-1,-1,-1,-1,-1,-1,-1,-1,-1,-1,-1,-1,-1,-1],"split_conditions":[3.2338E1,1.88509E4,1.60203E4,2.452E1,2.373E1,1.22874E4,7.7351E1,1.46207E4,7.8E-1,2.04922E4,2.6607E1,9.4318E3,1.15509E2,7.661E1,2.03233E4,1.08583E4,3.85E-1,1.59394E4,9.4318E3,3.35E-1,2.37636E4,2.35633E4,2.20116E4,7.3465E3,1.02E1,1.0911E2,1.0116E2,3.925E0,1.98949E4,8.25E0,2.29311E4,-1.870737E0,-1.2818652E0,-1.3783649E0,-9.207282E-1,-9.9609804E-1,-6.171732E-1,-1.6052551E0,2.5319746E-1,-1.2615801E0,-5.6525284E-1,-3.0268902E-1,2.1048358E-1,-2.3554249E-2,6.9914323E-1,5.1763976E-1,1.385775E0,-1.9682978E0,-9.388577E-1,1.9483176E-1,-5.648477E-1,5.952091E-1,2.044564E0,1.8620551E0,4.0980496E0,1.7434723E0,6.508383E-1,1.5421389E0,2.7834213E0,3.1058547E0,2.0224955E0,3.6488178E0,5.169018E0],"split_indices":[1,0,0,1,1,0,1,0,3,0,1,0,1,4,0,0,3,0,0,3,0,0,0,0,3,4,4,3,0,3,0,0,0,0,0,0,0,0,0,0,0,0,0,0,0,0,0,0,0,0,0,0,0,0,0,0,0,0,0,0,0,0,0],"split_type":[0,0,0,0,0,0,0,0,0,0,0,0,0,0,0,0,0,0,0,0,0,0,0,0,0,0,0,0,0,0,0,0,0,0,0,0,0,0,0,0,0,0,0,0,0,0,0,0,0,0,0,0,0,0,0,0,0,0,0,0,0,0,0],"sum_hessian":[3.5153E4,2.3177E4,1.1976E4,1.4377E4,8.8E3,6.222E3,5.754E3,1.1699E4,2.678E3,7.434E3,1.366E3,1.717E3,4.505E3,2.843E3,2.911E3,4.382E3,7.317E3,9.5E2,1.728E3,3.279E3,4.155E3,8.47E2,5.19E2,3.15E2,1.402E3,3.919E3,5.86E2,1.192E3,1.651E3,2.223E3,6.88E2,3.13E2,4.069E3,7.45E2,6.572E3,5.14E2,4.36E2,1.55E2,1.573E3,1.17E2,3.162E3,3.799E3,3.56E2,7.38E2,1.09E2,4.57E2,6.2E1,8.3E1,2.32E2,1.08E3,3.22E2,3.548E3,3.71E2,5.14E2,7.2E1,1.56E2,1.036E3,1.168E3,4.83E2,1.06E3,1.163E3,5.83E2,1.05E2],"tree_param":{"num_deleted":"0","num_feature":"6","num_nodes":"63","size_leaf_vector":"1"}},{"base_weights":[-7.504177E-2,-1.3913736E1,2.4942385E1,-1.9415533E1,-6.479886E0,7.033651E0,3.79271E1,-2.1418665E1,-8.081178E0,-9.364516E0,2.3221155E-1,-1.4905694E1,1.1303298E1,2.5117733E1,5.1263268E1,-2.5849417E1,-1.9123325E1,-1.2862196E1,2.3661287E0,-1.2919887E1,-6.2634487E0,-1.8251077E0,8.840829E0,-3.3457504E1,-8.445952E0,8.262013E0,3.0635712E1,2.212134E1,5.409976E1,4.737477E1,8.021649E1,-1.7558215E0,-1.2434181E0,-1.032503E0,-8.5092545E-1,-8.1910956E-1,-4.81508E-1,-1.0480405E0,3.1284195E-1,-5.7636255E-1,-1.0231385E0,-2.5655147E-1,-7.1964E-1,-1.8739855E-1,3.743057E-1,3.5031608E-1,1.1975232E0,-2.0504835E0,-1.178015E0,-6.3493E-1,-2.450109E-1,1.9513834E-1,5.9685904E-1,1.0082613E0,2.246592E0,6.791875E-1,1.4513026E0,1.0721953E0,2.8288124E0,2.1579661E0,3.2641714E0,3.8766677E0,5.681325E0],"categories":[],"categories_nodes":[],"categories_segments":[],"categories_sizes":[],"default_left":[0,0,0,0,0,0,0,0,0,0,0,0,0,0,0,0,0,0,0,0,0,0,0,0,0,0,0,0,0,0,0,0,0,0,0,0,0,0,0,0,0,0,0,0,0,0,0,0,0,0,0,0,0,0,0,0,0,0,0,0,0,0,0],"id":3,"left_children":[1,3,5,7,9,11,13,15,17,19,21,23,25,27,29,31,33,35,37,39,41,43,45,47,49,51,53,55,57,59,61,-1,-1,-1,-1,-1,-1,-1,-1,-1,-1,-1,-1,-1,-1,-1,-1,-1,-1,-1,-1,-1,-1,-1,-1,-1,-1,-1,-1,-1,-1,-1,-1],"loss_changes":[1.2157806E7,9.246125E5,2.908108E6,2.94823E5,1.8622512E5,4.9270244E5,1.237215E6,1.11794E5,9.7580375E4,7.408719E4,5.1235402E4,1.024202E5,2.5856412E5,3.2011675E5,3.95988E5,3.3356E4,2.3033E4,1.5087078E4,5.585678E4,3.2674688E4,3.302114E4,4.183438E4,1.5299246E4,1.5552516E4,9.5429375E3,6.0913188E4,8.8607E4,1.9738162E5,2.67685E4,2.337015E5,2.8751E4,0E0,0E0,0E0,0E0,0E0,0E0,0E0,0E0,0E0,0E0,0E0,0E0,0E0,0E0,0E0,0E0,0E0,0E0,0E0,0E0,0E0,0E0,0E0,0E0,0E0,0E0,0E0,0E0,0E0,0E0,0E0,0E0],"parents":[2147483647,0,0,1,1,2,2,3,3,4,4,5,5,6,6,7,7,8,8,9,9,10,10,11,11,12,12,13,13,14,14,15,15,16,16,17,17,18,18,19,19,20,20,21,21,22,22,23,23,24,24,25,25,26,26,27,27,28,28,29,29,30,30],"right_children":[2,4,6,8,10,12,14,16,18,20,22,24,26,28,30,32,34,36,38,40,42,44,46,48,50,52,54,56,58,60,62,-1,-1,-1,-1,-1,-1,-1,-1,-1,-1,-1,-1,-1,-1,-1,-1,-1,-1,-1,-1,-1,-1,-1,-1,-1,-1,-1,-1,-1,-1,-1,-1],"split_conditions":[1.105E2,1.84228E4,1.50621E4,2.4645E1,2.042E1,1.06816E4,7.7351E1,1.42805E4,1.0165E2,2.04514E4,2.6607E1,8.3933E3,3.13E2,2.12248E4,2.10161E4,1.10081E4,1.65357E4,1.5288E4,1.02923E4,7.895E1,8.19E1,2.22593E4,2.20116E4,7.3465E3,9.7615E3,1.32067E4,1.38537E4,7.661E1,3.5523E1,1.32579E2,2.35633E4,-1.7558215E0,-1.2434181E0,-1.032503E0,-8.5092545E-1,-8.1910956E-1,-4.81508E-1,-1.0480405E0,3.1284195E-1,-5.7636255E-1,-1.0231385E0,-2.5655147E-1,-7.1964E-1,-1.8739855E-1,3.743057E-1,3.5031608E-1,1.1975232E0,-2.0504835E0,-1.178015E0,-6.3493E-1,-2.450109E-1,1.9513834E-1,5.9685904E-1,1.0082613E0,2.246592E0,6.791875E-1,1.4513026E0,1.0721953E0,2.8288124E0,2.1579661E0,3.2641714E0,3.8766677E0,5.681325E0],"split_indices":[2,0,0,1,1,0,1,0,2,0,1,0,2,0,0,0,0,0,0,2,2,0,0,0,0,0,0,4,1,1,0,0,0,0,0,0,0,0,0,0,0,0,0,0,0,0,0,0,0,0,0,0,0,0,0,0,0,0,0,0,0,0,0],"split_type":[0,0,0,0,0,0,0,0,0,0,0,0,0,0,0,0,0,0,0,0,0,0,0,0,0,0,0,0,0,0,0,0,0,0,0,0,0,0,0,0,0,0,0,0,0,0,0,0,0,0,0,0,0,0,0,0,0,0,0,0,0,0,0],"sum_hessian":[3.5115E4,2.2609E4,1.2506E4,1.2992E4,9.617E3,5.257E3,7.249E3,1.104E4,1.952E3,6.726E3,2.891E3,8.56E2,4.401E3,3.699E3,3.55E3,3.764E3,7.276E3,1.339E3,6.13E2,3.132E3,3.594E3,2.334E3,5.57E2,2.2E2,6.36E2,3.804E3,5.97E2,3.354E3,3.45E2,3.132E3,4.18E2,3.57E2,3.407E3,4.212E3,3.064E3,6.39E2,7E2,8.7E1,5.26E2,2.646E3,4.86E2,3.156E3,4.38E2,1.935E3,3.99E2,4.98E2,5.9E1,1.23E2,9.7E1,2.88E2,3.48E2,1.741E3,2.063E3,3.46E2,2.51E2,1.501E3,1.853E3,2.5E1,3.2E2,2.538E3,5.94E2,3.9E2,2.8E1],"tree_param":{"num_deleted":"0","num_feature":"6","num_nodes":"63","size_leaf_vector":"1"}},{"base_weights":[-3.9564134E-3,-1.385775E1,2.2534075E1,-1.8857277E1,-5.667653E0,9.320306E0,3.7742317E1,-2.2247791E1,-1.5598213E1,-8.089014E0,4.1028264E-1,5.739959E0,3.4748856E1,2.4556755E1,5.086503E1,-2.3597982E1,-1.6519354E1,-1.6512737E1,-7.04432E0,-1.0335985E1,-4.870174E0,-2.1063094E0,7.035122E0,-1.640471E1,9.218254E0,1.948256E1,4.8277267E1,3.5008785E1,1.2008774E1,4.512021E1,6.91353E1,-1.5670557E0,-1.119376E0,-1.0076087E0,-5.147586E-1,-1.2681965E0,-7.849495E-1,-5.3259486E-1,1.2874769E-1,-4.5825258E-1,-8.701188E-1,-1.7297101E-1,-5.6918186E-1,-1.9031245E-1,1.6643243E-1,1.5801422E-1,7.4120826E-1,-1.6296898E0,-5.0433344E-1,6.326458E-1,1.477334E-1,7.235533E-1,1.470072E0,1.9615849E0,3.1331198E0,1.396756E0,2.3996801E0,3.972485E-1,1.3434876E0,2.828078E0,1.7644151E0,3.2317727E0,4.7517967E0],"categories":[],"categories_nodes":[],"categories_segments":[],"categories_sizes":[],"default_left":[0,0,0,0,0,0,0,0,0,0,0,0,0,0,0,0,0,0,0,0,0,0,0,0,0,0,0,0,0,0,0,0,0,0,0,0,0,0,0,0,0,0,0,0,0,0,0,0,0,0,0,0,0,0,0,0,0,0,0,0,0,0,0],"id":4,"left_children":[1,3,5,7,9,11,13,15,17,19,21,23,25,27,29,31,33,35,37,39,41,43,45,47,49,51,53,55,57,59,61,-1,-1,-1,-1,-1,-1,-1,-1,-1,-1,-1,-1,-1,-1,-1,-1,-1,-1,-1,-1,-1,-1,-1,-1,-1,-1,-1,-1,-1,-1,-1,-1],"loss_changes":[1.0979197E7,8.915875E5,2.6896745E6,1.490695E5,1.2150581E5,6.520328E5,1.075519E6,5.085125E4,5.3844875E4,4.2651188E4,3.924407E4,4.8394956E5,1.8163075E5,4.0693725E5,3.241435E5,4.9527E4,2.8441062E4,4.44815E4,2.3208547E4,2.8601906E4,2.228043E4,1.5774574E4,1.9510621E4,8.691892E4,1.1675831E5,2.0302938E4,5.843875E4,1.5425362E5,8.512055E4,2.65169E5,8.057E4,0E0,0E0,0E0,0E0,0E0,0E0,0E0,0E0,0E0,0E0,0E0,0E0,0E0,0E0,0E0,0E0,0E0,0E0,0E0,0E0,0E0,0E0,0E0,0E0,0E0,0E0,0E0,0E0,0E0,0E0,0E0,0E0],"parents":[2147483647,0,0,1,1,2,2,3,3,4,4,5,5,6,6,7,7,8,8,9,9,10,10,11,11,12,12,13,13,14,14,15,15,16,16,17,17,18,18,19,19,20,20,21,21,22,22,23,23,24,24,25,25,26,26,27,27,28,28,29,29,30,30],"right_children":[2,4,6,8,10,12,14,16,18,20,22,24,26,28,30,32,34,36,38,40,42,44,46,48,50,52,54,56,58,60,62,-1,-1,-1,-1,-1,-1,-1,-1,-1,-1,-1,-1,-1,-1,-1,-1,-1,-1,-1,-1,-1,-1,-1,-1,-1,-1,-1,-1,-1,-1,-1,-1],"split_conditions":[1.0385E2,1.90386E4,1.59805E4,1.54261E4,2.042E1,3.13E2,7.4302E1,2.2605E1,2.49E1,2.12248E4,2.17806E4,1.05119E4,1.40273E4,4.6E0,2.03233E4,1.19853E4,2.1E0,3.75E-1,7.2E-1,7.895E1,8.065E1,2.536E1,9.175E1,8.3933E3,1.02E1,1.33058E4,1.15509E2,1.89942E4,5.666E1,8.25E0,2.29311E4,-1.5670557E0,-1.119376E0,-1.0076087E0,-5.147586E-1,-1.2681965E0,-7.849495E-1,-5.3259486E-1,1.2874769E-1,-4.5825258E-1,-8.701188E-1,-1.7297101E-1,-5.6918186E-1,-1.9031245E-1,1.6643243E-1,1.5801422E-1,7.4120826E-1,-1.6296898E0,-5.0433344E-1,6.326458E-1,1.477334E-1,7.235533E-1,1.470072E0,1.9615849E0,3.1331198E0,1.396756E0,2.3996801E0,3.972485E-1,1.3434876E0,2.828078E0,1.7644151E0,3.2317727E0,4.7517967E0],"split_indices":[2,0,0,0,1,2,1,1,1,0,0,0,0,3,0,0,3,3,3,2,2,1,2,0,3,0,1,0,1,3,0,0,0,0,0,0,0,0,0,0,0,0,0,0,0,0,0,0,0,0,0,0,0,0,0,0,0,0,0,0,0,0,0],"split_type":[0,0,0,0,0,0,0,0,0,0,0,0,0,0,0,0,0,0,0,0,0,0,0,0,0,0,0,0,0,0,0,0,0,0,0,0,0,0,0,0,0,0,0,0,0,0,0,0,0,0,0,0,0,0,0,0,0,0,0,0,0,0,0],"sum_hessian":[3.5161E4,2.1776E4,1.3385E4,1.3521E4,8.255E3,7.163E3,6.222E3,6.624E3,6.897E3,5.903E3,2.352E3,6.28E3,8.83E2,3.105E3,3.117E3,5.358E3,1.266E3,6.23E3,6.67E2,3.475E3,2.428E3,1.705E3,6.47E2,8.52E2,5.428E3,4.16E2,4.67E2,1.693E3,1.412E3,2.374E3,7.43E2,7.21E2,4.637E3,7.98E2,4.68E2,5.22E2,5.708E3,4.85E2,1.82E2,2.983E3,4.92E2,1.997E3,4.31E2,1.299E3,4.06E2,4.33E2,2.14E2,2.38E2,6.14E2,3.505E3,1.923E3,2.78E2,1.38E2,2.89E2,1.78E2,1.098E3,5.95E2,1.11E3,3.02E2,1.095E3,1.279E3,6.36E2,1.07E2],"tree_param":{"num_deleted":"0","num_feature":"6","num_nodes":"63","size_leaf_vector":"1"}},{"base_weights":[-1.6099337E-1,-8.817913E0,2.3089582E1,-1.3070117E1,2.1329772E0,6.4394493E0,3.5144268E1,-1.8550566E1,-7.0948725E0,-1.1305964E1,1.2701422E1,-8.211435E0,1.1502884E1,-8.2973826E-1,3.931565E1,-1.1243271E1,-1.990535E1,-7.9609504E0,5.286733E0,-1.834183E1,-2.0249927E0,3.1988564E0,2.3832294E1,-3.0773193E1,-4.627818E0,-1.9145298E1,1.382224E1,-1.0422816E1,7.435364E0,3.2845665E1,5.3444515E1,-1.2730899E0,-2.8291458E-1,-1.2814754E0,-9.137826E-1,-8.4319824E-1,-3.4830633E-1,2.0039144E-1,2.8261025E0,-1.0765152E0,-7.683155E-1,-1.9891044E-1,7.011768E-1,-1.0270785E0,3.2028413E-1,2.938641E0,9.6824884E-1,-1.1671032E0,-1.7917662E0,-7.68074E-1,-1.1893423E-1,-1.1094918E0,-8.933013E-1,5.561798E-1,1.6286108E0,-7.163798E-1,-2.568564E-1,1.1220042E-1,6.144118E-1,1.5162233E0,2.6625829E0,2.4437792E0,3.2903473E0],"categories":[],"categories_nodes":[],"categories_segments":[],"categories_sizes":[],"default_left":[0,0,0,0,0,0,0,0,0,0,0,0,0,0,0,0,0,0,0,0,0,0,0,0,0,0,0,0,0,0,0,0,0,0,0,0,0,0,0,0,0,0,0,0,0,0,0,0,0,0,0,0,0,0,0,0,0,0,0,0,0,0,0],"id":5,"left_children":[1,3,5,7,9,11,13,15,17,19,21,23,25,27,29,31,33,35,37,39,41,43,45,47,49,51,53,55,57,59,61,-1,-1,-1,-1,-1,-1,-1,-1,-1,-1,-1,-1,-1,-1,-1,-1,-1,-1,-1,-1,-1,-1,-1,-1,-1,-1,-1,-1,-1,-1,-1,-1],"loss_changes":[7.078157E6,1.1932666E6,1.914769E6,6.04313E5,1.0182054E6,2.9742312E5,8.304715E5,9.50815E4,9.475147E4,2.0604856E5,4.243862E5,8.313586E4,2.1202397E5,4.5747254E4,4.515645E5,1.19606484E5,7.52805E4,7.299644E4,3.7646965E4,1.6699E4,4.2749375E4,1.6503227E5,2.87317E5,4.4675938E3,2.1449342E4,4.2146875E2,1.3979825E5,5.437131E3,7.782248E3,1.73513E5,8.4671E4,0E0,0E0,0E0,0E0,0E0,0E0,0E0,0E0,0E0,0E0,0E0,0E0,0E0,0E0,0E0,0E0,0E0,0E0,0E0,0E0,0E0,0E0,0E0,0E0,0E0,0E0,0E0,0E0,0E0,0E0,0E0,0E0],"parents":[2147483647,0,0,1,1,2,2,3,3,4,4,5,5,6,6,7,7,8,8,9,9,10,10,11,11,12,12,13,13,14,14,15,15,16,16,17,17,18,18,19,19,20,20,21,21,22,22,23,23,24,24,25,25,26,26,27,27,28,28,29,29,30,30],"right_children":[2,4,6,8,10,12,14,16,18,20,22,24,26,28,30,32,34,36,38,40,42,44,46,48,50,52,54,56,58,60,62,-1,-1,-1,-1,-1,-1,-1,-1,-1,-1,-1,-1,-1,-1,-1,-1,-1,-1,-1,-1,-1,-1,-1,-1,-1,-1,-1,-1,-1,-1,-1,-1],"split_conditions":[7.903E1,7.221E1,1.50621E4,1.79046E4,8.05E-1,1.16181E4,4.55E-1,-1.306E1,2.35633E4,1.80484E4,1.58665E4,8.3933E3,4.55E-1,1.91667E4,1.91231E4,7.8E-1,1.34025E4,4.05E-1,7.023E1,-1.551125E1,2.1715E4,9.7615E3,-1.822625E1,8.489E1,-1.34025E1,-1.611625E1,1.0911E2,1.72289E4,2.08178E4,1.0911E2,2.1652E4,-1.2730899E0,-2.8291458E-1,-1.2814754E0,-9.137826E-1,-8.4319824E-1,-3.4830633E-1,2.0039144E-1,2.8261025E0,-1.0765152E0,-7.683155E-1,-1.9891044E-1,7.011768E-1,-1.0270785E0,3.2028413E-1,2.938641E0,9.6824884E-1,-1.1671032E0,-1.7917662E0,-7.68074E-1,-1.1893423E-1,-1.1094918E0,-8.933013E-1,5.561798E-1,1.6286108E0,-7.163798E-1,-2.568564E-1,1.1220042E-1,6.144118E-1,1.5162233E0,2.6625829E0,2.4437792E0,3.2903473E0],"split_indices":[4,4,0,0,3,0,3,5,0,0,0,0,3,0,0,3,0,3,4,5,0,0,5,4,5,5,4,0,0,4,0,0,0,0,0,0,0,0,0,0,0,0,0,0,0,0,0,0,0,0,0,0,0,0,0,0,0,0,0,0,0,0,0],"split_type":[0,0,0,0,0,0,0,0,0,0,0,0,0,0,0,0,0,0,0,0,0,0,0,0,0,0,0,0,0,0,0,0,0,0,0,0,0,0,0,0,0,0,0,0,0,0,0,0,0,0,0,0,0,0,0,0,0,0,0,0,0,0,0],"sum_hessian":[3.5164E4,2.5624E4,9.54E3,1.8457E4,7.167E3,4.007E3,5.533E3,9.626E3,8.831E3,3.155E3,4.012E3,1.029E3,2.978E3,5.75E2,4.958E3,1.507E3,8.119E3,8.254E3,5.77E2,1.794E3,1.361E3,2.165E3,1.847E3,1.4E2,8.89E2,2.09E2,2.769E3,2.66E2,3.09E2,3.403E3,1.555E3,4.24E2,1.083E3,1.796E3,6.323E3,8.28E2,7.426E3,5.64E2,1.3E1,8.63E2,9.31E2,1.214E3,1.47E2,2.57E2,1.908E3,2.08E2,1.639E3,5.9E1,8.1E1,1.53E2,7.36E2,5.7E1,1.52E2,2.422E3,3.47E2,1.52E2,1.14E2,1.5E2,1.59E2,3.031E3,3.72E2,1.139E3,4.16E2],"tree_param":{"num_deleted":"0","num_feature":"6","num_nodes":"63","size_leaf_vector":"1"}},{"base_weights":[8.164798E-2,-1.1362766E1,2.2218254E1,-1.5222512E1,-4.5952263E0,1.032854E1,3.6320145E1,-1.7906565E1,-3.581217E0,-6.4043055E0,5.418216E0,-6.806182E-1,1.6845934E1,2.393837E1,4.8265106E1,-2.1215738E1,-1.53105345E1,-1.3214637E1,1.8755578E0,-9.613604E0,-4.1517243E0,-6.191999E-1,8.223978E0,-1.76234E1,2.8561997E0,1.3018711E1,4.034467E1,1.332007E1,3.1820944E1,4.4738117E1,7.158711E1,-1.4258274E0,-1.013781E0,-1.1709154E0,-7.2861457E-1,-7.886244E-1,-4.3843418E-1,-1.4358405E0,2.0965742E-1,-1.0492588E0,-4.585249E-1,-2.1939054E-1,1.3767006E0,-2.7249977E-1,5.721218E-1,3.2919964E-1,1.0514439E0,-1.3793572E0,-5.707323E-1,2.9674765E-1,-3.4436828E-1,5.294365E-1,1.7669705E0,1.8078302E0,3.5334568E0,1.582685E0,5.260791E-1,1.2822405E0,2.2731662E0,2.694958E0,1.8269604E0,3.651341E0,6.731472E-1],"categories":[],"categories_nodes":[],"categories_segments":[],"categories_sizes":[],"default_left":[0,0,0,0,0,0,0,0,0,0,0,0,0,0,0,0,0,0,0,0,0,0,0,0,0,0,0,0,0,0,0,0,0,0,0,0,0,0,0,0,0,0,0,0,0,0,0,0,0,0,0,0,0,0,0,0,0,0,0,0,0,0,0],"id":6,"left_children":[1,3,5,7,9,11,13,15,17,19,21,23,25,27,29,31,33,35,37,39,41,43,45,47,49,51,53,55,57,59,61,-1,-1,-1,-1,-1,-1,-1,-1,-1,-1,-1,-1,-1,-1,-1,-1,-1,-1,-1,-1,-1,-1,-1,-1,-1,-1,-1,-1,-1,-1,-1,-1],"loss_changes":[8.866917E6,6.0259325E5,1.9995625E6,4.5899975E5,1.5185744E5,4.6445594E5,8.05786E5,1.0224E5,1.447954E5,5.128022E4,2.1738535E4,1.443462E5,3.6515E5,2.2397462E5,2.25141E5,3.542825E4,3.9725625E4,1.11883125E4,1.24834516E5,1.4556125E4,3.1337242E4,2.3835418E4,1.8257418E4,2.5419875E4,5.982696E4,1.8935331E5,6.9708375E4,5.836153E4,1.28421625E5,1.793475E5,2.9393125E4,0E0,0E0,0E0,0E0,0E0,0E0,0E0,0E0,0E0,0E0,0E0,0E0,0E0,0E0,0E0,0E0,0E0,0E0,0E0,0E0,0E0,0E0,0E0,0E0,0E0,0E0,0E0,0E0,0E0,0E0,0E0,0E0],"parents":[2147483647,0,0,1,1,2,2,3,3,4,4,5,5,6,6,7,7,8,8,9,9,10,10,11,11,12,12,13,13,14,14,15,15,16,16,17,17,18,18,19,19,20,20,21,21,22,22,23,23,24,24,25,25,26,26,27,27,28,28,29,29,30,30],"right_children":[2,4,6,8,10,12,14,16,18,20,22,24,26,28,30,32,34,36,38,40,42,44,46,48,50,52,54,56,58,60,62,-1,-1,-1,-1,-1,-1,-1,-1,-1,-1,-1,-1,-1,-1,-1,-1,-1,-1,-1,-1,-1,-1,-1,-1,-1,-1,-1,-1,-1,-1,-1,-1],"split_conditions":[3.2338E1,1.90386E4,1.62678E4,2.452E1,2.373E1,1.31028E4,7.7351E1,1.51007E4,7.8E-1,2.04922E4,6.708E1,9.7615E3,1.15509E2,7.661E1,2.12806E4,1.16181E4,3.75E-1,1.66673E4,8.9547E3,3.35E-1,7.903E1,2.35633E4,2.20116E4,8.3933E3,1.02E1,1.0911E2,1.0116E2,3.925E0,1.98949E4,8.25E0,2.825E1,-1.4258274E0,-1.013781E0,-1.1709154E0,-7.2861457E-1,-7.886244E-1,-4.3843418E-1,-1.4358405E0,2.0965742E-1,-1.0492588E0,-4.585249E-1,-2.1939054E-1,1.3767006E0,-2.7249977E-1,5.721218E-1,3.2919964E-1,1.0514439E0,-1.3793572E0,-5.707323E-1,2.9674765E-1,-3.4436828E-1,5.294365E-1,1.7669705E0,1.8078302E0,3.5334568E0,1.582685E0,5.260791E-1,1.2822405E0,2.2731662E0,2.694958E0,1.8269604E0,3.651341E0,6.731472E-1],"split_indices":[1,0,0,1,1,0,1,0,3,0,4,0,1,4,0,0,3,0,0,3,4,0,0,0,3,4,4,3,0,3,3,0,0,0,0,0,0,0,0,0,0,0,0,0,0,0,0,0,0,0,0,0,0,0,0,0,0,0,0,0,0,0,0],"split_type":[0,0,0,0,0,0,0,0,0,0,0,0,0,0,0,0,0,0,0,0,0,0,0,0,0,0,0,0,0,0,0,0,0,0,0,0,0,0,0,0,0,0,0,0,0,0,0,0,0,0,0,0,0,0,0,0,0,0,0,0,0,0,0],"sum_hessian":[3.4998E4,2.3071E4,1.1927E4,1.4691E4,8.38E3,6.472E3,5.455E3,1.1938E4,2.753E3,7.098E3,1.282E3,2.407E3,4.065E3,2.68E3,2.775E3,5.245E3,6.693E3,9.95E2,1.758E3,2.926E3,4.172E3,4.07E2,8.75E2,4.15E2,1.992E3,3.497E3,5.68E2,1.143E3,1.537E3,2.413E3,3.62E2,5.95E2,4.65E3,5.56E2,6.137E3,6.3E2,3.65E2,1.23E2,1.635E3,1.08E2,2.818E3,4.142E3,3E1,2.91E2,1.16E2,7.77E2,9.8E1,1.58E2,2.57E2,1.514E3,4.78E2,3.155E3,3.42E2,5.01E2,6.7E1,1.5E2,9.93E2,1.06E3,4.77E2,1.137E3,1.276E3,3.53E2,9E0],"tree_param":{"num_deleted":"0","num_feature":"6","num_nodes":"63","size_leaf_vector":"1"}},{"base_weights":[2.0579288E-2,-1.102652E1,2.0616375E1,-1.5524629E1,-5.660161E0,9.20718E0,3.4155273E1,-1.7839924E1,-4.6598864E0,-7.3079147E0,3.575014E0,-3.5430493E0,1.462283E1,2.1647837E1,4.485163E1,-2.247828E1,-1.6470522E1,-1.1046042E1,9.41892E0,-1.097959E1,-4.54399E0,1.7725862E0,4.0759754E1,-2.0673847E1,1.3448954E-1,1.1592757E1,3.4677536E1,8.66894E0,2.9474836E1,3.9324505E1,5.7991005E1,-1.6199639E0,-1.0797232E0,-1.1512955E0,-7.8365606E-1,-6.8116355E-1,-3.9453965E-1,-7.0639193E-1,7.411408E-1,-1.0987104E0,-5.2467805E-1,-1.781513E-1,-6.4184695E-1,-4.183157E-2,5.0629336E-1,2.1044269E0,1.3317071E0,-1.7044741E0,-7.5206906E-1,-4.9667645E-1,1.5942274E-1,8.076431E-1,2.2610918E-1,2.273503E0,1.1170295E0,3.9040953E-1,1.3142116E0,1.2093321E0,2.090384E0,1.51923E0,2.4683592E0,2.7192984E0,4.027113E0],"categories":[],"categories_nodes":[],"categories_segments":[],"categories_sizes":[],"default_left":[0,0,0,0,0,0,0,0,0,0,0,0,0,0,0,0,0,0,0,0,0,0,0,0,0,0,0,0,0,0,0,0,0,0,0,0,0,0,0,0,0,0,0,0,0,0,0,0,0,0,0,0,0,0,0,0,0,0,0,0,0,0,0],"id":7,"left_children":[1,3,5,7,9,11,13,15,17,19,21,23,25,27,29,31,33,35,37,39,41,43,45,47,49,51,53,55,57,59,61,-1,-1,-1,-1,-1,-1,-1,-1,-1,-1,-1,-1,-1,-1,-1,-1,-1,-1,-1,-1,-1,-1,-1,-1,-1,-1,-1,-1,-1,-1,-1,-1],"loss_changes":[7.9951865E6,5.52007E5,1.894698E6,3.1289625E5,1.5875769E5,4.5986094E5,7.495575E5,6.477375E4,1.9673602E5,8.978225E4,1.0582379E5,1.2511915E5,2.8362406E5,2.6264862E5,2.17259E5,1.977425E4,4.10495E4,1.2130844E4,8.711723E4,2.0080844E4,4.1052734E4,3.2876125E4,2.4921094E2,2.6009906E4,5.0334387E4,1.3089625E5,8.060319E4,1.4578055E4,1.042515E5,1.898225E5,6.8219E4,0E0,0E0,0E0,0E0,0E0,0E0,0E0,0E0,0E0,0E0,0E0,0E0,0E0,0E0,0E0,0E0,0E0,0E0,0E0,0E0,0E0,0E0,0E0,0E0,0E0,0E0,0E0,0E0,0E0,0E0,0E0,0E0],"parents":[2147483647,0,0,1,1,2,2,3,3,4,4,5,5,6,6,7,7,8,8,9,9,10,10,11,11,12,12,13,13,14,14,15,15,16,16,17,17,18,18,19,19,20,20,21,21,22,22,23,23,24,24,25,25,26,26,27,27,28,28,29,29,30,30],"right_children":[2,4,6,8,10,12,14,16,18,20,22,24,26,28,30,32,34,36,38,40,42,44,46,48,50,52,54,56,58,60,62,-1,-1,-1,-1,-1,-1,-1,-1,-1,-1,-1,-1,-1,-1,-1,-1,-1,-1,-1,-1,-1,-1,-1,-1,-1,-1,-1,-1,-1,-1,-1,-1],"split_conditions":[3.0735E1,1.79512E4,1.62262E4,2.452E1,2.373E1,1.25163E4,7.4302E1,1.34025E4,1.12175E1,2.00673E4,-2.4425E0,9.4318E3,1.15509E2,-1.541375E1,2.00226E4,1.02923E4,3.95E-1,7.8E-1,1.05119E4,3.35E-1,9.71625E0,2.17806E4,3.125E0,7.3465E3,-1.320625E1,1.02E1,3.375E-2,7.0123E1,1.98949E4,-1.220625E1,2.28021E4,-1.6199639E0,-1.0797232E0,-1.1512955E0,-7.8365606E-1,-6.8116355E-1,-3.9453965E-1,-7.0639193E-1,7.411408E-1,-1.0987104E0,-5.2467805E-1,-1.781513E-1,-6.4184695E-1,-4.183157E-2,5.0629336E-1,2.1044269E0,1.3317071E0,-1.7044741E0,-7.5206906E-1,-4.9667645E-1,1.5942274E-1,8.076431E-1,2.2610918E-1,2.273503E0,1.1170295E0,3.9040953E-1,1.3142116E0,1.2093321E0,2.090384E0,1.51923E0,2.4683592E0,2.7192984E0,4.027113E0],"split_indices":[1,0,0,1,1,0,1,0,5,0,5,0,1,5,0,0,3,3,0,3,5,0,3,0,5,3,5,1,0,5,0,0,0,0,0,0,0,0,0,0,0,0,0,0,0,0,0,0,0,0,0,0,0,0,0,0,0,0,0,0,0,0,0],"split_type":[0,0,0,0,0,0,0,0,0,0,0,0,0,0,0,0,0,0,0,0,0,0,0,0,0,0,0,0,0,0,0,0,0,0,0,0,0,0,0,0,0,0,0,0,0,0,0,0,0,0,0,0,0,0,0,0,0,0,0,0,0,0,0],"sum_hessian":[3.5138E4,2.2871E4,1.2267E4,1.2441E4,1.043E4,6.658E3,5.609E3,1.0255E4,2.186E3,8.851E3,1.579E3,1.985E3,4.673E3,2.587E3,3.022E3,2.334E3,7.921E3,1.504E3,6.82E2,3.8E3,5.051E3,1.507E3,7.2E1,3.5E2,1.635E3,4.061E3,6.12E2,9.74E2,1.613E3,2.13E3,8.92E2,1.88E2,2.146E3,8.56E2,7.065E3,8.26E2,6.78E2,1.27E2,5.55E2,1.59E2,3.641E3,4.518E3,5.33E2,1.149E3,3.58E2,6.4E1,8E0,1.02E2,2.48E2,3.8E2,1.255E3,2.468E3,1.593E3,3.25E2,2.87E2,9.3E2,4.4E1,1.131E3,4.82E2,1.129E3,1.001E3,7.72E2,1.2E2],"tree_param":{"num_deleted":"0","num_feature":"6","num_nodes":"63","size_leaf_vector":"1"}},{"base_weights":[8.6544926E-4,-1.0735527E1,1.9328766E1,-1.4774214E1,-4.6027274E0,4.571005E0,2.9038038E1,-1.5661655E1,1.7849505E0,-6.999254E0,8.189962E-1,-7.5402513E0,9.291297E0,1.8889431E1,3.9749153E1,-1.838133E1,-1.3103596E1,-1.890885E1,4.322824E0,-8.981812E0,-3.529971E0,-1.6857499E0,5.712047E0,-2.7232779E1,-3.7996275E0,6.9625015E0,2.3259565E1,1.6754301E1,4.504408E1,3.2311604E1,5.1471397E1,-9.737261E-1,-6.87739E-1,-7.095144E-1,-4.245751E-1,-1.2222675E0,-5.8623964E-1,-3.246386E-1,5.736653E-1,-3.8291088E-1,-7.1290934E-1,-2.0092872E-1,7.907728E-1,-1.3812053E-1,4.5325342E-1,2.1264553E-1,6.9337696E-1,-1.6869487E0,-9.591935E-1,-2.3580669E-1,4.956305E-1,-3.384305E-1,3.7805977E-1,1.0001563E0,2.3503973E0,5.2050084E-1,1.0855411E0,1.7811826E0,2.4361253E0,1.2479323E0,2.3083236E0,2.3534029E0,3.4257238E0],"categories":[],"categories_nodes":[],"categories_segments":[],"categories_sizes":[],"default_left":[0,0,0,0,0,0,0,0,0,0,0,0,0,0,0,0,0,0,0,0,0,0,0,0,0,0,0,0,0,0,0,0,0,0,0,0,0,0,0,0,0,0,0,0,0,0,0,0,0,0,0,0,0,0,0,0,0,0,0,0,0,0,0],"id":8,"left_children":[1,3,5,7,9,11,13,15,17,19,21,23,25,27,29,31,33,35,37,39,41,43,45,47,49,51,53,55,57,59,61,-1,-1,-1,-1,-1,-1,-1,-1,-1,-1,-1,-1,-1,-1,-1,-1,-1,-1,-1,-1,-1,-1,-1,-1,-1,-1,-1,-1,-1,-1,-1,-1],"loss_changes":[7.294875E6,5.59699E5,1.798693E6,2.0026625E5,1.1662061E5,2.849415E5,8.22347E5,8.9735E4,3.6529402E4,4.2777312E4,3.373773E4,1.0287646E5,1.1648794E5,2.16477E5,3.19439E5,3.142375E4,3.3299E4,2.736248E3,4.7945926E4,2.7546562E4,2.147289E4,2.1103086E4,1.1031801E4,1.103075E4,1.4825949E4,2.5329922E4,3.865528E4,1.1291519E5,8.4174375E3,2.28676E5,1.039415E5,0E0,0E0,0E0,0E0,0E0,0E0,0E0,0E0,0E0,0E0,0E0,0E0,0E0,0E0,0E0,0E0,0E0,0E0,0E0,0E0,0E0,0E0,0E0,0E0,0E0,0E0,0E0,0E0,0E0,0E0,0E0,0E0],"parents":[2147483647,0,0,1,1,2,2,3,3,4,4,5,5,6,6,7,7,8,8,9,9,10,10,11,11,12,12,13,13,14,14,15,15,16,16,17,17,18,18,19,19,20,20,21,21,22,22,23,23,24,24,25,25,26,26,27,27,28,28,29,29,30,30],"right_children":[2,4,6,8,10,12,14,16,18,20,22,24,26,28,30,32,34,36,38,40,42,44,46,48,50,52,54,56,58,60,62,-1,-1,-1,-1,-1,-1,-1,-1,-1,-1,-1,-1,-1,-1,-1,-1,-1,-1,-1,-1,-1,-1,-1,-1,-1,-1,-1,-1,-1,-1,-1,-1],"split_conditions":[1.105E2,1.87562E4,1.48077E4,1.0165E2,2.042E1,1.16181E4,7.7351E1,1.5254E4,1.00469E4,2.13311E4,2.481E1,8.3933E3,3.13E2,2.14518E4,1.85156E4,2.2605E1,2.2465E1,8.9547E3,7.621E1,7.175E1,2.47079E4,2.37636E4,2.20116E4,7.3465E3,1.0911E2,7.135E1,3.35E2,7.661E1,2.20116E4,3.13E2,2.1652E4,-9.737261E-1,-6.87739E-1,-7.095144E-1,-4.245751E-1,-1.2222675E0,-5.8623964E-1,-3.246386E-1,5.736653E-1,-3.8291088E-1,-7.1290934E-1,-2.0092872E-1,7.907728E-1,-1.3812053E-1,4.5325342E-1,2.1264553E-1,6.9337696E-1,-1.6869487E0,-9.591935E-1,-2.3580669E-1,4.956305E-1,-3.384305E-1,3.7805977E-1,1.0001563E0,2.3503973E0,5.2050084E-1,1.0855411E0,1.7811826E0,2.4361253E0,1.2479323E0,2.3083236E0,2.3534029E0,3.4257238E0],"split_indices":[2,0,0,2,1,0,1,0,0,0,1,0,2,0,0,1,1,0,4,2,0,0,0,0,4,4,2,4,0,2,0,0,0,0,0,0,0,0,0,0,0,0,0,0,0,0,0,0,0,0,0,0,0,0,0,0,0,0,0,0,0,0,0],"split_type":[0,0,0,0,0,0,0,0,0,0,0,0,0,0,0,0,0,0,0,0,0,0,0,0,0,0,0,0,0,0,0,0,0,0,0,0,0,0,0,0,0,0,0,0,0,0,0,0,0,0,0,0,0,0,0,0,0,0,0,0,0,0,0],"sum_hessian":[3.5152E4,2.2599E4,1.2553E4,1.3625E4,8.974E3,4.982E3,7.571E3,1.2932E4,6.93E2,6.223E3,2.751E3,1.397E3,3.585E3,3.889E3,3.682E3,6.265E3,6.667E3,7.5E1,6.18E2,3.959E3,2.264E3,1.82E3,9.31E2,2.22E2,1.175E3,3.074E3,5.11E2,3.597E3,2.92E2,2.255E3,1.427E3,5.065E3,1.2E3,5.394E3,1.273E3,4.1E1,3.4E1,2.46E2,3.72E2,3.167E3,7.92E2,2.209E3,5.5E1,1.655E3,1.65E2,7.91E2,1.4E2,1.21E2,1.01E2,1.102E3,7.3E1,1.28E2,2.946E3,4.51E2,6E1,1.579E3,2.018E3,8.5E1,2.07E2,1.475E3,7.8E2,1.137E3,2.9E2],"tree_param":{"num_deleted":"0","num_feature":"6","num_nodes":"63","size_leaf_vector":"1"}},{"base_weights":[-7.4457387E-3,-7.130497E0,1.8847734E1,-1.1036555E1,1.267758E0,3.6109152E0,2.8085342E1,-1.5822439E1,-6.2916E0,-8.746276E0,1.0306467E1,-1.0020135E1,7.474659E0,-1.1129938E0,3.1400951E1,-2.2813854E1,-1.4744082E1,-7.264372E0,2.2366927E0,-1.4501091E1,-1.4925665E0,-1.1157835E0,1.6449688E1,-2.6518076E1,-6.313564E0,-8.367006E-1,9.153376E0,-8.364847E0,7.236904E0,2.3615662E1,4.0719025E1,-1.6291735E0,-1.0633491E0,-1.1885878E0,-7.018177E-1,-7.881307E-1,-3.1928322E-1,2.19551E-2,6.3584995E-1,-8.8694155E-1,-6.068407E-1,-1.3083793E-1,9.6836853E-1,-9.489121E-1,7.725751E-2,2.148446E0,6.82246E-1,-1.4101088E0,-2.610893E-1,-8.074245E-1,-2.1531343E-1,3.5692975E-1,1.200287E0,-6.068748E-1,-1.9311115E-1,1.5279385E0,2.959661E-1,9.421323E-1,1.7055157E0,1.8730681E0,2.668389E0],"categories":[],"categories_nodes":[],"categories_segments":[],"categories_sizes":[],"default_left":[0,0,0,0,0,0,0,0,0,0,0,0,0,0,0,0,0,0,0,0,0,0,0,0,0,0,0,0,0,0,0,0,0,0,0,0,0,0,0,0,0,0,0,0,0,0,0,0,0,0,0,0,0,0,0,0,0,0,0,0,0],"id":9,"left_children":[1,3,5,7,9,11,13,15,17,19,21,23,25,27,29,31,33,35,37,39,41,43,45,47,49,-1,51,53,55,57,59,-1,-1,-1,-1,-1,-1,-1,-1,-1,-1,-1,-1,-1,-1,-1,-1,-1,-1,-1,-1,-1,-1,-1,-1,-1,-1,-1,-1,-1,-1],"loss_changes":[4.714558E6,8.3579625E5,1.3546342E6,3.948065E5,7.322574E5,1.9146638E5,5.80122E5,6.4931E4,7.247422E4,1.601909E5,2.983786E5,4.8936664E4,1.15244266E5,3.7118504E4,3.893975E5,1.6761812E4,4.7604E4,5.8444312E4,1.685559E4,1.61661875E4,3.989321E4,7.075517E4,2.0507519E5,5.1248984E3,1.29006875E4,0E0,7.9098016E4,5.524801E3,8.57673E3,1.463245E5,9.8872E4,0E0,0E0,0E0,0E0,0E0,0E0,0E0,0E0,0E0,0E0,0E0,0E0,0E0,0E0,0E0,0E0,0E0,0E0,0E0,0E0,0E0,0E0,0E0,0E0,0E0,0E0,0E0,0E0,0E0,0E0],"parents":[2147483647,0,0,1,1,2,2,3,3,4,4,5,5,6,6,7,7,8,8,9,9,10,10,11,11,12,12,13,13,14,14,15,15,16,16,17,17,18,18,19,19,20,20,21,21,22,22,23,23,24,24,26,26,27,27,28,28,29,29,30,30],"right_children":[2,4,6,8,10,12,14,16,18,20,22,24,26,28,30,32,34,36,38,40,42,44,46,48,50,-1,52,54,56,58,60,-1,-1,-1,-1,-1,-1,-1,-1,-1,-1,-1,-1,-1,-1,-1,-1,-1,-1,-1,-1,-1,-1,-1,-1,-1,-1,-1,-1,-1,-1],"split_conditions":[7.903E1,7.11E1,1.46566E4,1.7671E4,8.05E-1,1.11617E4,4.55E-1,1.25819E4,2.30757E4,1.80484E4,1.42805E4,8.3933E3,4.55E-1,1.93799E4,1.78134E4,1.02923E4,4.05E-1,4.05E-1,2.47079E4,-1.56725E1,2.20116E4,9.4318E3,-1.822625E1,1.47475E1,-1.34025E1,-8.367006E-1,1.0911E2,1.70594E4,-1.886375E1,9.465E1,2.13311E4,-1.6291735E0,-1.0633491E0,-1.1885878E0,-7.018177E-1,-7.881307E-1,-3.1928322E-1,2.19551E-2,6.3584995E-1,-8.8694155E-1,-6.068407E-1,-1.3083793E-1,9.6836853E-1,-9.489121E-1,7.725751E-2,2.148446E0,6.82246E-1,-1.4101088E0,-2.610893E-1,-8.074245E-1,-2.1531343E-1,3.5692975E-1,1.200287E0,-6.068748E-1,-1.9311115E-1,1.5279385E0,2.959661E-1,9.421323E-1,1.7055157E0,1.8730681E0,2.668389E0],"split_indices":[4,4,0,0,3,0,3,0,0,0,0,0,3,0,0,0,3,3,0,5,0,0,5,5,5,0,4,0,5,4,0,0,0,0,0,0,0,0,0,0,0,0,0,0,0,0,0,0,0,0,0,0,0,0,0,0,0,0,0,0,0],"split_type":[0,0,0,0,0,0,0,0,0,0,0,0,0,0,0,0,0,0,0,0,0,0,0,0,0,0,0,0,0,0,0,0,0,0,0,0,0,0,0,0,0,0,0,0,0,0,0,0,0,0,0,0,0,0,0,0,0,0,0,0,0],"sum_hessian":[3.5101E4,2.5477E4,9.624E3,1.7389E4,8.088E3,3.633E3,5.991E3,8.656E3,8.733E3,3.837E3,4.251E3,8.02E2,2.831E3,6.11E2,5.38E3,1.154E3,7.502E3,7.839E3,8.94E2,2.139E3,1.698E3,1.487E3,2.764E3,1.46E2,6.56E2,1.83E2,2.648E3,3.27E2,2.84E2,2.933E3,2.447E3,1.55E2,9.99E2,5.43E2,6.959E3,7.33E2,7.106E3,7.64E2,1.3E2,9E2,1.239E3,1.612E3,8.6E1,1.92E2,1.295E3,2.63E2,2.501E3,1.35E2,1.1E1,1.1E2,5.46E2,2.333E3,3.15E2,1.77E2,1.5E2,1.4E1,2.7E2,2.018E3,9.15E2,1.949E3,4.98E2],"tree_param":{"num_deleted":"0","num_feature":"6","num_nodes":"61","size_leaf_vector":"1"}},{"base_weights":[8.4434934E-2,-9.463708E0,1.7751984E1,-1.3373593E1,-4.713984E0,7.4947786E0,2.8945457E1,-1.5377504E1,-4.0885324E0,-6.9641685E0,4.6598658E-1,-3.5319543E0,1.2087598E1,1.887635E1,3.9111282E1,-1.8935488E1,-1.38517885E1,-9.452961E0,8.118013E0,-1.0438757E1,-4.8347297E0,-2.5308767E-1,3.5890274E1,-1.799256E1,-2.337699E-1,9.50857E0,2.95927E1,8.691041E0,2.3993042E1,3.519632E1,5.6319824E1,-9.122182E-1,-1.453527E0,-1.2436056E0,-6.710089E-1,-5.9729356E-1,-3.3318314E-1,-8.639794E-3,1.0480033E0,-4.7201905E-1,-7.6918304E-1,-1.9525003E-1,-6.075783E-1,-1.8840365E-1,1.8252341E-1,1.9197543E0,1.4100351E0,-1.5441772E0,-6.5787E-1,-4.6606126E-1,1.20371E-1,6.842362E-1,1.4578748E-1,1.9928063E0,8.955125E-1,1.6667187E0,3.1262806E-1,1.0059494E0,1.8824354E0,1.356028E0,2.2134545E0,3.725579E0,2.4377544E0],"categories":[],"categories_nodes":[],"categories_segments":[],"categories_sizes":[],"default_left":[0,0,0,0,0,0,0,0,0,0,0,0,0,0,0,0,0,0,0,0,0,0,0,0,0,0,0,0,0,0,0,0,0,0,0,0,0,0,0,0,0,0,0,0,0,0,0,0,0,0,0,0,0,0,0,0,0,0,0,0,0,0,0],"id":10,"left_children":[1,3,5,7,9,11,13,15,17,19,21,23,25,27,29,31,33,35,37,39,41,43,45,47,49,51,53,55,57,59,61,-1,-1,-1,-1,-1,-1,-1,-1,-1,-1,-1,-1,-1,-1,-1,-1,-1,-1,-1,-1,-1,-1,-1,-1,-1,-1,-1,-1,-1,-1,-1,-1],"loss_changes":[5.919074E6,4.2294425E5,1.4131405E6,2.323875E5,1.1989575E5,3.2542912E5,6.01757E5,5.551525E4,1.453794E5,5.3007188E4,7.9382E4,9.013696E4,2.045015E5,1.54E5,1.952795E5,2.1050625E4,3.3889125E4,1.0642625E4,7.219096E4,1.33028125E4,3.0210828E4,4.193123E4,1.1140625E2,2.1471477E4,3.6985047E4,1.0885169E5,6.906919E4,5.934304E4,1.0340825E5,1.73767E5,7.081725E4,0E0,0E0,0E0,0E0,0E0,0E0,0E0,0E0,0E0,0E0,0E0,0E0,0E0,0E0,0E0,0E0,0E0,0E0,0E0,0E0,0E0,0E0,0E0,0E0,0E0,0E0,0E0,0E0,0E0,0E0,0E0,0E0],"parents":[2147483647,0,0,1,1,2,2,3,3,4,4,5,5,6,6,7,7,8,8,9,9,10,10,11,11,12,12,13,13,14,14,15,15,16,16,17,17,18,18,19,19,20,20,21,21,22,22,23,23,24,24,25,25,26,26,27,27,28,28,29,29,30,30],"right_children":[2,4,6,8,10,12,14,16,18,20,22,24,26,28,30,32,34,36,38,40,42,44,46,48,50,52,54,56,58,60,62,-1,-1,-1,-1,-1,-1,-1,-1,-1,-1,-1,-1,-1,-1,-1,-1,-1,-1,-1,-1,-1,-1,-1,-1,-1,-1,-1,-1,-1,-1,-1,-1],"split_conditions":[3.0735E1,1.80484E4,1.60203E4,2.452E1,2.042E1,1.24443E4,7.7351E1,1.38972E4,1.12175E1,1.99372E4,-2.4425E0,9.4318E3,1.15509E2,-1.588E1,2.06778E4,1.45975E1,3.35E-1,1.52169E4,1.40273E4,1.10225E1,1.058875E1,2.054E4,1.3625E1,7.3465E3,-1.320625E1,1.02E1,3.375E-2,-1.822625E1,2.04514E4,-1.19575E1,-1.760875E1,-9.122182E-1,-1.453527E0,-1.2436056E0,-6.710089E-1,-5.9729356E-1,-3.3318314E-1,-8.639794E-3,1.0480033E0,-4.7201905E-1,-7.6918304E-1,-1.9525003E-1,-6.075783E-1,-1.8840365E-1,1.8252341E-1,1.9197543E0,1.4100351E0,-1.5441772E0,-6.5787E-1,-4.6606126E-1,1.20371E-1,6.842362E-1,1.4578748E-1,1.9928063E0,8.955125E-1,1.6667187E0,3.1262806E-1,1.0059494E0,1.8824354E0,1.356028E0,2.2134545E0,3.725579E0,2.4377544E0],"split_indices":[1,0,0,1,1,0,1,0,5,0,5,0,1,5,0,5,3,0,0,5,5,0,5,0,5,3,5,5,0,5,5,0,0,0,0,0,0,0,0,0,0,0,0,0,0,0,0,0,0,0,0,0,0,0,0,0,0,0,0,0,0,0,0],"split_type":[0,0,0,0,0,0,0,0,0,0,0,0,0,0,0,0,0,0,0,0,0,0,0,0,0,0,0,0,0,0,0,0,0,0,0,0,0,0,0,0,0,0,0,0,0,0,0,0,0,0,0,0,0,0,0,0,0,0,0,0,0,0,0],"sum_hessian":[3.5086E4,2.2777E4,1.2309E4,1.2492E4,1.0285E4,6.424E3,5.885E3,1.0274E4,2.218E3,7.17E3,3.115E3,1.889E3,4.535E3,2.958E3,2.927E3,3.08E3,7.194E3,1.541E3,6.77E2,2.723E3,4.447E3,3.054E3,6.1E1,3.5E2,1.539E3,3.954E3,5.81E2,9.9E2,1.968E3,2.387E3,5.4E2,2.886E3,1.94E2,2.69E2,6.925E3,8.12E2,7.29E2,4.12E2,2.65E2,2.268E3,4.55E2,3.947E3,5E2,1.607E3,1.447E3,4.3E1,1.8E1,9.4E1,2.56E2,3.46E2,1.193E3,2.42E3,1.534E3,3.08E2,2.73E2,8.8E1,9.02E2,1.535E3,4.33E2,1.265E3,1.122E3,1.56E2,3.84E2],"tree_param":{"num_deleted":"0","num_feature":"6","num_nodes":"63","size_leaf_vector":"1"}},{"base_weights":[-3.0645203E-2,-9.246028E0,1.6619272E1,-8.584869E0,-1.8141893E1,1.4253604E1,3.3682053E1,-9.046715E0,3.0134263E0,-1.8717777E1,-6.4492005E-1,2.9533499E1,1.2633089E1,2.2284573E1,4.0540398E1,-1.7005947E1,-8.5992565E0,-1.5920856E0,1.1652404E1,-1.8001944E1,-2.2046118E1,3.6287255E0,2.7073992E1,9.044794E0,1.821605E1,2.5571121E1,1.4248557E1,4.1605873E1,-6.0039325E0,-5.904306E-1,-9.1157293E-1,-5.732323E-1,-3.9140716E-1,-1.2468538E-2,-5.889712E-1,6.84157E-1,2.162066E-1,-8.4236777E-1,-9.9632305E-1,-8.3744067E-1,-1.2755427E0,1.0640819E0,1.6365553E0,3.893678E-1,9.509E-1,5.943481E-1,1.474479E0,1.420474E0,8.6617845E-1,1.3108941E0,6.1326927E-1,2.960283E0,1.9721736E0,-2.0076731E-1,-5.9810287E-1],"categories":[],"categories_nodes":[],"categories_segments":[],"categories_sizes":[],"default_left":[0,0,0,0,0,0,0,0,0,0,0,0,0,0,0,0,0,0,0,0,0,0,0,0,0,0,0,0,0,0,0,0,0,0,0,0,0,0,0,0,0,0,0,0,0,0,0,0,0,0,0,0,0,0,0],"id":11,"left_children":[1,3,5,7,9,11,13,15,17,19,-1,21,23,25,27,29,31,33,35,37,39,-1,41,43,45,47,49,51,53,-1,-1,-1,-1,-1,-1,-1,-1,-1,-1,-1,-1,-1,-1,-1,-1,-1,-1,-1,-1,-1,-1,-1,-1,-1,-1],"loss_changes":[5.35735E6,1.320385E5,5.01659E5,1.1210375E5,4.4510938E3,2.701935E5,1.17442625E5,7.151675E4,3.1927658E4,2.9339375E3,0E0,1.0887019E5,1.9778438E5,1.4716219E4,4.70645E4,6.5999375E3,4.2008625E4,7.1646963E3,4.0928516E3,2.2329688E3,4.0326953E3,0E0,3.1809188E4,7.530928E4,2.7542162E5,8.965281E3,3.6662812E3,3.2792125E4,2.1262958E2,0E0,0E0,0E0,0E0,0E0,0E0,0E0,0E0,0E0,0E0,0E0,0E0,0E0,0E0,0E0,0E0,0E0,0E0,0E0,0E0,0E0,0E0,0E0,0E0,0E0,0E0],"parents":[2147483647,0,0,1,1,2,2,3,3,4,4,5,5,6,6,7,7,8,8,9,9,11,11,12,12,13,13,14,14,15,15,16,16,17,17,18,18,19,19,20,20,22,22,23,23,24,24,25,25,26,26,27,27,28,28],"right_children":[2,4,6,8,10,12,14,16,18,20,-1,22,24,26,28,30,32,34,36,38,40,-1,42,44,46,48,50,52,54,-1,-1,-1,-1,-1,-1,-1,-1,-1,-1,-1,-1,-1,-1,-1,-1,-1,-1,-1,-1,-1,-1,-1,-1,-1,-1],"split_conditions":[1.105E2,1.3625E1,3.13E2,1.0385E2,7.25E0,-1.822625E1,-9.5825E0,3.6E-1,1.12175E1,1.5845E1,-6.4492005E-1,2.02E1,1.62E2,3.2535E2,4.2375E-1,-1.79675E1,5.61E1,1.101E2,1.101E2,6.495E1,4.83E1,3.6287255E0,-1.954875E1,2.2E1,4.91875E0,-1.08175E1,1.0439E2,5.07E0,3.175E2,-5.904306E-1,-9.1157293E-1,-5.732323E-1,-3.9140716E-1,-1.2468538E-2,-5.889712E-1,6.84157E-1,2.162066E-1,-8.4236777E-1,-9.9632305E-1,-8.3744067E-1,-1.2755427E0,1.0640819E0,1.6365553E0,3.893678E-1,9.509E-1,5.943481E-1,1.474479E0,1.420474E0,8.6617845E-1,1.3108941E0,6.1326927E-1,2.960283E0,1.9721736E0,-2.0076731E-1,-5.9810287E-1],"split_indices":[2,5,2,2,3,5,5,3,5,5,0,3,2,2,5,5,4,2,2,4,2,0,5,3,5,5,4,3,2,0,0,0,0,0,0,0,0,0,0,0,0,0,0,0,0,0,0,0,0,0,0,0,0,0,0],"split_type":[0,0,0,0,0,0,0,0,0,0,0,0,0,0,0,0,0,0,0,0,0,0,0,0,0,0,0,0,0,0,0,0,0,0,0,0,0,0,0,0,0,0,0,0,0,0,0,0,0,0,0,0,0,0,0],"sum_hessian":[3.4914E4,2.2475E4,1.2439E4,2.0922E4,1.553E3,1.0926E4,1.513E3,2.0121E4,8.01E2,1.397E3,1.56E2,1.046E3,9.88E3,5.7E2,9.43E2,1.069E3,1.9052E4,5.23E2,2.78E2,1.155E3,2.42E2,5.5E1,9.91E2,6.016E3,3.864E3,4.03E2,1.67E2,9.22E2,2.1E1,2.06E2,8.63E2,4.037E3,1.5015E4,4.63E2,6E1,2.17E2,6.1E1,7.28E2,4.27E2,9.8E1,1.44E2,4.92E2,4.99E2,5.344E3,6.72E2,2.476E3,1.388E3,2.98E2,1.05E2,2.2E1,1.45E2,9.8E1,8.24E2,1.7E1,4E0],"tree_param":{"num_deleted":"0","num_feature":"6","num_nodes":"55","size_leaf_vector":"1"}},{"base_weights":[-1.890928E-2,-9.224225E0,1.502539E1,-8.603728E0,-1.725816E1,1.277197E1,3.2118774E1,-1.7930437E1,-8.221968E0,-1.6507627E1,-2.1112503E1,2.8440815E1,1.1299286E1,2.1606424E1,3.838016E1,-1.7435135E1,-1.9847507E1,-8.998098E0,-5.478905E0,-1.5293737E1,-1.9076305E1,-1.7588272E1,-1.2499237E0,6.368684E1,2.6387608E1,7.903232E0,1.7304049E1,2.6851957E1,1.5141872E1,3.9234238E1,-4.235559E0,-1.0455147E0,-8.539607E-1,-1.019237E0,-7.711578E-1,-6.6837674E-1,-4.2906404E-1,-4.1415235E-1,-1.8713774E-1,-7.935059E-1,-6.2067884E-1,-7.7811563E-1,-1.0075101E0,-6.5656847E-1,-9.10254E-1,3.6879125E0,2.6417696E0,1.027016E0,1.5942072E0,2.2140324E-1,5.762252E-1,5.8077127E-1,1.3819481E0,1.6445488E0,7.5924397E-1,9.328499E-1,5.39877E-1,2.1308804E0,1.5771568E0,-1.764317E-1,-3.5326284E-1],"categories":[],"categories_nodes":[],"categories_segments":[],"categories_sizes":[],"default_left":[0,0,0,0,0,0,0,0,0,0,0,0,0,0,0,0,0,0,0,0,0,0,0,0,0,0,0,0,0,0,0,0,0,0,0,0,0,0,0,0,0,0,0,0,0,0,0,0,0,0,0,0,0,0,0,0,0,0,0,0,0],"id":12,"left_children":[1,3,5,7,9,11,13,15,17,19,21,23,25,27,29,31,33,35,37,39,41,43,-1,45,47,49,51,53,55,57,59,-1,-1,-1,-1,-1,-1,-1,-1,-1,-1,-1,-1,-1,-1,-1,-1,-1,-1,-1,-1,-1,-1,-1,-1,-1,-1,-1,-1,-1,-1],"loss_changes":[4.866313E6,1.0852525E5,5.1338875E5,7.1914875E4,4.1700312E3,2.7166662E5,1.01392E5,4.0884375E2,4.134875E4,3.7991875E3,2.997789E3,7.155531E4,2.1961288E5,1.9329031E4,3.5544125E4,4.3446875E2,5.6402344E1,2.7486375E4,2.085936E4,1.2904219E3,1.2600469E3,1.320625E2,0E0,2.113875E3,3.0135E4,8.659344E4,2.2849512E5,2.2047016E4,3.814789E3,2.3454625E4,1.5076965E1,0E0,0E0,0E0,0E0,0E0,0E0,0E0,0E0,0E0,0E0,0E0,0E0,0E0,0E0,0E0,0E0,0E0,0E0,0E0,0E0,0E0,0E0,0E0,0E0,0E0,0E0,0E0,0E0,0E0,0E0],"parents":[2147483647,0,0,1,1,2,2,3,3,4,4,5,5,6,6,7,7,8,8,9,9,10,10,11,11,12,12,13,13,14,14,15,15,16,16,17,17,18,18,19,19,20,20,21,21,23,23,24,24,25,25,26,26,27,27,28,28,29,29,30,30],"right_children":[2,4,6,8,10,12,14,16,18,20,22,24,26,28,30,32,34,36,38,40,42,44,-1,46,48,50,52,54,56,58,60,-1,-1,-1,-1,-1,-1,-1,-1,-1,-1,-1,-1,-1,-1,-1,-1,-1,-1,-1,-1,-1,-1,-1,-1,-1,-1,-1,-1,-1,-1],"split_conditions":[1.0385E2,1.3625E1,3.13E2,3.35E-1,1.5845E1,-1.822625E1,-9.87625E0,9.6E1,8.825E1,6.495E1,5.658E1,2.02E1,1.62E2,8.75E0,4.2375E-1,8.255E1,9.665E1,-1.786875E1,-1.386125E1,7.25E0,1.393125E1,4.8E1,-1.2499237E0,-1.86625E1,-1.954875E1,1.12175E1,4.91875E0,-1.08175E1,-1.275E1,1.1629E2,3.175E2,-1.0455147E0,-8.539607E-1,-1.019237E0,-7.711578E-1,-6.6837674E-1,-4.2906404E-1,-4.1415235E-1,-1.8713774E-1,-7.935059E-1,-6.2067884E-1,-7.7811563E-1,-1.0075101E0,-6.5656847E-1,-9.10254E-1,3.6879125E0,2.6417696E0,1.027016E0,1.5942072E0,2.2140324E-1,5.762252E-1,5.8077127E-1,1.3819481E0,1.6445488E0,7.5924397E-1,9.328499E-1,5.39877E-1,2.1308804E0,1.5771568E0,-1.764317E-1,-3.5326284E-1],"split_indices":[2,5,2,3,5,5,5,2,2,4,4,3,2,3,5,2,2,5,5,3,5,2,0,5,5,5,5,5,5,4,2,0,0,0,0,0,0,0,0,0,0,0,0,0,0,0,0,0,0,0,0,0,0,0,0,0,0,0,0,0,0],"split_type":[0,0,0,0,0,0,0,0,0,0,0,0,0,0,0,0,0,0,0,0,0,0,0,0,0,0,0,0,0,0,0,0,0,0,0,0,0,0,0,0,0,0,0,0,0,0,0,0,0,0,0,0,0,0,0,0,0,0,0,0,0],"sum_hessian":[3.5137E4,2.1799E4,1.3338E4,2.0238E4,1.561E3,1.1786E4,1.552E3,7.94E2,1.9444E4,1.311E3,2.5E2,1.011E3,1.0775E4,5.81E2,9.71E2,6.39E2,1.55E2,1.5154E4,4.29E3,8.95E2,4.16E2,1.34E2,1.16E2,5.4E1,9.57E2,6.884E3,3.891E3,3.19E2,2.62E2,9.52E2,1.9E1,5.4E1,5.85E2,1.35E2,2E1,1.317E3,1.3837E4,1.639E3,2.651E3,7.42E2,1.53E2,1.01E2,3.15E2,1.9E1,1.15E2,2.5E1,2.9E1,4.66E2,4.91E2,3.514E3,3.37E3,2.511E3,1.38E3,2.09E2,1.1E2,1.43E2,1.19E2,6.58E2,2.94E2,1.7E1,2E0],"tree_param":{"num_deleted":"0","num_feature":"6","num_nodes":"61","size_leaf_vector":"1"}},{"base_weights":[1.1660798E-2,-8.3032465E0,1.5137958E1,-1.1509492E1,-2.3280466E0,5.9471607E0,2.6676321E1,-1.2155715E1,7.4314576E-1,-3.8179677E0,2.524097E0,3.1078162E0,2.3841352E1,2.4287222E1,4.6869904E1,-1.4461443E1,-9.594009E0,-1.6312893E1,3.2315376E0,-5.0032697E0,2.9389384E0,2.1545107E0,7.0423386E1,-9.023502E0,6.405113E0,1.0202432E1,3.471235E1,2.092526E1,3.644324E1,4.2571724E1,5.4487602E1,-9.961055E-1,-6.8741363E-1,-8.512759E-1,-4.474567E-1,-1.1896685E0,-4.4787422E-1,-2.1337791E-1,5.637419E-1,-5.827209E-1,-2.1620451E-1,5.610906E-2,6.9013083E-1,3.565887E-2,5.8922255E-1,3.9495728E0,-1.6723195E-1,-1.2219396E0,-2.9017198E-1,4.587768E-1,6.73723E-2,4.0198165E-1,1.3829583E0,2.2505586E0,1.2001369E0,7.056712E-1,1.2378014E0,2.039971E0,1.0136274E0,2.3219187E0,1.6521428E0,3.4588983E0,2.230568E0],"categories":[],"categories_nodes":[],"categories_segments":[],"categories_sizes":[],"default_left":[0,0,0,0,0,0,0,0,0,0,0,0,0,0,0,0,0,0,0,0,0,0,0,0,0,0,0,0,0,0,0,0,0,0,0,0,0,0,0,0,0,0,0,0,0,0,0,0,0,0,0,0,0,0,0,0,0,0,0,0,0,0,0],"id":13,"left_children":[1,3,5,7,9,11,13,15,17,19,21,23,25,27,29,31,33,35,37,39,41,43,45,47,49,51,53,55,57,59,61,-1,-1,-1,-1,-1,-1,-1,-1,-1,-1,-1,-1,-1,-1,-1,-1,-1,-1,-1,-1,-1,-1,-1,-1,-1,-1,-1,-1,-1,-1,-1,-1],"loss_changes":[4.4003205E6,4.3248325E5,1.3158818E6,1.16339375E5,5.701276E4,3.509568E5,2.64303E5,8.2293625E4,3.133255E4,4.8332836E4,4.634864E4,2.3862114E5,1.3990806E5,2.0039E5,1.6703625E4,2.8322625E4,3.1544562E4,4.9589355E3,3.8892574E4,2.313704E4,1.7767246E4,2.558623E4,6.584699E3,6.3146875E4,6.570334E4,1.5672652E4,5.6935562E4,1.00323625E5,7.4194125E4,1.2319125E4,2.68015E4,0E0,0E0,0E0,0E0,0E0,0E0,0E0,0E0,0E0,0E0,0E0,0E0,0E0,0E0,0E0,0E0,0E0,0E0,0E0,0E0,0E0,0E0,0E0,0E0,0E0,0E0,0E0,0E0,0E0,0E0,0E0,0E0],"parents":[2147483647,0,0,1,1,2,2,3,3,4,4,5,5,6,6,7,7,8,8,9,9,10,10,11,11,12,12,13,13,14,14,15,15,16,16,17,17,18,18,19,19,20,20,21,21,22,22,23,23,24,24,25,25,26,26,27,27,28,28,29,29,30,30],"right_children":[2,4,6,8,10,12,14,16,18,20,22,24,26,28,30,32,34,36,38,40,42,44,46,48,50,52,54,56,58,60,62,-1,-1,-1,-1,-1,-1,-1,-1,-1,-1,-1,-1,-1,-1,-1,-1,-1,-1,-1,-1,-1,-1,-1,-1,-1,-1,-1,-1,-1,-1,-1,-1],"split_conditions":[1.105E2,1.92902E4,1.62678E4,1.0165E2,7.045E1,3.13E2,2.15221E4,1.57876E4,1.05119E4,2.30757E4,2.37636E4,1.16181E4,1.40273E4,2.465E2,2.29311E4,1.18912E4,3.75E-1,8.9547E3,7.809E1,4.05E-1,2.47079E4,2.17806E4,9.445E1,8.3933E3,1.5E1,3.35E2,7.25E0,1.79046E4,8.75E0,2.35E1,8.256E1,-9.961055E-1,-6.8741363E-1,-8.512759E-1,-4.474567E-1,-1.1896685E0,-4.4787422E-1,-2.1337791E-1,5.637419E-1,-5.827209E-1,-2.1620451E-1,5.610906E-2,6.9013083E-1,3.565887E-2,5.8922255E-1,3.9495728E0,-1.6723195E-1,-1.2219396E0,-2.9017198E-1,4.587768E-1,6.73723E-2,4.0198165E-1,1.3829583E0,2.2505586E0,1.2001369E0,7.056712E-1,1.2378014E0,2.039971E0,1.0136274E0,2.3219187E0,1.6521428E0,3.4588983E0,2.230568E0],"split_indices":[2,0,0,2,4,2,0,0,0,0,0,0,0,2,0,0,3,0,4,3,0,0,2,0,3,2,3,0,3,3,4,0,0,0,0,0,0,0,0,0,0,0,0,0,0,0,0,0,0,0,0,0,0,0,0,0,0,0,0,0,0,0,0],"split_type":[0,0,0,0,0,0,0,0,0,0,0,0,0,0,0,0,0,0,0,0,0,0,0,0,0,0,0,0,0,0,0,0,0,0,0,0,0,0,0,0,0,0,0,0,0,0,0,0,0,0,0,0,0,0,0,0,0,0,0,0,0,0,0],"sum_hessian":[3.4984E4,2.2575E4,1.2409E4,1.4691E4,7.884E3,6.908E3,5.501E3,1.3955E4,7.36E2,6.032E3,1.852E3,5.963E3,9.45E2,4.921E3,5.8E2,7.342E3,6.613E3,9.3E1,6.43E2,5.132E3,9E2,1.843E3,9E0,1.274E3,4.689E3,4.2E2,5.25E2,3.857E3,1.064E3,3.75E2,2.05E2,8.45E2,6.497E3,5.26E2,6.087E3,4.5E1,4.8E1,3.33E2,3.1E2,4.74E2,4.658E3,7.72E2,1.28E2,1.604E3,2.39E2,8E0,1E0,2.19E2,1.055E3,3.029E3,1.66E3,3.75E2,4.5E1,2.66E2,2.59E2,1.39E3,2.467E3,8.37E2,2.27E2,2.64E2,1.11E2,8E1,1.25E2],"tree_param":{"num_deleted":"0","num_feature":"6","num_nodes":"63","size_leaf_vector":"1"}},{"base_weights":[4.916916E-2,-7.9183292E0,1.43855915E1,-8.905717E0,-9.1228366E-1,7.5170784E0,2.3692774E1,-1.6290821E1,-8.602788E0,-2.5305755E0,2.9220226E0,5.301264E0,1.2079564E1,2.0256062E1,3.300587E1,-1.2433356E1,-1.6683554E1,-1.1270325E1,-7.772148E0,-1.0651141E1,-2.166976E0,9.307922E0,-5.429217E-1,7.244141E0,-2.0593953E0,1.8743328E1,9.207729E0,4.1735435E1,1.8647367E1,4.016237E1,2.7827784E1,-7.713818E-1,-4.7504893E-1,-9.043666E-1,-8.039929E-1,-1.3875815E-1,-6.397414E-1,-1.0254707E-1,-4.2742667E-1,-4.3814856E-1,-7.6389486E-1,-1.8081267E-1,-6.169298E-2,2.0118168E-1,9.55588E-1,3.564456E-2,-6.0359704E-1,2.493269E-1,4.7708532E-1,-6.6309325E-2,-5.206266E-1,7.247831E-1,1.20491E0,5.270767E-1,-1.0989314E-1,2.9910948E0,1.6645567E0,8.096126E-1,1.4004716E0,2.2050412E0,1.2168812E0,7.903616E-1,1.899125E0],"categories":[],"categories_nodes":[],"categories_segments":[],"categories_sizes":[],"default_left":[0,0,0,0,0,0,0,0,0,0,0,0,0,0,0,0,0,0,0,0,0,0,0,0,0,0,0,0,0,0,0,0,0,0,0,0,0,0,0,0,0,0,0,0,0,0,0,0,0,0,0,0,0,0,0,0,0,0,0,0,0,0,0],"id":14,"left_children":[1,3,5,7,9,11,13,15,17,19,21,23,25,27,29,31,33,35,37,39,41,43,45,47,49,51,53,55,57,59,61,-1,-1,-1,-1,-1,-1,-1,-1,-1,-1,-1,-1,-1,-1,-1,-1,-1,-1,-1,-1,-1,-1,-1,-1,-1,-1,-1,-1,-1,-1,-1,-1],"loss_changes":[4.019364E6,1.56456E5,8.0337775E5,4.4209375E4,1.7350441E4,7.306894E4,1.7014975E5,9.742344E2,4.211175E4,5.781798E3,1.8370287E4,6.967439E4,4.5067812E4,1.3401588E5,5.213325E4,5.207295E2,3.0660938E2,5.8502562E4,6.4504875E4,5.9995215E2,2.542003E3,1.5050547E4,7.812404E3,1.9943094E4,6.221026E3,1.5822875E4,2.5185219E4,3.9397656E4,8.300475E4,3.6384062E4,1.01568125E5,0E0,0E0,0E0,0E0,0E0,0E0,0E0,0E0,0E0,0E0,0E0,0E0,0E0,0E0,0E0,0E0,0E0,0E0,0E0,0E0,0E0,0E0,0E0,0E0,0E0,0E0,0E0,0E0,0E0,0E0,0E0,0E0],"parents":[2147483647,0,0,1,1,2,2,3,3,4,4,5,5,6,6,7,7,8,8,9,9,10,10,11,11,12,12,13,13,14,14,15,15,16,16,17,17,18,18,19,19,20,20,21,21,22,22,23,23,24,24,25,25,26,26,27,27,28,28,29,29,30,30],"right_children":[2,4,6,8,10,12,14,16,18,20,22,24,26,28,30,32,34,36,38,40,42,44,46,48,50,52,54,56,58,60,62,-1,-1,-1,-1,-1,-1,-1,-1,-1,-1,-1,-1,-1,-1,-1,-1,-1,-1,-1,-1,-1,-1,-1,-1,-1,-1,-1,-1,-1,-1,-1,-1],"split_conditions":[1.105E2,2.481E1,7.7351E1,3.35E-1,1.0165E2,4.9584E1,1.15509E2,1.776E1,5.465E1,5.732E1,2.733E1,1.69E1,4.125E0,7.55E1,8.789E1,1.7505E1,6.802E1,5.4E-1,1.3025E1,2.4975E1,2.6025E1,2.6607E1,1.101E2,3.125E0,7.621E1,8.499E1,1.89E2,2.22E1,1.0911E2,2.25E1,2.76E2,-7.713818E-1,-4.7504893E-1,-9.043666E-1,-8.039929E-1,-1.3875815E-1,-6.397414E-1,-1.0254707E-1,-4.2742667E-1,-4.3814856E-1,-7.6389486E-1,-1.8081267E-1,-6.169298E-2,2.0118168E-1,9.55588E-1,3.564456E-2,-6.0359704E-1,2.493269E-1,4.7708532E-1,-6.6309325E-2,-5.206266E-1,7.247831E-1,1.20491E0,5.270767E-1,-1.0989314E-1,2.9910948E0,1.6645567E0,8.096126E-1,1.4004716E0,2.2050412E0,1.2168812E0,7.903616E-1,1.899125E0],"split_indices":[2,1,1,3,2,1,1,1,2,4,1,3,3,4,4,1,4,3,1,1,1,1,2,3,4,4,2,3,4,3,2,0,0,0,0,0,0,0,0,0,0,0,0,0,0,0,0,0,0,0,0,0,0,0,0,0,0,0,0,0,0,0,0],"split_type":[0,0,0,0,0,0,0,0,0,0,0,0,0,0,0,0,0,0,0,0,0,0,0,0,0,0,0,0,0,0,0,0,0,0,0,0,0,0,0,0,0,0,0,0,0,0,0,0,0,0,0,0,0,0,0,0,0,0,0,0,0,0,0],"sum_hessian":[3.5186E4,2.2617E4,1.2569E4,1.9823E4,2.794E3,7.233E3,5.336E3,7.79E2,1.9044E4,1.965E3,8.29E2,4.87E3,2.363E3,3.9E3,1.436E3,7.5E1,7.04E2,4.519E3,1.4525E4,8.3E1,1.882E3,2.91E2,5.38E2,3.853E3,1.017E3,7.1E2,1.653E3,2.7E2,3.63E3,6E2,8.36E2,3.5E1,4E1,2.03E2,5.01E2,6.88E2,3.831E3,1.736E3,1.2789E4,6.1E1,2.2E1,7.36E2,1.146E3,1.9E2,1.01E2,4.86E2,5.2E1,1.945E3,1.908E3,9.36E2,8.1E1,3.98E2,3.12E2,1.48E3,1.73E2,8.4E1,1.86E2,2.878E3,7.52E2,4.79E2,1.21E2,3.84E2,4.52E2],"tree_param":{"num_deleted":"0","num_feature":"6","num_nodes":"63","size_leaf_vector":"1"}},{"base_weights":[8.331562E-2,-7.4666743E0,1.3628014E1,-1.0443907E1,-1.602931E0,3.3229003E0,2.2959589E1,-1.1099163E1,1.6804661E-1,-2.9899259E0,3.7320063E0,-8.034055E0,6.848032E0,1.9497993E1,3.613073E1,-1.2980697E1,-7.941984E0,-5.1740203E0,1.0301442E1,-3.7756715E0,6.421797E0,1.6683372E0,1.0025352E1,-2.4121191E1,-5.0387588E0,4.5629554E0,1.9704918E1,1.669257E1,3.6379738E1,5.6127834E1,3.302518E1,-6.201926E-1,-9.7992355E-1,-4.316449E-1,-2.5968271E-1,-4.4573092E-1,1.25589E-2,6.906767E-2,1.300061E0,-1.4920025E-1,-4.554196E-1,2.6326045E-1,3.2218602E0,1.0269446E-2,2.93712E-1,4.534335E-1,1.8425378E0,-1.5610801E0,-8.09906E-1,-7.0461434E-1,-1.552706E-1,-2.9850365E-3,3.662568E-1,4.7931907E-1,1.478165E0,6.342546E-1,1.0829514E0,1.13563E0,2.3098938E0,2.2174883E0,3.725372E0,1.1763442E0,2.0244231E0],"categories":[],"categories_nodes":[],"categories_segments":[],"categories_sizes":[],"default_left":[0,0,0,0,0,0,0,0,0,0,0,0,0,0,0,0,0,0,0,0,0,0,0,0,0,0,0,0,0,0,0,0,0,0,0,0,0,0,0,0,0,0,0,0,0,0,0,0,0,0,0,0,0,0,0,0,0,0,0,0,0,0,0],"id":15,"left_children":[1,3,5,7,9,11,13,15,17,19,21,23,25,27,29,31,33,35,37,39,41,43,45,47,49,51,53,55,57,59,61,-1,-1,-1,-1,-1,-1,-1,-1,-1,-1,-1,-1,-1,-1,-1,-1,-1,-1,-1,-1,-1,-1,-1,-1,-1,-1,-1,-1,-1,-1,-1,-1],"loss_changes":[3.5923732E6,3.9375975E5,1.2089802E6,1.04027125E5,5.622539E4,2.3930275E5,3.001195E5,8.3596125E4,4.7203383E4,4.4617434E4,2.0347486E4,6.810946E4,1.3390756E5,2.4694575E5,8.335025E4,3.3453375E4,9.950781E3,1.1589822E4,4.2117156E4,2.3471016E4,3.0862168E4,7.271661E3,9.597539E3,1.19833125E4,2.0873053E4,4.9466047E4,6.834625E4,8.897025E4,9.8785E4,3.631075E4,8.340475E4,0E0,0E0,0E0,0E0,0E0,0E0,0E0,0E0,0E0,0E0,0E0,0E0,0E0,0E0,0E0,0E0,0E0,0E0,0E0,0E0,0E0,0E0,0E0,0E0,0E0,0E0,0E0,0E0,0E0,0E0,0E0,0E0],"parents":[2147483647,0,0,1,1,2,2,3,3,4,4,5,5,6,6,7,7,8,8,9,9,10,10,11,11,12,12,13,13,14,14,15,15,16,16,17,17,18,18,19,19,20,20,21,21,22,22,23,23,24,24,25,25,26,26,27,27,28,28,29,29,30,30],"right_children":[2,4,6,8,10,12,14,16,18,20,22,24,26,28,30,32,34,36,38,40,42,44,46,48,50,52,54,56,58,60,62,-1,-1,-1,-1,-1,-1,-1,-1,-1,-1,-1,-1,-1,-1,-1,-1,-1,-1,-1,-1,-1,-1,-1,-1,-1,-1,-1,-1,-1,-1,-1,-1],"split_conditions":[1.105E2,1.94251E4,1.55026E4,1.0125E2,7.173E1,1.16181E4,2.02301E4,1.6584E4,1.12175E1,2.37636E4,7.809E1,8.3933E3,3.13E2,3.13E2,-1.848375E1,1.384625E1,7.059E1,1.59394E4,1.46566E4,9.9E0,7.023E1,2.12248E4,1.0385E2,7.3465E3,-1.320625E1,-1.275E1,1.40273E4,1.79046E4,-1.009375E1,2.17806E4,-1.34025E1,-6.201926E-1,-9.7992355E-1,-4.316449E-1,-2.5968271E-1,-4.4573092E-1,1.25589E-2,6.906767E-2,1.300061E0,-1.4920025E-1,-4.554196E-1,2.6326045E-1,3.2218602E0,1.0269446E-2,2.93712E-1,4.534335E-1,1.8425378E0,-1.5610801E0,-8.09906E-1,-7.0461434E-1,-1.552706E-1,-2.9850365E-3,3.662568E-1,4.7931907E-1,1.478165E0,6.342546E-1,1.0829514E0,1.13563E0,2.3098938E0,2.2174883E0,3.725372E0,1.1763442E0,2.0244231E0],"split_indices":[2,0,0,2,4,0,0,0,5,0,4,0,2,2,5,5,4,0,0,5,4,0,2,0,5,5,0,0,5,0,5,0,0,0,0,0,0,0,0,0,0,0,0,0,0,0,0,0,0,0,0,0,0,0,0,0,0,0,0,0,0,0,0],"split_type":[0,0,0,0,0,0,0,0,0,0,0,0,0,0,0,0,0,0,0,0,0,0,0,0,0,0,0,0,0,0,0,0,0,0,0,0,0,0,0,0,0,0,0,0,0,0,0,0,0,0,0,0,0,0,0,0,0,0,0,0,0,0,0],"sum_hessian":[3.5127E4,2.2555E4,1.2572E4,1.4959E4,7.596E3,5.975E3,6.597E3,1.4089E4,8.7E2,6.029E3,1.567E3,1.415E3,4.56E3,5.226E3,1.371E3,8.826E3,5.263E3,5.7E2,3E2,5.565E3,4.64E2,1.181E3,3.86E2,2.21E2,1.194E3,3.873E3,6.87E2,4.483E3,7.43E2,1.82E2,1.189E3,8.121E3,7.05E2,4.204E3,1.059E3,3.37E2,2.33E2,1.92E2,1.08E2,4.847E3,7.18E2,4.56E2,8E0,8.77E2,3.04E2,3.74E2,1.2E1,1.15E2,1.06E2,2.09E2,9.85E2,1.449E3,2.424E3,3.4E2,3.47E2,2.483E3,2E3,3.12E2,4.31E2,1.13E2,6.9E1,5.25E2,6.64E2],"tree_param":{"num_deleted":"0","num_feature":"6","num_nodes":"63","size_leaf_vector":"1"}},{"base_weights":[6.304435E-2,-5.248172E0,1.7594215E1,-8.022405E0,2.5026057E0,9.621323E0,3.0133657E1,-1.0894283E1,-2.337381E0,-1.3820262E0,7.4496117E0,-2.3892179E0,1.4797421E1,2.2519236E1,3.521946E1,-1.3337434E1,-8.81582E0,-2.8432193E0,7.161907E0,-2.0718943E1,-4.2297494E-1,1.8036711E0,1.0989147E1,-2.3460506E1,-8.394802E-1,1.02259E1,2.7453188E1,1.9043177E1,3.4184E1,3.1447771E1,4.9979626E1,-1.3386368E0,-6.4806676E-1,-7.1218556E-1,-4.091308E-1,-5.345573E-1,-1.22119784E-1,8.6308375E-2,4.756952E-1,-1.3096508E0,-6.960933E-1,7.718015E-2,-4.3935776E-1,-3.0852826E-3,5.9794164E-1,9.6034926E-1,1.0179185E-1,-6.0213953E-1,-1.357972E0,1.3482606E-1,-2.9649314E-1,4.1773978E-1,9.463442E-1,1.0732598E0,1.8799013E0,1.2161504E0,7.9631174E-1,1.6107466E0,2.0769389E0,1.8824711E0,1.2925115E0,2.4085999E0,4.900007E0],"categories":[],"categories_nodes":[],"categories_segments":[],"categories_sizes":[],"default_left":[0,0,0,0,0,0,0,0,0,0,0,0,0,0,0,0,0,0,0,0,0,0,0,0,0,0,0,0,0,0,0,0,0,0,0,0,0,0,0,0,0,0,0,0,0,0,0,0,0,0,0,0,0,0,0,0,0,0,0,0,0,0,0],"id":16,"left_children":[1,3,5,7,9,11,13,15,17,19,21,23,25,27,29,31,33,35,37,39,41,43,45,47,49,51,53,55,57,59,61,-1,-1,-1,-1,-1,-1,-1,-1,-1,-1,-1,-1,-1,-1,-1,-1,-1,-1,-1,-1,-1,-1,-1,-1,-1,-1,-1,-1,-1,-1,-1,-1],"loss_changes":[3.2685042E6,5.79318E5,8.1571125E5,3.2389625E5,1.3649153E5,3.1031453E5,1.22044E5,6.68155E4,3.202236E4,7.3782164E4,6.241022E4,4.9093375E4,2.0152144E5,5.0965875E4,1.042025E5,3.0259E4,2.4371812E4,1.9866879E4,4.2920703E3,6.6303906E3,6.2387457E4,2.2827299E4,1.4122847E5,4.0229648E3,2.525143E4,4.1584938E4,5.5384125E4,1.5789781E4,2.8760938E3,5.165325E4,2.8698312E4,0E0,0E0,0E0,0E0,0E0,0E0,0E0,0E0,0E0,0E0,0E0,0E0,0E0,0E0,0E0,0E0,0E0,0E0,0E0,0E0,0E0,0E0,0E0,0E0,0E0,0E0,0E0,0E0,0E0,0E0,0E0,0E0],"parents":[2147483647,0,0,1,1,2,2,3,3,4,4,5,5,6,6,7,7,8,8,9,9,10,10,11,11,12,12,13,13,14,14,15,15,16,16,17,17,18,18,19,19,20,20,21,21,22,22,23,23,24,24,25,25,26,26,27,27,28,28,29,29,30,30],"right_children":[2,4,6,8,10,12,14,16,18,20,22,24,26,28,30,32,34,36,38,40,42,44,46,48,50,52,54,56,58,60,62,-1,-1,-1,-1,-1,-1,-1,-1,-1,-1,-1,-1,-1,-1,-1,-1,-1,-1,-1,-1,-1,-1,-1,-1,-1,-1,-1,-1,-1,-1,-1,-1],"split_conditions":[4.5788E1,2.481E1,1.74072E4,1.95102E4,1.59394E4,1.34584E4,8.3101E1,1.54261E4,2.39947E4,8.3933E3,1.0165E2,9.4318E3,3.13E2,2.13926E4,2.10161E4,1.00469E4,3.85E-1,3.35E-1,7.025E1,7.3465E3,1.69E1,2.17806E4,4.2E0,4.125E0,8.75E0,1.13452E2,1.14786E2,7.5E0,2.37636E4,8.25E0,2.42964E4,-1.3386368E0,-6.4806676E-1,-7.1218556E-1,-4.091308E-1,-5.345573E-1,-1.22119784E-1,8.6308375E-2,4.756952E-1,-1.3096508E0,-6.960933E-1,7.718015E-2,-4.3935776E-1,-3.0852826E-3,5.9794164E-1,9.6034926E-1,1.0179185E-1,-6.0213953E-1,-1.357972E0,1.3482606E-1,-2.9649314E-1,4.1773978E-1,9.463442E-1,1.0732598E0,1.8799013E0,1.2161504E0,7.9631174E-1,1.6107466E0,2.0769389E0,1.8824711E0,1.2925115E0,2.4085999E0,4.900007E0],"split_indices":[1,1,0,0,0,0,1,0,0,0,2,0,2,0,0,0,3,3,2,0,3,0,3,3,3,1,1,3,0,3,0,0,0,0,0,0,0,0,0,0,0,0,0,0,0,0,0,0,0,0,0,0,0,0,0,0,0,0,0,0,0,0,0],"split_type":[0,0,0,0,0,0,0,0,0,0,0,0,0,0,0,0,0,0,0,0,0,0,0,0,0,0,0,0,0,0,0,0,0,0,0,0,0,0,0,0,0,0,0,0,0,0,0,0,0,0,0,0,0,0,0,0,0,0,0,0,0,0,0],"sum_hessian":[3.5101E4,2.694E4,8.161E3,1.9839E4,7.101E3,4.99E3,3.171E3,1.318E4,6.659E3,3.978E3,3.123E3,1.503E3,3.487E3,1.272E3,1.899E3,6.056E3,7.124E3,6.323E3,3.36E2,1.87E2,3.791E3,1.204E3,1.919E3,1.02E2,1.401E3,2.563E3,9.24E2,9.82E2,2.9E2,1.515E3,3.84E2,1.63E2,5.893E3,7.42E2,6.382E3,3.06E2,6.017E3,1.02E2,2.34E2,1.02E2,8.5E1,3.07E3,7.21E2,1.018E3,1.86E2,1E3,9.19E2,2.6E1,7.6E1,8.27E2,5.74E2,2.111E3,4.52E2,5.83E2,3.41E2,3.62E2,6.2E2,2.33E2,5.7E1,7.16E2,7.99E2,3.72E2,1.2E1],"tree_param":{"num_deleted":"0","num_feature":"6","num_nodes":"63","size_leaf_vector":"1"}},{"base_weights":[-6.5374784E-2,-6.8544035E0,1.2224502E1,-9.766516E0,-1.9349419E0,1.1304728E0,1.9315413E1,-1.0782732E1,-4.0367293E0,-3.6610286E0,2.0308602E0,-1.285667E1,3.440128E0,1.2250858E1,2.6804274E1,-1.3991403E1,-9.359172E0,-8.70312E0,-1.6660333E-1,-2.826392E0,-8.8672695E0,7.421299E-1,7.6931314E0,-2.6844376E1,-9.549778E0,5.8928657E0,-2.319181E0,1.0403052E1,2.7990425E1,2.105493E1,3.6125816E1,-1.2709823E0,-6.7601377E-1,-7.134284E-1,-4.3781978E-1,-5.576769E-1,-3.060165E-1,3.2761732E-1,-2.0695806E-1,-2.107596E-1,6.0694426E-2,-5.3357446E-1,-2.623019E-1,-5.4405704E-3,4.6579155E-1,2.9597816E-1,1.06397E0,-1.5163331E0,-1.0095558E0,-3.3773357E-1,-8.3229256E-1,1.2791914E-1,5.251786E-1,-2.7253038E-1,1.3161834E-1,7.5007147E-1,2.345554E-1,1.065802E0,1.7153672E0,1.439749E0,6.07176E-1,1.6052271E0,2.3000002E0],"categories":[],"categories_nodes":[],"categories_segments":[],"categories_sizes":[],"default_left":[0,0,0,0,0,0,0,0,0,0,0,0,0,0,0,0,0,0,0,0,0,0,0,0,0,0,0,0,0,0,0,0,0,0,0,0,0,0,0,0,0,0,0,0,0,0,0,0,0,0,0,0,0,0,0,0,0,0,0,0,0,0,0],"id":17,"left_children":[1,3,5,7,9,11,13,15,17,19,21,23,25,27,29,31,33,35,37,39,41,43,45,47,49,51,53,55,57,59,61,-1,-1,-1,-1,-1,-1,-1,-1,-1,-1,-1,-1,-1,-1,-1,-1,-1,-1,-1,-1,-1,-1,-1,-1,-1,-1,-1,-1,-1,-1,-1,-1],"loss_changes":[2.917602E6,3.2267488E5,9.7882875E5,8.2341875E4,5.7350668E4,1.5682272E5,4.0127675E5,5.47595E4,3.8519508E4,2.533857E4,1.8536324E4,3.1567648E4,5.8862902E4,1.1336781E5,1.9667525E5,1.9529312E4,2.4516812E4,6.051797E3,3.1176002E4,2.8240371E4,5.2100117E3,1.5110443E4,1.1223334E4,2.42275E3,1.0955094E4,4.4896883E4,1.9318582E4,9.183322E4,1.6554938E4,1.5698175E5,5.4271625E4,0E0,0E0,0E0,0E0,0E0,0E0,0E0,0E0,0E0,0E0,0E0,0E0,0E0,0E0,0E0,0E0,0E0,0E0,0E0,0E0,0E0,0E0,0E0,0E0,0E0,0E0,0E0,0E0,0E0,0E0,0E0,0E0],"parents":[2147483647,0,0,1,1,2,2,3,3,4,4,5,5,6,6,7,7,8,8,9,9,10,10,11,11,12,12,13,13,14,14,15,15,16,16,17,17,18,18,19,19,20,20,21,21,22,22,23,23,24,24,25,25,26,26,27,27,28,28,29,29,30,30],"right_children":[2,4,6,8,10,12,14,16,18,20,22,24,26,28,30,32,34,36,38,40,42,44,46,48,50,52,54,56,58,60,62,-1,-1,-1,-1,-1,-1,-1,-1,-1,-1,-1,-1,-1,-1,-1,-1,-1,-1,-1,-1,-1,-1,-1,-1,-1,-1,-1,-1,-1,-1,-1,-1],"split_conditions":[1.105E2,1.90386E4,1.47315E4,2.4645E1,2.042E1,1.02923E4,7.7351E1,1.42805E4,7.8E-1,8.065E1,2.6607E1,7.3465E3,8.75E0,2.09617E4,1.85695E4,1.00469E4,3.95E-1,1.59051E4,3.25E0,2.18502E4,2.25584E4,2.37636E4,2.20116E4,1.196E2,5.5156E1,1.33058E4,1.37718E4,4.6E0,2.20116E4,8.25E0,2.10161E4,-1.2709823E0,-6.7601377E-1,-7.134284E-1,-4.3781978E-1,-5.576769E-1,-3.060165E-1,3.2761732E-1,-2.0695806E-1,-2.107596E-1,6.0694426E-2,-5.3357446E-1,-2.623019E-1,-5.4405704E-3,4.6579155E-1,2.9597816E-1,1.06397E0,-1.5163331E0,-1.0095558E0,-3.3773357E-1,-8.3229256E-1,1.2791914E-1,5.251786E-1,-2.7253038E-1,1.3161834E-1,7.5007147E-1,2.345554E-1,1.065802E0,1.7153672E0,1.439749E0,6.07176E-1,1.6052271E0,2.3000002E0],"split_indices":[2,0,0,1,1,0,1,0,3,2,1,0,3,0,0,0,3,0,3,0,0,0,0,2,1,0,0,3,0,3,0,0,0,0,0,0,0,0,0,0,0,0,0,0,0,0,0,0,0,0,0,0,0,0,0,0,0,0,0,0,0,0,0],"split_type":[0,0,0,0,0,0,0,0,0,0,0,0,0,0,0,0,0,0,0,0,0,0,0,0,0,0,0,0,0,0,0,0,0,0,0,0,0,0,0,0,0,0,0,0,0,0,0,0,0,0,0,0,0,0,0,0,0,0,0,0,0,0,0],"sum_hessian":[3.4966E4,2.2524E4,1.2442E4,1.4148E4,8.376E3,4.852E3,7.59E3,1.2016E4,2.132E3,5.836E3,2.54E3,6.87E2,4.165E3,3.907E3,3.683E3,3.69E3,8.326E3,9.66E2,1.166E3,5.031E3,8.05E2,2.07E3,4.7E2,1.3E2,5.57E2,2.921E3,1.244E3,3.498E3,4.09E2,2.28E3,1.403E3,1.44E2,3.546E3,9.08E2,7.418E3,4.94E2,4.72E2,4.33E2,7.33E2,3.744E3,1.287E3,5.36E2,2.69E2,1.884E3,1.86E2,4.17E2,5.3E1,8.3E1,4.7E1,4.01E2,1.56E2,1.696E3,1.225E3,7.62E2,4.82E2,1.937E3,1.561E3,2.01E2,2.08E2,1.219E3,1.061E3,1E3,4.03E2],"tree_param":{"num_deleted":"0","num_feature":"6","num_nodes":"63","size_leaf_vector":"1"}},{"base_weights":[-4.04995E-2,-6.84068E0,1.1146849E1,-1.0720067E1,-3.2268891E0,-7.60351E-1,1.6961395E1,-1.5181764E1,-9.9934435E0,-5.453177E0,-2.4006419E-1,-1.4556142E1,1.3474388E0,1.2023805E1,2.3540855E1,-2.51363E1,-1.4298929E1,-1.497353E1,-9.457431E0,-1.1765387E1,-4.9780493E0,5.247735E-1,-7.78158E0,-2.662502E1,-1.1140461E1,-5.2951875E0,3.640529E0,8.974271E0,2.7719385E1,3.0665037E1,1.803211E1,-1.3591936E0,-8.175041E-1,-6.8544364E-1,-1.2825478E0,-9.5489997E-1,-6.574443E-1,-4.4635868E-1,-7.7775604E-1,-3.919172E-1,-7.044241E-1,-2.1683612E-1,-5.320805E-1,-3.5723147E-1,5.7230182E-2,-4.822528E-1,-2.4340189E-1,2.0674555E-2,-1.3753842E0,-4.4619852E-1,-9.112202E-1,-5.7974255E-1,-1.5853764E-1,7.767279E-2,3.9076218E-1,2.296412E-1,6.311912E-1,9.1484016E-1,1.7828257E0,1.2515504E0,1.9227809E0,1.8710438E0,6.495572E-1],"categories":[],"categories_nodes":[],"categories_segments":[],"categories_sizes":[],"default_left":[0,0,0,0,0,0,0,0,0,0,0,0,0,0,0,0,0,0,0,0,0,0,0,0,0,0,0,0,0,0,0,0,0,0,0,0,0,0,0,0,0,0,0,0,0,0,0,0,0,0,0,0,0,0,0,0,0,0,0,0,0,0,0],"id":18,"left_children":[1,3,5,7,9,11,13,15,17,19,21,23,25,27,29,31,33,35,37,39,41,43,45,47,49,51,53,55,57,59,61,-1,-1,-1,-1,-1,-1,-1,-1,-1,-1,-1,-1,-1,-1,-1,-1,-1,-1,-1,-1,-1,-1,-1,-1,-1,-1,-1,-1,-1,-1,-1,-1],"loss_changes":[2.6784075E6,3.0694594E5,9.215304E5,3.40835E4,7.539109E4,1.27035055E5,2.9024525E5,1.262075E4,2.4107125E4,1.9423625E4,2.793868E4,2.3571766E4,5.774909E4,2.4438512E5,1.4987425E5,1.6963984E3,8.751406E3,6.3790156E3,2.6387438E4,4.0313633E3,2.1903188E4,2.0915068E4,2.3745234E3,3.0423438E3,6.9501445E3,1.2985111E4,2.454091E4,6.839659E4,6.1496688E4,7.2337625E4,2.1101912E5,0E0,0E0,0E0,0E0,0E0,0E0,0E0,0E0,0E0,0E0,0E0,0E0,0E0,0E0,0E0,0E0,0E0,0E0,0E0,0E0,0E0,0E0,0E0,0E0,0E0,0E0,0E0,0E0,0E0,0E0,0E0,0E0],"parents":[2147483647,0,0,1,1,2,2,3,3,4,4,5,5,6,6,7,7,8,8,9,9,10,10,11,11,12,12,13,13,14,14,15,15,16,16,17,17,18,18,19,19,20,20,21,21,22,22,23,23,24,24,25,25,26,26,27,27,28,28,29,29,30,30],"right_children":[2,4,6,8,10,12,14,16,18,20,22,24,26,28,30,32,34,36,38,40,42,44,46,48,50,52,54,56,58,60,62,-1,-1,-1,-1,-1,-1,-1,-1,-1,-1,-1,-1,-1,-1,-1,-1,-1,-1,-1,-1,-1,-1,-1,-1,-1,-1,-1,-1,-1,-1,-1,-1],"split_conditions":[1.0385E2,1.74072E4,1.41994E4,1.25819E4,2.054E4,9.7615E3,1.786E4,9.7615E3,3.95E-1,3.7E-1,9.71625E0,7.3465E3,-1.306E1,3.13E2,8.75E0,8.825E1,1.468875E1,3.35E-1,1.3625E1,-1.79675E1,1.136625E1,3.6E-1,2.20116E4,2.625E0,3.925E0,1.18912E4,1.31572E4,-1.320625E1,-7.92125E0,2.1E2,-1.848375E1,-1.3591936E0,-8.175041E-1,-6.8544364E-1,-1.2825478E0,-9.5489997E-1,-6.574443E-1,-4.4635868E-1,-7.7775604E-1,-3.919172E-1,-7.044241E-1,-2.1683612E-1,-5.320805E-1,-3.5723147E-1,5.7230182E-2,-4.822528E-1,-2.4340189E-1,2.0674555E-2,-1.3753842E0,-4.4619852E-1,-9.112202E-1,-5.7974255E-1,-1.5853764E-1,7.767279E-2,3.9076218E-1,2.296412E-1,6.311912E-1,9.1484016E-1,1.7828257E0,1.2515504E0,1.9227809E0,1.8710438E0,6.495572E-1],"split_indices":[2,0,0,0,0,0,0,0,3,3,5,0,5,2,3,2,5,3,5,5,5,3,0,3,3,0,0,5,5,2,5,0,0,0,0,0,0,0,0,0,0,0,0,0,0,0,0,0,0,0,0,0,0,0,0,0,0,0,0,0,0,0,0],"split_type":[0,0,0,0,0,0,0,0,0,0,0,0,0,0,0,0,0,0,0,0,0,0,0,0,0,0,0,0,0,0,0,0,0,0,0,0,0,0,0,0,0,0,0,0,0,0,0,0,0,0,0,0,0,0,0,0,0,0,0,0,0,0,0],"sum_hessian":[3.5205E4,2.1896E4,1.3309E4,1.0559E4,1.1337E4,4.367E3,8.942E3,1.476E3,9.083E3,6.495E3,4.842E3,5.78E2,3.789E3,5.11E3,3.832E3,1.18E2,1.358E3,8.8E2,8.203E3,4.53E2,6.042E3,4.397E3,4.45E2,1.26E2,4.52E2,9.72E2,2.817E3,4.28E3,8.3E2,1.669E3,2.163E3,9.4E1,2.4E1,1.293E3,6.5E1,2.67E2,6.13E2,7.549E3,6.54E2,1.7E2,2.83E2,5.429E3,6.13E2,3.28E2,4.069E3,2.7E2,1.75E2,4E0,1.22E2,3.46E2,1.06E2,2.44E2,7.28E2,1.879E3,9.38E2,1.946E3,2.334E3,3.81E2,4.49E2,9.71E2,6.98E2,4.45E2,1.718E3],"tree_param":{"num_deleted":"0","num_feature":"6","num_nodes":"63","size_leaf_vector":"1"}},{"base_weights":[-1.4154777E-2,-4.408138E0,1.5762671E1,-6.907183E0,2.1712148E0,8.057487E0,2.5748281E1,-9.305454E0,-1.7673187E0,-1.3137494E0,8.038553E0,-1.3015219E0,1.2968946E1,2.178076E1,3.325346E1,-1.0961786E1,-6.8115883E0,-2.272106E0,7.047325E0,-6.1675825E0,4.17549E0,-7.4799223E0,1.1312331E1,-1.6916624E1,4.6433285E-1,6.8001413E0,1.8535795E1,1.5930514E1,2.8297123E1,4.706058E1,2.9536964E1,-7.698923E-1,-5.1389784E-1,-5.7502884E-1,-3.115674E-1,-7.9457425E-2,-3.8764703E-1,2.5442786E0,2.0151399E-1,-8.3521587E-1,-2.837163E-1,1.184948E-1,9.119882E-1,-8.8077337E-1,-1.793453E-1,3.1943855E-1,7.957454E-1,-1.0313063E0,-4.6193296E-1,1.7609352E-1,-1.9156764E-1,6.898857E-1,1.6134839E-1,1.3281357E0,5.987094E-1,1.3073102E0,4.7858974E-1,1.9710964E0,1.1899842E0,1.902471E0,3.106208E0,1.7887858E0,1.103622E0],"categories":[],"categories_nodes":[],"categories_segments":[],"categories_sizes":[],"default_left":[0,0,0,0,0,0,0,0,0,0,0,0,0,0,0,0,0,0,0,0,0,0,0,0,0,0,0,0,0,0,0,0,0,0,0,0,0,0,0,0,0,0,0,0,0,0,0,0,0,0,0,0,0,0,0,0,0,0,0,0,0,0,0],"id":19,"left_children":[1,3,5,7,9,11,13,15,17,19,21,23,25,27,29,31,33,35,37,39,41,43,45,47,49,51,53,55,57,59,61,-1,-1,-1,-1,-1,-1,-1,-1,-1,-1,-1,-1,-1,-1,-1,-1,-1,-1,-1,-1,-1,-1,-1,-1,-1,-1,-1,-1,-1,-1,-1,-1],"loss_changes":[2.431924E6,4.511698E5,5.877755E5,2.4511419E5,1.5447072E5,1.9836181E5,9.83735E4,5.5933E4,2.8172566E4,1.263176E5,1.4309798E5,4.098282E4,9.705844E4,8.2655875E4,5.7569875E4,2.4552688E4,1.4658422E4,2.239434E4,4.5160773E4,1.2981648E4,5.645924E4,1.9310615E4,5.258528E4,4.110133E3,1.756081E4,3.356023E4,7.80015E4,7.451722E4,5.0595812E4,3.0485375E4,4.1495312E4,0E0,0E0,0E0,0E0,0E0,0E0,0E0,0E0,0E0,0E0,0E0,0E0,0E0,0E0,0E0,0E0,0E0,0E0,0E0,0E0,0E0,0E0,0E0,0E0,0E0,0E0,0E0,0E0,0E0,0E0,0E0,0E0],"parents":[2147483647,0,0,1,1,2,2,3,3,4,4,5,5,6,6,7,7,8,8,9,9,10,10,11,11,12,12,13,13,14,14,15,15,16,16,17,17,18,18,19,19,20,20,21,21,22,22,23,23,24,24,25,25,26,26,27,27,28,28,29,29,30,30],"right_children":[2,4,6,8,10,12,14,16,18,20,22,24,26,28,30,32,34,36,38,40,42,44,46,48,50,52,54,56,58,60,62,-1,-1,-1,-1,-1,-1,-1,-1,-1,-1,-1,-1,-1,-1,-1,-1,-1,-1,-1,-1,-1,-1,-1,-1,-1,-1,-1,-1,-1,-1,-1,-1],"split_conditions":[4.9584E1,2.481E1,1.6929E4,1.96756E4,1.12175E1,1.35919E4,2.01463E4,1.65357E4,2.39947E4,1.67108E4,1.08583E4,1.00469E4,-1.220625E1,-1.220625E1,-1.760875E1,1.22084E4,3.85E-1,9.71625E0,-1.66225E1,9.4318E3,-3.10875E0,8.3933E3,1.45865E4,9.71625E0,8.75E0,-1.68275E1,4.2375E-1,-1.68275E1,3.375E-2,2.18502E4,8.75E0,-7.698923E-1,-5.1389784E-1,-5.7502884E-1,-3.115674E-1,-7.9457425E-2,-3.8764703E-1,2.5442786E0,2.0151399E-1,-8.3521587E-1,-2.837163E-1,1.184948E-1,9.119882E-1,-8.8077337E-1,-1.793453E-1,3.1943855E-1,7.957454E-1,-1.0313063E0,-4.6193296E-1,1.7609352E-1,-1.9156764E-1,6.898857E-1,1.6134839E-1,1.3281357E0,5.987094E-1,1.3073102E0,4.7858974E-1,1.9710964E0,1.1899842E0,1.902471E0,3.106208E0,1.7887858E0,1.103622E0],"split_indices":[1,1,0,0,5,0,0,0,0,0,0,0,5,5,5,0,3,5,5,0,5,0,0,5,3,5,5,5,5,0,3,0,0,0,0,0,0,0,0,0,0,0,0,0,0,0,0,0,0,0,0,0,0,0,0,0,0,0,0,0,0,0,0],"split_type":[0,0,0,0,0,0,0,0,0,0,0,0,0,0,0,0,0,0,0,0,0,0,0,0,0,0,0,0,0,0,0,0,0,0,0,0,0,0,0,0,0,0,0,0,0,0,0,0,0,0,0,0,0,0,0,0,0,0,0,0,0,0,0],"sum_hessian":[3.5079E4,2.7438E4,7.641E3,1.9885E4,7.553E3,4.314E3,3.327E3,1.3558E4,6.327E3,4.739E3,2.814E3,1.485E3,2.829E3,2.179E3,1.148E3,8.145E3,5.413E3,5.985E3,3.42E2,2.515E3,2.224E3,4.9E2,2.324E3,1.5E2,1.335E3,1.343E3,1.486E3,1.15E3,1.029E3,2.41E2,9.07E2,1.085E3,7.06E3,5.94E2,4.819E3,5.323E3,6.62E2,2.1E1,3.21E2,1.11E2,2.404E3,1.972E3,2.52E2,1.35E2,3.55E2,1.124E3,1.2E3,1E2,5E1,7.8E2,5.55E2,4.53E2,8.9E2,6.67E2,8.19E2,4.4E2,7.1E2,2.94E2,7.35E2,1.53E2,8.8E1,4.92E2,4.15E2],"tree_param":{"num_deleted":"0","num_feature":"6","num_nodes":"63","size_leaf_vector":"1"}},{"base_weights":[2.9956328E-2,-5.8616977E0,1.0573482E1,-9.249313E0,-2.6140702E0,1.0517976E0,1.6804075E1,-9.803822E0,-1.2822694E0,-3.9074326E0,1.5654124E0,-8.094485E0,3.7276149E0,1.4130246E1,2.7967613E1,-1.4015477E1,-9.109352E0,-1.770118E1,7.785381E-1,-4.8843045E0,1.6306505E0,1.2921041E0,5.8230053E1,-1.8478392E1,-5.3907266E0,5.78188E0,-2.067605E0,1.1592142E1,2.8762724E1,2.3440351E1,3.6382675E1,-1.2541785E0,-6.6592705E-1,-6.8411005E-1,-4.3071643E-1,-1.3714533E0,-6.769189E-1,-2.6714277E-1,3.079737E-1,-5.473029E-1,-2.1555762E-1,2.9573476E-2,5.673418E-1,-5.670711E-3,3.5113552E-1,3.540994E0,-3.6713308E-1,-8.0068713E-1,-1.4469489E0,-1.7680724E-1,-7.6349515E-1,2.644191E-1,1.390026E0,-2.4323252E-1,6.0807254E-2,3.9878395E-1,7.996504E-1,1.8425604E0,1.0269362E0,1.5577474E0,9.258098E-1,1.428587E0,2.0045776E0],"categories":[],"categories_nodes":[],"categories_segments":[],"categories_sizes":[],"default_left":[0,0,0,0,0,0,0,0,0,0,0,0,0,0,0,0,0,0,0,0,0,0,0,0,0,0,0,0,0,0,0,0,0,0,0,0,0,0,0,0,0,0,0,0,0,0,0,0,0,0,0,0,0,0,0,0,0,0,0,0,0,0,0],"id":20,"left_children":[1,3,5,7,9,11,13,15,17,19,21,23,25,27,29,31,33,35,37,39,41,43,45,47,49,51,53,55,57,59,61,-1,-1,-1,-1,-1,-1,-1,-1,-1,-1,-1,-1,-1,-1,-1,-1,-1,-1,-1,-1,-1,-1,-1,-1,-1,-1,-1,-1,-1,-1,-1,-1],"loss_changes":[2.176456E6,2.4726131E5,7.451139E5,4.8587562E4,6.2046008E4,1.2164039E5,2.2622125E5,2.9954562E4,2.4274346E4,4.742661E4,4.1940766E4,3.148543E4,4.5786367E4,2.2721575E5,5.499775E4,1.0881719E4,1.9874938E4,2.8682754E3,2.104788E4,2.5839844E4,1.327068E4,2.1755926E4,1.1252145E4,5.5179297E3,1.6325637E4,3.0702E4,9.255006E3,8.299944E4,5.94435E4,3.57395E4,1.36580625E4,0E0,0E0,0E0,0E0,0E0,0E0,0E0,0E0,0E0,0E0,0E0,0E0,0E0,0E0,0E0,0E0,0E0,0E0,0E0,0E0,0E0,0E0,0E0,0E0,0E0,0E0,0E0,0E0,0E0,0E0,0E0,0E0],"parents":[2147483647,0,0,1,1,2,2,3,3,4,4,5,5,6,6,7,7,8,8,9,9,10,10,11,11,12,12,13,13,14,14,15,15,16,16,17,17,18,18,19,19,20,20,21,21,22,22,23,23,24,24,25,25,26,26,27,27,28,28,29,29,30,30],"right_children":[2,4,6,8,10,12,14,16,18,20,22,24,26,28,30,32,34,36,38,40,42,44,46,48,50,52,54,56,58,60,62,-1,-1,-1,-1,-1,-1,-1,-1,-1,-1,-1,-1,-1,-1,-1,-1,-1,-1,-1,-1,-1,-1,-1,-1,-1,-1,-1,-1,-1,-1,-1,-1],"split_conditions":[1.105E2,1.74072E4,1.48077E4,1.0125E2,7.045E1,1.11617E4,2.01463E4,1.25819E4,1.00469E4,2.25584E4,2.35633E4,8.3933E3,1.5E1,3.13E2,2.1715E4,9.4318E3,3.95E-1,8.3933E3,7.809E1,4.05E-1,2.47079E4,2.12248E4,9.445E1,1.385E2,1.02E1,3.35E2,1.37718E4,1.74482E4,7.5E0,8.75E0,4.2E0,-1.2541785E0,-6.6592705E-1,-6.8411005E-1,-4.3071643E-1,-1.3714533E0,-6.769189E-1,-2.6714277E-1,3.079737E-1,-5.473029E-1,-2.1555762E-1,2.9573476E-2,5.673418E-1,-5.670711E-3,3.5113552E-1,3.540994E0,-3.6713308E-1,-8.0068713E-1,-1.4469489E0,-1.7680724E-1,-7.6349515E-1,2.644191E-1,1.390026E0,-2.4323252E-1,6.0807254E-2,3.9878395E-1,7.996504E-1,1.8425604E0,1.0269362E0,1.5577474E0,9.258098E-1,1.428587E0,2.0045776E0],"split_indices":[2,0,0,2,4,0,0,0,0,0,0,0,3,2,0,0,3,0,4,3,0,0,2,2,3,2,0,0,3,3,3,0,0,0,0,0,0,0,0,0,0,0,0,0,0,0,0,0,0,0,0,0,0,0,0,0,0,0,0,0,0,0,0],"split_type":[0,0,0,0,0,0,0,0,0,0,0,0,0,0,0,0,0,0,0,0,0,0,0,0,0,0,0,0,0,0,0,0,0,0,0,0,0,0,0,0,0,0,0,0,0,0,0,0,0,0,0,0,0,0,0,0,0,0,0,0,0,0,0],"sum_hessian":[3.5035E4,2.2476E4,1.2559E4,1.1E4,1.1476E4,4.968E3,7.591E3,1.0284E4,7.16E2,8.764E3,2.712E3,1.124E3,3.844E3,6.126E3,1.465E3,1.453E3,8.831E3,7.9E1,6.37E2,7.45E3,1.314E3,2.7E3,1.2E1,2.31E2,8.93E2,2.838E3,1.006E3,5.222E3,9.04E2,9.55E2,5.1E2,8.4E1,1.369E3,8.6E2,7.971E3,2.2E1,5.7E1,2.98E2,3.39E2,6.42E2,6.808E3,1.188E3,1.26E2,2.169E3,5.31E2,1E1,2E0,1.89E2,4.2E1,7.53E2,1.4E2,2.777E3,6.1E1,5.43E2,4.63E2,2.868E3,2.354E3,4.54E2,4.5E2,3.7E2,5.85E2,1.67E2,3.43E2],"tree_param":{"num_deleted":"0","num_feature":"6","num_nodes":"63","size_leaf_vector":"1"}},{"base_weights":[-7.655429E-3,-5.5694194E0,1.0026002E1,-8.864816E0,-2.63959E0,3.8368256E0,1.859626E1,-9.47986E0,-2.9074001E0,-4.437275E0,-5.8061242E-2,1.8969458E0,1.6404179E1,1.6346966E1,3.0778053E1,-1.2620989E1,-8.648923E0,-2.0711847E1,-1.8246757E0,-5.651225E0,-8.4135354E-1,-1.3484411E0,4.820812E0,-9.30446E0,3.6222591E0,6.2331433E0,2.3782011E1,1.353664E1,2.654044E1,2.7623545E1,3.9707E1,-1.0809954E0,-6.081997E-1,-8.5220575E-1,-4.1950256E-1,-1.1512426E0,-1.8332955E-1,-4.007905E-1,5.096779E-2,-5.79493E-1,-2.5457856E-1,-1.1323168E-1,4.239936E-1,-1.0017661E-1,4.3240118E-1,1.755835E-1,8.329255E-1,-1.0442816E0,-3.5787857E-1,2.795932E-1,-1.0370813E-2,2.2263256E-1,1.0662944E0,1.5635215E0,7.996276E-1,8.637369E-1,5.3257555E-1,1.5029528E0,7.05447E-1,8.541973E-1,1.4973881E0,1.4958524E0,2.4383352E0],"categories":[],"categories_nodes":[],"categories_segments":[],"categories_sizes":[],"default_left":[0,0,0,0,0,0,0,0,0,0,0,0,0,0,0,0,0,0,0,0,0,0,0,0,0,0,0,0,0,0,0,0,0,0,0,0,0,0,0,0,0,0,0,0,0,0,0,0,0,0,0,0,0,0,0,0,0,0,0,0,0,0,0],"id":21,"left_children":[1,3,5,7,9,11,13,15,17,19,21,23,25,27,29,31,33,35,37,39,41,43,45,47,49,51,53,55,57,59,61,-1,-1,-1,-1,-1,-1,-1,-1,-1,-1,-1,-1,-1,-1,-1,-1,-1,-1,-1,-1,-1,-1,-1,-1,-1,-1,-1,-1,-1,-1,-1,-1],"loss_changes":[1.9588056E6,2.1801438E5,6.639189E5,3.8914188E4,5.5484844E4,1.7720534E5,1.4332175E5,2.5033812E4,1.9162406E4,3.0761672E4,3.0911602E4,1.21767766E5,7.279081E4,1.26632875E5,2.1915125E4,8.0154375E3,1.6419562E4,2.1628457E3,1.6559484E4,1.7452922E4,2.3633957E4,2.544552E4,1.5857158E4,2.0760703E4,4.117811E4,1.0922773E4,3.2340125E4,3.7315125E4,4.1436688E4,1.4357625E4,1.7255531E4,0E0,0E0,0E0,0E0,0E0,0E0,0E0,0E0,0E0,0E0,0E0,0E0,0E0,0E0,0E0,0E0,0E0,0E0,0E0,0E0,0E0,0E0,0E0,0E0,0E0,0E0,0E0,0E0,0E0,0E0,0E0,0E0],"parents":[2147483647,0,0,1,1,2,2,3,3,4,4,5,5,6,6,7,7,8,8,9,9,10,10,11,11,12,12,13,13,14,14,15,15,16,16,17,17,18,18,19,19,20,20,21,21,22,22,23,23,24,24,25,25,26,26,27,27,28,28,29,29,30,30],"right_children":[2,4,6,8,10,12,14,16,18,20,22,24,26,28,30,32,34,36,38,40,42,44,46,48,50,52,54,56,58,60,62,-1,-1,-1,-1,-1,-1,-1,-1,-1,-1,-1,-1,-1,-1,-1,-1,-1,-1,-1,-1,-1,-1,-1,-1,-1,-1,-1,-1,-1,-1,-1,-1],"split_conditions":[1.105E2,1.71876E4,1.64462E4,1.0045E2,2.054E4,3.13E2,2.10161E4,1.31028E4,8.9547E3,7.059E1,7.045E1,1.06816E4,1.40273E4,2.465E2,2.29311E4,9.7615E3,3.35E-1,8.528E1,8.05E-1,4.05E-1,8.05E-1,2.42964E4,2.21697E4,7.3465E3,1.5E1,3.35E2,7.25E0,1.5E1,8.75E0,1.35E2,4.2E0,-1.0809954E0,-6.081997E-1,-8.5220575E-1,-4.1950256E-1,-1.1512426E0,-1.8332955E-1,-4.007905E-1,5.096779E-2,-5.79493E-1,-2.5457856E-1,-1.1323168E-1,4.239936E-1,-1.0017661E-1,4.3240118E-1,1.755835E-1,8.329255E-1,-1.0442816E0,-3.5787857E-1,2.795932E-1,-1.0370813E-2,2.2263256E-1,1.0662944E0,1.5635215E0,7.996276E-1,8.637369E-1,5.3257555E-1,1.5029528E0,7.05447E-1,8.541973E-1,1.4973881E0,1.4958524E0,2.4383352E0],"split_indices":[2,0,0,2,0,2,0,0,0,4,4,0,0,2,0,0,3,4,3,3,3,0,0,0,3,2,3,3,3,2,3,0,0,0,0,0,0,0,0,0,0,0,0,0,0,0,0,0,0,0,0,0,0,0,0,0,0,0,0,0,0,0,0],"split_type":[0,0,0,0,0,0,0,0,0,0,0,0,0,0,0,0,0,0,0,0,0,0,0,0,0,0,0,0,0,0,0,0,0,0,0,0,0,0,0,0,0,0,0,0,0,0,0,0,0,0,0,0,0,0,0,0,0,0,0,0,0,0,0],"sum_hessian":[3.5099E4,2.2582E4,1.2517E4,1.0627E4,1.1955E4,7.269E3,5.248E3,9.632E3,9.95E2,7.047E3,4.908E3,6.298E3,9.71E2,4.432E3,8.16E2,2.012E3,7.62E3,5.6E1,9.39E2,5.268E3,1.779E3,3.882E3,1.026E3,8.4E2,5.458E3,4.09E2,5.62E2,3.476E3,9.56E2,6.06E2,2.1E2,9.5E1,1.917E3,2.26E2,7.394E3,4.9E1,7E0,2.95E2,6.44E2,4.52E2,4.816E3,1.544E3,2.35E2,3.644E3,2.38E2,9.25E2,1.01E2,1.3E2,7.1E2,3.604E3,1.854E3,3.67E2,4.2E1,2.85E2,2.77E2,1.512E3,1.964E3,7.44E2,2.12E2,1.11E2,4.95E2,1.03E2,1.07E2],"tree_param":{"num_deleted":"0","num_feature":"6","num_nodes":"63","size_leaf_vector":"1"}},{"base_weights":[-1.3167977E-2,-3.7748911E0,9.967824E0,-5.7954316E0,7.094222E-1,-9.122832E-1,1.4818995E1,-9.077164E0,-3.0921087E0,-4.363676E0,5.2003317E0,-1.48770895E1,5.640537E-1,6.758217E0,1.8218813E1,-8.2873335E0,-1.3455389E1,-4.1076393E0,1.2541642E0,-7.171013E0,1.7245817E0,-2.9421735E-1,1.0055825E1,-1.252513E1,-2.245591E1,-4.8032737E-1,1.0071299E1,1.7501171E0,1.1934545E1,1.4654965E1,2.69249E1,-7.490584E-1,-3.8427645E-1,-4.053173E-1,-7.950788E-1,-1.6715775E-1,-4.7936043E-1,2.748842E-2,5.308067E-1,-4.6847293E-1,-2.3880804E-1,-7.5835556E-2,2.4869834E-1,-1.2735852E0,2.741285E-2,1.4830745E0,4.0146813E-1,-7.6448154E-1,-3.6658713E-1,-1.28164E0,-7.4684995E-1,-1.0768656E-1,1.7352964E-1,4.094134E-1,2.1690488E0,-1.9468217E-1,3.569214E-1,4.4133258E-1,8.679679E-1,3.7632298E-1,9.7985727E-1,1.2987282E0,2.7368333E0],"categories":[],"categories_nodes":[],"categories_segments":[],"categories_sizes":[],"default_left":[0,0,0,0,0,0,0,0,0,0,0,0,0,0,0,0,0,0,0,0,0,0,0,0,0,0,0,0,0,0,0,0,0,0,0,0,0,0,0,0,0,0,0,0,0,0,0,0,0,0,0,0,0,0,0,0,0,0,0,0,0,0,0],"id":22,"left_children":[1,3,5,7,9,11,13,15,17,19,21,23,25,27,29,31,33,35,37,39,41,43,45,47,49,51,53,55,57,59,61,-1,-1,-1,-1,-1,-1,-1,-1,-1,-1,-1,-1,-1,-1,-1,-1,-1,-1,-1,-1,-1,-1,-1,-1,-1,-1,-1,-1,-1,-1,-1,-1],"loss_changes":[1.3206336E6,2.3146966E5,5.0819162E5,1.5620931E5,1.8082719E5,6.1240164E4,1.8236788E5,2.7393875E4,4.2633375E4,6.371346E4,1.1232049E5,4.7810664E3,2.6684562E4,5.1229992E4,1.4490562E5,2.7040156E4,1.5756E4,3.2763969E4,1.2062158E4,1.3386141E4,1.2403952E4,4.1927664E4,8.85587E4,3.0321094E3,1.1936484E3,1.6020489E4,1.6329139E4,3.0620592E4,1.62344375E4,1.1699344E5,3.4497375E4,0E0,0E0,0E0,0E0,0E0,0E0,0E0,0E0,0E0,0E0,0E0,0E0,0E0,0E0,0E0,0E0,0E0,0E0,0E0,0E0,0E0,0E0,0E0,0E0,0E0,0E0,0E0,0E0,0E0,0E0,0E0,0E0],"parents":[2147483647,0,0,1,1,2,2,3,3,4,4,5,5,6,6,7,7,8,8,9,9,10,10,11,11,12,12,13,13,14,14,15,15,16,16,17,17,18,18,19,19,20,20,21,21,22,22,23,23,24,24,25,25,26,26,27,27,28,28,29,29,30,30],"right_children":[2,4,6,8,10,12,14,16,18,20,22,24,26,28,30,32,34,36,38,40,42,44,46,48,50,52,54,56,58,60,62,-1,-1,-1,-1,-1,-1,-1,-1,-1,-1,-1,-1,-1,-1,-1,-1,-1,-1,-1,-1,-1,-1,-1,-1,-1,-1,-1,-1,-1,-1,-1,-1],"split_conditions":[7.903E1,7.135E1,1.40697E4,1.71361E4,8.05E-1,9.4318E3,3.775E0,9.9E0,2.20885E4,1.95522E4,1.53293E4,4.125E0,1.0911E2,9.71625E0,1.91231E4,3.85E-1,5.029E1,1.10225E1,2.47079E4,1.56787E4,-1.40425E1,7.3465E3,-1.848375E1,1.156375E1,8.9547E3,1.12175E1,-7.08125E0,1.7671E4,1.74072E4,-1.220625E1,1.0911E2,-7.490584E-1,-3.8427645E-1,-4.053173E-1,-7.950788E-1,-1.6715775E-1,-4.7936043E-1,2.748842E-2,5.308067E-1,-4.6847293E-1,-2.3880804E-1,-7.5835556E-2,2.4869834E-1,-1.2735852E0,2.741285E-2,1.4830745E0,4.0146813E-1,-7.6448154E-1,-3.6658713E-1,-1.28164E0,-7.4684995E-1,-1.0768656E-1,1.7352964E-1,4.094134E-1,2.1690488E0,-1.9468217E-1,3.569214E-1,4.4133258E-1,8.679679E-1,3.7632298E-1,9.7985727E-1,1.2987282E0,2.7368333E0],"split_indices":[4,4,0,0,3,0,3,5,0,0,0,3,4,5,0,3,4,5,0,0,5,0,5,5,0,5,5,0,0,5,4,0,0,0,0,0,0,0,0,0,0,0,0,0,0,0,0,0,0,0,0,0,0,0,0,0,0,0,0,0,0,0,0],"split_type":[0,0,0,0,0,0,0,0,0,0,0,0,0,0,0,0,0,0,0,0,0,0,0,0,0,0,0,0,0,0,0,0,0,0,0,0,0,0,0,0,0,0,0,0,0,0,0,0,0,0,0,0,0,0,0,0,0,0,0,0,0,0,0],"sum_hessian":[3.5172E4,2.5545E4,9.627E3,1.761E4,7.935E3,2.969E3,6.658E3,7.953E3,9.657E3,3.726E3,4.209E3,2.83E2,2.686E3,1.976E3,4.682E3,6.74E3,1.213E3,7.828E3,1.829E3,2.55E3,1.176E3,1.975E3,2.234E3,2.18E2,6.5E1,2.421E3,2.65E2,1.005E3,9.71E2,3.324E3,1.358E3,5.54E2,6.186E3,3.82E2,8.31E2,6.871E3,9.57E2,1.702E3,1.27E2,1.328E3,1.222E3,5.89E2,5.87E2,6.3E1,1.912E3,2.08E2,2.026E3,1.41E2,7.7E1,4.4E1,2.1E1,1.701E3,7.2E2,2.52E2,1.3E1,4.91E2,5.14E2,6.19E2,3.52E2,1.362E3,1.962E3,1.315E3,4.3E1],"tree_param":{"num_deleted":"0","num_feature":"6","num_nodes":"63","size_leaf_vector":"1"}},{"base_weights":[9.1329655E-3,-5.066711E0,9.156256E0,-7.47376E0,-1.6808742E0,3.894365E0,1.7862501E1,-7.908007E0,-5.8163124E-1,-2.1488075E0,6.6451507E0,-2.0893457E0,7.6489434E0,1.5936364E1,3.1733114E1,-1.0437828E1,-6.800771E0,-5.1058683E0,7.4902587E0,-1.4481707E0,-7.621923E0,5.3958707E0,1.5598859E0,-1.1056885E1,-2.764196E-1,5.256987E0,1.9668156E1,1.0945542E1,2.1306387E1,6.09526E1,2.681868E1,-4.9925065E-1,-9.269164E-1,-3.226976E-1,-5.801971E-1,-3.8435408E-1,-4.066007E-2,1.594012E-2,9.6972877E-1,-1.3472746E-1,4.0128287E-2,-4.183967E-1,-2.0460644E-1,1.6975293E-1,9.6224654E-1,-9.637297E-1,-4.2434144E-1,-2.9198813E-1,7.053179E-2,1.0186241E-1,3.911601E-1,5.5902225E-1,1.3461463E0,1.1660622E0,3.7141955E-1,7.726154E-1,1.4340535E0,2.0319545E0,4.5711246E0,1.2164032E0,1.8790606E0],"categories":[],"categories_nodes":[],"categories_segments":[],"categories_sizes":[],"default_left":[0,0,0,0,0,0,0,0,0,0,0,0,0,0,0,0,0,0,0,0,0,0,0,0,0,0,0,0,0,0,0,0,0,0,0,0,0,0,0,0,0,0,0,0,0,0,0,0,0,0,0,0,0,0,0,0,0,0,0,0,0],"id":23,"left_children":[1,3,5,7,9,11,13,15,17,19,21,23,25,27,29,31,33,35,37,39,41,43,-1,45,47,49,51,53,55,57,59,-1,-1,-1,-1,-1,-1,-1,-1,-1,-1,-1,-1,-1,-1,-1,-1,-1,-1,-1,-1,-1,-1,-1,-1,-1,-1,-1,-1,-1,-1],"loss_changes":[1.6315744E6,1.8417462E5,5.7445E5,3.95285E4,3.6605742E4,1.756576E5,1.25703875E5,3.4735562E4,2.8669254E4,3.4090652E4,1.5168182E4,4.9013266E4,1.3800884E5,1.1099025E5,8.093381E4,1.3683719E4,1.4327906E4,5.567133E3,2.4068516E4,2.2121713E4,2.6227266E3,1.3152027E4,0E0,1.0544246E4,2.3556877E4,3.310033E4,4.8775375E4,9.354083E4,8.581444E4,4.7038594E4,1.2327531E4,0E0,0E0,0E0,0E0,0E0,0E0,0E0,0E0,0E0,0E0,0E0,0E0,0E0,0E0,0E0,0E0,0E0,0E0,0E0,0E0,0E0,0E0,0E0,0E0,0E0,0E0,0E0,0E0,0E0,0E0],"parents":[2147483647,0,0,1,1,2,2,3,3,4,4,5,5,6,6,7,7,8,8,9,9,10,10,11,11,12,12,13,13,14,14,15,15,16,16,17,17,18,18,19,19,20,20,21,21,23,23,24,24,25,25,26,26,27,27,28,28,29,29,30,30],"right_children":[2,4,6,8,10,12,14,16,18,20,22,24,26,28,30,32,34,36,38,40,42,44,-1,46,48,50,52,54,56,58,60,-1,-1,-1,-1,-1,-1,-1,-1,-1,-1,-1,-1,-1,-1,-1,-1,-1,-1,-1,-1,-1,-1,-1,-1,-1,-1,-1,-1,-1,-1],"split_conditions":[1.105E2,1.85156E4,1.6929E4,1.0125E2,7.809E1,1.33547E4,2.15221E4,1.41106E4,1.12175E1,9.9E0,-4.03625E0,9.7615E3,3.13E2,-1.220625E1,-1.86625E1,1.45975E1,1.3625E1,1.54662E4,1.45082E4,2.12806E4,2.19247E4,2.20116E4,1.5598859E0,7.3465E3,-1.306E1,-1.16575E1,-7.92125E0,-1.822625E1,2.1E2,-1.92725E1,2.35633E4,-4.9925065E-1,-9.269164E-1,-3.226976E-1,-5.801971E-1,-3.8435408E-1,-4.066007E-2,1.594012E-2,9.6972877E-1,-1.3472746E-1,4.0128287E-2,-4.183967E-1,-2.0460644E-1,1.6975293E-1,9.6224654E-1,-9.637297E-1,-4.2434144E-1,-2.9198813E-1,7.053179E-2,1.0186241E-1,3.911601E-1,5.5902225E-1,1.3461463E0,1.1660622E0,3.7141955E-1,7.726154E-1,1.4340535E0,2.0319545E0,4.5711246E0,1.2164032E0,1.8790606E0],"split_indices":[2,0,0,2,4,0,0,0,5,5,5,0,2,5,5,5,5,0,0,0,0,0,0,0,5,5,5,5,2,5,0,0,0,0,0,0,0,0,0,0,0,0,0,0,0,0,0,0,0,0,0,0,0,0,0,0,0,0,0,0,0],"split_type":[0,0,0,0,0,0,0,0,0,0,0,0,0,0,0,0,0,0,0,0,0,0,0,0,0,0,0,0,0,0,0,0,0,0,0,0,0,0,0,0,0,0,0,0,0,0,0,0,0,0,0,0,0,0,0,0,0,0,0,0,0],"sum_hessian":[3.5139E4,2.2599E4,1.254E4,1.3208E4,9.391E3,7.817E3,4.723E3,1.2425E4,7.83E2,8.892E3,4.99E2,3.014E3,4.803E3,4.149E3,5.74E2,3.78E3,8.645E3,5.02E2,2.81E2,7.884E3,1.008E3,4.76E2,2.3E1,5.06E2,2.508E3,4.007E3,7.96E2,2.152E3,1.997E3,8.1E1,4.93E2,3.582E3,1.98E2,8.065E3,5.8E2,3.13E2,1.89E2,1.76E2,1.05E2,5.074E3,2.81E3,8.31E2,1.77E2,4.17E2,5.9E1,1.19E2,3.87E2,5.83E2,1.925E3,1.778E3,2.229E3,3.68E2,4.28E2,4.75E2,1.677E3,1.115E3,8.82E2,5E1,3.1E1,4.03E2,9E1],"tree_param":{"num_deleted":"0","num_feature":"6","num_nodes":"61","size_leaf_vector":"1"}},{"base_weights":[-5.2058585E-2,-3.5313625E0,1.2328982E1,-5.442846E0,1.4819529E0,6.903624E0,2.1299171E1,-7.28984E0,-1.2381705E0,-1.6919227E0,6.8718143E0,-3.0031598E0,9.980732E0,1.8957485E1,3.1363308E1,-9.477908E0,-6.0785418E0,-1.7516593E0,5.2038336E0,-5.427463E0,2.7394571E0,1.4450257E-1,1.1565389E1,-1.805922E1,-1.6485535E0,7.184882E0,1.9931139E1,2.8044783E1,1.6134596E1,2.2456667E1,3.4003036E1,-7.7401656E-1,-4.483726E-1,-2.8630802E-1,-5.185696E-1,-6.1836362E-2,-3.3881447E-1,1.6377949E0,1.5028521E-1,-6.548738E-1,-2.5327474E-1,6.70988E-2,7.268309E-1,-3.4291103E-1,1.7073132E-1,1.0421617E0,3.954278E-1,-8.134851E-2,-9.9980354E-1,-1.6156591E-1,1.7184493E-1,2.8226596E-1,6.451328E-1,1.5367258E0,7.1128553E-1,1.2596582E0,3.3758888E0,5.795282E-1,1.0857967E0,9.723301E-1,2.3794134E0,2.1412337E0,1.5767893E0],"categories":[],"categories_nodes":[],"categories_segments":[],"categories_sizes":[],"default_left":[0,0,0,0,0,0,0,0,0,0,0,0,0,0,0,0,0,0,0,0,0,0,0,0,0,0,0,0,0,0,0,0,0,0,0,0,0,0,0,0,0,0,0,0,0,0,0,0,0,0,0,0,0,0,0,0,0,0,0,0,0,0,0],"id":24,"left_children":[1,3,5,7,9,11,13,15,17,19,21,23,25,27,29,31,33,35,37,39,41,43,45,47,49,51,53,55,57,59,61,-1,-1,-1,-1,-1,-1,-1,-1,-1,-1,-1,-1,-1,-1,-1,-1,-1,-1,-1,-1,-1,-1,-1,-1,-1,-1,-1,-1,-1,-1,-1,-1],"loss_changes":[1.5143868E6,2.6299072E5,3.7516888E5,1.5428612E5,1.2961235E5,1.4656773E5,6.7891375E4,3.65285E4,2.007151E4,7.8958984E4,8.866134E4,2.3220562E4,1.0189997E5,6.008725E4,1.2097E4,1.492675E4,1.33856875E4,1.4527314E4,2.7033773E4,7.1187344E3,3.595362E4,2.6472656E4,5.5951297E4,2.9591875E3,8.438486E3,2.514739E4,4.9119625E4,6.1108594E4,4.5475594E4,8.75748E3,7.790875E3,0E0,0E0,0E0,0E0,0E0,0E0,0E0,0E0,0E0,0E0,0E0,0E0,0E0,0E0,0E0,0E0,0E0,0E0,0E0,0E0,0E0,0E0,0E0,0E0,0E0,0E0,0E0,0E0,0E0,0E0,0E0,0E0],"parents":[2147483647,0,0,1,1,2,2,3,3,4,4,5,5,6,6,7,7,8,8,9,9,10,10,11,11,12,12,13,13,14,14,15,15,16,16,17,17,18,18,19,19,20,20,21,21,22,22,23,23,24,24,25,25,26,26,27,27,28,28,29,29,30,30],"right_children":[2,4,6,8,10,12,14,16,18,20,22,24,26,28,30,32,34,36,38,40,42,44,46,48,50,52,54,56,58,60,62,-1,-1,-1,-1,-1,-1,-1,-1,-1,-1,-1,-1,-1,-1,-1,-1,-1,-1,-1,-1,-1,-1,-1,-1,-1,-1,-1,-1,-1,-1,-1,-1],"split_conditions":[4.9584E1,2.481E1,1.74908E4,1.97593E4,1.12175E1,1.29946E4,1.14786E2,1.48432E4,2.37636E4,1.68355E4,1.33058E4,9.4318E3,1.15509E2,-1.747375E1,1.82341E4,1.10081E4,1.384625E1,1.058875E1,-1.66225E1,9.4318E3,-3.10875E0,1.02923E4,1.273375E1,5.3687E1,2.9375E2,3.175E2,-4.28375E0,2.29311E4,-1.220625E1,3.2765E2,3.375E-2,-7.7401656E-1,-4.483726E-1,-2.8630802E-1,-5.185696E-1,-6.1836362E-2,-3.3881447E-1,1.6377949E0,1.5028521E-1,-6.548738E-1,-2.5327474E-1,6.70988E-2,7.268309E-1,-3.4291103E-1,1.7073132E-1,1.0421617E0,3.954278E-1,-8.134851E-2,-9.9980354E-1,-1.6156591E-1,1.7184493E-1,2.8226596E-1,6.451328E-1,1.5367258E0,7.1128553E-1,1.2596582E0,3.3758888E0,5.795282E-1,1.0857967E0,9.723301E-1,2.3794134E0,2.1412337E0,1.5767893E0],"split_indices":[1,1,0,0,5,0,1,0,0,0,0,0,1,5,0,0,5,5,5,0,5,0,5,1,2,2,5,0,5,2,5,0,0,0,0,0,0,0,0,0,0,0,0,0,0,0,0,0,0,0,0,0,0,0,0,0,0,0,0,0,0,0,0],"split_type":[0,0,0,0,0,0,0,0,0,0,0,0,0,0,0,0,0,0,0,0,0,0,0,0,0,0,0,0,0,0,0,0,0,0,0,0,0,0,0,0,0,0,0,0,0,0,0,0,0,0,0,0,0,0,0,0,0,0,0,0,0,0,0],"sum_hessian":[3.5153E4,2.7442E4,7.711E3,1.9867E4,7.575E3,4.806E3,2.905E3,1.3803E4,6.064E3,4.768E3,2.807E3,1.139E3,3.667E3,2.359E3,5.46E2,4.916E3,8.887E3,5.617E3,4.47E2,2.587E3,2.181E3,1.154E3,1.653E3,9.3E1,1.046E3,2.864E3,8.03E2,5.57E2,1.802E3,1.27E2,4.19E2,3.83E2,4.533E3,8.215E3,6.72E2,5.096E3,5.21E2,3.2E1,4.15E2,1.15E2,2.472E3,1.951E3,2.3E2,3.67E2,7.87E2,4.66E2,1.187E3,1E1,8.3E1,7.98E2,2.48E2,2.258E3,6.06E2,2.76E2,5.27E2,5.21E2,3.6E1,9.95E2,8.07E2,1.15E2,1.2E1,8.8E1,3.31E2],"tree_param":{"num_deleted":"0","num_feature":"6","num_nodes":"63","size_leaf_vector":"1"}},{"base_weights":[5.4179906E-4,-3.3330858E0,1.183931E1,-5.1525946E0,1.466904E0,2.2451816E0,1.6458889E1,-6.981109E0,-1.2829134E0,-1.3580682E0,4.919678E0,-6.344518E0,4.9703174E0,1.3720586E1,2.507807E1,-8.451288E0,-5.4206314E0,-1.9927355E0,3.124413E0,-1.4803514E1,-6.644479E-1,7.4281545E0,5.446496E-1,-1.6996964E1,-4.322948E0,8.075037E0,1.7406086E0,1.0929387E1,2.4247774E1,1.7881708E1,3.0125463E1,-7.6804304E-1,-4.0732408E-1,-6.070716E-1,-2.5590646E-1,-3.8174498E-1,-7.28245E-2,-2.1199827E-1,2.0774081E-1,-9.177219E-1,-3.4022793E-1,3.7392683E-2,-3.3987862E-1,4.394647E-2,6.697481E-1,1.825418E-1,-4.54743E-2,-1.43609E-1,-9.302991E-1,-4.406901E-2,-4.1345224E-1,2.9570132E-1,7.8408116E-1,2.073802E-1,-7.136749E-2,4.617907E-1,9.275302E-1,9.829363E-1,1.6272169E0,7.356171E-1,1.1452123E0,1.3864303E0,2.2990422E0],"categories":[],"categories_nodes":[],"categories_segments":[],"categories_sizes":[],"default_left":[0,0,0,0,0,0,0,0,0,0,0,0,0,0,0,0,0,0,0,0,0,0,0,0,0,0,0,0,0,0,0,0,0,0,0,0,0,0,0,0,0,0,0,0,0,0,0,0,0,0,0,0,0,0,0,0,0,0,0,0,0,0,0],"id":25,"left_children":[1,3,5,7,9,11,13,15,17,19,21,23,25,27,29,31,33,35,37,39,41,43,45,47,49,51,53,55,57,59,61,-1,-1,-1,-1,-1,-1,-1,-1,-1,-1,-1,-1,-1,-1,-1,-1,-1,-1,-1,-1,-1,-1,-1,-1,-1,-1,-1,-1,-1,-1,-1,-1],"loss_changes":[1.3843505E6,2.3904681E5,3.4154375E5,1.4042381E5,7.339571E4,5.8692234E4,1.22433125E5,3.0875188E4,1.9934246E4,3.8590617E4,3.715614E4,1.2933461E4,1.9067965E4,1.1579969E5,4.4973875E4,1.4486844E4,1.3236078E4,1.659027E4,6.7256543E3,5.6410547E3,3.410667E4,8.4084016E4,5.581588E3,2.1283574E3,6.9053184E3,1.5852035E4,7.127914E3,4.0150406E4,3.0846844E4,7.9246094E3,2.6657312E4,0E0,0E0,0E0,0E0,0E0,0E0,0E0,0E0,0E0,0E0,0E0,0E0,0E0,0E0,0E0,0E0,0E0,0E0,0E0,0E0,0E0,0E0,0E0,0E0,0E0,0E0,0E0,0E0,0E0,0E0,0E0,0E0],"parents":[2147483647,0,0,1,1,2,2,3,3,4,4,5,5,6,6,7,7,8,8,9,9,10,10,11,11,12,12,13,13,14,14,15,15,16,16,17,17,18,18,19,19,20,20,21,21,22,22,23,23,24,24,25,25,26,26,27,27,28,28,29,29,30,30],"right_children":[2,4,6,8,10,12,14,16,18,20,22,24,26,28,30,32,34,36,38,40,42,44,46,48,50,52,54,56,58,60,62,-1,-1,-1,-1,-1,-1,-1,-1,-1,-1,-1,-1,-1,-1,-1,-1,-1,-1,-1,-1,-1,-1,-1,-1,-1,-1,-1,-1,-1,-1,-1,-1],"split_conditions":[4.9584E1,2.481E1,1.48077E4,1.96302E4,1.58665E4,1.18912E4,1.99785E4,1.58665E4,2.30757E4,8.3933E3,4.2E0,9.4318E3,8E0,1.15509E2,8.4607E1,1.06816E4,3.35E-1,3.7E-1,3.6E-1,1.196E2,1.69E1,7.8E-1,1.081E2,5.3687E1,8.25E0,6.85E0,2.1E2,3.175E2,3.13E2,2.19247E4,2.29311E4,-7.6804304E-1,-4.0732408E-1,-6.070716E-1,-2.5590646E-1,-3.8174498E-1,-7.28245E-2,-2.1199827E-1,2.0774081E-1,-9.177219E-1,-3.4022793E-1,3.7392683E-2,-3.3987862E-1,4.394647E-2,6.697481E-1,1.825418E-1,-4.54743E-2,-1.43609E-1,-9.302991E-1,-4.406901E-2,-4.1345224E-1,2.9570132E-1,7.8408116E-1,2.073802E-1,-7.136749E-2,4.617907E-1,9.275302E-1,9.829363E-1,1.6272169E0,7.356171E-1,1.1452123E0,1.3864303E0,2.2990422E0],"split_indices":[1,1,0,0,0,0,0,0,0,0,3,0,3,1,1,0,3,3,3,2,3,3,2,1,3,3,2,2,2,0,0,0,0,0,0,0,0,0,0,0,0,0,0,0,0,0,0,0,0,0,0,0,0,0,0,0,0,0,0,0,0,0,0],"split_type":[0,0,0,0,0,0,0,0,0,0,0,0,0,0,0,0,0,0,0,0,0,0,0,0,0,0,0,0,0,0,0,0,0,0,0,0,0,0,0,0,0,0,0,0,0,0,0,0,0,0,0,0,0,0,0,0,0,0,0,0,0,0,0],"sum_hessian":[3.5075E4,2.7369E4,7.706E3,1.9846E4,7.523E3,2.505E3,5.201E3,1.3477E4,6.369E3,4.138E3,3.385E3,6.03E2,1.902E3,3.949E3,1.252E3,6.937E3,6.54E3,5.486E3,8.83E2,2.02E2,3.936E3,2.151E3,1.234E3,9.5E1,5.08E2,9.69E2,9.33E2,3.123E3,8.26E2,5.18E2,7.34E2,2.91E2,6.646E3,2.8E2,6.26E3,4.75E2,5.011E3,1.08E2,7.75E2,1.39E2,6.3E1,3.2E3,7.36E2,1.026E3,1.125E3,3.93E2,8.41E2,1E1,8.5E1,2.72E2,2.36E2,7.56E2,2.13E2,5.3E2,4.03E2,2.557E3,5.66E2,5.34E2,2.92E2,3.2E2,1.98E2,6.4E2,9.4E1],"tree_param":{"num_deleted":"0","num_feature":"6","num_nodes":"63","size_leaf_vector":"1"}},{"base_weights":[3.0509965E-2,-3.1621366E0,1.140886E1,-4.9082103E0,1.4461523E0,5.603617E0,1.9198864E1,-6.5162997E0,-1.0859028E0,-1.3651431E0,6.1833563E0,-1.1851275E0,9.505199E0,1.5906986E1,2.5303394E1,-9.003623E0,-5.6186767E0,-5.544853E-1,-5.853283E0,-5.00006E0,2.5787752E0,-5.678726E0,8.512576E0,-8.934452E0,1.2656707E0,6.124637E0,1.852383E1,1.3298603E1,2.6532888E1,3.8826214E1,2.146758E1,-9.103053E-1,-4.3423778E-1,-2.6307178E-1,-4.9708915E-1,2.3761447E-1,-7.4122906E-2,-4.3125987E-1,-2.42172E-1,-3.2782075E-1,-1.8072592E-1,6.378503E-2,6.3502187E-1,-8.9375365E-1,-1.7033532E-1,7.405076E-1,2.926892E-1,-8.318183E-1,-2.9796562E-1,4.2174842E-2,1.0714363E0,2.2060159E-1,5.162916E-1,6.4365405E-1,1.3854098E0,5.858909E-1,1.2100037E0,2.0762298E0,1.1490964E0,2.2546842E0,7.7786946E-1,9.276766E-1,1.6633358E0],"categories":[],"categories_nodes":[],"categories_segments":[],"categories_sizes":[],"default_left":[0,0,0,0,0,0,0,0,0,0,0,0,0,0,0,0,0,0,0,0,0,0,0,0,0,0,0,0,0,0,0,0,0,0,0,0,0,0,0,0,0,0,0,0,0,0,0,0,0,0,0,0,0,0,0,0,0,0,0,0,0,0,0],"id":26,"left_children":[1,3,5,7,9,11,13,15,17,19,21,23,25,27,29,31,33,35,37,39,41,43,45,47,49,51,53,55,57,59,61,-1,-1,-1,-1,-1,-1,-1,-1,-1,-1,-1,-1,-1,-1,-1,-1,-1,-1,-1,-1,-1,-1,-1,-1,-1,-1,-1,-1,-1,-1,-1,-1],"loss_changes":[1.2721368E6,2.2004428E5,3.4688738E5,1.2189253E5,1.000908E5,1.1650042E5,6.543E4,3.1115312E4,1.487835E4,6.763494E4,7.738302E4,3.051251E4,8.503969E4,5.8710875E4,5.861075E4,1.0699125E4,1.5793156E4,2.6038178E4,1.6069531E3,5.270258E3,2.9831145E4,1.268586E4,3.909414E4,8.745768E3,1.0375458E4,1.4581852E4,3.913811E4,2.9236375E4,2.1351125E4,3.604928E4,3.0155812E4,0E0,0E0,0E0,0E0,0E0,0E0,0E0,0E0,0E0,0E0,0E0,0E0,0E0,0E0,0E0,0E0,0E0,0E0,0E0,0E0,0E0,0E0,0E0,0E0,0E0,0E0,0E0,0E0,0E0,0E0,0E0,0E0],"parents":[2147483647,0,0,1,1,2,2,3,3,4,4,5,5,6,6,7,7,8,8,9,9,10,10,11,11,12,12,13,13,14,14,15,15,16,16,17,17,18,18,19,19,20,20,21,21,22,22,23,23,24,24,25,25,26,26,27,27,28,28,29,29,30,30],"right_children":[2,4,6,8,10,12,14,16,18,20,22,24,26,28,30,32,34,36,38,40,42,44,46,48,50,52,54,56,58,60,62,-1,-1,-1,-1,-1,-1,-1,-1,-1,-1,-1,-1,-1,-1,-1,-1,-1,-1,-1,-1,-1,-1,-1,-1,-1,-1,-1,-1,-1,-1,-1,-1],"split_conditions":[4.9584E1,2.481E1,1.70099E4,1.98485E4,1.12175E1,1.37281E4,2.01463E4,1.41994E4,9.71625E0,1.67108E4,1.08583E4,1.11617E4,3.13E2,1.15509E2,-1.747375E1,9.7615E3,1.384625E1,1.2855E1,4.94E1,1.40697E4,-3.10875E0,7.3465E3,1.273375E1,9.4318E3,3.35E2,4.58E0,1.14786E2,3.1925E2,-4.28375E0,1.672E2,1.14786E2,-9.103053E-1,-4.3423778E-1,-2.6307178E-1,-4.9708915E-1,2.3761447E-1,-7.4122906E-2,-4.3125987E-1,-2.42172E-1,-3.2782075E-1,-1.8072592E-1,6.378503E-2,6.3502187E-1,-8.9375365E-1,-1.7033532E-1,7.405076E-1,2.926892E-1,-8.318183E-1,-2.9796562E-1,4.2174842E-2,1.0714363E0,2.2060159E-1,5.162916E-1,6.4365405E-1,1.3854098E0,5.858909E-1,1.2100037E0,2.0762298E0,1.1490964E0,2.2546842E0,7.7786946E-1,9.276766E-1,1.6633358E0],"split_indices":[1,1,0,0,5,0,0,0,5,0,0,0,2,1,5,0,5,1,2,0,5,0,5,0,2,5,1,2,5,2,1,0,0,0,0,0,0,0,0,0,0,0,0,0,0,0,0,0,0,0,0,0,0,0,0,0,0,0,0,0,0,0,0],"split_type":[0,0,0,0,0,0,0,0,0,0,0,0,0,0,0,0,0,0,0,0,0,0,0,0,0,0,0,0,0,0,0,0,0,0,0,0,0,0,0,0,0,0,0,0,0,0,0,0,0,0,0,0,0,0,0,0,0,0,0,0,0,0,0],"sum_hessian":[3.5017E4,2.7345E4,7.672E3,1.9831E4,7.514E3,4.397E3,3.275E3,1.3958E4,5.873E3,4.716E3,2.798E3,1.605E3,2.792E3,2.13E3,1.145E3,3.699E3,1.0259E4,5.285E3,5.88E2,2.454E3,2.262E3,4.59E2,2.339E3,3.85E2,1.22E3,2.032E3,7.6E2,1.712E3,4.18E2,2.51E2,8.94E2,1.22E2,3.577E3,9.478E3,7.81E2,7.86E2,4.499E3,1.55E2,4.33E2,1.154E3,1.3E3,2.005E3,2.57E2,7.1E1,3.88E2,6.93E2,1.646E3,1.06E2,2.79E2,1.196E3,2.4E1,1.445E3,5.87E2,4.72E2,2.88E2,1.497E3,2.15E2,7.8E1,